0.880294 0.107953 0.366915 0.742359 0.82669 0.179972 0.782118 0.0621486 0.531448 0.0519657 0.387411 0.211362 0.35427 0.248495 0.988982 0.841815 0.386738 0.89739 0.433722 0.571028 0.267972 0.802533 0.16988 0.165209 0.663994 0.74223 0.654356 0.762268 0.435258 0.379631 0.460429 0.426453 0.401466 0.447384 0.776964 0.298543 0.876181 0.52329 0.665034 0.864692 0.3201 0.816515 0.0139077 0.0451607 0.0153693 0.0314527 0.752479 0.989536 0.766117 0.230942 0.281001 0.867519 0.133561 0.755764 0.123983 0.778822 0.656275 0.0186722 0.823703 0.982025 0.355138 0.191309 0.350198 1.02515 0.789971 0.475507 0.47513 0.522479 0.80463 0.0405757 0.364294 0.0871158 0.966172 0.28635 0.150824 0.814407 0.269483 0.710036 0.57446 0.231546 0.0818455 0.244722 0.671168 0.328916 0.0888544 0.376081 0.794689 0.0530744 0.331628 0.758405 0.52126 0.98662 0.73927 0.753393 0.789876 -0.0223799 0.804174 0.976147 0.763827 0.0753924 0.759349 0.903503 0.0518495 0.620117 0.219665 0.766495 0.179737 0.229628 0.477837 0.267976 0.451107 0.934289 0.597203 0.182553 0.166244 0.292782 0.843499 0.502087 1.02157 0.590023 0.537169 0.175588 -0.165388 -0.132751 0.485385 0.070979 0.773841 0.600278 0.450342 0.11288 -0.283851 0.12172 0.839318 0.31173 0.485792 0.0710417 0.509824 0.70126 0.231301 0.0474067 0.0367164 0.0925616 0.682646 0.719861 0.870186 1.00741 0.916855 0.724536 0.111052 -0.184539 0.498802 0.405828 0.453548 0.215988 0.183009 -0.430396 -0.786932 -0.0862629 -0.361865 -0.51462 -0.589498 -0.459334 0.0406869 0.544649 0.635326 0.671798 0.811309 0.935986 0.637713 0.0409025 0.235699 0.289864 0.325995 -0.0745599 0.721466 -0.0822309 -0.249724 0.337954 -0.443248 0.233107 0.171882 -0.277491 -0.785728 -0.398536 -0.691579 -0.954208 -0.857952 -0.670783 -0.79906 -0.583498 -0.125146 -0.217611 0.0186548 0.131397 0.368619 0.106259 0.425422 0.335801 0.977397 -0.0101197 0.0479034 -0.161754 0.231399 0.0604861 -0.610697 -0.0944788 -0.435886 -0.66449 0.0460192 -0.451547 -0.158488 -0.00933607 -0.204164 -0.861749 0.0580636 -0.216599 -0.216817 0.183971 0.197227 -0.108376 0.482836 0.519196 0.0850476 0.480942 0.466984 0.708577 0.818842 0.119446 -0.147793 0.517864 -0.153621 0.36695 -0.366727 -0.642056 -0.670207 -0.769091 -0.247283 0.00405375 -0.53988 0.037016 -0.693716 -1.0801 0.316969 -0.396904 -0.169937 -0.611289 0.161109 -0.0551676 0.125985 0.608816 0.628764 0.91483 0.1575 0.276071 0.842463 0.7418 0.0922583 -0.188963 -0.157571 -0.453993 -0.58365 -0.290634 -0.165196 -0.796877 -0.863858 -0.602835 0.200456 0.0269088 -0.36965 -0.675035 0.233069 -0.621668 -0.2669 -0.136504 -0.16398 0.288853 0.723992 0.922444 0.342053 0.698185 0.363726 0.145311 0.832825 0.432968 -0.0836192 0.0582622 0.654025 -0.320434 0.379769 0.314664 0.297917 -0.104111 -0.617053 0.116372 0.0135065 0.0346639 0.399867 -0.284658 0.144293 -0.528692 -0.192966 -0.408318 0.485277 0.735584 0.361529 0.647079 0.618766 0.427427 0.161616 0.351626 0.686645 0.346665 -0.00278 0.214782 0.358756 0.408095 0.50186 0.101033 -0.312705 -0.109013 -0.91235 -0.96647 0.495707 -0.257563 0.402344 0.387175 -0.422338 -0.501439 -0.410715 0.216157 -0.337427 0.603093 -0.0291586 0.603 0.136889 0.07402 0.961401 0.941436 0.00258582 0.656063 0.601553 0.523089 0.71221 -0.471536 -0.643731 0.284813 0.553779 -0.179565 -0.279062 -0.999117 0.261214 0.301496 0.0254226 0.415347 0.0710937 0.39653 -0.593852 0.386514 0.20504 -0.00156581 0.285379 0.0778301 0.728974 0.640013 0.147904 0.817973 0.627299 0.261829 0.314265 -0.131385 -0.225132 0.470153 0.219075 -0.0455117 0.332135 -0.0921401 0.496567 -0.482361 -0.749291 0.00811693 -0.914147 0.349617 0.229423 -0.39202 -0.317562 0.479551 0.307777 -0.0348312 0.22906 0.347986 0.728559 0.832996 0.274872 0.776387 0.188419 0.408167 -0.347757 0.522356 -0.0296283 -0.0291075 -0.0531892 0.18369 0.42324 0.727957 0.415771 0.487374 -0.758274 -1.21206 -0.399793 -0.431504 0.13977 -0.08366 -0.0943049 -0.147953 0.0126519 -0.00216084 0.139716 0.816221 0.157517 0.630302 0.143361 0.469282 0.386872 0.187418 -0.127763 -0.500683 -0.441431 -0.252746 -0.0809766 -0.568467 0.206578 0.265487 0.341872 -0.435022 -0.482162 -0.589356 0.0681924 -0.461945 -0.402651 0.144141 -0.486787 -0.874115 -0.37966 0.699632 0.0977412 0.0746931 0.751478 0.780349 0.503443 0.363205 0.424688 0.656079 0.512383 0.405133 -0.069177 -0.742678 -0.6376 -0.168919 0.382033 -0.0768521 0.0812029 0.273691 0.0258338 -0.457985 -0.338102 -0.7818 -0.914306 -0.88639 -0.688987 -0.612596 0.0777466 0.359894 -0.111769 0.691841 0.625865 0.529717 0.291338 0.524289 0.414058 0.455511 0.491082 0.612597 -0.211939 -0.384689 0.390741 0.406988 0.31439 0.428701 -0.00455197 0.340361 0.16014 0.384931 0.200189 -0.584815 -0.445025 -1.04258 -0.798501 0.313613 0.550832 -0.0986583 0.59769 0.458431 0.532966 0.912048 0.899976 0.785306 0.451182 -0.0563366 0.877822 0.410415 0.642391 -0.369137 0.14626 -0.0656026 0.647007 0.516032 0.179565 0.388708 0.256507 0.11334 -0.423186 -0.572008 -0.626494 -0.902184 0.0262244 -0.123142 0.612503 0.517001 0.336946 0.256962 0.10201 0.626384 0.81733 0.857892 0.778037 0.250199 0.268214 0.77047 0.0479877 -0.0841775 -0.219818 0.716535 -0.029506 0.580005 0.317069 -0.124588 -0.539703 -0.029972 -0.656548 -0.406074 -0.508655 -0.550808 0.605298 0.447336 0.698132 0.271282 0.0896887 0.298496 0.48367 0.996996 0.309626 0.886909 0.656712 0.60069 0.582856 0.907541 0.327908 0.105386 -0.350544 0.237357 0.466719 0.117912 -0.476569 -0.162275 -0.554278 -0.436897 -0.224938 -0.9404 -0.540352 0.753427 0.38227 0.466056 -0.102049 0.247822 0.569372 0.581501 0.843088 0.0741919 0.935792 0.335138 0.379331 0.17781 0.633385 0.427423 0.512653 0.443119 0.205204 -0.099796 -0.213011 -0.411726 -0.566976 -0.732005 -0.266368 -0.743749 -0.245443 -0.0699191 0.639492 0.271453 -0.0515497 0.417887 0.581424 0.513161 0.848561 0.389716 0.79425 0.0870465 0.986293 0.0896329 0.610432 0.690754 0.692194 0.796841 0.657894 -0.229064 -0.540004 -0.980908 -0.17214 -1.03534 -0.339148 -0.643832 0.119562 0.742177 0.312407 -0.30272 -0.102801 -0.249908 0.166991 0.0858086 0.0239936 0.129611 0.528904 0.0864692 0.630624 0.882272 0.343898 0.893387 0.147025 0.897682 0.337036 -0.170864 -0.140395 -0.389635 -0.648169 -0.968946 -0.312228 -1.10659 -0.416826 -0.115198 0.219342 -0.171207 0.297977 -0.367983 -0.177663 0.393835 0.474469 0.647252 0.833619 0.899682 0.482247 0.0716695 0.566871 0.243532 0.0403946 0.912614 0.304447 0.843531 0.149104 -0.313859 -0.610905 -0.173973 -0.00130668 -0.196654 0.131939 -0.0397574 0.456733 0.896527 0.348347 0.415283 0.0905766 0.0248618 -0.0840024 0.720123 0.318046 0.0782624 0.0537273 0.445232 0.408952 0.556424 0.714142 0.457006 0.90145 0.66487 0.477433 0.584887 0.0972073 0.568347 0.454085 0.840334 0.0945961 0.480979 0.309167 0.816721 0.492579 0.659941 0.78953 0.729946 0.99364 0.96035 0.978402 0.755266 0.60719 0.342047 0.876908 0.449833 0.520205 0.0476819 0.0927485 0.0551245 0.477117 0.904963 0.720884 0.899067 0.584663 0.374136 0.756642 0.989493 0.890172 0.80305 0.691259 0.769559 0.902683 0.0906885 0.566354 0.327655 0.29424 1.0012 0.542623 0.733329 0.583282 0.939704 0.118427 0.585286 0.0997059 0.0267847 0.169903 0.562702 0.336716 0.180939 0.0359063 0.477489 0.153371 0.728594 0.321172 0.219942 0.524174 0.129888 0.399768 0.188382 0.731895 0.763539 0.614614 0.862967 0.278511 0.0971962 0.879299 0.757799 0.526598 0.568653 0.689768 0.957226 0.94919 0.0310089 0.166303 0.0578868 
0.902662 0.0404236 0.40022 0.503917 0.331462 0.881508 0.511814 0.0620984 0.687273 0.991523 0.530543 0.832182 0.481714 0.653738 0.615561 0.45686 0.438515 0.117555 0.749138 0.762888 0.852844 0.750975 0.637539 0.113255 0.477979 0.39277 0.292019 0.958002 0.145595 0.0145578 0.6728 0.754823 0.302156 0.32867 0.173997 0.645374 0.936162 1.00665 0.732809 0.901611 0.379343 0.164465 0.00293556 0.699365 0.70566 0.322165 0.483871 0.464092 0.413819 0.417242 0.970954 0.648062 0.385532 0.638371 0.108384 0.613812 0.34113 0.375224 0.397477 0.400841 0.291534 0.900349 0.866727 -0.00681176 0.559532 0.611106 0.6174 0.948968 0.370301 0.776131 0.540502 0.174665 0.80491 0.485252 0.973454 0.0464626 0.55702 0.906782 0.812742 0.513009 0.211328 0.155494 0.528042 0.808899 0.168095 0.167346 0.581942 0.482777 0.473489 0.411856 0.869939 -0.0166597 0.936448 0.319326 0.499148 1.00642 0.485349 1.15516 0.805369 0.282731 0.148434 0.515506 0.565729 0.331408 0.843829 0.804883 0.753387 0.494777 0.25467 0.286412 0.858002 0.97316 0.899315 0.779692 0.277763 0.0200085 0.490426 0.826372 0.749665 0.464414 0.370547 0.382419 0.641321 -0.0495102 0.679391 0.207285 0.0981141 0.449975 -0.0524715 -0.0136293 -0.101509 -0.0368047 0.786311 -0.142031 -0.170735 0.368679 0.459845 0.921205 0.762293 0.0400994 0.446186 0.0459065 0.552369 0.507137 0.323381 0.443335 0.00738411 0.221741 -0.0666057 0.329369 -0.223061 0.137619 -0.0657391 0.115526 -0.134805 -0.104768 0.245422 -0.556512 0.125465 0.200654 -0.322463 -0.574694 -0.108509 -0.440934 -0.00327789 0.498095 0.497808 0.0700389 0.682137 0.677691 0.645795 0.130852 0.788841 0.640893 0.284825 -0.236683 -0.336567 -0.538076 0.0804137 -0.557392 -0.17561 -0.632588 -0.823642 -0.918387 -0.297301 -0.445593 -0.0685716 -0.399747 -0.288036 -0.613905 -0.136095 0.548809 0.491913 0.795286 0.493926 0.0635816 0.128495 0.424398 0.234039 0.107094 -0.0200386 0.358137 -0.317968 -0.245353 -1.22719 -0.422676 -0.198008 -0.147807 -0.655706 -0.860324 -1.00273 -0.364346 -0.80227 -0.305148 -0.196117 -0.582887 -0.674946 0.154825 -0.0574199 -0.161275 0.537448 0.698432 0.701503 0.153704 0.371668 0.683164 0.142678 0.91451 0.285155 -0.114833 0.432208 0.303588 -0.483937 -0.656709 -0.546971 -0.785651 -0.775087 -0.0575025 -0.562931 -0.282176 -0.551142 -1.02344 0.407781 0.117713 -0.765649 0.0826209 0.306403 0.174915 0.360699 0.4143 0.242212 0.23738 0.113663 0.212193 0.194931 0.709973 0.00157917 0.507046 -0.270447 -0.16118 0.311136 0.205065 0.0327799 -0.997121 -0.755671 -0.199206 -0.124199 0.149463 -0.508987 -0.68361 -0.318755 -0.194362 -0.200803 -0.872293 -0.117755 0.429497 0.17176 0.211475 0.565662 0.64912 0.586413 0.843551 0.435589 0.633048 -0.015598 0.117551 -0.147776 -0.403066 0.203957 -0.622987 -0.00212883 -0.286354 -1.30176 -0.0017337 0.414372 -0.258423 -0.611726 -0.409159 0.10793 -0.113635 -0.262922 -0.525807 -0.421409 0.73929 0.0751826 0.0863648 0.184058 0.177036 0.323194 0.949282 0.206071 0.781202 0.125007 -0.344529 0.409633 -0.0847743 -0.359206 -0.479295 -1.04523 -0.707267 -0.471325 -0.124655 -0.373102 -0.22405 -0.296766 -0.204223 -0.169276 -0.0806071 -0.75543 0.00892423 0.0454893 -0.0627131 0.769658 0.805189 0.909967 0.785848 0.912386 0.418677 0.468973 0.0634329 0.444803 -0.0672663 -0.175009 -0.469369 -0.641689 -1.19631 -0.600647 -0.647187 -0.943312 -0.922764 -0.528241 0.0128291 -0.254705 -0.553898 -0.102673 -0.460139 -0.202672 -0.761717 0.0444076 -0.0533575 0.428729 -0.00688064 0.592024 0.70887 0.324128 0.626452 0.162039 0.7636 -0.0425842 -0.0763564 0.368273 -0.619337 -0.356992 -0.36575 0.0844496 0.09334 0.108528 -0.477621 -0.429282 -0.921959 -0.878987 0.0631759 -0.713447 -0.169638 -0.807649 0.074426 0.400052 0.0901304 0.50988 0.358651 0.774906 0.937159 0.402091 0.935818 0.468253 0.394115 0.0691172 -0.57073 -0.120613 -0.376991 -0.47654 -0.0464614 0.441704 0.192838 0.770795 0.28922 -0.162126 -0.86365 -0.961317 -1.09674 -0.451565 -0.410976 -0.684701 0.112403 -0.119111 0.546503 0.131099 0.083757 0.939899 0.744046 0.827435 0.690229 0.64197 0.698324 -0.0821363 -0.252222 0.252854 0.0662062 -0.384838 0.0886621 0.57573 -0.0638318 -0.307937 -0.499312 -0.0145547 -0.404087 -0.906801 -0.672563 -0.207096 -0.259013 -0.684852 0.316313 -0.62907 -0.377875 0.600475 0.819799 0.0779739 0.487447 0.75933 0.0589826 0.641662 0.340086 -0.103957 0.535582 0.0525875 -0.659703 -0.258658 0.422916 0.745189 0.709554 -0.092444 0.11536 0.0047745 0.0414065 -0.460429 -1.10625 -0.511335 -0.825003 -0.342951 0.0365008 0.325001 -0.308511 0.695154 0.807408 0.824922 0.346942 0.588654 0.505905 0.0365388 0.178761 0.799828 0.50141 0.299372 -0.263847 -0.0980468 -0.229968 0.273255 -0.386887 0.0477264 0.358802 -0.517749 -0.202717 0.205416 -0.41255 -0.630791 -0.352322 -0.453914 0.569129 -0.142852 0.0838405 0.0930219 1.06575 0.064635 0.197429 0.72556 0.083572 0.520689 0.28953 0.454845 -0.0568981 -0.179929 -0.0242086 0.409789 0.340302 -0.21674 -0.0969863 0.27716 0.428275 -0.177532 -0.338474 -0.850383 -0.322824 -0.939103 -0.447713 0.535777 -0.173125 0.806866 0.587083 0.4684 0.607383 0.905848 0.110992 0.123298 0.280196 0.790386 0.362843 0.978933 -0.109191 0.123978 0.372624 -0.395953 0.0911674 0.205517 -0.0862418 0.550198 0.141437 -0.164106 -0.156162 -0.408164 -1.13387 -0.406747 0.252825 0.854545 -0.138948 0.265546 0.0843418 0.937431 0.689306 0.549199 0.430697 0.10632 0.922688 0.551545 0.253542 0.139764 0.333735 0.472748 -0.541142 -0.19122 0.486796 0.509643 0.567261 -0.14466 0.0895628 -0.4667 -0.524297 -0.475044 -0.149012 -0.0537303 0.390581 0.0605619 0.184462 0.157575 0.664832 0.855856 0.452988 0.108451 0.808206 0.525044 0.00385168 0.998067 0.748098 0.342984 0.483873 0.0442515 0.326478 -0.065731 -0.101874 -0.0858011 -0.497638 -0.54132 -0.583364 -0.240797 -0.0626382 0.208154 0.0716826 0.434241 0.199633 0.165018 -0.391184 0.507063 0.600308 0.36374 0.783898 0.916151 0.620172 0.21607 0.0739961 0.852704 0.689391 0.322972 0.617144 0.567511 0.399033 -0.389638 -0.465596 -0.694046 -0.272217 -0.410467 -0.193744 -0.0146292 0.150088 0.457607 -0.19292 0.0473971 -0.0740424 0.464407 -0.224289 0.414537 0.607604 0.790396 0.624559 0.822622 0.106529 0.563587 0.206371 0.489194 0.0800811 0.37136 0.0351513 0.105353 -0.241848 -0.180175 0.263036 -0.3538 -0.0331623 0.36439 0.437527 0.608763 0.53084 -0.44054 0.217208 -0.367083 0.347875 0.0171149 0.0294273 0.540657 0.684537 0.25942 0.802378 0.676883 0.216744 0.812874 0.968716 0.205019 0.0790592 -0.107625 -0.761774 -0.111572 -0.697443 -0.285603 0.487981 0.257023 -0.174641 0.404979 0.240769 0.191445 -0.00320036 0.289096 0.380927 -0.076731 0.458372 0.731178 0.189474 0.504188 -0.0225927 0.263155 0.368203 0.727065 0.274597 0.147881 0.441827 0.792391 0.242384 0.502204 0.563511 -0.00581074 0.415838 -0.00528057 0.624303 0.407242 -0.0329998 0.0731622 0.234659 -0.0562686 0.651326 0.707533 0.292954 0.301001 0.265033 -0.0193044 0.640928 0.108524 0.63012 0.382233 0.0769096 0.713931 0.836345 0.444125 0.401379 0.985245 0.00968452 0.84539 0.29082 0.466807 0.925339 0.0476921 0.499632 0.32598 0.590229 0.530664 0.101475 0.786408 -0.0378061 0.35089 0.698553 0.784382 0.129874 0.514954 0.724883 0.455348 0.939289 0.751367 0.440767 0.966354 0.516403 0.192947 0.868484 0.609902 0.619132 0.746993 0.65953 0.250391 0.157737 0.412622 0.424968 0.12785 0.512939 0.494134 0.767843 0.700437 0.0614 0.100212 0.0550806 0.63351 0.472313 0.872495 0.98228 0.843129 0.728691 0.541008 0.718248 0.594156 0.973852 
0.528329 0.622187 0.0916428 0.240944 0.540973 0.125385 0.343628 0.359485 0.863535 0.438418 0.49536 0.517176 0.181194 0.0646032 0.487372 0.310111 0.0345184 0.15152 0.588843 0.691398 0.331895 0.155907 0.334373 0.807735 0.601342 0.753982 0.182337 0.532749 0.906546 0.321618 0.425613 0.28333 0.93211 0.970737 0.598298 0.916708 0.886859 0.990233 0.902201 0.629853 0.536245 0.334468 0.996688 0.839175 0.708601 0.284842 0.750967 0.654598 0.33087 0.504592 0.887103 0.253313 0.411255 0.967377 0.707689 0.125316 0.185138 0.609933 0.141323 0.211558 0.157817 0.302928 0.450981 0.802736 0.31395 0.280364 0.505145 0.0853232 0.881545 0.317317 0.542447 0.544636 -0.1098 -0.0470655 0.867073 0.64674 0.341856 0.744567 0.267018 0.399513 0.415843 0.175547 0.92112 0.270227 0.703628 0.872645 0.549689 0.384675 0.555801 0.713531 0.740696 0.771796 0.227194 0.786302 0.285129 0.259725 -0.133548 0.429786 -0.0807459 0.37257 0.172612 0.629368 0.165622 0.303884 0.282838 0.882932 0.622936 0.904114 0.852072 0.379773 0.318116 0.240745 0.199567 0.119039 0.694987 0.355146 0.146524 0.525278 0.0988932 0.460654 -0.27758 0.067598 -0.0490718 0.1672 -0.416869 0.499178 0.245038 0.17804 0.187062 -0.111419 -0.218926 0.223452 0.38368 0.679668 0.394994 0.212384 0.748507 0.293685 0.757355 0.814459 0.334697 0.255929 0.395019 0.543148 0.63899 0.298184 0.422085 0.27835 0.126419 0.491865 -0.125311 -0.137596 0.0126149 -0.231083 0.38005 -0.187193 0.0145318 0.327449 -0.327153 0.535045 -0.101034 0.106163 0.491527 0.346135 0.407909 0.349609 0.838022 0.2938 0.453271 0.132231 0.321057 0.30299 0.830245 0.111474 0.427216 -0.124827 -0.11273 -0.114496 -0.572947 -0.845661 -0.264842 -0.382324 -0.2098 -1.14081 -0.844529 -0.52111 -0.780034 0.0383354 -0.151827 -0.453395 0.24964 0.890034 0.940507 0.19248 0.978008 0.900558 0.38484 0.195078 0.565139 0.864057 0.579281 -0.180058 0.144832 -0.142629 -0.331531 -0.723505 -1.07804 -0.468498 -0.455412 -0.570129 -0.808758 -0.528033 -1.05232 -1.14099 -0.782463 -0.80687 -0.559995 0.511504 0.480696 0.482491 0.286455 -0.0492729 0.0677173 0.794175 0.0180106 0.317975 0.732061 0.371167 0.154679 0.460127 0.122162 0.116258 -0.789714 -0.397266 -0.185697 -0.944823 -0.520264 -0.386641 -0.952773 -1.43972 -1.32707 -0.888001 -0.559202 -0.123656 -0.532243 0.480371 0.000439301 0.449069 0.947115 0.324687 0.747912 0.797224 0.524391 0.234 0.447929 0.147769 -0.135087 -0.206195 0.258912 -0.0361779 -0.701207 0.151892 -0.195342 -0.729867 -0.412951 -0.943199 -0.606525 -1.02728 -0.807135 -1.39339 -1.18774 -0.299166 -0.69101 -0.0797188 -0.230575 0.00849749 0.887691 0.911249 0.688453 0.579135 0.0147824 0.457469 0.86067 -0.174813 -0.324992 -0.0106251 -0.0414124 0.0777313 0.492961 0.374889 -0.506424 -0.5212 -0.134773 0.250699 -0.183724 -1.00072 -0.538969 -0.425354 -0.365631 -0.292264 -0.648311 -0.192692 -0.195074 -0.0921981 -0.148688 0.885867 0.255606 0.151059 0.0261395 0.410243 0.142234 0.690664 -0.132447 -0.121823 -0.0753725 0.559337 -0.343282 -0.101738 0.346521 0.309961 -0.28211 -0.220539 0.700019 -0.094111 -0.276679 -0.921273 -0.554309 -0.378965 -0.39986 -0.631144 -0.189674 0.227793 -0.125803 0.148597 0.829408 0.579708 0.595574 0.470335 0.380624 0.224977 -0.0860721 0.0998836 0.00702407 0.425533 -0.189669 -0.159969 -0.0933849 0.880754 0.706079 0.327775 0.0179449 -0.190201 -0.217976 -0.129794 -0.512509 0.00627851 -0.411186 0.322924 0.558685 0.441176 0.463273 0.347962 0.399521 0.167973 0.856334 0.401596 0.345193 0.485432 0.515021 0.364908 0.231577 0.251612 0.269819 0.390658 0.320093 0.679281 0.209785 -0.476136 0.0260701 0.453494 0.246552 -0.0160268 -0.41283 -0.147178 -0.715952 0.145745 0.301025 -0.110538 0.0462032 0.231942 -0.148658 0.608426 0.163149 0.0485531 0.7769 0.796753 0.846634 0.186571 0.275047 -0.659971 -0.369925 -0.643954 0.563238 0.394038 0.0917355 -0.207223 -0.444735 -0.490718 -0.237888 -0.523732 -0.473871 -0.138223 -0.174039 0.0115721 -0.0888672 -0.191639 -0.248414 0.364022 -0.0875168 0.105377 0.303876 0.241502 0.676627 0.711639 -0.0113412 -0.038724 -0.22501 -0.535909 -0.666072 0.149989 -0.040424 -0.0503334 0.0281014 0.062581 0.0306385 -0.58414 -0.198348 -0.451987 -0.210729 -0.237489 -0.475983 -0.751878 0.347366 0.196466 0.672114 0.507409 0.220358 0.909087 0.195948 0.293731 0.834038 0.774459 0.441003 0.0515439 -0.636314 -0.691709 -0.396052 0.419098 0.0200318 0.0101051 0.6102 0.174786 -0.479556 -0.329083 -0.428654 -0.170222 -0.471527 -0.830603 -0.106513 -0.450472 0.20884 0.442387 -0.188155 0.199354 0.600433 0.941161 0.0124171 0.69425 0.202869 0.947399 -0.0346986 -0.142114 -0.0424941 -0.406347 -0.0732514 0.621502 0.186511 -0.0862299 0.00416387 -0.474741 -0.0892339 0.336034 0.537749 -0.603571 -0.320413 -0.54033 0.0972269 -0.339612 0.252414 0.727469 -0.321457 0.604452 0.542607 0.200363 0.475432 0.818051 0.447386 0.725571 0.216627 0.483991 -0.373579 -0.137369 -0.121571 -0.215622 -0.179015 0.645943 0.485825 -0.227663 0.536069 0.207903 -0.304764 -0.23215 -0.244032 -0.0947381 -0.212675 0.0985444 -0.218008 0.0246752 0.0045874 0.401632 0.511983 0.539694 0.745025 0.616033 0.799562 0.149869 0.778184 0.183074 -0.0350401 -0.69402 -0.28077 0.392662 -0.0710966 -0.173499 -0.0914005 -0.554183 -0.362621 -0.836327 -0.180797 -1.29366 -0.584278 -0.486345 -0.17678 -0.368921 0.573095 -0.0673257 0.0671993 0.787938 0.404939 0.944469 0.879786 0.566931 0.2337 -0.00450892 0.236893 -0.200312 -0.496677 -0.508663 -0.00681056 0.437452 0.0667168 -0.135847 -0.110163 -0.745295 -0.6289 -0.456458 -0.978305 -0.0223548 -0.769692 -0.396296 0.187036 0.0248102 0.507314 0.22612 0.333334 0.817928 0.526046 0.202063 0.600936 0.225504 0.0695629 0.723055 0.583021 0.320587 0.299858 0.320198 -0.468816 -0.786735 -0.605029 -0.842501 -0.103419 -0.72456 -0.385519 -0.302041 -0.453935 0.268121 0.317233 -0.356504 -0.124357 0.390363 -0.126463 0.339509 0.520408 0.469863 0.3788 0.0851625 0.335107 0.466064 0.921575 0.532184 0.549863 0.0802048 0.447439 -0.129361 -0.336355 -0.438447 -0.809791 -0.489411 -0.209954 -0.0297723 -0.313709 0.322672 0.736301 -0.0716078 0.486821 0.709663 0.181598 -0.119418 -0.215894 0.608565 0.520233 0.761154 0.966608 0.239402 0.648909 0.213955 0.947791 0.0888902 0.00782603 -0.109172 -0.440096 -0.122739 -0.52255 -0.811879 -0.675369 -0.460408 -0.315977 0.813204 0.884222 0.693939 0.48817 0.0200378 -0.186249 0.706123 -0.0274101 -0.209691 0.100812 0.252569 0.663774 0.049528 0.961622 0.987248 0.683847 0.414005 0.178512 0.762437 0.417361 -0.0458079 -0.585283 -0.0476639 -0.200504 -0.0627914 -0.339547 0.721688 0.0633343 0.129118 0.32792 0.241118 0.349313 0.748582 0.611807 0.943881 0.0238689 0.201085 0.512698 0.891107 0.405147 0.27997 0.855443 0.608577 0.347899 0.135556 0.285117 0.168125 0.514836 0.652001 0.064716 0.65594 0.511785 0.367163 0.681262 -0.0402301 -0.000544763 0.183051 -0.0774104 0.594009 0.238381 0.189239 -0.114224 0.0403003 0.0173665 0.696102 0.845711 0.105856 0.629519 0.219022 0.256366 0.133874 0.015131 0.306842 0.0889687 0.296761 0.803925 0.732076 0.240732 0.453096 0.355874 0.393082 0.472735 0.567509 0.0876305 -0.147213 -0.297337 0.190024 0.12454 0.332764 0.455876 0.173837 0.292007 0.495949 0.604236 0.138774 0.911162 0.857927 0.185015 0.546636 0.308083 0.957779 0.38893 0.744711 0.36254 0.232509 0.491834 0.691705 0.674305 0.846956 0.925117 0.453283 0.303048 0.463497 0.0912762 0.463581 0.35826 0.0740492 0.33549 0.168345 0.5795 0.118989 0.721511 0.815597 0.57977 0.198217 0.431921 0.298201 
0.868856 0.85799 0.233842 0.1887 0.488521 0.579258 0.59195 0.903189 0.90565 0.251286 0.365369 0.764597 0.576576 0.902828 0.286581 0.548929 0.843678 0.692105 0.208434 0.144028 0.67762 0.758879 0.482417 0.976113 0.528576 0.77719 0.240292 0.595286 0.97871 0.186193 0.337731 0.252144 0.783991 0.541688 0.077905 -0.00742887 0.290256 0.905249 0.753176 0.988617 0.806417 0.0172861 0.539385 0.287349 0.737241 0.623912 0.592812 0.327556 0.475325 0.0639874 0.616282 0.509492 0.175793 0.548171 0.109823 0.791596 0.346983 0.740133 0.407825 0.309564 0.774835 0.531992 0.697384 0.347957 0.0904409 0.793397 0.966782 0.797848 0.824901 0.154693 0.505294 0.22737 0.550449 0.660272 0.826996 0.810214 0.262224 0.945448 0.203095 0.185547 0.523897 0.714865 0.0685413 0.974037 0.638176 0.819994 0.644383 0.164661 0.267381 0.623145 0.727859 0.61068 0.666901 0.239296 0.713703 -0.105391 0.102257 0.162321 0.464275 0.113334 0.437954 -0.0114934 0.719049 0.876628 0.569411 0.814162 0.195079 0.408929 0.249406 0.545232 0.89289 0.502013 0.330988 0.910273 0.959006 0.484013 0.928616 0.122515 0.241529 0.2185 0.735228 0.20145 0.219786 0.361615 0.33813 0.108491 0.355644 0.351294 0.589657 -0.0499611 0.714205 0.428588 1.0754 0.880366 0.556116 0.488168 0.37313 0.625409 0.456884 0.594126 0.299865 0.823676 0.525728 0.737433 0.542567 0.842876 0.352693 -0.228722 0.192582 0.194269 -0.024343 0.0523229 0.49541 0.394593 -0.113901 -0.180153 -0.0646219 -0.622193 -0.418078 -0.288681 -0.242442 -0.138086 0.0963765 -0.175361 0.901768 0.797198 0.0463773 0.426344 0.0426666 0.0971413 0.0351458 0.410729 -0.00734508 0.0811946 0.557569 -0.0603307 0.511854 0.284143 -0.291682 -0.2686 -0.201153 -1.0524 -0.556997 -0.493287 -0.375387 -0.936101 -0.642662 -0.561368 -0.523288 -0.24724 -0.0888995 0.783669 0.287345 0.993173 0.71311 0.0687116 0.864495 0.0985748 0.671155 -0.0713027 0.302046 0.0369948 0.29939 0.0371798 -0.390555 -0.601198 -0.620396 -0.507256 -0.338953 -0.912964 -0.491554 -0.740305 -0.519925 -0.537037 0.0441987 0.207812 -0.160323 0.476228 0.632874 0.711946 0.401873 0.349618 0.336636 0.530459 0.942311 0.726923 0.803328 0.0833115 0.288555 0.345715 -0.0252098 0.406211 -0.733392 -0.36944 -0.65276 -0.530291 -0.709918 -0.333792 -0.978238 -0.265093 -0.65427 -0.370966 0.6595 0.421752 -0.315453 -0.140818 0.812357 0.876679 0.334191 0.918012 0.726563 0.0675612 0.0627147 0.0675267 0.705015 -0.113072 0.00357783 0.206433 -0.317339 0.249461 -0.24652 -0.407267 0.0378346 -0.0701058 0.0293523 -0.468118 -0.443427 0.0384031 -0.606398 -0.396553 -0.199585 0.00473689 -0.566447 -0.292949 0.719063 0.608574 0.13547 0.338527 0.200994 0.243975 0.99816 0.0868393 0.654709 0.425226 0.270943 -0.0525387 0.507699 -0.176751 -0.0460871 0.843343 0.695757 0.16108 -0.0375168 -0.591227 0.410026 -0.0366998 -0.671126 -0.567436 0.0444765 -0.656846 -0.861087 -0.650186 -0.205935 0.464704 -0.246324 0.371558 0.710587 0.915843 0.94254 0.333203 0.35491 0.0132352 0.272956 0.639195 0.146851 -0.116634 -0.0552074 0.258633 0.187844 -0.70663 -0.675011 -0.799095 -0.336353 0.0728509 -0.109255 0.240869 0.193468 -0.65001 -0.776834 -0.87687 -0.402339 -0.310213 0.22768 0.0576535 0.235695 0.0727524 0.814062 0.420106 0.267314 -0.056633 0.44315 0.668315 0.152012 -0.25044 -0.123564 -0.457838 0.347543 -0.193956 0.00594168 -0.419557 -0.0939764 -0.388106 -0.295176 0.456672 -0.0125417 0.121224 -0.347891 -0.302251 -0.621524 0.469413 0.125064 0.501959 0.191918 0.634736 0.959958 0.00532615 0.0512181 0.47778 -0.0900616 0.425208 0.0839995 0.474486 -0.277986 -0.434631 0.483701 0.326099 0.189034 0.0606362 -0.690204 -0.516318 -0.344191 0.244312 0.364293 0.320828 -0.194196 -0.111715 -0.0391476 0.131827 -0.203834 0.0786079 0.841613 0.0906874 0.740142 0.564869 0.456347 0.328413 0.151389 -0.0331514 0.323896 -0.43868 0.310482 0.356721 -0.0354259 0.552266 0.195448 0.0672775 -0.135757 -0.406766 -0.713351 -0.496738 -0.624531 0.0119977 -0.642017 0.0237802 0.172561 0.215808 0.314592 0.382058 0.545929 0.248034 0.0860213 0.752452 0.229769 0.498307 0.582775 -0.287736 -0.195597 -0.711811 -0.426729 0.0314967 -0.0578827 -0.0341429 0.0397141 0.0816714 0.0113495 -0.740932 -0.216555 -0.319777 -0.78838 -0.0830795 -0.47476 -0.605386 -0.48379 0.533109 0.470423 -0.0300049 0.0189079 0.0979285 0.965299 0.779977 0.475077 0.421766 0.140967 -0.185499 -0.306795 -0.0770525 -0.511557 0.326086 0.540142 -0.101292 0.678803 0.489785 0.421392 0.316616 0.385189 -0.736267 -0.521811 -0.759742 -0.0756935 -0.913056 0.547379 0.234047 0.211157 0.637794 0.812684 0.502636 0.0877581 0.949594 0.871523 0.848104 0.000896163 0.300628 -0.031258 -0.273897 0.100185 0.283663 -0.0636662 0.578552 0.280399 0.492027 0.332031 0.445709 0.677429 -0.513876 -0.447335 -0.73254 -0.124432 0.237399 -0.220651 0.438734 0.157949 0.143406 0.0969973 0.34626 0.497033 0.176576 0.22435 0.682371 1.01204 0.186323 -0.240839 0.287788 -0.471424 0.701184 0.031415 -0.162667 0.0507529 0.363933 0.370649 -0.152804 -0.427268 -0.811774 -1.08083 -0.958371 0.232232 -0.432551 -0.443777 0.615718 0.675855 0.271048 0.0455388 0.245703 0.455354 0.133173 0.319064 0.688177 0.205093 0.424341 -0.215625 -0.601608 -0.101483 0.0982429 -0.506122 0.520192 0.125072 0.371628 0.196714 -0.523054 -0.326962 -1.1384 -0.992858 -0.559988 0.0920919 0.372989 -0.168198 0.710247 0.611335 0.535744 0.125677 0.874189 0.398541 0.278285 0.539556 0.693774 0.0121004 0.354969 0.244472 -0.317922 -0.342274 0.0396834 0.310287 -0.438894 -0.887709 -0.305377 -1.04049 -0.444309 -0.795262 -0.522229 0.0096497 -0.202248 0.205176 0.408906 0.372677 0.643003 0.261845 0.576879 0.486781 0.69411 0.900802 0.954114 0.981802 0.228337 0.801444 0.388161 0.608086 -0.280965 -0.506136 -0.0677079 -0.758388 -0.908596 -1.03287 -0.545695 -0.995869 -0.594685 -0.434677 0.148598 0.0465447 -0.211607 0.0235646 0.145074 0.689155 0.459421 0.802753 0.1763 0.941631 0.98693 0.337065 0.217124 0.258866 0.844338 -0.0251005 0.265433 0.183552 -0.0598313 -0.477619 -1.0798 -0.956923 -1.05847 -0.739227 -0.268344 0.271833 0.553756 0.140046 0.269936 -0.399332 -0.379513 0.620718 0.0598067 0.0184471 0.906994 0.197204 0.23736 0.835783 0.175427 0.403282 0.952387 0.746921 0.22781 0.198962 -0.498005 -0.744542 -0.306437 -0.392298 -0.488352 -0.229218 -0.761936 0.24302 0.580881 0.407742 0.53727 0.889131 0.0441406 0.478979 0.252568 0.916904 0.902492 0.533469 0.24355 0.322476 0.0192405 0.764016 0.743737 0.988509 0.870932 0.748899 0.307232 -0.172855 -0.124979 -0.971573 -0.525297 -0.590778 0.112076 0.150978 0.193091 0.259684 0.560724 0.971177 0.647468 0.442021 0.227998 0.108808 0.152039 0.454229 0.427493 0.787768 0.459836 0.666271 0.494604 0.783914 0.784699 0.442093 0.262804 0.942503 0.14397 0.699974 0.7483 0.745055 0.433433 0.00291119 0.425118 0.338529 0.746169 0.311185 0.114579 0.431108 0.626994 0.225446 0.186466 0.415812 0.382586 0.116463 0.341724 0.928641 0.361557 0.35312 0.541237 0.799938 0.214708 0.602914 0.169896 0.444078 0.618512 0.474193 0.289462 0.327028 0.360505 0.642496 0.699755 0.0517176 0.403213 0.41753 0.553385 0.150889 0.592526 0.2863 0.809853 0.131575 0.539639 0.665429 0.699745 0.866161 0.0982727 0.448447 0.0651875 0.606193 0.289708 0.11916 0.716592 0.755635 0.956822 0.307594 0.764522 0.503201 0.910847 0.0816954 0.455139 0.145805 0.767925 0.820572 0.0668389 0.441485 0.945956 0.273389 -0.0143612 0.380562 0.725658 0.419939 0.212198 0.272653 0.16367 0.989627 0.657177 0.166164 0.715001 
0.013479 0.542382 0.814028 0.36926 0.147361 0.699288 0.927902 0.24864 0.89133 0.57661 0.0842332 0.7081 0.0437258 0.485122 0.624864 0.519532 0.924887 0.575176 0.990599 0.996546 0.947217 0.881123 0.02935 0.285246 0.132978 0.967003 0.419303 0.222534 0.131623 0.191384 0.592036 0.351545 0.420261 0.327294 0.603344 0.183114 0.377451 0.0256541 0.669513 0.817137 0.0223047 0.948823 0.904326 0.433278 0.680572 0.438368 0.326921 0.546705 0.161054 0.056452 0.125898 0.966845 0.823633 0.792696 0.845882 0.743068 0.7505 0.656333 0.981511 0.260078 0.32659 0.798614 0.933194 0.811725 0.613038 0.0755544 0.89619 -0.00982396 0.739262 0.921179 0.555539 0.575051 0.187429 0.29224 0.378021 0.157837 0.482498 0.492623 0.888686 0.768126 0.0785426 0.0305205 0.925988 0.084031 0.309601 0.469191 0.696903 0.769035 0.272843 0.804392 0.118727 0.841469 0.34691 0.668099 0.044656 0.143097 0.273077 0.475872 0.796283 0.821492 0.164283 0.186935 0.864304 0.184871 0.503018 0.304058 0.883515 0.678389 0.235831 0.41011 0.468161 0.861517 0.508368 0.145534 0.983409 0.332282 0.622376 0.830962 0.400711 0.803535 0.373188 0.562376 0.703483 0.297654 0.234135 -0.257974 0.496737 0.454129 -0.115026 0.361731 0.136781 0.264309 0.494148 0.338149 0.36957 0.0806616 0.339281 0.908468 0.916437 0.307543 0.170718 0.250146 0.196284 0.257001 0.743978 0.748834 0.206983 0.427934 0.466451 0.289372 0.373231 -0.0891414 0.168538 0.0709992 0.0366682 -0.481909 0.0615085 0.248274 -0.354379 -0.354095 -0.157707 -0.032309 -0.725232 0.372138 0.902143 0.0611482 0.361568 0.325492 0.19244 0.341101 0.718364 0.199277 0.316711 0.352486 0.366081 0.508413 0.044987 -0.361695 0.17848 -0.501578 0.185138 -0.803343 -0.391339 -0.585134 -0.653628 -0.606074 -0.219782 -0.471277 -0.529693 0.002282 -0.0906053 0.164066 1.00636 0.939617 0.736911 0.604015 0.736671 0.370367 0.454489 0.150234 0.766403 0.559091 0.254938 -0.156255 -0.940839 -0.924948 -0.350619 -0.0478702 -0.5785 -0.822154 -1.07211 -0.430202 -0.680216 -0.327961 -0.343885 -0.540065 -0.634129 -0.625021 0.457594 0.514313 0.38255 0.279661 0.367168 0.468941 0.323035 0.601005 0.290208 0.648775 0.597547 0.144344 0.497227 0.423933 -0.455927 -0.627196 -0.142491 -1.00335 -0.675938 -0.206278 -0.954949 -0.634192 -1.07735 -0.632059 0.544145 0.233691 -0.619625 -0.526441 0.561054 0.396821 -0.0469734 0.335719 0.0784117 0.121806 0.565663 0.842005 0.259064 0.614911 0.350143 0.773039 -0.0564593 -0.022094 0.0358978 0.149156 0.210544 -1.08332 -0.32738 -0.611238 -0.23604 -0.0900787 0.0442853 -0.17379 -0.104998 0.525909 -0.424639 0.0845547 -0.141663 0.324696 0.796424 0.595689 0.929198 0.93028 0.98339 0.834657 0.910993 -0.00484526 0.461368 0.202907 0.448704 0.490008 0.0608114 -0.0548091 0.252913 -0.910359 -0.527177 0.144997 0.285794 -0.305463 -0.0118575 0.556732 -0.175702 0.522088 -0.686652 0.205198 0.523983 0.701496 -0.040636 0.569732 0.490712 0.137507 0.637132 0.293567 0.975134 -0.0335746 0.021899 0.498645 0.175741 0.495723 -0.0411084 0.149697 0.0577029 0.0558686 -0.537524 -0.737801 0.424771 0.788557 0.235115 0.122221 -0.18245 -0.334336 -0.323384 -0.286857 0.228147 0.1334 0.655713 0.523338 0.55555 0.173539 0.194763 0.185238 0.792754 0.0359144 -0.332625 0.263955 0.253652 0.486018 -0.101462 0.161464 -0.441006 0.413446 -0.222325 -0.421084 -0.267781 -0.0519527 0.15166 0.208215 0.360985 0.333195 -0.627318 0.213265 -0.180648 0.0145449 0.781254 0.17079 0.724237 0.330187 0.266662 0.794978 0.948915 0.176697 0.435061 -0.260752 -0.268267 0.0570472 -0.470809 -0.370835 0.344984 0.00253824 -0.041574 -0.882972 -0.643445 0.213864 0.345615 0.534856 -0.23327 0.117759 -0.0397789 0.126764 -0.180251 0.536968 0.00228063 0.398444 0.322385 0.358932 0.966396 0.209599 0.803853 0.409333 -0.0762558 0.497452 -0.328768 -0.349921 -0.147525 0.006391 -0.230826 0.511695 0.00833651 -0.231323 -0.155725 -0.677101 -0.246916 0.405129 0.565701 0.416808 -0.531448 0.274306 -0.0960497 0.361274 0.745417 0.636503 0.941656 0.445716 0.282598 0.620559 0.929324 0.515626 0.3246 -0.165736 -0.204065 -0.662136 -0.133882 -0.169998 0.321846 -0.0307079 0.404235 0.0690333 0.0589197 -0.135884 -0.344409 -0.689964 -0.0786006 -0.208367 0.127283 -0.253388 -0.148817 0.417642 0.123929 0.94426 0.192128 0.402707 0.37197 0.705332 0.631458 0.630032 0.0317364 0.338134 -0.293094 0.232029 0.0664012 -0.50856 0.0980974 -0.0859247 0.00508016 0.322523 0.28372 -0.180246 -0.245298 -0.572997 -0.411068 -0.535925 -0.226818 0.455227 0.164961 0.0237051 0.272832 0.670945 0.574 0.33852 0.562173 0.436343 0.911313 0.289095 0.796046 0.0534717 -0.0361136 -0.300873 -0.385781 0.235229 0.1377 0.161866 -0.34383 -0.201556 0.482038 -0.18838 0.69639 -0.486569 -0.709191 -1.05408 -0.128725 0.239104 0.325127 0.0221336 0.772296 0.873193 0.611605 0.940843 0.989192 0.530056 0.773354 0.253646 0.379312 0.660306 0.0570216 -0.427207 0.248957 -0.366193 0.076903 0.472587 0.452412 -0.0594823 0.54982 -0.0554334 0.0932394 -1.23388 -1.19607 -0.284035 -0.122385 0.601905 0.0639791 -0.00451897 0.402143 0.855239 0.11217 0.330524 0.806053 0.333167 0.227333 0.938016 0.829597 0.509766 0.0867978 -0.517772 -0.512205 0.323444 -0.186288 -0.326549 0.235765 0.240911 -0.460667 -0.613219 -0.261409 -1.35525 -0.588234 -0.110117 0.481293 -0.2181 0.719261 0.266819 0.315773 0.782101 0.753513 0.0575109 0.164646 0.206253 0.639522 0.885019 0.0759064 0.803758 0.514976 -0.204135 -0.624361 -0.184993 0.472857 0.175767 -0.552191 -1.02926 -0.39171 -0.324915 -0.469636 -0.522729 0.293422 0.296079 0.13976 -0.02686 -0.0677908 0.513878 0.0870493 0.647279 0.0914781 0.119962 0.188719 0.878763 0.582469 0.102204 0.0260505 0.8326 0.252069 -0.272374 0.145998 -0.726256 -0.803074 -1.04836 -0.602664 -1.1313 -0.718038 -0.93245 -0.386049 0.699355 0.354396 -0.10769 0.598524 -0.285264 -0.208786 0.891861 0.86979 0.208958 0.96445 0.0750433 0.267275 0.17592 0.712337 0.329108 0.283847 0.283773 0.591634 -0.134732 -1.11726 -0.656265 -0.590278 -0.619369 -0.698057 -1.00819 -0.164453 0.178319 0.535793 0.450597 0.0452274 0.0651911 0.145949 0.389528 0.704518 0.627284 0.429965 0.727652 0.694568 0.796751 0.0246015 0.477614 0.266503 0.458477 0.191358 0.21192 -0.4048 -0.498698 -0.963693 -0.531443 -0.422002 -0.677976 -0.197584 0.612016 -0.123584 -0.127375 0.528359 0.341162 0.207133 0.230411 0.141953 0.508406 0.176049 0.26596 0.466825 0.92163 0.0374109 0.8715 0.299253 0.541572 0.206283 0.853516 0.185486 -0.133022 -0.713016 0.164618 -0.0413295 0.0453394 -0.0151262 0.0706943 0.382371 0.588639 0.127787 0.969466 0.153352 0.539427 0.703115 0.522808 0.453158 0.340109 0.601457 0.045712 0.680412 0.139235 0.123198 0.0681472 0.350134 0.710416 0.966245 0.892598 0.877382 0.607965 0.0921574 0.801864 0.320192 0.802814 0.710547 0.298715 0.812289 0.0444958 0.814824 0.301504 0.402601 0.150532 0.451148 0.174558 0.461917 0.517483 0.199226 0.681005 0.121278 0.386978 0.409675 0.000329288 0.534347 0.763045 0.503142 0.312914 0.555705 0.012298 0.163191 0.054546 0.297949 0.622674 0.00603174 0.547717 0.556412 0.295711 0.860146 0.652017 0.162178 0.632933 0.904742 0.814523 0.379526 0.121151 0.532047 0.781426 0.300887 0.942711 0.144815 0.908919 0.201203 0.618146 0.182393 0.483981 0.272391 0.103681 0.677272 0.863878 0.654248 0.861567 0.162527 0.944069 0.309601 0.584249 0.77689 0.784762 0.487289 0.148283 0.767213 0.665822 0.385051 0.392946 0.902222 0.720806 0.0508061 0.897959 0.996732 0.068209 
0.388741 0.56413 0.326205 0.519146 0.292368 0.824312 0.215462 0.273046 0.0897345 0.166995 0.692982 0.950018 0.959578 0.995006 0.515715 0.662694 0.901338 0.779741 0.101725 0.685102 0.50553 0.438327 0.956876 0.213396 0.553519 0.997067 0.702146 0.97014 0.144997 0.962072 0.539273 0.565993 0.644008 0.843719 0.657405 0.726937 0.291991 0.885961 0.657491 0.255144 0.216282 0.681051 0.287882 0.562381 0.661819 0.553169 0.643073 0.83161 0.700564 0.557076 0.989834 0.665544 0.395117 0.72986 0.763159 0.413457 0.977033 0.993309 0.55273 0.733721 0.165716 0.321784 0.74876 0.505542 1.02805 0.554974 0.183322 0.808332 0.408105 0.617669 0.685521 0.738879 0.872425 0.199968 0.462038 0.439861 0.101094 0.856411 0.406363 0.484946 0.373633 0.63535 0.735897 0.217409 0.992607 0.752944 0.73644 0.0444993 0.352117 0.705018 0.622721 -0.00384256 0.841777 0.645058 -0.0284342 0.817346 0.629883 0.54528 0.501458 -0.0980352 0.205494 0.047662 0.751189 0.783387 0.110246 0.498719 0.0360736 0.672087 0.270585 0.295097 0.809293 0.894672 0.749162 0.170274 0.78878 0.274438 0.756429 0.26599 0.928622 -0.0372168 0.016945 0.147474 0.447429 0.238783 0.562317 0.661957 0.527498 -0.184447 0.227705 0.45053 0.162675 0.59415 0.00753694 0.306833 0.957436 0.1906 0.0257702 0.23394 0.947114 0.377464 0.930236 0.477032 0.482171 0.334637 0.654951 0.109064 -0.0869688 0.539694 0.37956 0.0741414 0.506274 0.468867 -0.0767571 0.0621752 0.559203 -0.105462 -0.573898 -0.448544 -1.05504 -0.641702 -0.626617 -0.870122 -0.0558541 -0.293459 0.966736 0.0989911 0.501689 0.261466 0.173247 0.754545 0.240634 0.881302 0.215617 0.275116 -0.134949 0.317882 -0.171356 0.235928 -0.343744 0.100616 -0.132623 -0.5466 -1.05405 -0.476922 -0.465831 -0.25632 -0.312934 -0.823711 -0.873161 -0.302553 -0.297069 -0.112194 0.128203 0.601336 0.774836 0.579122 0.918061 0.388829 0.558644 0.546124 0.425431 0.0143424 -0.259324 0.338075 0.0913086 -0.419935 -0.429227 -0.681579 -0.612185 -1.10495 -0.576216 -0.429682 -0.691416 -0.386148 -0.515057 0.122872 -0.514971 0.204437 -0.168891 0.750827 0.636838 0.159492 0.652969 0.996059 0.352746 0.167501 0.527813 0.289803 0.391554 0.690064 0.611772 0.488292 0.235537 -0.414956 -0.209883 -0.749856 -0.40345 -0.68729 -0.5273 -0.0598358 -0.923262 -0.645865 -0.121341 -0.269671 0.0279394 -0.402719 0.363983 0.0529052 0.354643 0.429603 0.454544 0.90692 0.625917 0.47574 0.0383137 0.250175 0.0392056 -0.20478 0.403372 0.399993 -0.219083 -0.716743 -0.163514 -0.282519 -0.686736 -0.691312 0.364767 0.413887 0.096611 -1.05617 -0.216206 -0.363973 -0.688951 -0.444061 0.188608 -0.0390301 0.609728 0.155639 0.710946 0.347467 0.565486 0.129748 0.729589 0.767771 -0.272883 0.481201 0.320913 0.458865 0.023675 -0.08745 0.339176 -0.074936 -0.942745 0.112735 0.385966 0.0514531 -0.089077 0.268892 0.185501 0.322954 -0.817193 -0.196527 0.274049 0.688485 0.434392 0.0911515 0.921957 0.726084 0.581944 0.755047 0.208351 -0.0567963 -0.127112 0.299821 0.421589 0.172701 0.405684 -0.254068 -0.392115 -0.545464 -0.28574 -0.121833 0.344999 -0.648234 0.132542 0.0458194 0.0190058 -0.0030843 -0.000646222 -0.375562 0.251662 0.486775 0.0854741 0.260024 0.730126 0.434601 0.488848 0.467107 0.00337899 0.204022 -0.0372166 0.537661 -0.230714 -0.0871758 -0.163965 -0.123392 0.132466 0.0104866 -0.318152 -0.26343 -0.580996 0.130415 0.198136 -0.0465563 -0.259255 0.044013 -0.327401 0.451644 0.300378 0.911957 0.650397 0.240641 -0.0254411 0.509398 0.169217 0.0227777 0.916529 0.0266021 -0.132629 0.211049 0.386466 0.487957 0.19127 -0.423888 0.0387427 0.160657 -0.150641 -0.403326 -0.487245 -0.658527 0.23008 0.257243 0.0849733 0.506097 -0.0142485 -0.338734 0.434138 0.167739 0.384654 0.620237 0.652018 0.534194 0.887745 0.334015 0.978701 0.118999 0.283926 0.356817 0.101129 -0.37643 0.225311 0.0762404 0.279595 0.0255692 0.319511 0.39689 -0.36364 -0.562458 -0.634563 0.0107109 0.242231 0.400315 -0.571233 -0.585724 0.341661 0.194195 0.886704 0.617181 0.519835 0.0547907 0.757064 0.968344 0.126776 0.825442 -0.145308 -0.397545 -0.15458 0.299209 -0.0931803 0.171621 -0.1317 -0.304728 0.352978 -0.364326 0.27941 -0.295023 -0.343331 0.0650744 -0.448829 -0.42957 0.116342 -0.821882 0.428912 0.57846 0.496346 0.686646 0.123372 0.839024 0.274419 0.163564 0.601813 0.208011 0.0731834 0.400361 0.0441123 0.101921 0.189423 0.299115 0.0153626 -0.0408621 0.165644 -0.291477 0.0934093 0.289768 0.187409 -0.033905 -0.651196 -0.903461 -0.387211 -0.657889 -0.411059 -0.139188 0.254008 0.479504 0.232997 0.354364 0.000616489 0.361122 0.872136 0.851295 0.806258 0.343825 -0.444488 -0.313943 0.414203 0.148113 0.589324 0.0463671 0.0179373 -0.361042 -0.289068 0.845822 0.0957708 -0.229395 -0.581053 -0.384331 -0.352871 0.134631 0.0403488 -0.0434879 0.77033 0.336149 -0.0395895 0.317596 0.314052 0.548508 0.223226 0.693766 0.869799 0.323283 -0.205467 0.119759 -0.276377 -0.0446267 0.599513 0.0372124 0.467087 0.481287 0.015684 -0.256808 0.177164 -0.873543 -0.612646 -0.841638 0.6093 0.427184 -0.25366 0.194872 -0.0603531 0.55978 0.155312 0.903982 0.88263 0.360366 0.153913 0.521102 -0.0162627 0.0476602 0.479848 0.136678 -0.0531501 0.136017 0.354593 0.371012 -0.182728 -0.46842 -0.276307 -0.741071 -0.359873 -0.894789 -0.495261 -0.267931 0.483262 -0.130135 -0.322265 0.426926 0.652238 0.289169 0.216114 0.248719 0.973248 0.377517 0.527335 0.554612 0.813395 0.134823 0.428405 0.0442749 -0.22294 -0.479752 -0.346561 -0.419658 -0.0550744 -0.252223 -0.118671 -0.803374 -0.0447297 -0.306192 0.114588 0.00477788 -0.466129 0.232958 0.137414 0.612396 0.761265 0.111567 0.8274 0.110111 0.640515 0.556616 0.350486 0.949311 0.161248 0.167416 0.474267 0.000163692 -0.00526953 -0.677062 -0.771318 -0.836233 -0.190457 -0.482723 -0.890574 -0.531902 0.469261 -0.223366 0.138499 0.384302 -0.0351113 -0.0420797 -0.297778 -0.148802 0.488931 0.124619 0.941656 0.370418 0.61554 0.788815 0.744497 0.863965 0.833252 0.589924 0.0670058 -0.726002 -0.772938 -1.09934 -0.709561 -1.11759 -0.190845 -0.71321 0.0746091 0.554716 0.206898 -0.310176 0.247313 -0.290269 -0.107041 0.20642 -0.296099 -0.130871 0.0338993 0.871983 0.544715 0.925129 0.644419 0.748166 0.424595 0.488224 0.69369 0.110586 -0.0703997 -0.790152 -0.666608 -0.656584 -1.01913 -0.822768 -0.357821 -0.127289 0.107496 0.56976 0.513106 -0.203539 -0.0240302 0.00583245 0.475968 0.0715944 0.178426 0.118678 0.951825 0.270468 0.644611 0.252224 0.128123 0.367571 0.763984 0.405787 0.456076 0.0684602 -0.374542 0.178897 0.260071 0.402801 0.222509 0.830505 0.111861 0.190882 0.279248 0.176157 0.350192 0.0531809 0.722404 0.148372 0.801448 0.534884 0.170981 0.644119 0.424609 0.593518 0.824873 0.967821 0.168371 0.810308 0.848799 0.31216 0.831 0.550941 0.64355 0.111404 0.796923 0.22588 0.350623 1.04507 0.0428426 0.75672 0.394085 0.144181 0.634066 0.230439 0.648408 0.335881 0.805357 0.595286 0.811802 0.513037 0.971042 0.419417 0.247904 0.776742 0.708022 0.734146 0.793313 0.208986 0.431135 0.126666 0.0303793 0.214645 0.303591 1.02826 0.50989 0.244142 0.505923 0.0757488 0.21215 0.916239 0.587301 0.331031 0.0843451 0.179978 0.913544 0.12477 0.352659 0.503211 0.98556 0.66134 0.1417 0.552637 0.176804 0.537309 0.552661 0.578382 0.872757 0.417352 0.375153 0.69514 0.431705 0.276059 0.917506 0.815619 0.316895 0.784274 0.558357 0.955514 0.724699 0.753384 0.426912 0.0660819 0.746798 0.842377 0.796556 0.376818 0.853382 0.793241 0.00491002 0.522701 
0.0357479 0.81542 0.758576 0.378747 0.606011 0.230709 0.522362 0.331569 0.682372 0.619942 0.357946 0.999929 0.798328 0.477108 0.892464 0.610645 0.114971 0.320286 0.0518941 0.18456 0.905626 0.860915 0.392035 0.926731 0.56655 0.00558228 0.821325 0.0105165 0.750465 0.0666783 0.661477 0.443905 0.708398 0.0383771 0.0565697 0.35757 0.611008 0.51697 0.262373 0.207116 0.958966 0.405439 0.804185 0.689795 0.541528 0.582157 0.401598 0.883432 0.46972 0.272668 0.0665053 0.09271 0.131738 0.124356 0.0580273 0.265232 0.747144 0.245647 0.595191 0.375757 0.747993 0.00640469 0.961949 0.901548 0.531563 0.455704 0.600924 0.470906 0.0261615 0.206797 0.607742 0.290714 0.961169 0.553876 0.607455 0.577838 0.884143 0.783009 0.769396 0.415884 0.964142 0.00966189 0.436908 0.119446 0.522875 0.952863 0.763757 0.774323 0.583372 0.386193 0.622614 0.300515 0.805973 0.0624869 0.646724 0.56282 0.419047 0.581631 0.375617 0.486522 0.134528 0.834439 0.546899 0.0819091 0.160161 -0.0142192 0.938994 0.063796 0.586987 0.495209 0.638045 0.803092 0.571415 0.774745 0.136099 0.634413 0.761042 0.497234 0.31438 -0.0205855 0.682522 0.195885 0.424665 0.411846 0.32034 0.336409 0.236126 0.0531486 -0.141108 -0.182804 0.29777 0.772681 0.90138 0.316499 0.3775 0.821368 0.51105 0.527525 0.872394 0.534152 0.327535 0.884797 0.776153 0.820939 0.460696 0.121214 0.171529 0.806079 0.498905 0.28891 0.523549 0.00236717 -0.120548 0.0347014 0.451462 0.270193 -0.554835 -0.456071 -0.154581 0.384397 -0.518296 -0.561976 -0.341728 -0.254775 0.96329 0.438658 0.309169 0.787998 0.375404 0.408079 0.0419626 0.994865 0.831224 0.394479 -0.159097 -0.140735 -0.0847289 -0.148734 -0.553173 0.212063 -0.117263 0.131434 -0.963132 -0.232263 -0.827293 -1.05928 -0.630895 -0.880264 -0.880524 -0.747077 -0.349031 0.552227 0.0799097 0.464905 0.465928 0.299523 0.174498 0.0560918 0.46551 0.58983 0.100833 0.51689 -0.0402401 -0.00564612 -1.08452 -0.671089 -0.723894 -0.218337 -0.0247694 -0.881629 -0.156172 -0.198094 -1.07112 -0.639226 0.129675 0.176608 -0.667684 -0.357956 0.569816 0.512498 0.159229 0.395696 0.353838 0.358454 0.105325 0.918202 0.455429 0.549249 -0.0650725 0.54608 0.156499 0.12332 -1.05471 -0.571439 -0.799349 -0.613017 -0.749562 -0.517725 -0.422156 -0.691245 -0.479395 -0.600502 0.296649 0.459912 -0.264279 0.344893 0.047846 -0.113996 0.338614 0.0899269 0.308467 0.276611 0.146566 0.165745 0.953133 0.755173 0.503998 0.378877 0.303636 0.0202244 -0.152453 -0.583823 0.0205911 -1.25535 -1.06349 -0.699485 0.0460179 0.115832 0.499757 -0.331544 0.021074 -0.376951 -0.125721 -0.485649 0.159202 0.189552 0.0500517 0.206231 0.395241 0.294265 0.41152 0.400453 0.0873445 0.513807 -0.147645 0.0672848 0.180384 0.466952 0.241247 -0.395605 -0.440833 -0.379359 -0.725609 -0.0694441 0.34577 0.422734 -0.17588 -0.0175739 0.37334 0.125159 -0.339951 0.113241 -0.0555393 0.603886 -0.132126 0.770411 0.55287 0.206103 0.00596373 0.285553 0.198589 0.66126 -0.302977 -0.288037 0.435594 0.496692 0.0264999 -0.16795 0.11095 0.0469054 -0.500901 -0.476152 0.0789663 -0.469148 0.234054 0.344382 -0.237819 -0.136109 -0.171561 -0.217608 -0.459923 -0.105172 -0.0491084 0.766412 0.885497 0.130137 0.902981 0.863662 0.00230103 0.521573 0.133994 -0.17095 0.517421 0.228024 -0.272072 0.272967 0.229838 0.524482 -0.773895 -0.178379 -0.44277 -0.0511107 0.0122941 0.406972 -0.0726606 0.41902 -0.128473 -0.146343 -0.131927 0.871568 0.549555 0.718024 0.609199 0.445992 0.986715 0.712538 0.285776 0.209083 -0.316473 -0.0666075 -0.268141 -0.219116 0.0206803 0.0322037 0.245293 0.653857 0.0767804 -0.758097 -0.0172007 0.129054 -0.390045 -0.143892 0.412453 0.214324 -0.553588 -0.137108 0.195557 0.0511875 0.555447 0.17566 0.558168 0.942633 0.967371 0.597264 0.43917 0.247786 -0.221769 0.450977 0.234835 -0.587621 -0.0954242 0.0809099 -0.128799 0.0198502 0.456234 -0.161425 -0.634136 -0.0223039 -0.717766 -0.638478 0.47252 -0.104075 -0.477928 -0.295412 0.347104 0.12718 0.153203 0.119513 0.674153 0.218232 0.0716679 0.523147 0.833132 0.419454 0.512009 0.527001 -0.230015 0.0591301 -0.595207 -0.0382454 0.225395 -0.37998 0.293738 0.434324 -0.119855 -0.632829 -0.254922 -1.00886 -0.751737 -0.0487644 -0.648133 -0.0652677 -0.526572 0.182933 0.549487 0.882205 0.213751 0.53236 0.322362 0.936601 0.179081 0.803913 0.666276 0.411297 -0.155592 0.00902177 -0.601721 -0.297891 0.514197 0.00486741 0.230781 0.383322 0.716309 -0.311657 0.414166 -0.84981 -0.282706 -0.267869 -0.51313 -0.187185 0.575732 -0.154932 0.432898 0.607919 0.707903 0.388454 0.914409 0.473437 0.334268 0.583632 0.327116 -0.033005 0.50303 0.120193 0.0765334 0.746096 0.760873 0.0431154 0.0200768 -0.0287119 -0.351126 0.481733 0.289061 -0.77103 -0.4484 -1.34439 -0.219848 -0.298032 0.25225 0.425905 0.208331 0.812107 0.861566 0.40296 0.971716 0.126078 0.0472823 0.33351 0.291488 0.305553 0.0237155 -0.330547 -0.0504684 0.0841494 -0.0171497 0.00358893 -0.036573 -0.106315 0.186039 0.0322957 0.0554532 -0.75663 -0.788436 -1.00882 0.526403 0.0986918 -0.224647 0.690683 0.461838 0.154142 0.779678 0.0866114 0.379783 0.000780112 0.315275 0.60861 0.587224 0.399948 0.386991 0.052158 -0.0293653 -0.194914 -0.270326 0.0255401 -0.0712166 -0.603974 -0.393462 -0.798433 -0.974501 -1.35739 -1.05948 -0.0551815 0.0467277 0.327447 0.181155 -0.0765865 0.287603 0.427507 0.347994 0.295439 0.126703 0.494225 0.785944 0.29353 0.0369142 0.506558 0.209906 0.413343 0.114865 0.403942 0.193202 -0.479834 -0.534552 -0.784222 -0.558457 -0.210762 -0.41966 -0.735638 0.18153 -0.224549 0.0420737 0.201922 -0.323026 0.353989 0.706292 0.86133 0.899738 0.782947 0.000946994 0.332249 0.136767 0.291274 0.664191 0.723693 0.67618 -0.294369 0.179313 -0.348246 -1.0237 -0.276293 -0.51272 -1.00797 -0.234829 -0.734202 -0.314781 -0.212946 -0.439207 0.255776 0.00332218 0.348071 0.444637 0.673242 0.610907 0.527849 0.918012 0.439766 0.134341 0.300059 0.921092 0.382616 0.645376 0.641725 0.684426 -0.514105 -0.677506 -0.987736 -0.528047 -0.240576 -1.07221 -0.213094 -0.20426 -0.158284 0.283097 0.350557 -0.292422 0.057507 -0.0173284 0.125209 0.0546542 0.0361334 0.201136 0.407737 0.122321 0.668736 0.433366 0.581429 0.0887821 0.50335 0.438238 -0.528284 -0.734815 -0.782355 -0.129444 -0.534674 -0.414135 -0.602669 0.336745 0.212833 -0.156287 0.460983 0.607307 0.551048 -0.0462175 0.423097 0.520537 0.585291 0.219556 0.0853679 0.643032 0.0649833 0.161333 0.382164 0.0309704 0.519759 0.592483 0.589308 0.0311293 0.108585 -0.7924 0.106093 -0.44034 -0.257725 -0.294506 0.126124 0.477279 0.547885 0.597505 0.685436 0.453529 0.1321 0.301438 -0.00988638 0.212829 0.807213 0.743463 0.91736 0.465939 0.946081 0.000344276 0.166389 0.493376 0.16915 0.90216 0.625145 0.0599579 0.176415 0.658467 0.82005 0.561056 0.156933 0.703649 0.243605 -0.0789561 0.48131 0.243358 0.377561 0.512199 0.33492 0.0756002 0.766657 0.786945 0.62154 0.031891 0.508847 0.505766 0.173807 0.317413 0.146327 0.312038 0.420856 0.330324 0.75067 0.100674 0.122693 0.281955 0.89273 0.291199 0.443385 0.0901404 0.0989038 0.0721822 0.710826 0.24864 0.166304 0.195423 0.496785 0.849884 0.79642 0.108604 0.659716 0.544765 0.0764442 0.519458 0.97346 0.943081 0.359563 0.172652 0.764241 0.597604 0.924743 0.156741 0.366899 0.639738 0.0144875 0.944022 0.224584 0.971965 0.470513 0.904836 -0.00406534 0.821859 0.743361 0.747464 0.418429 0.116763 0.228926 0.777973 0.788318 0.5431 0.395329 0.267885 0.347329 0.559703 0.934021 
0.0930644 0.133174 0.259087 0.474507 0.0452623 0.723115 0.402129 0.584173 0.19891 0.0747646 0.567968 0.837182 0.51597 0.684637 0.28944 0.0825169 0.923254 0.135018 0.246986 0.0867128 0.381278 0.145756 0.722818 0.403623 0.687331 0.969757 0.701758 0.452614 0.0788538 0.295934 0.762162 0.657529 0.0972056 0.733962 0.884321 0.455192 0.742817 0.769295 0.871047 0.387594 0.761262 0.696985 0.507949 0.893046 0.971993 0.444936 0.765402 0.116435 0.391565 0.409857 0.0437061 0.494412 0.55165 0.587609 0.93852 0.709049 0.99165 0.666907 0.702211 0.0664035 0.379869 0.100542 0.806673 0.246247 0.813238 0.289655 0.881435 0.388046 0.819793 0.262589 0.32026 0.954046 0.680486 0.895823 0.258221 0.0704523 0.897718 0.799985 0.102532 0.25724 0.578582 0.335021 0.367143 0.568945 0.255136 0.068179 0.884461 0.613736 0.340078 0.871658 0.166456 1.04213 0.432349 0.805113 0.743599 0.798915 0.828341 0.0765777 0.291844 0.909569 0.0974215 0.0460857 0.541568 0.540118 0.819964 0.0341863 0.638033 0.371059 0.355731 0.235583 0.32842 0.0719953 0.0247613 0.162615 0.0667372 0.728031 0.874559 0.731501 0.827588 0.920124 0.740426 0.425227 0.654726 -0.150018 0.271364 1.0203 0.676035 -0.0389109 0.186397 0.204501 0.280381 0.19753 0.946162 0.899424 0.937509 0.0197776 0.200667 0.238731 0.0207563 0.358167 0.931568 0.856927 0.364617 0.529942 0.610521 0.621628 0.684599 0.236681 0.0831662 0.0399276 0.489229 -0.0487774 0.374658 0.345803 0.589858 0.3947 -0.0977488 -0.0472086 -0.428249 -0.0648383 0.552288 -0.271779 0.134256 -0.0795666 0.566476 0.633011 0.688121 0.463601 0.141888 0.715584 0.799531 0.793055 0.751077 0.821336 0.20605 0.588635 0.0804318 -0.335184 0.0381648 -0.0665933 -0.0786182 -0.381403 -1.05246 -0.918443 -1.09997 -0.505853 -0.481699 -0.645295 -0.156486 -0.129561 0.10827 0.0686316 0.984036 0.482908 0.641485 0.747719 0.582937 0.175692 0.581506 0.585688 0.468638 0.0311291 0.462171 0.348129 -0.450936 -0.302741 -0.843846 -0.451393 -0.523322 -0.688984 -0.460941 -0.877 -1.5409 -1.28366 0.0154169 -0.622155 -0.0856299 -0.378917 0.507328 0.960905 0.20008 0.21266 0.230659 0.477408 0.709901 0.252322 0.394888 0.252561 0.812476 0.631385 0.392391 -0.26017 -0.81394 -1.23246 -0.612376 -0.895518 -0.601478 -0.771012 -0.576742 -1.16645 -0.55467 -0.999679 -0.216954 -0.126846 0.305372 0.48304 -0.178319 0.468738 0.385568 0.546993 0.287996 0.770802 0.875779 0.71464 0.390465 0.201475 0.932551 0.165409 0.0746427 0.231158 -0.352646 -0.472709 0.356629 -0.540329 -0.149972 -0.168784 -0.00834732 0.158824 0.0439717 -0.879763 -0.201194 -0.14211 -0.0213872 0.269582 0.658194 0.461327 0.761964 0.711939 0.727677 0.86746 0.442506 0.201172 0.0336551 0.512062 0.975103 0.811964 -0.0607787 0.088478 0.0704426 0.100391 0.393745 -0.246413 0.104923 0.050163 0.2238 0.543083 -0.385336 -0.13785 -0.385425 -0.0919348 -0.269127 -0.289973 -0.450356 -0.197004 0.0833856 0.408108 0.406306 0.41375 0.824097 0.56887 0.825935 0.163113 0.753945 0.381287 0.0078277 -0.0590116 -0.331018 0.0953158 -0.302948 -0.0514606 -0.13131 0.282577 0.892585 0.21793 -0.218435 0.235233 0.206731 0.137196 -0.526708 0.107491 -0.297856 0.443568 0.333924 0.233298 0.700448 0.814486 0.119824 0.253156 0.935381 0.300881 0.380435 -0.227074 -0.359274 -0.1431 0.082542 -0.0125705 0.0418844 0.0463542 -0.662263 -0.239862 0.0158412 0.13253 -0.444865 0.34768 0.502215 -0.127978 -0.503509 -0.0641906 -0.440247 0.462099 0.496029 0.591169 0.752898 0.0423868 0.308551 0.815976 0.321156 0.778306 0.390257 -0.091733 -0.38642 0.0683653 0.0729795 -0.208147 -0.256803 -0.286748 0.0964955 0.218813 -0.141768 -0.421397 -0.351487 0.464255 0.281059 -0.0812684 -0.374671 0.0853524 0.207465 0.0861619 0.212642 0.475391 0.385612 0.102333 0.432028 0.0897236 0.743872 0.462299 0.170836 -0.273709 -0.144495 -0.093685 -0.353279 -0.160889 -0.445706 -0.460905 -0.266392 -0.373205 -0.692942 -0.508881 -0.977018 0.2873 -0.0865975 0.69547 0.147394 0.46483 0.283906 -0.157409 0.261245 0.417764 0.287118 0.028004 0.619424 0.655266 0.449192 0.746683 0.977488 0.128333 -0.282106 -0.0523382 -0.193864 -0.465627 -0.235935 0.0285386 0.335904 0.114452 0.36152 -0.604467 -0.130534 -0.202581 -0.356636 0.248125 0.36123 -0.296326 0.195754 0.136092 -0.104187 0.671418 0.534122 0.770626 0.562072 0.73744 0.396218 0.334217 0.0653275 0.871186 0.234962 -0.138492 -0.457784 0.290603 -0.106943 -0.0131352 0.0475482 0.899919 0.433217 0.139671 0.13637 -0.724986 -0.595534 -0.720469 -0.27142 -0.288092 0.527577 0.625373 0.816675 1.04323 0.774845 0.403784 0.762111 0.797683 0.435485 0.672383 0.367275 0.772324 0.179056 -0.370361 -0.494671 -0.492192 0.222703 -0.300982 0.166278 0.0720454 0.947255 0.655402 0.0893431 0.066446 -0.626987 -0.610416 -0.370264 0.156524 0.522181 0.263799 0.688979 0.931269 0.907904 0.760745 0.587548 0.465052 0.671525 0.909638 0.379464 0.156622 -0.262098 -0.260817 0.313755 -0.227698 -0.466168 0.269189 0.122849 0.302031 0.676699 0.00842481 -0.311585 -0.354838 -1.11333 -1.06013 0.621027 0.0725338 -0.0650604 0.739136 0.420978 0.0203631 0.0718236 0.70422 0.237782 0.408643 0.539915 0.872382 0.149992 0.529844 -0.206718 0.0300813 0.132908 0.0122155 -0.422586 0.147397 0.393632 0.536429 0.115739 0.358357 -0.722205 -0.404965 -0.643151 -0.649015 -0.105881 0.266728 0.540789 0.844105 0.222586 0.291665 0.512509 0.82676 0.547869 0.0268813 0.870335 0.944601 0.053788 0.676715 0.106409 -0.0399941 -0.333182 -0.607034 -0.344809 -0.710042 -0.717045 -0.901258 -0.62028 -0.306601 -0.373899 -0.554381 -0.459379 0.217382 0.191075 -0.103572 0.122789 0.392264 0.488439 0.982229 0.419872 0.236312 0.695634 0.0702385 0.986475 0.359606 0.421723 0.313227 1.03038 0.15972 -0.315802 -0.496266 -1.0837 -0.484281 -0.923169 -0.183237 -0.265753 -0.140273 -0.531086 0.389222 0.26381 -0.321164 0.257044 -0.0134744 0.171838 0.438431 0.47569 0.436681 0.136769 0.282712 0.945249 0.364728 0.850219 0.773613 0.380361 0.968775 0.434597 0.273911 -0.732774 -0.670975 -1.14808 -0.444091 -0.967631 -0.35509 0.0629257 0.720993 0.735016 0.539628 -0.0464025 0.0142158 -0.0226667 0.575488 0.905981 0.688212 0.181364 0.304948 0.421778 0.183351 0.168326 0.0632186 0.516119 0.742785 -0.0765431 0.345075 -0.236207 -0.306517 -0.0248052 0.066669 -0.632289 -0.424479 -0.316832 0.0195982 -0.0860479 0.765525 0.610855 0.744437 0.707961 -0.0640801 -0.0146769 0.298246 0.896663 -0.0755206 0.39772 0.0241268 0.684755 0.9922 0.911719 0.26754 0.542402 0.803333 0.25196 0.323581 -0.421212 -0.346764 0.116873 0.248025 -0.365028 0.555141 0.66568 -0.0785173 0.626117 0.158576 0.873594 0.711007 0.53323 0.337367 0.208087 0.674078 0.394025 0.323183 0.634967 0.193134 0.0857519 0.836243 0.732466 0.560961 0.0785924 0.390416 0.509372 0.00235256 0.576779 0.399217 0.106669 0.373291 0.866527 0.127433 0.0627182 0.0775802 0.516712 0.456622 0.277763 0.0645084 0.0860291 0.221426 0.397809 0.669531 0.820565 0.687376 0.6529 0.0104129 0.878105 0.823673 0.469607 0.680717 0.80299 0.858878 0.221621 0.969858 0.169367 -0.0252055 0.754814 0.364412 0.221605 0.387732 -0.0092004 0.0489984 0.912601 0.0289999 0.291359 0.307826 0.535457 0.38777 -0.00924617 0.0231809 0.37833 0.869792 0.320757 0.492646 0.906121 0.183092 0.230594 0.601692 0.642981 0.580252 0.290891 0.949402 0.222419 0.558854 0.27238 0.765498 0.626116 0.860196 0.341938 0.892485 0.912931 0.905967 0.126753 0.608683 0.691658 0.520753 0.237533 0.582784 0.155203 0.995517 0.646507 0.844877 0.852597 0.604557 
0.785843 0.657951 0.179436 0.777622 0.496143 0.673287 0.939733 0.0994491 0.441838 0.970666 0.988818 0.0572869 0.820081 0.590833 0.220597 0.381164 0.216987 0.892619 0.249994 0.655569 0.147933 0.305084 0.542171 0.263705 0.0931976 0.371422 0.488042 0.529391 0.479191 0.759809 0.101909 0.779875 0.361557 0.695292 0.53398 0.854116 0.380288 0.804981 0.498669 0.464579 0.846677 0.810953 0.813602 0.376467 0.51197 0.137185 0.473282 0.64914 0.357665 0.55223 0.0176432 0.308239 0.0550437 0.120001 0.857886 0.4912 0.590179 0.140665 0.164934 0.0406329 0.794008 0.791199 0.106314 0.166777 0.279946 0.891227 0.131594 0.0873067 0.638773 0.876557 0.0141739 0.0781384 0.0897276 0.202745 0.390111 0.699411 0.0514934 0.2102 0.997892 0.18519 0.0563184 0.802348 0.62829 0.672937 0.0508132 0.016912 0.239604 0.51247 0.409226 -0.0278077 0.176027 0.490053 0.344994 0.484192 0.598427 0.0379568 0.593633 -0.0127911 0.17457 0.583881 1.01866 0.814424 0.39303 0.038393 0.750566 0.142316 0.359459 0.510253 0.205589 0.346404 0.75107 0.987771 0.467827 0.771292 0.0980955 0.93607 0.780145 0.806902 0.756789 0.0963636 0.279283 0.307511 0.180431 0.206081 -0.255571 0.244576 0.16846 0.62215 -0.0011678 -0.478923 -0.517655 0.375455 0.217998 0.399082 0.431895 0.604686 0.797766 0.547148 0.310231 0.133213 0.138056 0.307565 0.241025 0.454392 0.446911 0.57837 0.480625 0.491825 -0.0794977 0.0913949 0.298918 0.0354883 -0.357259 0.384565 -0.304905 0.104127 -0.111248 0.0115433 -0.207763 -0.285235 -0.454018 -0.592138 -0.0621406 0.187627 0.393844 0.926229 0.8394 0.655338 0.205576 0.12342 0.161125 0.0568208 0.440869 0.315499 -0.0918283 0.107338 -0.07197 0.434387 0.23442 -0.304226 0.375727 0.20758 -0.432468 -0.642904 -0.658973 0.113208 -0.386475 -0.292288 0.101163 0.209484 0.0417627 0.222123 0.47517 0.66536 0.471512 0.174937 0.554213 0.409134 0.13545 0.966587 0.803682 0.297407 0.27109 -0.140408 -0.508321 -0.439434 -0.103214 0.421633 -0.249366 0.164113 -0.694989 -0.398773 -0.516036 -0.522558 -0.314851 -0.212756 -0.508569 0.285405 0.132678 0.672303 -0.25925 0.749503 0.284023 0.797932 0.931827 0.315327 0.216784 0.268802 0.637414 0.621611 0.0420692 0.528734 0.0484839 -0.182468 0.551071 0.220377 -0.258475 -0.337098 0.000260684 -0.607186 -0.236443 -0.477789 0.061915 0.299149 -0.287633 -0.0980964 0.18585 0.211918 0.0316452 0.203562 0.283588 0.353968 0.50799 0.984332 0.869955 0.260811 0.133967 0.6275 0.0637783 0.443439 -0.451337 -0.0376134 0.0257806 0.102093 -0.237216 0.0404106 0.3121 0.455309 -0.667756 -0.202877 0.333736 0.0632417 -0.488928 -0.0350876 -0.325515 0.787855 0.0443728 -0.116995 0.484342 0.101539 0.767028 0.463302 0.837515 0.976217 0.387395 0.16627 -0.0658091 -0.333635 -0.050357 0.158793 -0.29068 -0.919079 -0.46315 -0.105685 0.0230032 0.360799 -0.2932 -0.297839 -0.462963 -0.332946 -0.418209 -0.573066 0.236727 0.049107 0.774752 0.536374 0.355073 0.865081 0.555702 0.544972 0.140696 0.00534072 0.662229 -0.131025 -0.255204 0.343491 -0.813667 -0.216955 -0.230739 -0.579541 -1.29564 -1.04744 -0.0446179 -0.719971 -0.723676 -0.436907 0.204572 -0.317323 -0.591438 -0.0395893 -0.471296 0.460007 0.472682 0.764223 0.409127 0.304177 0.868403 0.704641 0.26605 0.090478 0.565542 0.131044 0.0394212 -0.516103 -0.895884 -0.569691 -1.06395 -0.651948 -1.25555 -1.75981 -1.34063 -0.915859 -0.616548 -0.137348 -0.169146 -0.138088 -0.246556 -0.297248 0.0917657 -0.174726 -0.00863197 0.655876 0.303659 0.150825 0.348625 0.342622 0.758663 0.893421 0.629511 -0.228054 -0.0869997 0.164968 -0.824574 -0.866287 0.0815987 -0.756501 -0.394532 -1.71617 -0.797002 -1.05933 -0.975165 -0.218782 0.0411877 -0.111674 -0.499358 0.102587 -0.377529 0.256777 0.329325 0.241423 0.781473 0.0623281 0.793595 0.938183 0.877857 -0.0457323 -0.152048 0.0608916 -0.489219 0.00926455 0.0893577 -0.193602 -0.290507 -0.338215 -0.483462 -1.16007 -0.825593 -1.10997 -0.414346 -0.379212 -0.158562 0.518316 -0.00929217 0.00201609 -0.0473715 0.139825 0.481174 0.452889 0.450209 0.653114 0.947419 0.26856 0.27601 0.0353155 0.510446 0.418708 -0.448902 0.0378615 -0.270695 0.154377 -0.278509 -0.342002 -0.162532 -0.269021 -0.428375 -1.01856 -0.765169 -0.648249 -0.431571 -0.129464 -0.243194 0.36623 0.0252847 0.37551 0.212672 0.363705 0.807669 0.620397 0.449276 0.984135 0.358047 0.708565 0.270368 -0.199673 -0.103129 -0.225911 -0.648213 0.0774423 -0.494743 -0.968808 -0.164922 -0.463226 -0.313348 -0.247726 -0.249974 -0.049159 -0.838637 -0.827833 -0.0739727 -0.407612 -0.369186 0.397661 -0.01235 0.744312 0.988763 0.929675 0.299511 0.879173 0.0261832 0.665428 0.206179 0.353197 0.302504 -0.19912 0.0461471 0.622868 0.506019 0.0913312 -0.283511 -0.131875 -0.368854 -0.141424 -0.304859 -0.900867 -0.716184 -0.702024 -0.896947 0.0750146 -0.00134131 0.517345 0.245872 0.854998 0.777641 0.826301 0.41337 0.721771 0.67271 0.358696 0.0841356 0.230817 0.614979 0.321876 -0.406281 -0.333466 0.543455 0.535989 -0.500782 -0.389502 0.212836 -0.0906079 -0.251373 -0.732768 -0.975379 -0.261275 0.0869866 -0.39258 0.398777 -0.124703 0.51291 1.14652 0.985909 0.757325 0.118603 0.374397 0.261019 0.807507 0.384599 -0.0387932 0.593644 -0.463765 0.0131078 0.269874 0.157727 0.58512 0.181345 -0.333468 -0.0472965 -0.257773 -1.34976 -1.10117 -0.859487 -0.648074 -0.0420054 0.119532 0.138313 0.495632 0.677601 0.710144 0.74857 0.726362 0.866038 0.50494 0.263177 0.548881 0.533156 0.221198 0.264266 -0.386106 -0.407405 0.118861 0.52119 0.623122 0.239377 0.291413 -0.531452 -0.727 -0.892236 -0.690722 -0.153353 -0.696292 0.0928363 -0.329536 0.450887 0.82392 0.716519 0.573557 0.311694 0.930848 0.752364 0.469296 0.907815 0.816001 0.387756 0.442534 0.108076 0.0321279 -0.161116 0.14937 -0.341561 -0.490476 -0.434275 -0.276689 -0.668794 -0.048403 0.276464 -0.317844 -0.439655 0.00209511 -0.559577 0.0374189 -0.219071 0.363298 0.166759 0.433224 0.0847465 0.418985 0.87815 0.50066 0.0361309 0.569419 0.797516 0.293151 0.211804 -0.543248 -0.767869 -0.123558 -0.488895 -0.883568 -0.453243 -0.73737 -0.632435 0.0520494 -0.0331192 0.163654 0.363627 -0.243285 0.422295 0.567724 0.522308 0.0822973 0.156561 0.293293 0.830739 0.0511255 0.254248 0.143559 0.771512 0.849014 -0.183259 0.285998 -0.171377 -0.169736 -0.462501 -0.410799 -0.711598 -0.420546 -0.160617 -0.214165 -0.092153 0.00883748 0.481983 -0.41172 0.00748654 -0.432473 -0.36729 0.388087 0.455238 0.883263 0.604588 0.739515 0.0651217 0.152127 0.796902 0.533078 0.432817 0.816425 -0.240338 0.129516 -0.0864626 0.0340555 -0.397992 -0.221815 -0.00677121 -0.226152 0.571121 0.112914 0.570026 0.388045 0.227872 0.746671 0.022631 0.130652 0.323438 0.13165 0.156339 0.483915 1.0228 0.496 0.030113 0.258009 0.36162 0.749113 0.344986 0.614208 0.518058 0.89454 0.696719 0.0966417 0.343498 0.532948 -0.00981084 0.557235 0.826308 0.221743 0.614115 0.504005 0.77193 0.436148 0.800092 1.03225 0.432376 0.345566 0.173262 0.358361 0.724421 0.210078 0.184996 0.297036 0.289996 0.955668 0.912757 0.710097 0.716664 0.619938 0.238646 0.989334 0.104634 1.11682 0.377872 0.21685 0.572914 0.534998 0.955206 0.733972 1.33349 0.732469 0.521791 0.218936 0.641178 0.693959 0.293385 0.737597 0.588423 0.819956 0.995434 0.261495 0.939646 0.632028 0.501174 0.239571 0.465041 0.798914 0.633924 0.871808 0.148598 0.386779 0.147929 0.416141 0.282863 0.182595 0.983168 0.43285 0.372539 0.796776 0.715493 0.120194 0.791563 0.16259 0.624049 0.40643 0.0504567 0.0264055 0.796546 0.554155 
0.676218 0.197908 0.232723 0.377858 0.652426 0.319651 0.368219 0.659957 0.903167 0.528278 0.762217 0.587944 0.572448 0.605633 0.128568 0.889275 0.0500107 0.529581 0.670049 0.505261 0.9254 0.190561 0.760854 0.669298 0.892191 0.0475746 0.586048 0.704444 0.596278 0.639994 0.379548 0.0619662 0.465241 0.308712 0.0813313 0.706671 0.325959 0.632941 0.891654 0.89427 0.298795 0.843811 0.379558 0.173929 0.533042 0.185029 0.0199934 0.745804 0.426719 0.747852 0.446167 0.376458 0.197671 0.253155 0.780267 0.946985 0.98327 0.817805 0.854975 0.562593 0.0392558 0.780977 0.135341 0.626025 0.656173 0.188399 0.538094 0.707039 0.446586 0.248095 0.1144 0.893555 0.033614 0.594094 0.0593746 0.816409 0.780584 0.910679 0.88915 0.0990802 0.617132 0.194167 0.266122 0.708712 0.325249 0.466762 0.870466 0.949879 0.440288 0.64884 0.847408 0.596963 0.6208 0.492482 -0.0371011 0.703504 0.317077 0.507716 0.133244 0.284599 -0.132608 0.231512 -0.0498248 0.332964 0.185822 0.722629 0.765507 0.2193 0.901772 0.517581 0.496724 0.085375 0.896785 0.261133 0.85861 0.56008 0.702157 0.918384 0.503244 0.700226 0.228844 -0.0211211 0.778968 0.470658 0.149406 0.724668 -0.285394 0.429174 0.240827 0.0640055 -0.01432 0.186199 -0.0276676 -0.0923225 0.607017 0.874379 0.29391 0.806217 0.448354 0.528324 0.628217 0.443962 0.672809 0.323025 0.433202 0.166316 0.300166 0.710508 0.0876751 0.38759 0.260212 -0.184958 0.282986 0.134902 0.293088 0.281336 -0.367587 0.263435 -0.84188 -0.351999 -0.28757 -0.554866 0.0899124 -0.161668 0.951479 0.911549 0.57176 0.0824806 0.852717 0.608766 0.508603 0.1151 0.124038 0.945256 0.514781 0.0663508 0.179614 -0.243239 -0.230991 0.0347585 -0.412864 -0.0474084 -1.28297 -1.02091 -0.155204 -1.04005 -0.395111 -0.455166 -0.530125 -0.794238 0.0866171 0.703422 0.41009 -0.00221983 0.0782952 0.105046 0.67151 0.294101 0.110219 0.334798 0.727257 0.809964 0.40347 0.320052 -0.806741 -0.559794 0.078193 -0.224044 0.1938 -0.706743 -0.876011 -0.460063 -0.905616 -0.364915 -0.424849 -0.115611 -0.167936 -0.291553 0.040944 0.465581 0.417285 0.451613 0.273147 0.128871 0.687999 0.757844 -0.0492435 0.719463 0.52401 0.162508 -0.0069521 0.516748 -0.813915 -0.721314 -0.111409 -0.859223 -0.778974 -0.64072 -0.258387 0.200571 -0.386003 -1.13023 -0.437008 -0.650571 -0.25155 0.178737 0.520134 0.511608 0.000528643 0.878788 0.072438 0.265929 0.0155922 0.839386 -0.0457416 0.272486 0.443808 0.411903 0.202753 0.148221 -0.558937 0.00414202 -0.130861 -1.19487 -0.42629 -0.693295 -0.261659 0.900529 -0.418609 -0.563227 -0.40097 -0.00825681 -0.110593 -0.068952 0.183658 0.173112 0.716923 0.543099 0.967313 0.927167 0.522582 0.0196079 -0.015784 0.715414 0.874781 0.415985 -0.293304 0.166961 -0.409289 -0.174109 -0.592076 -0.667639 -1.04532 -0.803839 0.196825 -0.234707 0.256622 0.121591 0.0506875 0.205524 0.2011 -0.56908 -0.108264 0.176554 0.726254 0.473091 0.576439 0.587619 0.694439 0.493376 -0.0550634 0.488132 0.471594 -0.150322 -0.269251 -0.0911021 -0.185845 -0.273494 0.235498 -0.941861 -0.494107 -1.03594 0.0606124 -0.213574 0.246936 0.510344 0.240467 0.171017 0.0729744 0.19468 0.342559 0.149919 0.673199 0.174974 0.587588 -0.000118181 0.137047 0.84532 0.692891 0.378161 0.415539 0.0625382 0.467226 0.0893594 -0.162526 -0.37578 -0.386992 0.234535 -0.256584 -0.404465 0.114029 0.248691 -0.57453 -0.411233 0.135418 0.149237 -0.125592 0.0905454 0.049662 0.382727 0.689544 0.941869 0.864483 0.98384 0.953897 0.147749 0.768394 0.73865 0.768912 1.04321 0.566699 0.0565638 -0.0348682 -0.167793 -0.186629 -0.0247311 0.564776 -0.248692 -0.65695 0.112426 0.0487856 -0.0418509 0.516074 0.470469 -0.0254898 -0.372979 0.318059 0.312696 0.660129 0.37949 0.917842 0.33422 0.376143 0.831164 0.441373 0.154489 -0.0891553 -0.0344384 0.855801 0.0209131 0.192907 -0.543925 -0.331638 0.573106 0.605941 -0.282754 0.0611066 -0.167345 -0.0986549 -0.128731 -0.0663102 0.277397 -0.335355 0.0014226 0.0777115 -0.234068 0.873275 0.285881 0.824155 0.851009 0.354937 0.434705 0.354964 0.204475 0.0982849 -0.194422 -0.157823 0.522531 -0.255184 -0.302469 0.635268 -0.275553 0.169203 0.0946489 0.224858 -0.799528 -0.202011 -0.160259 -0.344841 0.0992485 -0.806315 -0.932119 0.00293065 -0.457874 0.877278 0.969006 0.613828 0.312443 0.0746152 0.0583299 0.672762 0.473864 0.67616 0.118295 -0.17713 -0.342413 0.219594 0.020338 -0.47443 -0.358433 0.539569 0.548048 -0.164008 0.0563442 0.657662 -0.629618 -1.00491 -0.50394 0.261825 -0.656589 -0.467365 0.00583995 -0.0378991 0.893655 0.356971 0.61642 0.262466 0.265303 0.279371 0.670644 0.75278 0.671505 0.00811043 0.0572046 0.404507 0.20992 0.259507 -0.157653 0.013691 0.220439 0.383586 0.166903 0.0794123 -0.43208 -0.392988 -0.433911 0.168265 0.197231 0.118047 -0.126899 0.160968 0.423612 0.691281 0.235829 0.774619 0.782638 0.816797 0.684825 0.519581 -0.052428 -0.309165 0.0235811 0.249885 -0.185605 -0.246736 -0.405681 0.271036 -0.384239 -0.0712092 0.263598 -0.0178475 -1.04099 -0.551767 -1.04998 0.877419 -0.187713 0.38916 0.58918 0.600624 0.138138 0.793762 0.447877 0.898673 0.983489 0.450825 0.745367 0.321769 0.182831 0.0690796 0.190597 -0.410859 -0.248578 0.0630488 0.151492 -0.32368 -0.754346 0.201728 -0.103341 -0.479739 -1.13684 -0.886424 -0.552138 0.903911 0.334927 0.340195 0.144623 0.748227 0.141583 0.533988 0.0599538 0.347872 0.692126 0.79906 0.616077 0.779037 0.154576 0.565266 0.28965 -0.0187067 -0.662693 -0.801897 -0.411177 -0.869692 -0.686085 -0.252023 -0.791339 -0.403137 -0.0541243 -0.427869 0.389103 0.16674 0.485216 -0.230328 0.286436 0.660094 0.852146 0.291071 0.909443 0.00874347 0.167305 0.999689 0.165371 -0.0266494 1.08983 0.197875 -0.12413 0.110518 -0.55912 -0.754776 -1.51822 -0.653001 -0.453264 -0.554696 -0.135735 -0.593718 -0.122786 0.371991 0.67843 0.0779698 0.066816 0.746812 0.0669882 0.0759183 0.208337 0.432768 0.196822 0.168948 0.722205 0.176119 0.595489 0.800744 0.955732 0.947687 0.117196 -0.203155 -1.1537 -0.716806 -0.435442 -0.296074 -0.489597 -0.604362 0.581993 0.305868 -0.308529 -0.405328 0.261055 0.649066 0.334055 0.391389 0.830087 0.584203 0.641993 0.37204 0.0116353 0.7258 0.519614 0.155031 0.796359 0.0468368 -0.280793 -0.130109 -0.326159 -0.150462 -0.219989 -0.825115 -0.921411 0.0414309 0.306218 0.230521 -0.158167 0.537439 -0.286618 0.236586 0.355407 0.433551 0.698336 0.60584 1.07061 0.31883 0.0390632 0.779717 0.667304 0.38345 0.639959 0.800364 0.907947 -0.289736 0.201081 -0.801014 -0.177753 0.140909 0.514859 -0.23537 0.286496 0.366877 0.550485 0.849599 0.941054 0.197915 0.528692 -0.0681512 0.690735 0.921196 0.650584 0.985985 0.203483 0.649375 0.70632 0.117842 0.569671 0.463325 0.10161 0.759089 0.311842 0.756652 0.663498 0.0313965 0.790751 0.564932 0.570155 0.702094 0.63114 0.310361 0.551358 0.168269 0.288419 -0.000905233 0.073748 0.399454 0.256845 0.552098 0.574905 0.9547 0.723267 0.316377 0.367196 0.428955 0.528987 0.685527 0.645886 0.413188 0.450223 0.831839 0.632179 0.555286 0.653429 0.438979 0.464225 0.278855 0.184692 0.0532685 0.596016 0.612317 0.108666 0.408211 0.492627 0.0472847 0.240925 0.540712 0.975714 0.037003 0.764166 0.578433 0.648475 0.918394 0.443814 0.180463 0.047539 0.988669 0.556613 0.997446 0.333295 0.787202 0.126541 0.590528 0.229118 0.0585753 0.545391 0.00861503 0.107158 0.13565 0.0205062 0.611093 0.272019 0.18406 0.53776 0.752346 0.173832 0.776313 0.0802408 0.431277 0.467328 0.381533 0.430631 
0.609524 0.272682 0.965358 0.770102 0.104599 0.00363423 0.0804215 0.643758 0.645146 0.976939 0.405582 0.613187 0.837331 0.271627 0.362271 0.690104 0.570143 0.391406 0.354848 0.927713 0.0695453 0.847172 0.427918 0.0246955 0.0579619 0.165337 0.821012 0.740482 0.281601 0.866477 0.880794 0.502016 0.380059 0.652193 0.606339 0.226011 0.39559 0.102666 0.373072 0.893074 0.171592 0.994093 0.0753867 0.46105 0.852916 0.381714 0.909907 0.766663 0.0128927 0.660054 0.976575 0.539359 0.627704 0.817832 0.300303 0.194308 0.737753 0.418341 0.0634061 0.665807 0.615803 0.293089 0.263202 0.75506 0.16902 0.624447 0.914922 0.163787 0.0805585 0.0348034 0.103307 0.83391 0.547507 0.341471 0.254752 0.122824 0.94613 0.940591 -0.000966973 0.481778 0.220455 0.110479 0.649872 0.395764 0.606854 0.402667 0.623098 0.427114 0.505445 0.435479 0.799629 0.185829 0.29322 0.709233 0.03664 0.623056 0.259672 0.103008 0.135804 0.294925 0.896102 0.430844 0.170333 0.36944 0.140938 0.889769 0.0777662 0.536003 0.420528 0.695184 0.185334 0.100229 0.549653 0.00976877 0.184141 0.683314 0.776925 0.424119 0.86212 0.405694 0.300858 0.859073 0.923696 0.14508 0.223768 0.597798 0.665084 0.546079 0.177982 0.23839 0.113515 0.569316 0.219909 0.183488 -0.00227521 0.861527 0.48931 0.244041 0.802183 0.96298 0.320446 0.742334 0.404443 0.32512 0.198569 0.726246 0.669079 0.990343 0.504117 0.676128 0.516029 0.325906 0.278722 -0.158377 -0.238436 -0.40266 0.278524 -0.202295 -0.105933 0.355556 -0.00807183 -0.107474 -0.434291 -0.344183 0.796207 0.220418 0.886254 0.944823 0.689346 0.83906 0.38533 0.856638 0.132617 0.629037 0.860815 0.124587 0.713318 0.430026 -0.0466687 -0.119328 -0.567712 -0.978954 -0.473276 -0.34443 -1.08161 -0.169466 -0.115001 -0.830983 -0.193007 -0.769638 0.270819 0.66444 0.174357 0.46254 0.967236 0.0760586 0.0961627 0.771857 0.33324 0.739947 0.847555 0.826446 0.319576 0.264402 -0.41201 -0.6673 -0.733119 -0.241357 -0.166956 -0.334079 -1.05656 -0.552359 -0.871952 -0.0772174 0.345063 -0.639301 0.221658 0.164342 0.673944 0.204169 0.85175 1.02016 0.941696 0.00888715 0.478357 0.504095 0.767417 0.207909 0.0721121 0.519312 0.940451 -0.301816 -0.565011 -0.487461 -0.157003 -0.654925 -0.323158 -0.416577 -0.378665 0.0743097 -0.997033 -0.718732 0.0580886 0.130384 -0.184113 -0.177217 -0.0108691 0.259213 0.219504 0.049736 0.8206 0.799562 0.98037 0.792719 0.227933 0.899936 1.00032 -0.120469 0.264531 0.0422523 -0.769263 -0.824866 -0.33455 -0.692663 -0.0454237 0.244458 0.663005 0.652891 -0.0660687 -0.640786 0.053671 0.426717 -0.570236 0.368281 -0.215671 0.0250897 -0.0642277 0.64896 0.541294 0.0490752 0.576612 0.118663 0.940791 0.227919 0.836803 0.123694 -0.22147 0.149101 -0.395628 -0.0838959 -0.389475 -0.757695 -0.917947 -0.277264 0.742571 -0.103948 0.615472 0.119271 -0.140406 -0.369953 0.0512676 0.16585 0.559303 0.261534 0.46837 0.514624 0.563728 0.525688 0.00964527 0.0695814 0.728865 0.218722 0.723551 0.0685415 -0.40645 -0.278487 -0.126039 -0.641948 -0.46259 -0.424569 -0.939808 0.238196 -0.203907 0.428384 0.158892 0.411237 0.201971 0.303431 0.326784 0.385353 -0.435883 0.499038 0.4847 0.812176 0.763335 0.313135 0.512838 0.393495 0.933305 0.921435 -0.0767491 -0.336099 0.000767747 -0.118425 0.2896 0.42611 -0.117622 0.351849 -0.689608 -0.566841 -0.034548 0.257156 -0.187975 0.182747 -0.361238 -0.239945 -0.655662 -0.0366768 -0.0972592 -0.114565 0.81535 0.969494 0.105329 0.168685 0.968401 0.908211 0.922293 0.801152 -0.05996 0.0421574 0.249508 -0.0746706 -0.336264 -0.353228 0.373683 0.00357509 0.0608546 -0.318425 -0.313121 0.030321 -0.602956 0.425237 0.0115046 -0.428471 -0.720991 -0.135626 -0.540957 0.20814 0.165623 0.829235 0.514305 0.487766 0.766672 0.45296 0.156308 0.953582 0.209806 0.39668 -0.0254061 -0.401409 -0.640163 -0.31741 0.484245 -0.407164 -0.413603 -0.58975 -0.804184 -0.761992 -0.542625 -0.0391858 -0.0847856 0.46565 0.316064 0.0767638 -0.148893 0.268222 -0.0888178 0.56686 0.0977221 0.697188 0.774079 0.95261 0.550059 -0.042552 0.720657 0.441866 0.0246614 -0.467973 -0.783475 -0.187156 0.0947633 -0.433007 0.247116 -0.0774711 0.258384 -0.404148 -0.516319 -0.039645 -0.608141 -0.547973 -0.198085 -0.0423387 -0.182418 -0.19862 -0.0498244 0.883139 0.770991 0.314484 0.706984 0.288408 0.0666914 0.582266 0.557946 0.531317 -0.0476611 -0.894705 -0.385214 0.425865 0.362661 -0.37832 -0.229176 -0.247017 0.514599 0.0961754 0.148735 -0.377804 -0.4432 -0.31965 -0.323227 0.0999235 0.372462 0.118987 0.0673077 0.186977 0.662536 0.238405 0.827259 0.74779 0.0883365 0.416052 0.0993228 0.48728 -0.324591 -0.604566 -0.38291 -0.602162 -0.346007 -0.460942 0.340539 0.298279 -0.336704 -0.214058 0.612277 -0.319577 -0.513631 -0.609954 0.285054 0.388245 0.342516 -0.314843 0.629167 0.965582 0.235308 0.0594702 0.366465 0.965224 0.48461 0.863236 0.194116 -0.142359 -0.249186 -0.393491 -0.6527 -0.611858 -0.313151 0.418148 0.501351 -0.354315 0.346248 0.196391 -0.684241 -0.336601 -0.408029 -0.948714 0.710587 0.320002 0.494439 0.311587 0.00111561 0.0749448 0.166811 0.322542 0.920526 0.296281 0.444759 0.356157 0.683744 0.481898 0.581159 0.04854 0.0958011 -0.290293 0.241415 -0.303885 0.0304369 -0.402404 -0.473533 -0.230231 -0.390714 -0.612831 -0.910899 -0.351058 0.0282096 -0.41241 -0.0234283 0.752235 0.718745 0.980749 0.787337 0.0341757 0.171689 0.57374 0.329164 0.844223 0.109665 -0.0545003 0.179589 0.333452 -0.0841515 0.19161 -0.266781 -0.124477 -0.262984 -0.797308 -0.427968 -0.939197 -0.697868 -0.786176 -0.494168 -0.417755 0.126919 0.0609494 -0.181772 0.812103 0.0467264 0.80816 0.70899 0.43946 0.00655581 0.319796 0.382778 0.360385 0.974292 0.0873113 0.32667 -0.293599 -0.00675075 -0.281476 -0.538378 -0.634765 -0.383159 -0.559556 -0.169034 -0.216846 -0.3125 0.519251 0.251386 -0.152258 -0.198067 -0.326482 0.612182 0.237496 0.790531 0.0422108 0.832573 0.811645 0.646742 0.918234 0.804521 0.507731 0.638057 0.98392 0.837356 0.117861 -0.466168 -0.789787 -0.297488 -0.0911758 -0.9269 -0.623147 0.111214 -0.232126 0.355731 -0.488497 0.387294 -0.268938 -0.172182 -0.12899 0.106234 0.948245 0.715015 0.427999 0.0561803 0.862503 0.679829 0.892685 0.359835 0.58475 0.581989 0.305907 0.281734 -0.255004 -0.822237 -0.528653 -0.64026 -0.99318 0.00887907 -0.0171054 0.360509 0.597917 0.602342 -0.267361 0.00232534 0.319847 0.101583 0.235544 0.760189 0.0604164 0.522942 0.0538623 0.674382 0.514511 0.391615 0.876268 0.436626 0.405113 -0.0259515 -0.266598 -0.398456 -0.111341 0.102621 0.182949 -0.0322272 0.264848 0.550992 0.911827 0.890949 -0.0265068 0.266668 0.182966 0.460439 0.102949 -0.0154098 0.0677368 0.457147 0.00355391 0.365014 0.983215 0.413218 0.780962 0.629673 0.911916 0.572534 0.49657 0.342598 0.851347 0.862227 0.600065 0.690939 0.877725 1.04847 0.26267 1.1832 0.658629 0.404956 0.741437 0.458275 0.293201 0.0581938 0.65962 0.235155 0.7463 0.467067 0.0671676 0.183277 0.121582 0.315604 0.33439 0.0926618 0.366057 0.321342 0.798871 0.449649 0.31239 0.00607187 0.194854 0.794121 0.432357 0.796 0.420591 -0.00923655 0.543801 0.420097 0.331087 0.590373 0.833024 0.944997 0.461385 0.798176 0.373241 0.603174 0.219526 0.189457 0.690877 0.572646 0.458031 0.124588 0.956037 0.107532 0.289522 0.989074 0.178571 0.408718 0.836479 0.0615895 0.0587 0.0278797 0.971984 0.5342 0.0928812 0.53792 0.212516 0.261283 0.98956 0.481436 0.381295 0.100389 0.113087 0.28439 0.186221 0.914648 0.496882 0.0896108 0.0891023 
0.541768 0.492581 0.808105 0.826029 0.0707065 0.364134 0.997874 0.263287 0.0725452 0.26703 0.978162 0.969899 0.0962158 0.203005 0.681893 0.506744 0.841405 0.49828 0.597778 0.853339 0.0709143 0.856291 0.685094 0.380472 0.59601 0.139433 0.442938 0.465833 0.248228 0.976224 0.390829 0.667728 0.504287 0.559584 0.813169 0.648737 0.412852 0.398379 0.648891 0.978621 0.860464 0.0521094 0.185659 0.194966 0.715806 0.0202038 0.119567 0.774114 0.763415 0.135928 0.857775 0.444753 0.230081 0.971649 0.502449 0.658731 0.294396 0.910725 0.558758 0.0454676 0.310157 0.766352 0.984848 0.726975 0.140782 0.299265 0.560682 0.375904 0.127613 0.299423 0.0468904 0.709991 0.1142 0.810145 0.0919173 0.520911 0.500097 0.777886 0.815852 0.0234545 0.193318 0.15886 0.725229 0.921691 0.864158 0.90661 0.389872 0.439185 0.500499 0.00877189 0.216011 0.0103615 0.197167 0.689568 0.716179 0.307363 0.622679 0.0478674 0.228219 0.469176 0.0838894 0.160257 0.792252 0.584258 -0.0527552 0.332047 -0.000631076 0.378717 0.999374 0.851404 0.280224 0.91669 0.804343 0.586195 0.17755 0.875642 0.568608 0.319386 0.242435 0.0123402 0.614319 0.373714 0.377364 0.371741 0.268623 0.148088 0.659949 0.160455 0.051886 -0.319547 -0.38443 0.664658 0.849315 0.83643 0.916903 0.340516 0.0849252 0.375454 0.182862 0.103886 0.688142 0.6006 0.280184 0.992129 0.822789 0.462646 0.192988 0.0162898 0.698892 0.0924851 -0.0405609 -0.058577 0.384619 0.472646 0.302265 -0.618828 -0.840382 -0.946095 -1.07361 -0.453861 -0.61985 -0.821366 -0.445916 0.283651 0.616329 -0.0303924 0.685588 0.697045 0.435852 0.363226 0.741264 0.442024 0.707548 0.374935 0.454128 0.385217 0.123714 0.28735 -0.138663 -0.239209 -0.411864 -0.996841 -0.824726 -1.05087 -0.77039 -0.624549 -1.20049 -0.718091 -1.06152 -0.110747 0.083997 0.0511643 0.217973 -0.0347895 0.191146 0.257954 0.843236 0.243009 0.827935 0.341612 0.376174 0.378994 0.162278 0.226071 -0.220751 -0.196972 -0.332305 -0.59054 -0.165225 -1.28231 -1.12395 -0.89212 -1.02691 -0.818912 -0.569029 -0.0851169 -0.852333 0.0265342 0.608951 0.51532 -0.000998543 -0.333699 0.890397 0.44676 0.660309 0.0605823 0.400835 0.938955 -0.00607796 0.775044 -0.000652268 0.604932 -0.878792 -0.256947 -0.677408 -0.602431 -0.442023 -0.63911 -0.210495 -1.12441 -0.61002 -0.791498 0.59503 -0.0946304 0.21641 0.431475 0.517863 -0.176196 -0.09209 0.394537 0.682881 0.817673 0.617453 0.531271 0.304755 0.877924 0.0517075 0.570527 -0.115284 0.0459394 -0.489826 -0.144724 0.173567 -0.7248 -0.553655 -0.421773 0.0692063 0.189822 -0.220342 -0.188599 0.0876029 0.0220624 -0.322117 0.00641767 -0.278657 0.393334 -0.183661 -0.0501486 0.333954 0.270216 0.529532 0.852724 0.22511 0.662138 -0.0666075 0.436782 0.250278 -0.371791 0.552916 0.00465169 0.0327418 -0.787241 -0.864565 -0.365503 -0.270622 0.227498 -0.47364 0.222463 0.789415 0.569887 -0.688952 -0.0227414 -0.420923 0.134977 0.332088 0.100335 0.586918 0.938268 0.756928 0.535172 0.812507 -0.0882237 0.056281 0.412633 0.124601 0.497302 0.0595965 0.364473 0.0792323 -0.0356488 -1.18513 -0.41584 0.28168 0.335762 0.336536 0.0433478 -0.0959397 0.0970823 -0.571018 0.127062 0.0374626 0.590544 0.29599 0.265489 0.555822 0.339772 0.828542 0.0240698 0.393783 0.583063 0.465857 0.333249 -0.140113 -0.35841 -0.207832 0.0227126 0.0526256 0.729944 -0.181532 -1.0601 -0.135676 -0.237268 0.184425 -0.395301 -0.159229 -0.198908 -0.149021 0.249192 -0.21662 0.252407 0.0678225 0.411553 0.46054 0.369314 0.669889 0.821976 0.100042 -0.199388 0.383576 -0.0933436 -0.31523 0.557462 -0.24373 -0.391727 -0.25584 0.74372 -0.0842254 -0.61265 -0.861525 0.129722 0.144502 -0.298204 -0.72194 -0.104557 -0.147494 0.306677 0.247742 0.645094 0.642471 0.451148 0.201773 0.97389 0.764615 0.875878 0.0897681 0.224689 0.0279906 -0.0891197 0.484214 -0.37215 -0.0622964 0.218315 0.347188 -0.181481 -0.375773 -0.665894 -0.844506 -0.85496 -0.435423 -0.565263 0.247204 0.190019 -0.223299 -0.496769 0.0191453 0.372736 0.700754 0.434207 0.557773 0.779595 0.674066 0.0184764 0.384583 0.379054 -0.014488 -0.49374 -0.0821364 -0.0926145 -0.724538 -0.213125 -0.319919 -0.250923 -0.342838 0.291724 0.0707866 -0.516872 -0.787266 -0.0989661 -0.601823 -0.0199673 -0.323402 -0.766422 0.358629 0.129881 0.167256 0.968252 0.808438 0.0606525 0.831443 0.0650434 0.421532 0.653021 0.672412 -0.161068 -0.307859 -0.0205554 -0.412121 0.337724 -0.00994155 0.20991 0.126655 0.109594 -0.216094 0.59069 -0.134289 -0.57952 -0.732331 -0.651867 -0.639739 -0.705003 0.0868072 0.176884 0.0134739 0.0481123 0.776118 0.113197 0.0656247 0.953264 0.315409 0.34431 0.364481 0.530972 -0.0205995 -0.604744 0.2021 0.777541 0.202974 0.519409 0.121395 0.247346 0.0950795 0.367037 0.455475 -0.630001 -0.746433 -0.960538 -0.395054 -0.162548 0.146873 -0.214435 0.292524 0.308176 0.425715 0.272247 0.247888 0.466256 0.348592 0.673928 0.331066 -0.00559002 -0.168217 -0.92597 0.266398 0.484272 0.244975 0.611738 0.807391 0.396353 0.0404207 0.0699332 -0.100307 -0.874437 -0.922254 -0.6974 0.131349 0.156992 -0.377231 0.147447 0.233433 -0.00902529 0.661093 0.865636 0.57843 0.677221 0.313434 0.0341435 0.38233 0.617921 0.214181 -0.169234 -0.429054 0.62529 0.435833 0.334864 0.198665 0.272129 -0.352772 -0.288709 -0.877769 -1.30142 -1.51799 -0.961567 0.104467 0.150935 -0.244399 0.25119 0.428213 0.8087 0.758253 0.912057 0.344253 0.868458 0.260084 0.382897 0.347168 0.696557 -0.226144 -0.352162 -0.385234 0.341735 -0.120363 -0.141597 -0.720691 -1.16765 -0.922501 -1.23396 -0.9953 -1.43338 -0.604271 -0.611128 -0.583886 -0.369164 0.154658 0.36942 0.47689 0.635181 0.757 0.563486 0.510401 0.373313 0.131638 0.449783 0.167503 0.142394 0.348149 -0.649544 -0.713735 -0.506678 -0.33427 -0.604998 -0.953054 -1.02631 -0.737559 -0.744248 -0.467111 -0.518438 0.254563 -0.270051 -0.384657 0.13881 -0.128915 0.568809 0.307204 0.728022 0.513272 0.227663 0.324081 0.901378 0.457821 0.704629 0.59725 -0.00637396 0.648134 -0.619116 -0.577469 -1.16638 -0.986384 -0.197099 -0.777188 -0.239185 0.0797275 0.0546601 -0.133405 -0.279586 -0.512856 0.111819 -0.281063 0.251801 0.158956 0.215402 0.869264 0.676091 0.911551 0.204059 0.611446 0.572961 0.733878 0.21883 -0.15555 -0.393013 -0.463067 -0.029236 -0.777516 -1.15279 -0.495141 -0.747278 0.260125 0.891714 0.441226 0.752622 0.0448747 -0.213294 0.220813 -0.217288 -0.000596946 0.742828 0.149651 0.828552 0.881255 0.151792 0.318417 0.868812 0.116175 0.556131 0.885092 0.748626 0.189207 -0.234496 -0.240212 -0.756444 -0.104129 -0.269137 0.179256 0.0902084 0.567251 0.241896 0.124533 0.775032 0.430476 0.272062 0.0162955 -0.0985141 0.70686 0.275477 0.301241 0.0341993 0.686827 0.824398 0.795242 0.923788 0.103153 0.688428 0.401998 0.601758 0.182472 0.138629 0.134142 0.781468 0.663834 -0.0956284 0.146804 0.179455 0.339613 0.353534 0.653796 0.664228 0.0281549 -0.00323699 0.31496 0.210571 0.417415 0.715414 -0.0270518 0.836334 0.327727 0.340013 0.219966 0.128499 0.676501 0.95436 0.928854 0.245622 0.886684 -0.035517 0.106229 0.877453 0.887762 0.87886 0.516785 0.658878 0.157962 0.231838 0.201446 0.0313676 0.762032 0.56796 0.229844 0.224779 0.090391 0.00118176 0.78728 0.452768 0.880562 0.43678 0.969839 0.0909076 0.883858 0.00112214 0.85975 0.815734 0.0372683 0.328417 0.504527 0.269231 0.696427 0.828133 0.110361 0.890803 0.791574 1.00317 0.359093 0.838449 0.25103 0.64567 0.646228 0.853815 0.537207 0.417771 0.1774 0.280101 0.244657 0.9519 0.587741 0.160364 
0.234801 0.297779 0.770159 0.0587748 0.827689 0.970093 0.350542 0.561197 0.0430173 0.991101 0.441738 0.296731 0.160334 0.168102 0.895347 0.20321 0.353977 0.290469 0.915884 0.260153 0.394639 0.697227 0.296609 0.112996 0.120883 0.675355 0.697046 0.256558 0.969183 0.0563452 0.994061 0.189648 0.407098 0.0995747 0.87959 0.132258 0.882892 0.00550673 0.557418 0.191571 0.0417771 0.400774 0.873737 0.347214 0.925575 0.220188 0.409218 0.854561 0.373749 0.612561 0.261724 0.881008 0.223586 0.810632 0.295634 0.721158 0.510497 0.931153 0.890691 0.842061 0.747818 0.080391 0.659072 0.690079 0.00418084 0.118854 -0.048448 0.510778 0.750249 0.991285 0.909707 0.182933 0.733038 0.492784 -0.041074 0.1812 0.722126 0.73447 0.777236 0.609993 0.246775 0.944926 0.193695 0.436467 0.698529 0.181384 0.520324 0.458836 0.0763127 0.850717 0.972486 -0.000101807 0.373035 0.389961 0.509693 0.0354644 0.20012 0.466337 0.616677 0.959148 0.734398 0.858718 0.607286 0.300304 0.439342 0.412832 0.892696 0.638404 0.676305 0.890125 0.945291 0.605385 0.708922 0.856906 0.0263456 0.527324 0.283335 0.164526 -0.059215 0.536121 -0.264384 0.40232 0.261565 0.253535 0.430313 0.010393 0.265271 0.913666 0.022088 0.530964 0.0540392 0.856061 0.119046 0.256823 0.674909 0.0477035 0.614787 0.567886 0.665537 0.746808 0.671031 0.0225631 0.217926 0.0600192 0.221976 0.701294 -0.0390867 -0.0929102 0.43729 -0.486488 -0.36569 -0.0399994 -0.827266 0.0689597 0.307788 -0.195706 -0.671537 -1.04612 -0.805271 -0.244207 -0.0322069 0.100399 -0.331616 -0.12039 0.855987 0.316747 0.819857 0.13314 0.0684884 0.0839451 0.74319 0.757103 -0.000902557 -0.196182 0.328189 0.291515 0.333835 -0.110508 -0.470341 -0.125722 -0.572507 -1.14468 -0.506612 -0.930134 -0.893176 -0.479591 0.0111272 -0.593312 -0.050563 -0.113829 0.343102 0.816354 0.721653 0.335855 0.211474 0.895931 0.225136 0.245077 0.697529 0.555175 0.854238 0.209592 -0.0974925 0.522976 -0.789914 -0.72204 -0.628837 -0.0294963 0.0399253 -0.956719 -0.613252 -0.404532 -0.693524 -0.232055 -0.338691 -0.225229 -0.554381 0.310219 0.621718 -0.0499615 0.348246 0.566785 0.733049 0.617768 0.915184 0.18216 0.46509 -0.00868083 0.337527 -0.212397 -0.0188816 0.466828 -0.0827958 -0.655753 -0.350169 -0.365123 -0.0236193 -0.225684 -0.148951 -0.855225 -0.556206 -0.438245 0.536662 0.0670437 0.238568 0.110473 0.123824 0.349634 -0.00278984 0.235543 0.982691 0.85342 0.994816 0.778725 0.978576 0.506937 0.107686 -0.234124 0.254289 -0.0835163 -0.792313 -0.146768 -0.302176 -0.865582 -0.729215 -0.231937 0.179148 -0.290787 -0.362056 -0.330431 -0.180509 -0.338091 -0.0746941 -0.0800995 -0.257349 -0.0307013 0.620017 0.397001 0.0385656 0.508614 0.397416 0.360528 0.021794 0.037746 -0.121503 -0.379932 0.641607 -0.343893 -0.321358 0.346739 -0.00167402 -0.385419 -0.971414 -0.590702 -0.0400424 -0.223288 0.199189 -0.532771 0.186853 0.330849 -0.421249 0.255736 0.125668 0.0497133 0.416344 0.164579 0.0506728 0.148508 0.442911 0.0288671 -0.0214372 0.236383 0.016875 -0.0249537 0.155436 0.148104 0.166845 0.197019 0.254219 -0.702557 -0.425863 0.362846 0.814193 0.213594 -0.299453 0.0600184 0.326795 -0.2618 -0.224875 0.0446322 -0.128142 0.275038 0.832463 0.361485 0.588082 0.439103 0.387204 0.224099 0.508695 0.688195 0.464918 0.454314 -0.136769 0.178093 0.025264 0.249443 -0.250731 0.142084 0.128954 0.0433573 0.111975 -0.326818 0.172947 -0.137754 0.0911465 0.0153281 -0.866383 0.00429452 0.493281 0.968974 0.533042 0.298203 0.84571 0.0967294 0.651217 0.00608882 0.48773 -0.202401 0.3149 0.561706 0.306544 0.136681 -0.442446 0.258298 0.0684954 -0.0297425 0.432351 -0.107319 -0.0730279 -0.171062 -0.016674 0.195396 -0.635902 -0.0694616 -0.583794 -0.310612 0.411998 0.12211 0.468417 0.111845 0.777954 0.283427 0.125363 0.972134 0.610176 0.343107 -0.276919 0.544294 0.0129531 -0.288458 -0.243845 -0.383146 -0.37059 -0.2522 0.399776 -0.247327 -0.827978 -1.12274 -0.322333 0.0356799 -0.828546 -0.0200355 -0.201728 0.29114 -0.105965 0.59155 0.35927 0.590308 0.191152 0.436123 0.225523 0.372059 0.367359 0.13029 0.637667 -0.0228994 0.175099 -0.412559 -0.484803 -0.330783 -0.411563 0.199017 0.238079 0.244365 0.069454 -0.238864 -0.514233 -0.399894 -0.715909 -0.330741 -0.62374 -0.273591 0.167176 0.932139 0.059629 0.548408 0.873721 0.484465 0.0823242 0.625295 0.797765 0.806695 0.77223 0.22531 0.278962 -0.101604 -0.319835 0.111425 0.351453 -0.445296 0.226582 0.173797 0.0178314 0.27444 -0.415372 -0.98371 -0.329436 -0.448943 -0.642347 0.134858 0.0293571 0.141112 0.338347 0.683741 0.291684 0.00426677 0.176698 0.762808 0.772941 0.226482 -0.0339486 0.0191217 -0.275476 -0.374266 -0.117987 -0.162393 -0.263037 -0.692003 0.307319 -0.473173 -0.0249584 0.0575167 -0.0424187 -0.90942 -1.37817 -1.33535 0.236274 0.297476 0.409935 0.0271215 -0.163531 0.409729 0.399403 0.274311 0.3259 0.785363 0.969255 0.135365 0.531749 0.59621 0.437957 -0.446055 -0.476556 -0.172523 -0.476039 -0.392491 -0.224532 0.118352 -0.105253 -0.675829 -0.779422 -0.891448 -1.01594 -0.215625 0.170779 0.391803 0.103289 -0.414963 0.689109 0.167866 0.171003 0.796998 0.760472 0.242836 0.459731 0.677734 -0.106645 0.1711 0.231757 0.533145 -0.0767933 0.234006 -0.42452 -0.266391 -0.685563 -0.302562 -0.932138 -0.328968 -0.313666 -0.707581 -0.349017 0.0749575 0.672206 0.43921 0.446393 -0.114039 0.720355 0.64343 0.539434 0.503339 0.0890601 0.832809 0.752441 0.777134 -0.0961411 0.592391 0.263254 -0.327436 -0.547512 -0.0144639 -0.0198211 -0.130558 -0.485582 -0.894742 -0.299206 -0.555167 -0.946405 -0.927552 -0.451451 -0.159498 -0.0179297 0.276363 0.0307638 0.43677 0.282159 0.200616 0.739257 0.0220808 0.103911 0.506676 0.168016 0.818743 0.573938 0.0711601 0.324014 0.112445 -0.679233 -0.188521 -0.945006 -1.32812 -1.12638 -0.818927 -0.906542 -0.685189 -0.0488622 -0.0039399 -0.534413 -0.101902 0.00512236 0.249298 -0.464857 0.449966 0.755999 0.783853 0.155216 0.0585726 0.431845 0.1454 0.0906431 0.7587 0.99161 0.940284 0.0058211 -0.114397 -0.734951 -0.356494 -0.401091 -1.18077 -0.956791 -1.10958 -0.268264 0.574169 0.207699 -0.179862 -0.133221 -0.382853 0.261346 0.0854568 0.416793 0.682491 0.00873015 0.346105 0.326176 0.904878 0.294168 0.0863777 0.7404 0.272584 0.38367 0.391868 0.34058 -0.299408 -0.300972 -0.058913 -0.193395 -0.785644 -0.0873853 0.50263 0.108844 0.331117 0.273184 0.222603 0.0741051 0.484659 -0.206144 0.394591 -0.201436 0.163202 0.327262 0.55787 0.511899 0.369787 0.0171498 0.236884 0.311419 0.100107 -0.0447336 0.137185 0.230826 -0.113826 0.577891 0.277246 0.157766 -0.31915 0.134981 0.643889 -0.0212778 0.207214 0.514637 0.391709 0.0333781 0.916172 0.61846 0.749851 -0.121793 0.461445 0.839247 0.631348 0.330903 0.443817 0.227367 0.353503 0.331846 0.24305 0.878681 0.57738 0.717319 0.556138 0.724993 0.914592 0.400219 0.462667 1.11515 0.418742 0.647278 0.601887 0.833498 0.572237 0.231886 0.312643 0.858629 0.0505693 0.434507 0.202433 0.51488 0.348624 0.523695 0.366972 0.69367 0.507914 0.518095 0.623005 0.989182 0.470954 0.426589 0.746492 0.059807 0.160297 0.699034 0.180388 0.440284 0.785173 0.357671 0.595383 0.106829 1.01844 0.751747 1.00077 0.478431 0.286211 0.0208096 0.0762504 0.0404332 0.682031 0.896032 0.618134 0.980277 0.520602 0.764947 0.464031 0.965928 0.257249 0.741545 0.190576 0.340238 0.503518 0.377716 0.669548 0.123498 0.957217 0.854244 0.657345 0.361804 0.8657 0.688894 0.203908 0.312813 0.815336 0.726748 0.374287 0.736784 0.132528 0.395437 0.106928 
