0.552029 0.951918 0.889385 0.889794 0.775129 0.591164 0.685023 0.183734 0.0212872 0.77401 0.792616 0.494793 0.980088 0.336914 0.508108 0.775015 0.678876 0.873406 0.334914 0.906703 0.959988 0.523988 0.660311 0.854033 0.732408 0.580607 0.260903 0.00194155 0.631702 0.0200003 0.144258 0.544449 0.554632 0.693191 0.457343 0.562466 0.465671 0.897772 0.0357348 0.702109 0.445698 0.89007 0.93467 0.648892 0.824698 0.248826 0.687496 0.767901 0.398856 0.605311 0.192367 0.0192382 0.618117 0.353279 0.565558 0.340871 0.0144185 0.331151 0.64861 0.189755 0.209151 0.201439 0.0300199 0.159206 0.649294 0.220553 0.759755 0.495817 0.730805 0.140279 0.718395 -0.0128867 -0.0149889 0.562334 0.138542 0.41498 0.194384 0.148172 0.246734 0.562762 0.036114 0.974565 0.522839 0.445816 0.821705 0.389907 0.174647 0.298805 0.263706 -0.0070341 0.608288 0.780101 0.818285 0.0280623 0.775894 0.76002 0.241118 0.370663 -0.0132969 0.580466 0.152625 0.365612 0.237189 0.249969 0.383806 0.892128 0.159603 0.949719 0.804031 0.417503 0.682329 0.0862862 0.212982 0.580991 0.718535 0.408793 0.650093 0.717427 0.74362 0.373504 0.572884 0.0575466 -0.0547926 0.686838 0.398879 0.362907 0.326691 0.39962 0.0509925 0.687434 0.152448 0.284666 0.502688 0.48438 0.304645 0.124053 0.0628031 0.912719 0.646672 0.279343 0.953575 0.7361 0.626899 0.114416 0.655847 0.0417095 0.752866 0.674801 0.0878164 -0.0203683 0.287373 0.180393 0.320636 0.359894 0.217901 0.226945 0.0682278 -0.880543 -0.329584 -0.827556 0.28683 -0.648949 -0.767142 -0.256756 -0.24967 0.335778 0.77136 0.501838 0.884754 0.0638933 0.854356 0.421307 0.341191 0.649363 0.179133 0.173489 0.8593 0.54637 0.420113 0.365907 0.348117 0.241477 -0.541635 -1.13195 -0.394541 -0.351628 -0.511204 -0.720848 -0.331914 -0.505361 -0.723168 -0.457023 -0.201361 0.945936 0.172099 0.439054 0.440183 0.148855 0.810323 0.922368 0.88972 0.508399 0.136244 -0.0368942 0.199179 -0.500892 -0.462571 -0.262039 -0.314564 -0.240304 -0.257764 -0.710444 -0.688438 -0.566188 -0.821912 -0.0573529 0.183598 -0.282643 0.141914 0.573679 0.230199 0.592363 0.320751 0.097169 0.724232 0.169719 0.440824 0.478366 0.544741 0.400105 0.414375 0.75371 0.0980298 -0.801622 -0.0752712 -0.263666 -0.807267 -0.662419 -0.544603 -0.890215 -0.296356 -0.391137 -0.169029 -0.455229 -0.507638 0.0102656 0.541469 0.916111 0.713649 0.828333 0.726074 0.98274 0.975367 0.98755 0.485603 0.807924 0.665257 0.317748 0.374106 0.441608 0.175771 -0.108913 0.00862141 -0.463362 -1.31918 -1.19989 -0.722619 0.334221 0.00586461 -0.219401 -0.563019 -0.139284 -0.352201 0.27891 0.637866 0.0213528 -0.0195039 0.620594 -0.00591406 0.944436 0.203739 0.238051 0.909809 0.663933 0.567769 -0.155619 0.00396769 0.540837 -0.0243691 -0.0482676 -0.487827 -0.412645 -0.516324 -1.3273 -0.548512 0.510658 -0.182233 -0.128681 0.577741 0.206113 -0.332299 -0.66417 -0.225883 0.300009 0.652392 0.303485 0.597777 0.536009 0.843488 0.509748 0.0519192 0.408032 0.257929 0.427751 0.402159 0.143791 -0.174431 0.402851 -0.336308 -0.588727 -0.252533 -0.979957 -0.469204 0.0167401 -0.39246 0.215832 0.509084 0.473353 -0.170999 0.00796745 0.373224 -0.262052 0.541455 0.74169 0.655166 0.334588 0.905821 0.133443 0.071056 0.856266 0.692553 0.397076 -0.0105794 -0.0882535 0.364275 0.145865 0.263192 -0.401299 0.256142 -0.56258 -0.318837 0.173034 0.516477 0.390868 -0.399628 0.256833 -0.375541 -0.0588276 -0.131706 -0.252069 0.333272 0.763224 0.333121 0.198709 0.0760994 0.0037801 0.027471 0.76898 0.0996356 -0.428486 -0.403097 -0.0323063 -0.0151948 -0.289235 -0.320016 0.481858 0.604361 -0.277991 -0.360225 -0.293867 -0.100416 -0.506826 -0.000496089 0.201028 -0.237642 -0.658602 0.0747163 0.423453 0.0777029 0.611063 0.375844 0.178572 0.526516 0.679108 0.512421 0.673391 0.633717 -0.286878 -0.320633 -0.342295 -0.786936 -0.474152 0.250385 0.434054 0.349604 0.475729 -0.283564 -0.976536 -0.839303 -0.602989 0.263777 0.165847 -0.916542 -0.258052 -0.535335 0.642969 0.0720401 0.392036 0.666906 0.85339 0.654622 0.398453 0.504402 0.961943 -0.144431 0.357115 0.432157 -0.453267 -0.336789 0.160541 0.369544 0.218258 -0.0107992 -0.0884665 -0.0920868 -0.277442 -0.355449 -0.127253 -0.552676 -0.334764 -0.706009 0.247585 -0.690595 0.237273 0.79605 -0.0763437 -0.0281715 0.621078 0.290895 0.0778492 0.414788 0.115986 0.592739 0.00989898 -0.339897 -0.020845 -0.507247 -0.12054 -0.16611 -0.0522593 0.0553693 -0.26393 0.00452675 0.208794 0.112224 0.134193 0.072578 -0.708871 -0.467964 0.255669 0.167695 0.453069 0.215602 0.00535623 0.469213 0.656047 0.0438706 0.33333 0.280963 0.353681 0.381042 0.733571 0.590299 0.104606 -0.54492 -0.24683 -0.137103 0.406156 0.428478 0.47666 0.183143 -0.0327091 0.00841108 0.744648 -0.898795 -0.995858 -0.790302 -0.0518127 0.297865 0.145145 0.443803 0.794221 0.195574 0.572183 0.387426 0.463972 0.789977 0.473971 0.641421 0.147147 -0.341145 -0.247199 -0.631806 -0.211355 0.413167 -0.127563 0.0657173 -0.143368 0.520881 0.286868 0.419434 -0.118254 -0.28897 -1.41278 -1.07448 -0.370772 0.0103701 -0.00181092 -0.178392 -0.033634 0.684794 0.414609 0.125376 0.562179 0.837765 0.708035 0.112498 0.762957 -0.0725855 0.297521 -0.432305 -0.0190972 0.32234 0.184057 -0.0475827 -0.457303 0.192928 -0.480458 -0.295875 -0.4258 -1.25921 -1.3384 -0.143642 0.400953 -0.482891 0.578948 0.738617 0.00680736 0.566644 0.605819 0.777993 0.720759 0.827685 0.995276 0.613326 0.000536693 0.102837 -0.0864314 -0.232196 0.165758 -0.350131 -0.0772853 -0.0867055 -0.0441663 -0.165814 -0.697811 -0.514278 -1.0867 -0.411278 -0.489951 -0.0460743 0.083908 -0.345016 0.434629 -0.111634 0.295348 0.857245 0.987587 0.224647 0.634018 0.400473 0.527909 0.274129 0.564905 0.296305 -0.539441 -0.674888 -0.0444108 -0.188551 -0.327855 -0.311917 -1.00745 -0.642523 -1.10408 -0.787345 -0.263633 -0.185361 -0.30663 -0.473694 0.212999 0.100745 0.30951 0.00969844 0.327069 0.147131 0.225348 0.213229 0.745011 0.392241 0.221575 0.477755 0.62061 -0.0923613 -0.0491666 -0.445578 -0.425043 -0.738307 -1.02361 -1.19319 -0.761482 -0.731314 -0.136978 -0.399523 0.461702 -0.374377 0.204568 -0.457801 0.602035 0.497393 0.0877459 0.836079 0.0118635 0.10423 0.201465 0.537466 0.193912 0.0749389 0.30832 0.128503 0.0489932 -0.335203 -0.991909 -1.0243 -0.637061 -0.233769 -0.210853 -0.241976 -0.227487 0.00863304 -0.189728 0.209821 0.249522 -0.409101 -0.234644 0.480777 0.184603 -0.0439558 0.198288 0.428636 0.257148 0.970554 0.437703 0.0407353 0.637525 0.881109 0.590674 0.603863 -0.0344427 -0.147357 -0.539264 -0.566285 -0.19518 -0.632787 -0.746742 0.129836 0.700774 0.578278 0.091974 0.365599 -0.0100278 0.0292546 0.231921 0.397318 0.726695 0.346241 0.894497 0.383895 0.176532 0.846571 0.854869 0.0831817 0.0344133 0.385219 0.169462 0.355852 0.276561 0.242949 0.358383 0.102023 0.235251 0.933269 0.634075 0.0180134 0.144243 0.502478 0.520442 0.109505 0.12171 0.883138 0.103535 0.834012 0.863121 0.365866 0.676814 0.534674 0.667855 0.698399 0.794837 0.829149 0.505463 0.317935 0.53329 0.775106 0.0245905 0.177753 0.432403 0.247492 0.534314 0.533307 0.559368 0.854329 -0.0278222 0.0715806 0.294006 0.214948 0.462124 0.754444 0.52882 0.940759 0.329531 0.0110593 0.665717 0.0324574 0.104227 0.6885 0.627507 0.504985 0.275347 0.75066 0.347461 0.776263 0.174221 0.0180875 0.94431 0.873098 0.266511 0.977685 0.854957 0.780389 0.727317 0.186003 0.720992 0.293233 0.579126 0.747055 0.727844 0.447892 0.179231 0.433791 0.725967 0.449663 0.745308 0.388582 0.90019 
0.493876 0.579578 0.960464 0.512042 0.88762 0.226579 0.117407 0.256377 0.925062 0.512882 0.0147564 0.010285 0.860736 0.391358 0.54953 0.952388 0.793102 0.665898 0.744723 0.562341 0.261043 0.343701 0.579444 0.710876 0.684831 0.960624 0.20861 0.100987 0.284736 0.561711 0.67526 0.0937519 0.688355 0.174089 0.90762 0.362235 0.646978 0.940248 0.227368 0.57673 0.81711 0.415316 0.410664 0.661915 0.82076 0.00701 0.0901611 0.534624 0.268047 0.170712 0.0543783 0.0649124 0.972595 0.799801 0.256156 0.20648 0.305913 0.479995 0.279854 0.499388 0.218362 0.0057739 0.56438 0.285498 0.324445 0.469414 0.654559 0.528118 0.88609 0.0605206 0.613962 0.13517 0.287656 0.00139662 0.00086282 0.0666344 0.795821 0.24863 0.14508 0.169852 0.867847 0.170928 0.577041 0.794237 0.748018 0.943631 0.613626 0.215178 0.36493 0.145228 0.092348 0.0352 0.819118 0.486765 0.274631 0.389547 0.0649219 0.709795 0.206134 0.550132 0.0477426 0.342306 0.769413 0.193735 0.097269 0.728072 0.39561 0.257781 0.148574 0.209467 0.896468 0.920007 0.565424 0.0730237 0.309548 0.57343 0.596467 0.226811 0.40092 0.035853 0.356518 0.406274 0.629328 0.705066 0.369982 0.548947 0.674715 0.412842 0.343219 -0.129599 0.0588466 0.0395701 0.192001 0.4656 -0.00823762 0.319121 0.631233 0.808099 0.902505 0.309111 0.425853 0.312181 0.82314 0.723117 0.0366496 0.276444 0.433166 0.483977 0.0295479 -0.0899054 0.550781 -0.136254 0.53018 0.347781 0.564323 -0.198558 -0.199775 -0.573173 -0.606431 -0.0431517 0.600421 -0.377703 -0.528873 -0.15629 0.418369 0.0771093 0.0693286 0.205113 0.890816 0.944211 0.350014 0.349295 0.98553 0.0178884 -0.121549 0.714501 0.331067 -0.335378 -0.404029 0.137447 0.0339246 -0.273352 -0.4559 -0.40907 -0.52957 -0.47656 -0.628257 -0.152175 0.0517907 -0.19111 -0.0699071 -0.106181 -0.0257656 0.560053 1.00466 0.942732 0.960154 0.309524 0.158196 0.961229 0.967424 -0.0224246 -0.145109 -0.0132192 0.412908 -1.09346 -0.223486 -0.539132 -0.0431508 0.0559308 -0.00900927 -0.454172 -0.304252 -0.0249697 -0.979677 -0.0168992 0.0297104 -0.0912002 -0.501267 0.626397 0.29542 0.0902089 0.659861 0.482583 0.0276519 0.743836 0.887764 0.481323 -0.0395099 0.266409 0.122569 -0.0424799 0.0874835 0.133257 -0.19181 -0.171522 -0.762902 -0.0649005 -0.591674 -0.51416 -0.420478 -0.22775 -0.561154 0.0440874 0.111262 0.375921 0.20434 0.796121 -0.0114825 0.148646 0.41111 0.920726 0.738958 0.672063 0.629787 0.692665 0.884006 0.317309 0.421136 0.335031 0.400118 -0.0209027 0.0844155 -0.371044 -1.07 -0.35346 -0.13433 0.092003 -0.0476786 -0.518252 0.122225 0.368911 -0.697951 -0.0229276 -0.539305 0.252491 0.479304 0.391883 0.331718 0.47687 0.915741 0.858699 0.31959 0.692362 0.0640376 0.042833 0.0615458 0.308688 0.0700021 0.162643 0.487659 0.443383 -0.311056 -0.929922 -0.430634 0.118571 -0.391305 0.256752 0.136844 0.0846938 -0.254501 -0.635948 0.243288 0.378714 0.654704 0.629559 0.948022 0.106731 0.0264318 0.238973 0.287678 0.33573 0.811478 0.455249 -0.240477 0.0747711 0.420148 -0.0572137 -0.378138 0.0408504 -0.806309 -0.745593 -0.694692 0.299603 0.288844 0.534717 0.337521 0.501012 -0.487303 -0.438605 0.203571 0.593259 0.284544 0.857187 0.527797 0.733872 0.774889 0.566154 0.158083 0.964087 0.413598 0.301168 0.03189 -0.160735 0.125824 0.354401 -0.129993 -0.565443 -0.229205 -0.485656 -0.754517 -0.317908 0.0728055 0.190163 -0.068237 0.31484 0.0129593 -0.231999 0.104009 0.65139 -0.045182 0.00603782 0.0876758 0.0674624 0.913806 0.337895 0.998698 0.451564 0.0195557 -0.365299 0.441411 -0.587721 -0.284825 -0.140842 -0.470528 -0.205561 -0.242002 -0.310029 -0.1723 -0.492128 -0.525505 0.0774026 0.340203 -0.346876 -0.049496 0.286356 0.0645625 -0.144541 -0.218649 0.629908 0.254963 0.773749 0.396069 0.391406 0.809965 0.336099 0.522323 -0.174873 0.403848 -0.580829 -0.589734 -0.161185 -0.244924 -0.239595 -0.785333 0.0362992 0.335798 -0.774936 -0.599779 -0.985094 0.0348302 0.254432 -0.230157 -0.189907 -0.400389 0.53455 0.197889 0.272397 0.372588 0.868341 0.0987465 0.175315 0.376962 0.861966 -0.0202391 0.455738 0.187412 -0.640811 -0.409676 -0.710245 -0.285578 -0.153039 -0.279475 0.164754 0.192711 0.662922 -0.481083 -0.389951 -0.567401 -0.484586 -0.723205 -0.24846 -0.843628 -0.215566 -0.0883475 0.00399081 0.94544 0.299098 0.563362 0.427393 0.189723 0.498075 0.350988 0.468212 0.0185638 -0.404098 -0.857676 -0.454823 -0.625527 0.10084 -0.0903821 0.0882901 0.49863 0.357533 0.120233 -0.149909 -0.714545 -0.382554 -1.23124 -0.93211 0.0988988 -0.3998 -0.140682 0.327612 0.041684 0.794628 0.73409 0.847261 0.918693 0.832396 0.423787 -0.123304 -0.35665 -0.541727 -0.163701 -0.496761 0.00946369 0.134784 0.591823 -0.0830842 0.681053 -0.123643 0.188966 0.532821 -0.490153 -0.914246 -1.389 -0.457692 -0.295505 -0.0587874 0.285179 0.355022 0.402614 0.474582 0.813146 0.55031 0.657207 0.258027 0.851422 -0.193422 -0.52573 -0.175424 -0.752111 -0.00432301 0.390756 0.209991 0.254242 0.488575 0.296743 0.238664 -0.425409 -0.0208338 -0.628802 -0.952333 -0.935415 -0.151493 0.360009 0.523383 0.333942 0.714127 0.805625 0.0901923 0.4252 0.537297 0.688464 0.49787 0.111309 -0.159249 0.0566835 -0.565987 0.207293 -0.414987 -0.212363 -0.212937 0.330153 0.01546 0.179998 -0.223022 -0.693323 -0.710159 -0.54501 -1.40269 -0.277076 0.208305 0.325357 0.392001 0.419676 0.164145 0.864167 0.667285 0.58987 0.948406 0.23891 0.839272 0.0937747 0.360767 0.406701 -0.622996 -0.219334 0.235037 0.372274 -0.291426 -0.471125 -0.184456 -0.112231 -0.76422 -0.411764 -1.00626 -1.06986 -0.426724 -0.431724 -0.0351924 0.0149658 0.0701378 0.360664 0.668606 0.971379 0.738672 0.630005 0.49963 0.0284017 0.927034 0.153908 0.165701 0.299038 -0.153978 -0.104689 0.139872 -0.425435 -0.665279 -0.811623 -0.30087 -0.911235 -0.48617 -0.983293 0.261223 -0.0852081 -0.107638 0.433931 -0.0912069 -0.0559737 0.472377 0.638032 0.704469 0.318444 0.403592 0.767147 0.434876 0.95663 0.612699 0.760641 0.626321 0.515116 0.284391 -0.613622 -0.392443 -1.31484 -0.831527 -0.926552 -0.476029 -0.297134 -0.468289 0.173816 0.165107 0.10486 -0.493532 0.0606785 0.541474 0.614698 -0.00212616 0.553586 0.683529 0.51503 0.561516 0.272383 0.933777 0.999833 0.680857 0.320668 0.245947 -0.084413 -0.352606 -0.805892 -0.968937 -0.543131 -0.33479 -0.251756 0.0255589 -0.135337 0.0328715 0.338509 0.215492 0.385995 0.22748 0.359183 -0.0755471 -0.188591 0.246996 0.642742 0.33158 0.701628 0.959524 0.711696 0.478275 0.365924 0.197165 0.72053 -0.190246 -0.74591 -0.350364 0.0112275 -0.505904 0.198632 -0.301315 0.283656 0.503334 1.02136 0.719135 -0.206519 0.581832 0.653233 0.0222894 0.153283 0.286527 0.0271646 0.299181 0.579903 0.8863 0.311257 0.920959 0.772687 0.55135 0.541467 0.816844 0.390541 0.812161 0.41663 0.482955 -0.0864131 0.604309 -0.0469519 0.398926 0.599748 0.430709 0.588452 0.539309 0.909678 0.0631802 0.134762 0.969969 0.315218 0.0320214 0.32359 0.863845 0.817225 0.0743766 0.869101 0.245838 0.801075 0.673727 0.333672 0.0302881 0.299517 0.30127 0.25256 0.166124 0.136908 1.03334 0.465686 0.631765 0.642825 0.828943 0.217763 0.556642 0.93919 1.1373 1.09055 0.231948 0.960411 0.424788 0.0849643 1.01161 0.402829 0.846586 0.733216 0.161713 0.916206 0.673152 0.664279 0.539849 0.239519 0.122919 0.189377 0.447691 1.01314 0.168799 0.265672 0.922607 0.0919536 0.789643 0.771813 0.177606 0.65238 0.27076 0.28036 0.138308 0.0935893 0.529947 0.774331 0.883228 0.251405 0.792458 0.847828 0.453222 
0.305289 0.98834 0.0348827 0.273509 0.866711 0.820158 0.389989 0.540959 0.902858 0.329698 0.233359 0.0643344 0.267557 0.828815 0.897603 0.0204456 0.629343 0.364265 0.195542 0.468811 0.313834 0.600025 0.616729 0.366298 0.36547 0.451845 0.150537 0.0760026 0.375271 0.173806 0.159862 0.805692 0.25842 0.25968 0.445591 0.0616327 0.870865 0.634922 0.756529 0.306026 0.656098 0.334375 0.592019 0.84812 0.506859 0.956432 0.682695 0.0718176 0.240577 0.894725 0.240888 0.163272 0.871843 0.20658 0.982063 0.533468 0.00489214 0.222192 0.379297 0.837863 0.96946 0.715241 0.23376 0.90072 0.235024 0.428165 0.288078 0.290334 0.32131 0.403327 0.282119 0.679201 0.978616 0.48318 0.508179 0.234842 0.457727 0.949417 0.885703 0.926885 0.407975 0.650296 0.0820624 0.829672 0.29493 0.883211 0.13521 0.477888 0.54337 0.0556077 0.256046 0.786991 1.00636 1.05714 0.781936 0.719865 0.408876 0.685501 0.936146 0.36377 0.13161 0.294833 0.623374 0.614309 0.240678 0.65146 0.569918 0.148237 0.574629 0.264644 0.53374 0.426946 0.681053 0.457276 0.438709 0.383166 0.0984604 0.439007 0.644945 1.05252 0.2358 0.994388 0.502197 0.559468 0.914122 0.323581 0.393151 0.756326 0.859693 0.36404 0.261022 0.910962 0.409309 0.844577 0.874228 0.938996 0.234724 0.731916 0.308782 0.738554 0.818709 0.0343276 0.944253 0.139967 0.130608 0.656898 0.0826818 0.596182 1.07143 0.663021 0.83301 0.222023 0.69487 0.0241505 -0.104899 0.6008 0.34666 0.111427 0.209022 0.406105 0.336855 0.211432 -0.461193 -0.677838 0.412325 0.796483 0.43795 0.517829 0.449006 0.447071 0.924486 0.430252 0.290862 -0.105952 0.678983 1.04912 0.656246 0.312383 0.0947896 -0.435859 -0.599134 0.0193363 -0.288207 -0.906904 -0.561541 -0.725668 -0.323322 -0.298529 0.115422 -0.300312 -0.568187 -0.445534 0.656732 0.291221 0.735662 0.3568 0.307439 0.134116 0.494173 0.519557 0.0307353 0.68685 -0.00565154 0.848558 0.753082 -0.775635 -0.772277 -0.753098 -0.225041 -0.752168 -0.847534 -0.818576 -0.507989 -0.896554 -1.09487 -0.212563 -0.153941 0.0325939 0.20231 0.651897 0.166393 0.591403 0.395667 0.254715 0.138998 0.139636 0.584737 0.127953 0.645847 0.697976 0.757426 0.763581 -0.265351 -0.588836 -0.526578 -0.326752 -0.257285 -0.684235 -0.194112 0.215139 -0.328286 -0.587791 -0.717789 -0.0178091 -0.178737 0.545712 0.513901 -0.0332261 -0.0311154 0.28862 0.206775 0.398257 0.681302 0.646749 0.904125 0.0653255 0.478097 0.647011 0.241217 -0.0861898 0.0438293 -0.472707 -0.57827 0.0414129 -0.484517 -0.436453 -0.21454 0.669058 -0.144111 -0.266118 -0.279118 -0.648373 -1.088 -0.312615 0.0182559 0.330573 0.419195 0.571344 0.420925 0.349028 0.138281 0.0817063 0.157725 0.0491919 0.775993 0.120017 -0.108346 0.052576 -0.255764 0.296017 -0.0445492 -0.0544564 -0.129725 -0.145913 0.055029 0.299587 -0.464187 -0.949331 -0.470054 -0.263415 -0.771098 -0.00935107 0.487751 0.722175 0.270618 0.314741 0.525371 0.415648 0.588795 0.87739 0.666164 0.700322 0.501008 -0.118301 -0.0815722 -0.345169 -0.191476 -0.479353 -0.0738544 0.0305261 -0.816674 -0.733964 -0.290993 -0.104233 0.504967 0.18722 -0.370198 -0.369543 -0.885202 -0.0263151 0.294167 1.05987 0.488186 0.203569 0.223898 0.133633 0.480249 0.536881 0.90917 0.924718 0.653062 0.446272 -0.22105 0.180191 -0.878815 0.162577 -0.830577 -0.0459007 -0.0957106 -0.338737 -0.0849536 -0.457658 0.651198 -0.147518 -0.592933 -0.325161 -0.337962 -0.0721416 0.424121 0.290044 0.697723 0.828648 0.374991 0.458863 0.467226 0.663566 0.771099 0.836398 0.562628 0.0294601 -0.330419 0.18676 -0.877102 -0.51517 -0.664243 -0.0952659 0.040747 0.250246 -0.340616 -0.941383 -0.120687 0.255457 -0.448426 -0.39942 -0.00789563 -0.372618 -0.00806187 0.577749 0.687359 0.574536 0.795643 0.823021 0.339426 0.11413 0.802655 0.857685 0.0901301 -0.0896085 -0.182547 0.0803715 -0.439917 -0.462715 0.204361 -0.131599 -0.0479138 0.290842 -0.050444 -1.19401 -0.28702 -0.766595 -0.0853415 0.379658 -0.372361 -0.593152 -0.457694 0.157364 0.0997179 0.90735 0.61419 0.883045 0.150531 0.437852 0.374191 0.525374 0.746994 0.313542 0.771437 0.132143 -0.30849 -0.774916 0.142793 -0.367325 0.257062 -0.0758066 0.140855 0.0280552 -0.631017 0.0251253 -0.72584 -0.191066 -0.254881 0.254258 0.291375 0.163079 -0.00165366 0.544674 0.593992 0.615 0.317041 0.505888 0.464153 0.494706 0.401064 0.496269 0.183981 -0.369957 -0.473463 -0.0591961 0.337437 0.38582 -0.155388 -0.0753206 -0.0869597 0.10532 -0.400807 0.445374 -0.215056 -0.991738 -0.776636 -0.475105 0.238873 0.497327 0.259494 0.225189 0.162043 0.771001 0.912907 0.230369 0.803816 0.853229 0.874133 0.772347 0.277603 0.161765 -0.371366 0.0511665 0.0314312 0.724353 0.507016 -0.0431605 -0.0111169 -0.0630574 0.244751 0.894472 -0.342252 -0.978946 -0.334729 -0.75203 -0.376101 0.111275 -0.0392906 1.07137 0.754425 1.00694 0.984467 0.944505 0.72834 0.443902 0.805583 0.718709 -0.0825542 0.31201 0.178392 0.12769 0.521496 0.158429 0.816975 0.596852 0.074995 0.264439 0.441699 0.328506 -1.06819 -0.556881 -0.871827 0.0855419 -0.000911024 0.431195 0.713108 0.811599 0.710273 0.0411539 0.716764 0.380814 0.259312 0.67468 0.579103 0.573242 0.647274 -0.446244 0.0735091 -0.310668 0.144989 -0.187012 0.52564 0.23728 0.176831 0.0536143 -0.276025 -0.064856 -0.68791 -0.733118 -0.302536 0.275231 -0.228792 0.635623 0.807704 0.884298 0.215955 0.154459 0.805719 0.716164 0.854082 0.737343 0.923674 0.425119 0.812115 -0.331386 0.071126 -0.212382 -0.444187 0.120583 -0.25843 -0.842622 -0.0748335 -0.469402 0.353469 -0.617842 -0.862484 -0.410706 -0.187369 -0.180619 -0.438369 0.263856 0.390235 0.753782 0.199453 0.664981 0.326617 0.443891 0.745128 0.604991 0.838522 1.17986 0.267517 0.592219 -0.253078 -0.28629 0.27521 -0.705651 -0.695093 -0.874101 -0.0268342 -0.646272 -0.486455 0.111027 0.523692 -0.144846 0.0314893 -0.317457 0.458254 0.0678224 0.631368 0.945934 1.06026 0.667325 0.151845 0.0529405 0.777662 0.524854 0.692166 0.865915 0.390076 0.128664 -0.476126 -0.92633 -0.779399 -0.68087 -0.691539 -0.805772 -0.685508 0.439109 -0.12339 0.480141 0.267984 -0.0870675 0.488841 0.628915 0.0716421 0.411812 0.679679 0.154411 0.0830802 0.409507 0.625093 0.935466 0.376103 0.47352 0.529788 0.218799 -0.237764 -0.860221 -0.38566 -0.299147 -0.807807 -0.468305 -0.819147 -0.497058 0.282653 0.396832 0.909436 0.684563 0.0554304 0.0278054 0.507526 -0.0160373 0.330506 0.734123 0.858281 0.552044 0.14711 0.349451 0.790997 0.291765 0.700507 0.515802 0.62086 0.0133343 -0.0908334 -0.423988 -0.24222 -0.276889 -0.490983 -0.453 0.0919751 0.341263 0.432088 0.722146 0.282243 0.39566 -0.211171 -0.0599108 0.417642 0.614307 0.349673 0.759157 0.508228 0.302742 0.473605 0.772498 0.392222 0.0724853 0.259696 0.275446 0.0395639 0.0915297 0.851738 0.278728 0.524235 0.751992 0.864161 -0.0373308 0.77089 0.0087892 0.636878 0.080749 0.442005 -0.0343128 0.0793754 0.511222 0.440718 0.232316 0.0524593 0.647421 0.82669 0.745185 0.805463 0.916536 0.215513 0.12202 0.782841 0.20981 0.224945 0.416893 0.780657 0.189068 0.038783 0.00935896 0.654793 0.584585 0.330522 0.497345 0.882491 0.827055 0.639256 0.772497 0.541574 0.330862 0.420884 0.122161 0.466572 0.768538 0.561774 0.363156 0.770086 0.827225 0.172885 0.672198 0.624433 0.841485 0.844267 0.0950639 0.960528 0.879093 0.799046 0.618407 0.0185549 0.28961 0.0986354 0.622086 0.841178 0.864275 0.0235252 0.797928 0.00160669 0.894721 0.215214 0.870385 0.123164 0.251514 0.974765 0.5531 0.960073 0.946853 
0.756347 0.924029 0.160992 0.795437 0.916815 0.901348 0.952688 0.823767 0.0515116 0.756145 0.528739 0.516975 0.805326 0.106033 0.089043 0.545761 0.599048 0.207987 0.63429 0.513772 0.961204 0.95888 0.902825 0.774049 0.445014 0.353274 0.484141 0.953261 0.452252 0.993828 0.271039 0.357339 0.804009 0.971816 0.309666 0.555426 0.103221 0.747193 0.243837 0.862478 0.602954 0.71479 0.77758 0.922568 0.371803 0.24526 0.0596411 0.949617 0.0854687 0.823732 0.581335 0.940065 0.328892 0.255779 0.882249 0.960062 0.754105 0.243701 0.876154 0.525543 0.803914 0.389996 0.290596 0.905261 0.201623 0.518558 0.895405 0.376821 0.554793 0.45965 0.552308 0.715455 0.56087 0.0446329 0.413048 0.378813 0.643154 0.123218 0.655208 0.121532 0.378475 0.243469 0.442316 0.767937 0.7211 0.530292 0.612415 0.858085 0.665009 0.848448 0.753533 0.629886 1.06998 0.334743 0.546421 0.791744 0.989862 0.589052 0.146071 0.214762 0.420348 0.249163 0.269358 0.453871 0.642984 0.108306 0.567314 0.988809 0.0255779 0.91962 0.277974 0.142917 0.0099527 0.27508 0.266573 0.30082 0.73154 0.419 0.168247 0.246269 0.955651 0.473832 0.854035 0.331261 0.812422 0.0931648 0.811779 0.627211 0.527202 0.831441 0.139528 -0.191643 0.806935 0.151571 0.554625 0.0185105 0.591679 0.834108 0.435639 0.163905 0.577576 0.325804 0.792955 0.165834 0.206732 0.905044 0.725198 0.677299 0.691675 -0.0815234 0.182245 0.448943 0.758537 -0.148533 0.371561 0.381425 -0.0702516 -0.332713 0.135964 -0.168918 0.494674 0.28837 -0.449109 -0.274912 0.0960504 0.351498 0.23983 0.317128 0.851903 0.927262 0.487224 0.513617 0.545514 0.0172132 0.383939 0.821143 -0.0508458 -0.231902 -0.042073 -0.105451 -0.511227 -0.29374 -0.397208 -0.963023 -0.570571 -0.950092 -1.07126 -0.647777 -0.018615 -0.308287 -0.744394 -0.245808 0.0108481 0.0449798 0.549755 0.610874 0.969939 0.767939 0.557622 0.106254 0.346838 0.0531402 -0.0890069 0.116458 -0.317096 -0.587456 -0.404424 -0.744527 -0.217563 -0.685974 -0.765676 -0.342738 -1.16335 -0.913778 -0.503284 -0.25756 0.138896 -0.371325 0.353286 0.327608 0.381422 -0.0153698 0.605645 0.599381 0.622042 0.661718 0.0135049 0.704508 0.486528 0.723977 0.647132 0.671908 0.120366 -0.314028 -0.293794 -0.692405 -0.2939 -0.966302 -0.567695 -0.719565 -0.423677 -0.659849 -0.806969 -0.455553 -0.210609 -0.168874 0.094886 0.266222 -0.213933 0.239225 0.159526 0.468059 0.338423 0.882777 0.936926 0.890641 0.895049 0.144229 0.257593 0.406252 -0.281688 -0.618253 0.273861 -0.266693 -1.0274 -1.14634 -0.307633 -0.209966 0.0606345 -0.00278123 -0.851294 -0.653417 -0.13209 -0.723229 -0.497656 0.243694 0.256749 0.0219599 0.353176 0.083481 0.439039 0.929848 0.0570147 0.478322 0.0267864 0.329722 0.433675 0.0731248 0.0153577 0.129177 0.117141 0.26222 -0.904816 -0.521689 -0.575106 0.129299 0.0528589 -0.652411 -0.144114 -0.347106 -0.640944 -0.787042 -0.481364 0.28453 -0.351169 0.393464 0.797064 0.617055 0.36244 0.532124 0.152645 0.0767669 0.281688 -0.307344 -0.396752 -0.296085 0.103875 0.457172 -0.27603 0.08602 -0.812327 -0.605393 -0.88517 0.0572553 -0.452919 0.169762 -0.354205 0.675368 -0.10788 -0.484164 0.0147907 0.93674 -0.106788 0.513994 0.958314 0.490195 0.0528793 0.7431 0.602205 0.736183 0.682648 0.51742 0.336062 -0.245866 0.4834 0.0281665 0.256316 0.154833 -0.0938637 -0.631953 -0.629821 -0.746945 -0.69804 0.143711 0.298837 0.0975493 -0.636192 0.286061 -0.0252182 0.137009 0.531998 0.107925 0.897726 -0.0131294 0.100442 0.124178 0.846975 0.675688 0.324632 0.030206 0.409712 0.215685 -0.179377 0.0876322 -0.278385 0.0935458 0.0879178 0.259448 -0.296754 -0.591351 -0.223974 -0.900289 0.350004 0.0510346 -0.37958 0.237322 0.351788 0.556882 0.69274 0.659908 0.254611 0.45017 0.0762237 0.586381 0.715795 0.0633177 0.187426 0.241822 0.147574 0.165537 -0.232866 0.0506455 -0.111732 -0.156752 0.0406835 -0.0838892 -0.340221 -0.265625 -0.330425 -0.550067 -0.203058 0.31948 -0.629576 -0.169917 0.0921171 0.509517 0.501804 0.39767 0.914821 0.646752 0.749639 0.346146 0.969291 0.638454 0.238591 -0.223962 -0.432949 -0.0513621 -0.260867 0.0376641 0.0877038 -0.028193 0.040745 -0.163014 0.455417 0.381061 -0.409263 -0.137906 -0.441869 -0.20695 -1.13897 0.0395384 0.313447 0.209432 -0.0615676 0.173935 0.127665 0.0546068 0.188665 0.893107 0.449375 0.648823 0.733355 -0.0231604 0.0318352 -0.345316 -0.484814 -0.348987 0.134852 0.0196106 0.0538808 0.381757 0.177173 0.74182 0.598842 0.632355 -0.842162 -0.319574 -0.81916 -0.611128 -0.0307369 -0.19652 0.706677 0.310984 0.537972 0.842982 0.40533 0.384921 0.363584 0.68255 0.465446 0.393068 0.779283 -0.420099 0.110315 0.752899 0.653496 0.128128 -0.405339 0.0849317 -0.122748 -0.119913 0.535898 0.230324 -0.688052 -1.18299 -0.782489 0.177815 0.0632349 0.441243 0.731575 0.975087 0.458621 0.248062 0.774767 0.505412 0.637262 0.95597 0.69963 0.791005 0.428317 -0.0960442 -0.0821633 -0.0314288 0.158223 0.400103 0.103642 0.298757 0.768039 -0.158065 -0.374236 -0.1869 -0.609756 -1.39004 -1.20489 0.270786 0.157071 0.275089 0.188232 0.930422 0.289892 0.447226 0.861702 0.761315 0.246872 0.243963 0.679868 0.819329 0.127106 0.272059 0.250956 0.556849 0.208105 0.445481 0.292072 -0.0824494 0.0931507 -0.0310014 -0.451039 -0.567016 -0.707649 -0.630125 -0.169807 0.260564 -0.153589 0.218777 0.743609 0.386318 0.510867 0.0123682 0.877094 0.310982 0.712164 0.0906206 0.648506 0.11799 0.418432 0.274183 -0.53905 -0.0868325 -0.0945207 -0.211532 0.222323 -0.70952 -0.028332 -0.147811 -0.439866 -0.235855 0.078821 0.428094 -0.215582 -0.275007 -0.262846 0.182287 0.0198203 -0.139864 0.756419 0.542981 0.0446424 0.304442 0.41436 0.143488 0.0175057 0.616676 0.0702195 -0.506843 0.397094 -0.222933 -0.211688 -0.455917 -0.798965 -0.451412 -0.947425 -0.162819 0.145765 0.00605523 0.541786 -0.366327 0.375295 0.0930748 0.3724 0.555939 0.374915 0.231345 0.53852 0.971226 0.788376 0.238088 0.551781 0.340518 0.917275 0.525844 -0.103202 0.579651 -0.690084 -0.696405 -0.985191 -1.21862 -1.30924 -0.496228 -1.02116 -0.0442462 0.176832 0.317866 0.449153 -0.243919 0.431545 -0.169704 0.201391 0.770353 0.778025 0.0632066 0.642675 0.621907 0.331555 0.444693 0.963185 0.390981 0.245013 -0.0106572 0.302935 -0.750367 -0.825857 -0.45886 -0.47528 -0.543237 -1.06268 -0.665054 0.487616 0.442131 0.166958 0.056866 -0.392835 0.250768 -0.341565 -0.0571275 0.365368 -0.030871 -0.03603 0.411222 0.719907 0.176925 0.498252 0.128164 0.0604029 0.727735 -0.020126 0.0553194 0.150327 -0.15785 -0.412419 -0.0427087 -0.57956 -0.0230534 0.829225 0.23104 0.308155 0.618373 0.317909 -0.0974037 0.463857 0.58393 0.423799 0.882171 1.00446 0.976727 0.173492 0.773562 0.365642 0.473261 0.274022 0.493695 0.529366 0.868132 0.171378 0.600134 0.331073 0.259377 0.464007 0.482516 -0.152853 0.0219085 0.0918112 0.137826 -0.00350611 0.713212 0.397018 0.195757 0.185593 0.410925 0.269922 0.894966 0.960849 0.376962 0.436563 0.602555 0.185527 0.78305 0.716077 0.101478 0.548365 0.365895 0.667065 0.0170978 0.624175 0.55319 0.878064 0.248138 0.302261 0.0948361 0.489177 0.626222 0.121117 -0.057025 0.840095 0.0897232 0.183044 0.105972 0.0436096 0.197731 0.166638 0.812568 0.812854 0.0485625 0.207538 0.088191 0.22536 0.621202 0.546831 0.592951 0.735019 0.541377 0.453992 0.349196 0.330094 0.951237 0.425008 0.624663 0.282186 0.642895 0.842687 0.388894 -0.0178888 0.899189 0.126777 0.725231 0.134143 0.799169 0.0438907 0.887988 0.965584 0.821548 0.760639 0.0547207 
0.690888 0.75194 0.857219 0.286914 0.171909 0.272174 0.425521 0.734116 0.290023 0.408384 0.716112 0.700086 0.347629 0.594751 0.980796 0.243467 0.943646 0.864673 0.553276 0.916836 0.265524 0.669046 0.650619 0.95945 0.481236 0.137597 0.597057 0.738331 0.126389 0.218877 0.66443 0.0816736 0.687472 0.343737 0.190574 0.975815 0.892492 0.118173 0.872773 0.756602 0.810702 0.391301 0.21478 0.522826 0.831358 0.324815 0.671302 0.961287 0.255036 0.111021 0.60822 0.707277 0.213907 0.859595 0.221277 0.997421 0.652887 0.0696658 0.873701 0.296629 0.444403 0.0884941 0.779884 0.219712 0.282639 0.823236 0.259698 0.566908 0.963916 1.02723 0.470315 0.486583 0.319639 0.84906 0.891492 0.752984 0.0511261 0.0399526 0.133395 0.285731 0.753209 0.32813 0.440925 0.743249 0.794144 0.17599 0.868892 0.461745 0.374204 0.153386 0.354134 0.551319 0.332434 0.494684 0.423309 1.04697 0.897274 0.949094 0.519176 0.819266 0.468813 0.14195 0.293281 0.910904 0.122125 0.717002 0.572903 0.800004 1.00139 0.527648 0.704034 0.552793 0.795483 0.686608 0.826652 0.536151 0.19114 0.525972 0.376068 0.797347 1.05707 0.823208 0.636735 0.921191 0.676298 0.509337 0.72939 0.265776 0.654425 0.909217 0.470861 0.541543 0.517014 1.05124 0.707924 0.65595 0.759247 0.586905 0.190776 0.849352 0.172552 0.0847491 0.377503 0.556109 0.581073 0.727643 0.271928 0.475392 0.611484 0.167881 0.387984 0.00214185 0.0411794 0.750514 0.877079 0.201428 0.333557 0.527355 -0.0905326 0.230724 0.838204 0.34447 -0.666087 -0.16844 -0.215998 0.0187063 0.80732 0.819023 0.00726883 0.16719 0.964616 0.0860346 0.900964 0.801403 0.551324 0.686462 -0.0440835 0.245884 0.0572857 -0.224817 -0.588834 -0.0547547 -0.0440019 -0.700406 -0.739575 -0.799011 -0.732415 -0.842916 -0.00120434 -0.691637 -0.339059 -0.346925 0.0391002 -0.0172789 0.354808 0.350551 0.632688 0.58555 0.10933 0.0571076 0.34057 0.468924 -0.087234 0.0619737 -0.132434 -0.622552 -0.436394 -0.517946 -0.798107 -0.581876 -0.637029 -0.91605 -0.669755 -0.647858 -1.08394 -0.143643 -0.296007 0.249676 -0.0234882 -0.0424769 0.185116 0.960424 0.294325 0.608119 0.614746 0.0437049 0.463693 0.652158 0.22563 0.091637 0.00818235 0.68836 0.81397 -0.350424 -0.459105 0.149014 -0.365525 -0.491342 -0.622473 -0.601023 -0.229691 -0.203068 -0.715518 -0.297132 0.280718 -0.222005 0.209908 0.753728 0.311145 0.623924 0.472922 0.880827 0.142006 0.702435 0.965852 0.633633 0.555024 0.278756 0.430952 0.232595 0.27905 0.160701 0.00596431 -0.492657 -0.940289 -0.224423 -0.387689 0.546671 0.1446 0.0462218 -0.489145 0.30674 0.132641 -0.81346 0.438476 0.751471 0.646602 0.748157 0.603603 0.349107 0.561694 0.395485 0.0699142 0.109925 0.330162 -0.117041 0.50514 -0.0690359 0.488146 0.471879 0.12549 0.206824 0.00548926 -0.611754 -0.515187 -0.220256 -0.830478 -0.023524 -0.1635 -0.273633 -0.721958 -0.394641 0.159631 0.448864 0.894794 0.13421 0.338122 0.581835 0.0702016 0.878846 0.656188 0.271314 0.664581 0.259572 0.420685 0.0343885 0.171888 0.381118 -0.415361 -0.308999 -0.61045 -0.267308 0.205417 -0.238155 0.201511 -0.0230092 0.14369 0.312767 -0.343095 -0.0441764 0.00244735 0.0153156 0.547871 0.876788 0.943196 0.995856 0.142796 0.970251 0.888154 0.188487 0.446765 0.21604 0.358966 -0.364679 0.0267852 0.0234515 -0.507941 -0.304664 -0.572337 -0.521933 0.236476 -0.220375 0.169102 -0.0299698 0.102774 -0.0333311 0.0428096 -0.197625 -0.266149 0.11145 0.809483 0.553339 0.545391 0.492868 0.369014 0.0268643 0.342213 0.68521 0.482314 0.17815 -0.165252 -0.241986 0.0765835 -0.0625435 0.493479 0.417993 -0.172855 0.0165802 -0.133828 -0.574752 -0.461394 -0.0024625 -0.139672 0.0655679 -0.791606 -0.728003 -0.614653 0.210542 0.337981 0.140569 0.173179 0.853204 0.081198 0.551191 0.660196 0.560771 0.350177 -0.0978904 -0.629405 -0.389824 0.0638405 0.0844251 0.34 0.223333 0.638361 -0.247692 0.330518 -0.404484 -1.10797 -1.02388 -0.478801 0.126209 -0.671703 -0.0887746 -0.375687 0.00194556 -0.0747724 0.726163 0.533922 0.440234 0.915739 0.459317 0.992741 0.858021 -0.00250929 0.199956 0.232471 -0.921418 -0.964073 -0.66468 -0.125485 -0.15152 -0.00776803 -0.598093 0.0698796 0.381066 -0.809234 -0.28597 -0.132533 -0.676015 -0.347725 -0.656893 -0.0821163 0.193009 0.317488 0.790867 0.0276322 0.367828 0.622058 0.927339 0.77901 0.410136 -0.0872973 0.680327 -0.279259 -0.991103 -1.03968 0.119989 0.0423773 0.133717 0.258473 -0.129514 0.337346 0.288086 0.462316 0.439281 -0.100857 -0.656343 -0.960791 -0.102134 0.0553725 -0.448376 0.549108 0.0925517 0.676911 0.949633 0.571783 0.96347 0.0389199 0.803241 0.834957 0.904412 -0.307815 -0.134985 -1.03918 -0.483241 0.588413 -0.22609 0.382717 0.479309 0.0910588 -0.170852 -0.189725 0.611252 -0.881022 -1.19821 -0.927265 -0.230087 -0.382474 0.373384 -0.315137 0.563883 0.48992 0.108188 0.70873 0.624406 0.343598 0.754864 1.04555 0.881527 -0.197362 0.0853948 -0.162116 -0.0917593 0.381839 -0.241926 0.487106 -0.23559 0.135988 0.279115 0.00622178 -0.0927386 -0.678642 -0.610019 -0.492031 0.0650014 -0.0625017 -0.0586348 0.612682 0.364101 0.814891 0.684922 0.443505 0.488264 0.444157 0.0300154 0.523163 1.00569 -0.039144 -0.083809 0.049427 0.226338 0.360956 0.195329 0.654942 0.240151 -0.130278 -0.225295 -0.201741 -0.848244 -1.05432 -0.854364 -0.68088 0.629901 0.146557 0.271414 0.534807 0.510944 0.611466 0.75743 0.269357 0.0791715 0.812823 0.344161 1.10668 0.502153 0.641099 0.0234874 -0.138201 0.88454 0.115596 0.4793 -0.0456096 -0.330157 0.100627 -0.64639 -0.625139 -0.989137 -0.333224 0.363536 0.130452 0.368618 0.183465 0.219857 0.509151 0.315999 0.0923975 0.746293 0.763061 0.761622 0.801694 0.0427894 0.653055 0.689412 0.410317 0.599042 0.734051 0.241119 0.306856 -0.143873 -0.732118 -0.695945 -0.502585 -0.804157 -0.302415 -0.0265185 0.375562 -0.210115 0.380558 0.306406 0.671898 0.20262 0.444567 0.941897 0.522833 0.858733 0.636064 0.329171 0.375078 0.0523857 0.139146 0.108512 -0.0598284 0.437886 0.106579 -0.158346 -0.428922 -0.633102 -1.16493 -0.339431 0.202448 0.263381 0.0161395 0.329605 -0.513365 -0.554281 0.581278 0.57967 0.275335 0.862994 0.166028 0.128256 0.460256 0.422976 0.968729 0.426809 0.383731 0.349307 0.317793 0.739167 -0.0811693 -0.267435 -0.447363 -0.201881 -0.984899 -0.98936 -0.280199 0.04474 -0.0645884 0.171721 0.473514 -0.0520563 0.460974 -0.141169 0.00433087 0.358265 0.843028 -0.0379956 0.224331 0.0386342 0.780232 0.746526 0.6101 0.958127 0.241229 0.587972 1.00241 0.353959 0.0724352 -0.535417 -0.0389437 -0.497239 -0.451111 0.101011 -0.00531747 -0.0583926 0.652485 0.372827 0.395481 0.424578 -0.0208771 -0.160811 -0.236293 0.291776 0.0136307 0.146772 0.403278 0.540145 0.261173 0.969626 0.154204 0.710554 0.289048 0.943915 0.948467 0.720825 0.819263 0.994411 0.448211 0.81014 0.83434 0.535337 0.473578 0.653327 0.521435 0.719622 0.79486 0.783199 0.611611 0.0640585 0.452055 0.123726 0.533285 0.476745 0.7853 0.191142 0.511025 0.976799 0.0585554 0.140514 0.624267 0.0599333 0.395125 0.656701 0.453574 0.620345 0.217139 0.760615 0.959525 0.795726 0.848974 0.442909 0.736897 1.0704 0.943265 0.127039 0.901944 0.877882 0.297444 0.315111 0.954517 0.905816 0.169593 0.130021 0.316791 0.310798 0.580291 0.9581 0.784358 0.712017 0.870949 0.501097 0.416749 0.177509 0.830281 0.112157 0.798954 0.302063 0.207489 0.510522 0.19962 0.196094 0.340012 0.584229 0.612046 0.301986 0.937389 0.571551 0.822256 0.814168 0.794612 0.743754 0.270736 0.25511 
0.63686 0.705328 0.446461 0.673795 0.476174 0.048035 0.323705 0.511759 0.132146 0.972672 0.700324 0.345917 0.830731 0.0941674 0.670963 0.873292 0.420029 0.42454 0.250202 0.13756 0.967567 0.890955 0.279114 0.0714661 0.129991 0.756399 0.794901 0.89683 0.0220594 0.751594 0.0429236 0.417187 0.666392 0.0440164 0.784408 0.542613 0.321011 0.339946 0.937796 0.0612238 0.431359 0.452777 0.683614 0.24004 0.703437 0.765945 0.298804 0.847922 0.555357 0.834157 0.723129 0.95103 0.254033 0.630863 0.906262 0.553246 0.397431 0.628677 0.166233 0.875964 0.328972 0.0358348 0.973535 0.0492303 0.546102 0.31886 0.728812 0.0492442 0.164106 0.228475 0.31119 0.0910223 0.416888 0.960979 0.32748 0.769824 0.826063 0.403973 0.329826 0.847042 0.809691 0.677842 0.978384 0.681784 0.747845 0.038898 0.75817 0.566118 0.74444 0.141399 0.0104644 0.627972 0.319997 0.751141 0.886583 0.761822 0.184581 0.394469 -0.149365 0.383603 0.381669 0.217786 0.468339 0.463524 0.721259 -0.0228478 0.672813 0.318774 0.428092 0.912788 0.861507 0.426697 0.504323 0.159727 0.523992 0.723836 0.076266 0.514882 0.00359757 0.546439 0.280661 0.531554 0.196645 0.122266 -0.0961847 0.866461 0.115806 0.208003 0.64613 0.802648 0.0812036 0.801969 0.757983 -0.165804 0.0855804 0.0558202 0.94308 0.55302 0.0423627 0.189919 0.77794 0.845028 0.385407 0.863426 0.792402 -0.0794691 0.274752 0.322752 -0.0613816 0.857777 0.873446 0.347169 0.21891 0.300843 0.670199 0.00200268 -0.151627 -0.462483 0.0117061 0.17251 0.0160697 -0.161038 -0.707948 -0.657371 0.4229 0.216658 0.111984 0.966597 0.771145 0.626001 0.198273 0.829843 0.514374 0.166607 -0.0359418 0.117545 0.0377693 0.680324 -0.0931317 -0.0146283 0.403417 0.169795 -0.471895 -0.396845 -0.727157 -0.203307 -0.855865 0.0559878 -0.306698 -0.541487 0.309647 -0.2666 0.199109 0.117459 0.609286 0.660608 0.387647 0.182595 0.613501 0.0286165 0.513743 0.821329 0.882597 0.718595 -0.070078 -0.576591 -0.52469 0.0488163 0.26125 0.195075 -0.312958 -0.378303 -0.608228 -0.0164903 -0.786928 0.0689129 0.444419 -0.202206 0.167796 0.997 0.298289 0.827957 0.249093 0.923909 0.158369 0.707745 0.765501 0.53315 -0.000385158 0.748047 0.824154 0.300886 0.592064 0.143201 -0.104547 -0.0988374 0.393548 -0.79825 -0.774927 -0.128854 -0.611035 -0.814022 0.0118159 0.911517 0.0531769 -0.281011 0.25275 0.185933 0.337306 0.0973196 0.0856195 0.687615 0.0589514 0.794455 0.170871 0.46275 0.146777 0.418028 0.00288828 0.432294 -0.0502279 0.159627 -0.31991 0.313689 -0.466297 -0.0428751 -0.668447 -0.117403 -0.0587024 0.128359 0.43297 0.2899 0.118052 -0.145594 0.354206 0.145525 0.758376 0.249632 0.936805 0.418084 0.0784009 0.682392 0.247952 0.552002 0.095108 -0.0745098 0.194908 0.129614 -0.351676 -0.0793782 0.331185 0.142947 -0.221393 -0.266684 -0.00589792 -0.301598 0.127752 0.435684 0.360389 0.35399 -0.559484 -0.124454 0.0710544 0.125562 0.798431 0.0871639 0.529795 0.277106 0.516076 0.684331 0.509409 0.22694 0.380164 0.399862 -0.142914 0.00933851 -0.524571 -0.23737 -0.294382 -0.605225 -1.07501 -1.09415 -0.316852 0.251198 0.205926 0.164297 0.244572 -0.105118 -0.575321 -0.84892 -0.443115 0.363605 0.363424 0.0306531 0.929277 0.862463 0.536698 0.28579 0.960994 0.130588 0.580771 0.613946 -0.718103 -0.895296 0.133985 -0.749242 -0.711064 -0.522284 -0.183523 -0.776807 -0.879911 -0.226203 -0.229485 -0.228663 -0.1448 -0.467499 -1.20884 -0.798832 -0.687456 -0.0395224 0.0909202 0.533085 0.830195 0.363454 0.603373 0.892638 1.01894 0.61858 0.166212 -0.418921 -0.763103 -0.586049 -0.242541 -0.533367 0.0446771 -0.53704 0.399463 -0.447253 -1.13673 -0.428052 -0.401105 -0.114101 -0.533487 -0.65908 -1.13172 -0.796433 -0.267873 -0.0899584 0.107605 0.925688 0.973189 0.543261 0.94222 0.938368 0.44392 0.528732 0.636682 0.290911 -0.174718 -0.304158 0.0393361 -0.306407 -0.462063 -0.137737 -0.559992 -0.341016 -0.392147 -0.753568 -1.49702 -0.492692 -0.109954 0.323838 -0.226323 -0.368403 -0.44678 -0.363233 -0.12484 0.0399576 0.483909 0.414107 0.705443 0.399793 0.222686 0.260328 0.74037 -0.0145956 -0.0390425 -0.272191 -0.978058 -0.5346 -0.319689 -0.393947 0.255828 -0.158904 -0.354233 -0.718238 -1.0052 -0.522109 0.0498868 -0.0735006 0.039996 -0.0223486 -0.430693 -0.301412 0.434211 0.600958 0.140963 0.18108 0.878769 0.466459 0.771756 0.832035 0.787362 0.524633 0.386378 -1.0011 -0.537004 -0.201218 0.236879 -0.321174 -0.578727 -0.000202634 -0.0523221 -0.0150514 -0.455424 -0.0890982 -0.128929 -0.406519 -0.656985 -0.0743162 -0.41129 0.222821 -0.0614545 0.383795 0.576351 0.660927 0.00867298 0.766777 0.227556 0.89501 0.923289 0.121858 -0.179931 -0.0676054 -0.586958 -0.0308489 0.114229 -0.611585 -0.773253 -0.246548 -0.330779 -0.50817 -0.852796 0.304511 -0.460065 -0.632942 -0.858764 0.301567 0.343543 0.222325 0.434919 0.554074 0.275172 0.744166 0.94809 0.549586 0.0243707 0.0961055 0.982168 0.961889 0.452251 -0.590761 -0.47176 -0.336163 -0.928702 -0.492958 -0.977333 -0.249213 -0.249399 0.241622 0.158887 -0.149496 -0.120878 -0.830345 -0.27787 0.272605 0.21758 0.522472 0.374984 0.344802 0.771047 0.0679607 0.427454 0.639613 0.846094 0.39635 0.862383 1.09462 0.643551 0.0624069 -0.375655 -0.56695 -0.197739 -0.37439 -0.244516 -0.175862 -0.22638 -0.573395 -0.254854 -0.297714 -0.370372 -0.790216 -0.869977 0.219339 -0.0872508 0.308457 0.30666 0.674555 0.56456 0.257314 0.126489 0.894425 0.414983 0.715097 0.909745 1.27576 0.141706 0.406436 0.356028 -0.0205481 -0.015797 0.0359267 -0.204305 -0.244586 -0.246361 -0.0961067 -0.540369 -0.697366 -0.189883 -0.543439 -0.413559 -0.210459 0.0705139 0.0787793 0.730261 0.531353 0.626699 0.450416 0.731493 0.204546 0.529347 0.925098 0.837438 0.54463 0.534503 0.035751 0.202942 0.531488 -0.0949957 0.134124 -0.612138 -0.790543 -0.10387 -0.957113 -0.324355 -0.31527 -0.26203 0.0814746 -0.283564 0.510586 0.37846 0.476505 0.378087 0.234392 0.449468 0.593213 0.840295 0.840881 0.686215 0.977348 0.223985 0.272512 0.634886 -0.386153 0.126606 -0.457997 -0.783911 -0.551914 -0.0510142 -0.78788 -0.498862 -0.128234 -0.43254 0.0561446 0.674982 0.0702014 -0.187115 -0.17832 0.372561 0.365594 0.216743 0.0680235 0.755483 0.723434 0.510913 0.920649 0.334033 0.269115 0.442302 0.437531 0.224491 0.351218 0.0449288 -0.190556 -0.659021 -0.245986 -0.111553 -0.376902 -0.217915 -0.13133 -0.526927 0.415387 -0.475903 -0.21739 0.157679 0.681724 0.760311 0.770021 0.130906 0.215503 0.47468 0.521679 0.10619 0.727007 0.80528 0.695892 0.342376 0.438854 -0.420529 0.250773 0.072571 -0.471365 -0.0931817 -0.556908 0.0826178 0.389257 0.643622 -0.0133142 -0.126049 0.358159 0.00224243 0.0377366 0.731001 0.405551 0.743291 0.0385285 0.575756 0.105174 1.00407 0.382971 0.294397 0.936153 0.925147 0.0107062 0.508616 0.762211 0.411564 0.618383 0.828235 0.420973 0.480659 0.444763 0.720681 0.198709 0.364152 0.393639 0.0509187 0.367655 -0.00741543 0.0440063 0.345016 -0.0253489 0.0100055 0.530406 0.183612 0.365953 0.720945 0.715621 0.446867 0.48852 0.558283 0.0707017 0.881466 0.694233 0.375762 0.453999 0.59906 0.124023 0.418399 0.318999 0.73528 0.886669 0.704709 0.54277 0.752293 -0.110213 -0.0773684 0.770264 0.279005 0.270548 0.815544 0.698912 0.144464 0.407738 0.458926 0.168607 0.786237 0.281172 0.663408 0.893636 0.342837 0.591548 0.507981 0.516616 0.240803 0.0815 0.500129 0.221654 0.248426 0.636482 0.556606 0.335536 0.615155 0.466787 0.944064 0.816006 0.707583 0.140746 0.644954 0.577608 0.607826 0.0258526 0.50465 0.657493 
0.479415 0.535531 0.666269 0.989094 0.696602 0.790225 0.313908 0.845787 0.144157 0.843458 0.00021877 0.67686 0.979021 0.402789 0.666578 0.179205 0.901574 0.748876 0.359444 0.168648 0.461285 0.810013 0.889263 0.843465 0.115814 0.48999 0.26963 0.665237 0.638675 0.206387 0.750555 0.580744 0.567358 0.582721 0.786969 0.594074 0.25627 0.479301 0.74911 0.169769 0.148673 0.369583 0.688994 0.467282 0.0201893 0.216847 0.752259 0.13089 0.676441 0.329197 0.574563 0.863747 0.0552463 0.746926 0.584699 0.0324935 0.118553 0.517103 0.947833 0.233226 0.824021 0.31267 0.295333 0.39958 0.370969 0.144017 0.773389 0.849161 0.572122 0.649287 0.378831 0.653221 0.890013 0.0557875 0.978563 0.424679 0.236831 0.766012 0.68337 0.448883 0.614682 0.196457 0.518498 0.138103 0.089513 0.444547 0.506345 0.146768 0.655929 0.447214 0.18083 0.891949 0.146143 0.706253 0.0605999 0.960365 -0.00956904 0.19292 0.439464 0.357771 0.8273 0.925282 0.340779 0.521757 0.156142 0.569237 0.538355 0.208508 0.067336 0.324014 0.0521837 0.556938 0.451391 0.520977 0.0686178 0.264124 0.720629 0.423894 0.786677 0.587447 0.817654 0.150886 0.703975 0.525669 -0.223575 0.48104 0.365091 0.374081 0.636001 0.82194 0.552256 0.924839 0.771015 0.286431 0.720468 0.677357 0.115355 0.899376 0.0643575 0.622557 0.344426 0.761039 0.778901 0.0122101 0.175419 0.290363 0.910188 0.17696 0.371294 0.388676 0.575945 0.197328 0.694807 0.340865 -0.110853 0.47825 -0.0223407 -0.303268 0.0349666 0.495924 0.145199 -0.0255198 -0.589751 0.0829342 0.399239 0.810058 0.198778 0.890804 0.612789 0.151895 0.907056 0.0503998 0.558154 0.266815 0.690561 0.486532 0.433084 -0.238717 -0.259428 -0.437126 -0.0632557 0.128146 -0.815741 -0.757175 -0.840932 -0.386747 -0.603541 -0.895234 0.348735 -0.398552 -0.670595 0.230575 0.327998 0.523427 0.419052 0.932473 0.551866 0.215443 0.137889 0.00950745 0.385091 0.773922 -0.217302 0.0540018 0.0969294 -0.692289 -0.317542 -0.74617 -0.702636 -0.727313 -1.02109 -0.219274 -0.666481 -0.296454 -0.236536 -0.0902043 0.193417 0.134797 -0.105548 0.421925 0.313766 0.863475 0.0998246 0.927943 0.379222 0.582809 0.631222 0.630394 0.181486 -0.194788 0.25175 0.605238 -0.373942 -0.0965165 -0.548412 -0.151487 -0.368106 -0.880262 -0.8042 -0.405954 -0.758365 -1.07365 -0.623441 -0.553477 -0.367057 -0.674574 0.00266643 0.564345 0.506214 0.469787 0.0986772 0.170159 0.828244 0.300826 0.357441 0.724154 0.440065 -0.318883 0.464902 0.503009 0.425797 -0.139258 0.124456 0.212158 -0.359682 -0.495028 -0.864731 -0.0527235 0.0326028 -0.029793 -0.603387 0.16524 -0.545174 -0.312482 0.262118 0.125302 0.138363 0.594391 0.168615 0.694449 0.712466 0.420627 0.464939 0.789365 0.114721 0.347385 0.306685 0.26148 -0.350513 0.0175346 0.523582 0.082722 -0.686792 -0.894126 -0.681497 0.190985 -0.258271 -0.879427 -0.26895 0.179483 -1.15543 -0.692277 0.239218 0.126168 0.489307 0.757613 0.699641 1.00114 0.791992 0.0158231 0.0380736 0.671916 0.288026 0.0593924 0.490142 -0.339798 0.24182 -0.226542 -0.474827 -0.608478 -0.701917 -0.427892 0.118906 0.22348 -0.261719 0.038917 -0.461121 -0.560508 -0.949971 -0.657566 -0.203549 -0.200537 0.148971 0.398713 0.541216 0.625746 0.0904601 0.36229 0.710638 0.744944 -0.235955 -0.155371 0.346645 -0.103533 -0.00816486 0.353984 0.0115833 0.41146 -0.298473 -0.617324 -0.213709 0.480761 0.498605 0.0885905 -0.321722 -0.174073 -0.679247 -0.876515 -0.450928 -0.337425 0.230581 0.688561 0.44562 0.698278 0.955429 0.900855 0.651338 0.911281 0.520391 -0.0280954 -0.228324 0.374754 0.11948 0.0350801 -0.57281 -0.270121 0.165714 -0.287762 -0.184033 -0.225707 -0.19643 -0.288304 0.520485 -0.164636 -1.18423 -0.564845 0.179307 0.250392 0.0644252 0.544683 0.363775 0.15469 0.848597 0.734865 0.734128 0.551118 0.176948 0.0403014 -0.140708 -0.344611 -0.455617 -0.0927657 0.450327 0.158575 0.0119339 0.237874 -0.0255597 -0.462427 -0.686631 -0.693095 0.0464581 -0.38727 0.0224844 -0.0257637 -0.334672 -0.0449063 0.504069 -0.0213197 0.562633 0.27782 0.607983 0.504084 0.377932 0.124662 0.373494 0.0924231 -0.465009 -0.578251 -0.896828 -0.730135 -0.239898 -0.300301 -0.10679 0.0307188 0.299595 0.283494 0.329922 -0.137994 -0.772604 -0.456579 -0.52825 0.0717008 -0.178399 -0.150052 0.214256 0.300988 0.607567 0.708563 0.321871 0.690327 0.327308 0.367295 0.66436 0.494078 -0.643902 -1.07848 -0.995737 -0.368217 0.252544 0.628486 0.567486 0.0852796 0.441355 0.669026 0.039472 0.329871 -0.333525 -0.309436 -0.434121 -0.0107209 0.200147 -0.086993 0.333665 0.48938 0.0131088 0.319248 0.515193 0.846861 0.185934 0.563322 0.211971 0.0341306 0.177358 -1.07141 -0.707429 -0.167435 -0.170241 0.802831 0.170057 -0.0273361 0.0145592 0.158771 0.570541 0.6498 -0.606513 -1.01913 -0.630004 -0.480182 0.682305 0.321149 0.510186 -0.0846346 0.374725 0.941038 0.310267 0.656366 0.65436 0.629338 0.27584 0.539822 -0.242147 -1.06252 -1.07218 -0.192351 -0.451896 -0.100318 0.0435964 -0.303672 0.538414 0.407359 -0.480836 0.0376219 -0.331813 -0.645551 -0.538119 0.28177 0.191504 -0.197944 -0.0551597 0.0229637 0.78158 0.765009 0.427875 0.450224 0.636668 0.7103 0.259318 0.700375 0.478892 -0.2003 -0.802933 -0.536917 -0.0943655 -0.443317 0.265692 0.423174 -0.54864 0.0663528 -0.233316 -0.392849 -0.637519 -0.515636 -0.680122 0.339306 0.452306 0.114891 0.650092 -0.152557 0.503564 0.697033 0.894092 0.00863367 0.658529 0.111973 0.364396 0.471223 -0.0554278 -0.250046 0.179416 0.259144 0.569182 -0.47714 -0.248202 0.143072 -0.277098 0.0750966 -1.02819 -0.495158 0.0659429 -0.0235435 0.479275 0.320156 0.286622 0.53112 -0.138923 0.576491 0.293315 0.839184 0.838338 0.946558 0.89515 0.892234 0.56999 0.444346 -0.247485 0.180463 -0.33227 -0.141956 0.096381 -0.43939 -0.147993 -0.890943 -0.244906 -0.511369 -0.545218 -0.204119 0.255827 0.366836 0.10782 0.0187791 0.513745 -0.0349364 0.250214 -0.0809171 0.133785 0.649387 0.728047 0.287801 0.0764393 0.500226 0.19677 0.646547 0.092235 -0.0699807 -0.427968 -1.09801 -0.375584 -0.706188 -0.397137 -0.424339 -0.756573 -0.382144 0.0257392 0.631935 0.00157729 -0.534968 -0.339223 -0.108922 0.291571 0.364488 0.292344 0.143003 0.122281 0.247958 0.00887203 0.112276 0.0144429 0.674452 0.698785 0.233316 -0.18385 -0.375048 -0.764282 -0.955981 -1.01143 -0.527441 -0.843831 -0.654331 0.456573 0.19921 0.107338 0.56425 -0.31852 -0.247656 0.653258 0.433434 -0.112148 0.676866 0.899626 0.233941 0.829016 0.496351 0.417309 0.714372 0.459634 0.329863 0.79509 -0.103237 0.175404 -0.342268 -0.654114 -0.380411 -0.723696 -0.524801 0.204356 0.173331 0.4051 0.79057 0.0475861 0.814516 0.132544 0.434547 -0.262342 0.617812 0.0830009 0.500339 0.358299 0.801951 0.77116 0.263989 0.428262 0.792675 0.487102 1.00016 0.792472 0.497507 0.708873 0.506862 0.620703 0.450251 0.743557 1.19486 0.954746 0.984325 0.785472 0.906464 0.689368 0.332591 0.678559 0.681186 0.398284 0.722191 0.425518 0.0218978 0.0898813 0.847556 0.835757 0.14016 0.671813 0.153638 0.187475 0.897667 0.923686 0.20287 0.730074 0.593243 0.424751 0.928312 0.927873 1.01977 0.430579 0.854388 0.951405 0.398391 0.96409 0.823078 0.141807 0.538448 0.158173 0.24979 0.647469 0.626894 0.241819 0.252512 0.395117 0.736458 0.649514 0.388744 0.619094 0.116091 0.13524 0.390603 0.443215 0.963569 0.672715 0.767187 0.875815 0.0360533 0.3065 0.857346 0.878387 0.311582 0.115404 0.976542 0.243765 0.15258 0.41518 0.934959 0.353738 0.132038 0.59649 0.00902167 0.627139 0.322951 
0.839568 0.617869 0.525555 0.000818063 0.749186 0.560841 0.0511098 0.00281008 0.229039 0.46248 0.899739 0.920706 0.301956 0.981652 0.629186 0.735872 0.807847 0.488616 0.170829 0.116547 0.801511 0.996477 0.796686 0.905501 0.75775 0.505303 0.619708 0.433898 0.531407 0.357101 0.80489 0.79283 0.102131 0.508937 0.697625 0.984585 0.376565 0.563065 0.726251 0.338589 0.885977 0.545746 0.684589 0.57387 0.232862 0.742044 0.168514 0.203286 0.846135 0.887077 0.344894 0.134882 0.597255 0.519986 0.396393 0.17693 0.656275 0.0141877 0.452551 0.0200243 0.548576 0.918071 0.872199 0.039454 0.808178 0.263825 0.852159 0.721069 0.131455 0.8262 0.496065 0.407619 0.384581 0.66744 0.719836 0.114332 0.952162 0.474058 0.0378723 0.744149 0.939468 0.389965 0.741052 0.633033 0.393289 0.00844961 0.0126399 0.438651 0.591345 0.395441 0.275855 0.157923 0.656991 0.20489 0.268865 0.0539253 0.531453 0.498255 0.848435 0.902573 -0.0976472 0.488665 0.362164 0.668729 0.243452 0.459485 0.0955035 0.0122301 0.723356 0.024572 0.925785 0.075456 0.188577 0.408092 0.809801 0.318241 0.15081 0.121324 0.847065 0.872906 0.955765 0.95276 -0.00655552 0.796302 1.02188 0.433253 0.789011 0.988922 0.601053 0.541326 0.258385 0.568098 0.624828 0.0960843 0.795569 0.707903 0.204071 0.37109 0.400096 0.957018 0.551829 0.586955 0.954293 0.870127 0.223064 0.225836 0.678105 0.31207 0.843619 0.963084 0.640729 0.0342264 0.967535 0.362581 0.28866 0.987519 -0.087758 0.369072 -0.062489 -0.126329 -0.251958 -0.03002 -0.511905 -0.551394 0.423367 0.471884 0.194443 0.513405 0.866024 0.264523 0.845771 0.281893 0.949299 0.352199 0.830255 0.695746 0.45865 0.599211 0.527104 -0.245312 -0.130876 -0.517451 -0.445429 -0.800346 0.0451385 -0.330978 -0.745285 -0.843428 0.199495 -0.452922 -0.566895 -0.432701 0.845155 0.812592 0.878058 0.644549 0.910585 0.20796 0.533061 0.343726 0.411457 0.576194 0.325754 0.429646 0.813398 0.0107473 -0.228658 -0.745804 0.00641704 -0.869987 -1.13222 -0.298651 -0.848455 -0.264077 -0.482651 -0.0048479 0.519638 0.450058 0.136245 0.950995 0.250389 0.39779 0.473406 0.095963 0.0880466 0.798516 0.725408 0.0926578 0.924542 -0.0687892 0.198992 0.345802 0.449685 -0.00467385 -0.00613843 -0.453862 -0.143317 -0.733696 -1.26926 -1.00969 -0.493901 -0.485524 -0.49198 0.383039 -0.281907 0.284596 -0.198782 0.0480588 0.585934 0.704738 0.154332 0.819558 0.291137 0.147521 0.359489 0.19874 0.0707426 0.290558 0.78399 0.448898 0.281646 0.273208 -0.161935 -0.295523 -0.616608 -1.13194 -0.911874 -0.00256984 -0.514734 -0.624787 -0.473001 -0.652465 0.0659563 0.111406 -0.0788682 0.562221 1.00486 0.357939 0.519327 0.204325 0.00763723 0.359333 0.680631 0.959136 0.608764 0.100674 0.592659 -0.0944256 0.728924 0.850414 0.928886 0.611191 -0.01998 -0.905703 -0.35647 -0.19512 -0.826604 0.175861 0.0274167 -0.416976 -0.276123 0.349381 0.589015 0.545772 0.591452 0.449188 0.439389 0.0871396 0.657954 0.228176 0.947433 0.712642 0.0139486 0.440558 0.544694 0.00455702 0.478926 0.163654 0.284777 0.611132 -0.38216 -1.29259 -1.08414 -0.0566629 -0.136859 -0.210593 -0.145615 0.187378 -0.130352 -0.230982 0.616386 0.293394 0.683066 0.554069 -0.00588122 0.00446311 0.286833 0.810409 0.651748 1.11423 0.695581 -0.0173526 0.108874 0.544611 0.512263 0.24811 0.453859 0.208458 -0.29003 -0.961199 -0.770553 0.120325 -0.297462 -0.465374 0.563646 -0.102847 0.31869 0.214125 -0.224935 0.641774 0.692653 0.866042 0.911547 0.572165 0.488178 0.815497 0.464734 0.646661 0.339673 0.828958 -0.0120187 0.686915 -0.51604 0.26079 0.600922 0.740634 0.418361 -0.446354 -0.28863 -1.05887 -0.227099 -0.576559 -0.564176 -0.456795 -0.538735 -0.745777 0.329997 0.815934 0.323309 0.209601 0.667377 0.163317 0.0477016 0.743341 0.366597 0.772288 0.616008 0.997271 0.500638 0.703312 -0.666029 -0.0414146 -0.314188 0.510745 0.166406 -0.157353 -0.462274 -0.895025 -0.841476 -1.13737 0.0955887 -0.29633 -0.546704 -0.22199 0.0966716 0.808762 0.782961 0.62901 0.582328 0.506269 0.716498 0.535093 0.475628 0.614593 0.432835 0.520401 0.148545 0.181839 -0.163896 0.137932 -0.548819 0.0200389 0.0841986 -0.0976195 -0.518479 -0.0969304 -0.628799 -0.543741 -0.147337 -0.253758 -0.781962 -0.91677 0.515568 0.951172 0.476303 0.546554 0.207791 0.123443 0.656292 0.292486 0.805602 0.597738 0.683252 0.380787 0.372296 0.0562944 -0.215844 -0.182187 0.144228 0.280184 -0.415649 -0.0941069 0.593061 0.218452 -0.102805 -0.348073 -0.445578 -0.165216 -0.732035 -0.0596272 0.74491 0.465976 0.543506 0.217584 0.803508 0.793844 0.0976694 0.52958 0.647651 0.525956 0.512062 0.8711 -0.255641 -0.209613 -0.291065 0.0349928 0.204054 -0.344654 -0.0733729 0.470694 -0.183032 -0.235083 0.400294 0.817177 -0.86218 -1.17905 -0.837343 -0.080171 0.256668 1.11979 0.736927 0.0772838 0.324125 0.150199 0.0181162 0.479752 0.56821 0.822815 0.642748 0.667306 -0.098531 0.111597 -0.200274 0.861338 0.272331 0.147086 -0.131299 0.5429 -0.133064 0.206666 -0.163258 -0.302748 -0.338145 -1.37705 -1.06121 0.0226531 0.518465 0.575193 1.24774 0.893993 0.234835 0.18887 0.33384 0.58672 0.889063 0.258635 0.000728926 0.860191 0.243402 -0.287873 -0.480433 0.277257 -0.0100491 0.301825 0.242284 0.243448 -0.212261 -0.540942 -1.07197 -0.472756 -1.33454 -0.919876 -0.732988 0.46548 0.665673 0.897337 0.436734 1.32094 0.640803 0.184242 0.404398 0.711814 0.581921 0.280722 -0.117884 0.519579 0.0820505 -0.572973 -0.505275 -0.333869 0.410677 0.699363 -0.197794 -0.0544425 0.105846 -0.947408 -0.129111 -1.32509 -0.637096 -0.251689 -0.186003 0.0934749 0.117167 0.236781 0.239009 0.305663 1.05111 0.413129 0.73546 0.881561 0.914064 0.331902 0.433454 0.00863937 0.579883 0.0470051 -0.444608 0.091382 -0.339988 -0.451391 -0.557713 -0.401242 -0.809869 -0.997996 -0.506694 -0.432567 -0.419321 -0.414595 0.192798 0.850043 0.837018 0.694788 0.746249 0.47599 0.204959 0.930264 0.213928 0.481528 0.0452715 0.0212961 0.60814 0.575257 0.671132 -0.152018 -0.518016 -0.228586 -1.06825 -0.64111 -0.91188 -0.628555 -0.388287 0.142141 -0.11287 0.498539 0.283731 0.357495 0.280701 0.756974 0.316701 0.885289 0.892186 0.317935 1.02058 0.927042 0.260357 0.821438 0.916808 0.35186 0.4035 0.62882 0.029085 -0.525922 -0.804869 -0.145582 -0.858487 -0.464011 -0.630775 -0.506779 0.257466 0.0343689 0.773473 0.426304 0.290571 -0.232512 -0.060496 0.226537 0.796624 0.199539 0.943676 0.869439 0.758155 0.553001 0.236565 0.943299 0.0209621 0.966849 0.536567 -0.418854 -0.493188 0.234036 -0.782452 -0.734274 -0.219948 -0.0342768 0.312814 0.48145 0.555558 0.429618 0.538203 0.0823189 0.420401 -0.104554 0.164712 0.560485 -0.0968443 0.856429 0.353186 0.914696 0.265114 0.245685 0.914313 0.85216 0.249111 0.283519 0.869735 0.303036 0.794924 0.164854 0.900863 0.859324 0.352213 0.698595 0.219376 0.68926 0.0915343 0.157149 0.0428061 0.707234 0.392031 0.473711 0.308361 0.0604758 0.694687 0.870499 0.299687 0.0532133 0.46435 0.254803 0.467966 0.0992999 0.933839 0.0288419 0.485424 0.327214 0.877003 -0.00807016 0.498498 0.76092 0.301253 0.911735 0.10952 0.0906888 0.0646663 0.594885 0.56303 0.0796132 0.873001 0.571099 0.0247344 0.460104 -0.117419 -0.0548282 0.578476 0.750078 0.950659 0.733856 0.910825 0.228256 0.29171 0.770669 0.636288 0.288524 0.432334 0.554644 0.708414 0.0487113 0.244336 0.58737 0.561624 0.0274693 0.4575 0.407582 0.929498 0.67277 0.687511 0.704833 0.406209 0.633766 0.257593 0.895972 0.079151 0.507811 0.78774 0.53876 
0.93789 0.124848 0.312335 0.408093 0.812751 0.908134 0.0123777 0.0313986 0.716747 0.371967 0.644785 0.89999 0.127684 0.993057 0.31094 0.96245 0.903904 0.909907 0.804571 0.431869 0.427244 0.686102 0.319709 0.353911 0.186685 0.615471 0.219143 0.131933 0.402666 0.606725 0.222593 0.114404 0.786055 0.21916 0.424561 0.601895 0.692498 0.153544 0.283133 0.671557 0.213374 0.165694 0.493454 0.857541 0.307693 0.275039 0.481509 0.873041 0.108205 0.984041 0.137096 0.134548 0.171206 0.695583 0.669158 0.538574 0.820084 0.153109 0.308921 0.037738 0.262849 0.69913 0.753101 0.354113 0.112441 0.961271 0.185266 1.01079 0.883809 0.518833 0.751324 0.284101 0.867145 0.215699 0.758867 0.362922 0.713576 0.698703 0.556136 0.514123 0.990757 0.944402 0.981841 0.127084 0.906879 0.907235 0.892709 0.757163 0.862087 0.699437 0.0182581 0.34175 0.301316 0.452274 0.753797 1.02028 0.91286 0.720011 0.882749 1.08565 0.714187 0.395573 1.02981 0.446667 0.192703 0.959016 0.143344 0.178681 0.494072 0.504626 0.560873 0.73213 0.917179 0.0229225 0.259053 0.907126 0.802554 0.924157 0.527696 0.556982 0.488346 0.383244 0.593799 0.499188 0.00450031 0.666974 -0.101892 0.638204 0.129097 0.891025 0.249352 0.2147 0.745632 0.73092 0.621656 0.585288 0.750181 0.873307 0.728766 0.811571 0.560507 0.436762 0.660449 0.9283 0.824205 0.379114 0.641621 0.140688 0.444095 0.385684 0.525675 0.381801 0.055225 -0.00455183 0.151729 0.0947542 0.223962 -0.694996 -0.0637809 0.0812327 0.321165 0.219941 -0.607473 -0.0987577 0.346919 0.951155 0.560504 0.887184 0.240385 0.150996 0.797422 0.899841 0.884 0.568297 -0.184376 0.75114 0.183396 -0.17512 0.184614 -0.0588259 -0.656552 -0.147554 0.0806704 -1.08413 -0.796054 -1.21257 -0.283737 -0.787781 -0.148809 -0.474639 -0.105762 0.00759013 0.704603 0.837331 -0.0184785 0.147137 0.813311 0.311276 0.608242 0.480064 0.587877 0.110545 0.36621 0.192895 0.137317 -0.873999 -0.149121 -0.708352 -0.729856 -0.321205 -0.83565 -0.731488 -0.697928 -0.294006 -0.441992 -0.242217 -0.365585 0.129417 -0.248462 -0.169631 0.592664 0.452965 0.930812 0.695606 0.0368255 0.925012 0.95171 0.343061 0.499015 0.106542 0.0803966 0.000705156 0.194459 -0.440843 -0.542437 -1.05796 -0.333282 -0.183683 -0.859226 -0.646011 0.115564 -0.959484 -0.841428 -0.68434 -0.234279 0.379347 -0.365971 -0.337675 0.673981 0.202278 0.0872686 0.679387 0.659364 0.930792 0.699216 0.0862624 0.831597 0.492959 0.176185 -0.0770758 -0.0473232 -0.123355 -0.307678 -0.128374 -1.13035 -0.902292 -0.805847 0.227579 -0.600916 -0.208797 -0.584788 0.0121249 -0.103932 -0.195201 -0.22894 -0.027825 0.57218 0.14584 0.110675 0.278823 0.560104 0.661004 0.298416 0.0282799 0.320415 -0.197411 0.570128 0.424079 0.383554 -0.4585 -0.0633447 0.203178 -0.174242 -0.749116 -0.825748 -0.650386 -0.608757 -0.221652 0.0828996 -0.309576 -0.461443 -0.378079 0.397178 0.0632832 0.759067 0.445918 0.0894727 0.521477 0.869997 0.0348987 0.271633 0.536527 0.155417 0.763988 0.822567 0.89616 0.107911 0.0222606 0.106556 0.323148 -0.0618138 -0.851177 -0.459694 0.0272204 -0.176521 -0.337525 0.223537 -0.173423 -0.397559 -0.200191 0.202247 0.779685 0.0998879 0.221318 0.942197 0.257114 0.350009 0.593706 0.031944 0.348061 0.00339199 0.129728 0.0770075 0.108654 -0.28684 0.178653 -0.411542 -0.553298 -0.319312 -0.222591 -0.337989 -0.128797 -0.496094 -0.43081 -0.421426 -0.108741 0.120178 -0.360398 0.254455 0.522759 0.595586 0.787157 0.485583 0.318202 0.424374 0.446492 0.435768 0.855408 0.569272 0.527844 0.0813785 0.352422 -0.546488 -0.187217 0.287484 -0.27636 0.365352 0.566517 -0.445277 -0.211235 -0.385139 0.0898878 -0.211164 -0.248305 0.176588 -0.157467 0.553152 0.946236 0.940055 0.504215 0.285529 0.150183 0.819841 0.723066 0.188575 0.961913 0.213791 0.112308 0.152189 -0.262407 -0.255518 0.0100225 -0.286967 -0.0700427 0.495018 0.57447 0.158318 -0.594958 -0.633351 -0.582442 0.275154 0.0788665 -0.253639 -0.506236 0.0938715 0.456383 0.153914 1.00584 0.130643 0.548382 0.894512 0.616983 0.186443 0.550419 1.05826 0.287751 0.311027 -0.692373 0.0300457 -0.619647 -0.52651 0.398115 0.0439472 -0.23227 0.470561 -0.375215 -0.577801 -0.365086 -0.60587 -0.402988 -0.0357051 -0.170448 -0.126708 0.167407 0.0548996 0.532801 0.224874 0.105381 0.0502393 0.371593 0.35842 0.679799 0.0815432 0.847658 -0.0448775 -0.527702 -0.235743 -0.0239375 0.369751 -0.236684 -0.217132 0.0161518 -0.452829 0.393496 0.248019 0.0211811 -0.978842 -0.485364 -0.73328 -0.712169 0.171078 -0.103586 0.174374 0.276569 0.946083 0.258513 0.237744 0.755917 0.691238 0.684572 0.00456193 0.50351 -0.0517173 -0.184622 -0.380226 -0.199969 -0.146672 -0.138778 0.4642 0.174471 0.310104 0.567913 0.780369 -0.0317854 -1.0908 -0.384797 -0.67727 -0.530606 0.407266 0.605692 0.898128 0.227929 0.62308 0.323339 0.49967 0.959965 0.961691 0.555679 0.121816 0.429396 -0.156825 0.350984 0.234228 0.409941 0.142476 0.538044 0.529849 0.259737 0.374468 -0.258487 -0.442904 -0.0671239 -0.982797 -0.518072 -0.200575 -0.134302 0.460008 0.555198 0.319185 0.0353722 0.904594 0.0956652 0.942593 0.0712477 0.670024 0.394963 0.211774 0.459966 -0.267303 0.283866 -0.461565 -0.30668 0.370292 0.140641 0.118926 -0.24693 -0.180296 -0.669572 -0.442083 -0.42984 -0.347482 -1.28814 -0.432301 -0.0626586 0.49763 0.23413 0.567108 0.539172 -0.0807707 0.149381 0.963353 0.0746931 0.670529 0.522382 0.189817 0.682538 0.31047 -0.26689 0.133806 0.119444 0.0558405 -0.214816 0.399537 -0.549386 -0.489786 -0.0893545 -0.88229 -0.204548 -0.717966 0.00320568 0.383937 -0.168909 0.212814 0.735422 0.227689 0.380847 0.599321 0.364781 0.497815 0.782708 0.953031 0.463722 0.644056 0.569942 0.719685 -0.0878235 -0.390427 -0.26211 -0.336069 -0.466054 -0.688494 -0.0214307 -0.363714 -0.0965843 -0.49172 0.172761 0.372733 0.434799 0.307445 -0.250662 0.304401 0.288399 -0.058128 0.469306 0.0654902 0.399304 0.941688 0.945304 0.742259 0.726775 0.4986 0.593299 0.699964 -0.0359286 -0.217929 -0.486133 -0.933432 -0.497997 -0.424975 -0.249893 -0.958813 -0.502154 -0.0895332 0.227016 0.233743 -0.417083 -0.101556 0.437614 0.244258 0.162702 0.629317 0.0371421 0.0696362 0.695751 0.0453284 0.834139 0.386438 0.561656 0.687696 0.0056688 0.277785 -0.60087 -0.395462 0.0258333 -0.612305 -0.274985 -0.137814 -0.542518 -0.25298 0.0596611 -0.272155 0.233967 -0.185247 0.217996 0.404351 0.895788 0.445342 1.15191 0.961685 0.272519 0.04377 0.901139 0.779175 0.586613 0.199844 0.686936 0.576987 -0.0469535 0.25999 0.145467 -0.164564 -0.409446 -0.00734932 -0.179481 -0.231772 0.806119 0.53196 0.0944515 -0.192913 -0.0912048 0.174512 0.46876 0.698716 0.497365 0.815257 0.741228 0.404059 0.882857 0.200381 0.963125 0.57557 0.609516 0.134651 0.47755 0.439569 0.898066 0.384923 0.595465 0.308139 0.77844 0.482894 0.412116 0.000303052 0.520279 0.562154 0.812882 0.298953 -0.0532648 0.600455 0.692734 1.06687 1.16679 0.481344 0.469926 0.736278 0.184347 0.625944 0.174378 0.767318 0.305971 0.461813 0.695168 0.189515 0.892697 0.672535 0.990939 0.0406149 0.907916 0.13779 0.882243 0.860703 0.608339 0.58064 0.563861 0.87812 0.191414 0.710907 0.849554 0.816723 0.324356 0.955056 0.696958 0.290539 0.127881 0.805664 0.792336 0.789783 0.881839 0.0629484 0.973699 0.963905 0.112315 0.875446 0.512256 0.564715 0.861956 0.0365282 0.0915908 0.109089 0.82452 0.765811 0.188463 0.356174 0.620874 0.449234 0.273867 0.889803 0.709008 0.237277 0.117285 -0.00732346 0.594157 0.00190157 0.959762 
0.711661 0.893716 0.678723 0.290696 0.733289 0.394773 0.957803 0.802874 0.909864 0.0836376 0.696977 0.0873845 0.67055 0.932868 0.709503 0.624818 0.313212 0.151423 0.961131 0.725296 0.0481953 0.0187701 0.469871 0.114081 0.356151 0.827898 0.474444 0.973637 0.911474 0.143388 0.91486 0.044927 0.0881766 0.983893 0.285825 0.85831 0.863305 0.263288 1.00197 0.999766 0.351961 0.0161572 0.88905 0.252812 0.0723134 0.53693 0.0194073 0.419816 0.622535 0.0764988 0.437845 0.680214 0.573295 0.469495 0.803617 0.385269 0.211769 0.203873 0.487973 0.367864 0.692977 0.862784 0.91985 0.788289 0.305516 0.782857 0.859413 0.158336 0.88219 0.639741 1.00946 0.347724 0.981082 0.479177 0.879613 0.62527 0.87547 0.62476 0.319369 0.742379 0.0507531 0.345145 0.0684581 0.987238 0.501305 0.426634 0.436853 0.195232 0.491692 0.60579 0.835503 0.956615 0.622417 0.544175 0.37989 0.216469 1.03837 0.191363 0.473527 0.488496 0.435204 0.437107 0.0505762 1.01621 0.664143 0.0131877 0.311892 0.381065 0.412462 0.189041 0.869534 0.6027 0.5789 0.566131 0.961662 0.65954 0.08556 0.626705 0.776156 0.192764 0.230275 0.182933 1.04458 0.265976 0.354112 0.228446 0.507424 0.225918 0.272243 -0.0338409 0.865963 0.213976 0.267847 0.757585 0.156646 0.557172 0.831667 0.287776 0.756105 0.519111 0.48369 0.371614 0.719166 0.694392 0.652723 0.191647 0.201019 0.232581 -0.215854 -0.190974 0.0194231 0.34059 0.336872 0.456032 0.0408155 0.354072 0.201919 -0.176683 0.297488 -0.0114096 0.642746 -0.282305 -0.733724 0.323819 0.673122 0.870738 0.110572 0.0243752 0.311982 0.4871 0.68955 0.234704 0.00149078 0.133109 0.338335 -0.271094 0.300145 -0.0745488 0.564632 0.230176 0.214582 -0.654914 -0.517238 -0.453105 -1.06318 -1.13163 -0.885197 -0.282939 -0.285092 -0.0702383 -0.549103 0.261441 0.0738079 0.743677 0.623194 0.117992 0.755179 0.293123 0.248821 0.451795 0.030924 0.206661 0.33836 0.422819 0.0557762 -0.286566 -0.664019 -0.0645555 0.0546804 -0.711495 -0.247227 -0.217925 -0.584159 -0.977579 -1.23872 -0.478868 -0.337439 -0.467227 0.000253243 0.295975 0.552623 0.64451 0.634048 0.375825 0.28549 0.227727 0.786864 0.749142 0.0732731 0.199242 -0.180282 -0.227861 0.0325625 -0.172458 -0.355246 -0.262657 -0.539565 -0.204245 -0.719082 -0.760931 -0.611921 -0.324762 -0.587306 -0.31497 -0.00273705 0.0648304 -0.411301 0.428969 0.140063 0.814976 0.419347 0.283351 0.165324 0.598798 0.569101 0.446337 0.885094 0.153274 -0.347943 -0.463159 0.0524927 -0.26339 -0.0531092 -0.337341 -0.475665 -0.455863 -0.450136 0.389165 0.0661944 -0.640696 -1.05114 -0.527113 -0.589397 -0.770665 -0.199199 -0.333815 0.557926 0.670283 0.734676 0.571319 0.943763 0.822839 0.70177 0.924724 0.456584 0.0769374 -0.0588588 0.0553994 -0.200518 -0.0414118 -0.337473 0.178316 0.0594362 -0.547407 -0.498108 -0.0812013 -0.690109 -0.618338 -0.800934 -0.614546 -0.948911 -0.718804 -0.358721 -0.642637 -0.243797 0.404884 0.321375 0.917818 0.468781 0.800039 0.00546499 0.355303 0.439323 0.277935 -0.0448513 -0.156733 0.394637 0.680981 0.333712 0.313956 -0.62697 -0.989652 -0.639121 -0.0265217 0.123808 -0.301493 -0.377689 -0.642509 -1.43371 -1.08714 -0.829874 -0.151421 0.0178379 0.47669 0.507298 0.066685 0.63744 0.462323 0.0229661 0.750226 -0.107163 0.143205 -0.430811 -0.0563954 0.214114 0.144117 -0.577038 -0.18261 -0.13982 -0.81092 -1.29674 -0.0264076 -0.0968187 -0.0171488 0.0386587 0.249645 -0.858523 -0.653231 -0.234109 -0.457769 -0.527899 0.582583 0.489177 0.372753 0.94533 0.158303 0.942206 0.47122 0.56744 -0.448831 -0.324508 0.481101 0.180773 -0.540301 -0.0215774 -0.156232 0.126356 0.180093 -1.04152 -0.71349 -0.28452 -0.541806 0.72224 -0.0550383 -0.371851 -0.597878 -0.0343079 0.534295 0.304606 -0.0709835 0.8135 0.756542 0.926126 0.0118831 0.489671 0.712387 -0.103587 -0.384402 0.0643396 -0.430902 -0.717577 -0.350538 0.450661 0.0569464 0.329045 0.112171 -0.322464 -0.306575 -0.185376 -0.346188 0.0214848 0.186284 0.237137 0.23727 0.0814902 0.439275 0.338529 0.42214 0.361038 0.72723 0.710385 0.31782 0.983428 0.84392 -0.0684526 -0.289282 -0.322643 0.235699 -0.492518 -0.196972 0.0535905 -0.341252 -0.240534 0.14545 -0.317769 -0.371333 -0.703142 -0.0113937 -0.252554 0.0613507 -0.214134 0.08554 0.548545 0.883923 0.164022 0.144422 0.0334004 0.210773 0.972701 0.188329 0.249686 0.843249 0.626935 0.350056 0.0899642 -0.0869199 -0.189916 -0.243177 0.716498 0.343667 -0.195288 -0.537627 -0.0327889 0.239824 0.295825 -0.0865562 -0.261406 -0.622952 -0.707269 0.0551244 -0.187618 0.561487 0.612924 0.802133 0.668745 0.699899 0.805686 0.167853 0.0998705 0.548814 0.372241 0.229386 0.219555 -0.582271 -0.317721 0.62483 -0.179035 0.435885 -0.461289 0.0360196 0.609742 -0.12086 0.10764 0.141209 -0.202193 -1.02766 -0.920333 -0.200293 0.394185 0.111055 0.726452 0.284029 0.580293 0.148357 0.687632 0.0248862 0.533907 0.943674 0.504706 -0.303741 -0.384329 -0.599362 0.10013 -0.0588721 -0.109098 -0.193318 0.0541461 0.362117 0.450449 0.704031 -0.226842 -0.644972 -0.119429 -0.977476 -1.26469 0.304126 0.305017 -0.0759372 0.406886 0.764381 0.636559 0.714524 0.656436 0.564182 0.359852 0.806449 0.630962 -0.0512675 -0.000500328 -0.732925 -0.0608913 0.282883 -0.249444 -0.121914 0.419638 0.527353 0.64376 -0.247816 -0.55713 -0.127125 -0.28883 -0.96623 -0.221617 0.349374 0.352473 -0.0630047 0.535035 0.0704075 0.695279 0.814775 0.577423 0.751319 0.347501 0.930401 0.279585 0.108874 -0.275185 -0.138899 -0.452471 0.268251 -0.087954 0.300683 0.267834 -0.623798 -0.33212 0.0163676 0.0932305 -0.344554 -0.838826 -0.247803 -0.0566857 0.0338935 0.175839 0.672577 0.121978 0.103692 0.582639 0.509937 0.89763 0.474889 0.978987 0.272489 0.224067 -0.135125 0.128516 -0.649508 0.00677047 0.00760062 -0.164983 -0.591781 -0.463939 -0.247435 -0.224217 -0.420708 -0.0170094 -0.147588 0.226512 -0.138709 0.00296268 -0.272648 -0.0413526 0.613779 0.585193 0.420309 0.127322 0.000697905 0.434974 0.603918 0.0546587 -0.0173446 0.33008 0.530366 -0.0962836 -0.312719 -1.01812 -0.795845 -0.633581 -0.393387 -0.876033 -0.98694 -0.121534 -0.193677 0.385097 -0.0415956 -0.159362 0.124151 -0.566773 0.553496 -0.240695 0.25724 0.117121 0.859936 0.894361 0.0658129 0.0741288 0.883127 0.725044 0.922593 -0.0285841 0.0616519 -0.559445 -0.171578 -0.680736 -0.78755 -0.447554 -0.728319 -0.984697 -0.0116676 -0.109088 0.660338 -0.00705393 0.231579 0.164781 -0.172766 0.51672 0.60196 0.586709 0.710821 0.140213 0.245247 0.277215 0.96474 0.0631033 0.576828 0.745504 0.980941 0.42934 -0.259066 -0.294621 -0.57221 -0.909143 -0.297101 -0.548746 -0.310556 0.594725 0.555378 0.302036 0.400443 0.0561365 0.119193 0.0210745 0.251447 0.27728 0.0384948 0.388125 -0.0166447 0.435588 0.521582 0.49253 0.338633 0.664773 0.836779 0.73676 0.20297 0.608015 0.232387 0.0168843 0.181147 0.50911 -0.12406 0.211071 0.776484 -0.111481 0.153046 0.270507 0.173627 0.547497 0.230209 -0.0149924 0.0257473 0.776005 0.0566884 0.0946118 0.632551 0.844064 0.133298 0.67774 0.268155 0.87479 0.591691 0.545647 0.690617 0.585357 0.503892 0.174856 0.0694385 0.449007 -0.0933289 0.780742 0.207823 0.491594 0.0720759 0.64666 0.681483 0.440536 0.477932 0.369722 0.33509 0.629073 -0.109166 -0.0938752 0.689412 0.533799 0.697245 0.989347 0.959993 0.605703 0.0463574 0.129202 0.498435 0.203021 0.403364 0.18076 0.644734 0.52768 0.234748 0.65784 0.747647 0.760652 0.361781 0.716983 0.0440882 0.382697 0.40718 0.920558 0.319748 0.827593 0.498005 0.0890037 0.486615 0.0769075 0.348901 0.9737 0.969004 
0.0554726 0.328416 0.685353 0.728365 0.624986 0.142546 0.771828 0.107973 0.710438 0.330494 0.611097 0.710212 0.53447 0.837714 0.460788 0.460983 0.744552 0.686643 0.410781 0.990929 0.55092 0.315463 0.978285 0.0279761 0.193638 0.467515 0.53113 0.708864 0.881756 0.679872 0.615779 0.391293 0.457681 0.247102 0.0502079 0.848571 0.9285 0.789668 0.115864 0.612595 0.615879 0.636858 0.69406 0.700777 0.0621629 0.990665 0.915084 0.617568 0.297868 0.128357 0.758989 0.0862026 0.857284 0.389011 0.106186 0.676167 0.334698 0.27238 0.888846 0.836125 0.7572 0.264752 0.874346 0.493202 0.491179 0.805624 0.292184 0.589259 0.276316 1.00905 0.37448 0.812245 0.112831 0.618894 0.676387 0.521258 0.562633 0.153635 0.480194 0.402319 0.0761911 0.979813 0.437498 0.604331 0.99093 0.562934 0.225967 0.832492 0.0559675 0.991395 0.567287 0.701797 0.749009 0.644968 0.530279 0.397622 0.733289 1.01412 0.270838 0.0764513 0.737418 -0.151602 0.319639 0.386449 0.0506919 0.375944 0.767731 0.75627 0.919483 0.932543 0.816072 0.0716001 0.383046 0.854849 0.455054 0.0972126 0.0511987 0.709084 0.243054 0.984207 0.523846 0.54222 0.472419 0.072598 0.453002 0.876544 0.445431 0.16288 0.703827 0.36689 0.141092 0.51343 0.205139 0.654497 0.799976 0.857407 0.0390406 0.0613057 0.567686 0.14506 0.149365 0.379191 0.0670036 0.125054 0.382864 0.751792 0.454 1.00816 0.203657 0.255228 0.487672 0.376683 -0.0134582 0.752246 0.02416 -0.0612179 -0.00406166 -0.696951 -0.34774 -0.0995742 -0.0809627 -0.657221 -0.0575344 -0.656988 -0.183042 0.557432 0.542279 0.961363 0.43559 0.968097 0.807408 0.940871 0.288235 0.0798574 0.795153 0.681726 -0.0292714 -0.451684 0.0164944 -0.0357684 -0.233575 -0.259972 -0.418532 -0.6244 -0.590032 -0.907116 -0.456767 -0.965443 -0.00421843 -0.574825 -0.480417 -0.69682 0.360162 0.176957 0.728265 0.855629 0.414819 0.860462 0.175359 0.0439415 0.462716 0.320164 0.270606 0.22491 -0.370724 -0.509742 -0.289291 -0.345778 -0.976089 -0.401433 -0.551199 -0.894716 -1.18114 -0.438789 -0.357048 -0.791159 -0.238725 0.0642822 0.110421 -0.121005 -0.134484 0.336684 0.517978 0.634018 0.554354 0.0369388 0.650226 0.567208 0.702361 0.576321 -0.308124 -0.256228 -0.293476 -0.576455 -0.214777 -0.592922 -0.263366 -0.129689 -0.0874055 0.217297 -0.415046 -0.592769 -0.184404 0.21452 -0.157316 -0.500475 0.445588 -0.448303 0.00473338 -0.135587 0.326191 0.355744 0.23575 0.254081 0.417321 0.84122 0.531508 -0.0737003 -0.0749708 0.584643 0.278258 -0.00884181 -0.639693 -0.166904 -0.126218 -0.202646 -0.137217 0.177304 0.176744 -0.147533 -0.943478 -0.566517 0.056803 -0.700815 -0.433917 0.22475 0.17182 0.525753 0.931123 0.123234 0.893855 0.0157379 0.129283 0.122247 0.0145676 0.331442 0.156932 0.380709 0.0229352 -0.399674 -0.733871 -0.315717 -1.04462 -0.967181 -0.313954 0.351101 0.242111 -0.2709 0.0682929 -0.405965 -0.160504 -0.199525 -0.243063 -0.219422 -0.218277 0.526761 0.58269 0.0613638 0.0108071 0.634534 0.653295 0.791271 0.4925 0.39511 -0.188065 -0.312013 -0.310807 -0.702818 -0.192944 -0.407748 -0.877149 -0.892861 -0.833097 0.341683 -0.0386373 0.117409 0.313589 0.451894 -0.295115 -0.381204 -0.046904 -0.378801 -0.275824 0.422216 0.681516 0.131117 0.395547 0.962199 0.470988 0.94935 0.376957 -0.269655 -0.212332 -0.945336 -0.989408 -1.00642 -0.774112 -0.650079 -0.413973 -0.996436 -0.886067 -0.288705 -0.305227 -0.337007 -0.393021 0.179787 -0.992029 -0.427217 -0.170937 0.132388 -0.0424872 0.179242 0.741265 0.0820111 0.267052 0.346173 0.707492 0.721863 0.0377646 -0.0849549 -0.804091 -0.766223 -0.73595 -0.402596 -0.592961 -0.436252 0.426391 0.0750105 -0.379931 -0.330546 -0.541564 -0.216239 0.185196 -0.238562 -0.554092 -0.835384 -0.679098 0.199443 -0.0976736 0.478714 0.0271539 0.297359 0.233556 0.768527 0.715186 0.194332 0.537567 -0.550302 -1.01672 -0.125686 -0.564165 0.20987 -0.310414 -0.0579454 0.162345 0.0467215 -0.530276 -0.675163 -1.23009 -0.00373444 -0.128357 -0.309722 -0.915875 -0.136871 -0.28034 0.176196 0.63334 0.901008 0.0882335 0.60856 0.0188814 0.798279 0.769356 0.21695 0.349428 -0.131396 -0.776156 -0.70412 -0.680616 -0.308885 -0.261774 -0.0820329 0.228526 -0.633246 -0.129931 0.0060246 -0.81163 -1.0207 -0.684514 -0.203142 -0.717064 -0.109545 -0.278734 -0.0735368 0.0121297 0.400232 0.312879 0.403366 0.264592 0.996319 0.13019 0.501344 0.784504 0.672709 -0.62201 -0.758127 -0.147994 -0.284593 -0.035134 -0.146319 -0.022184 -0.29107 -0.0232524 -0.608397 -0.00829626 -0.702977 -0.4759 -0.930304 -0.537391 -0.235327 0.45854 0.740453 0.238196 0.439938 0.378747 0.312316 0.220261 0.934347 0.580467 0.119303 0.586258 0.565779 0.660065 -0.437767 0.0614111 -0.425726 -0.513272 -0.00200224 -0.155583 -0.0936885 0.244683 0.00175599 -0.287688 0.0849075 -0.271558 -0.364912 -1.27727 -0.279915 -0.05192 0.169204 0.483015 0.810591 0.117737 0.215927 0.356619 0.697682 0.962862 1.03447 0.666137 0.815735 -0.142565 -0.568959 -0.78849 -0.747187 0.0212366 -0.370452 -0.124811 -0.748862 0.165923 -0.127535 -0.180333 -0.393473 -0.432985 -1.0612 -1.25035 0.190713 0.252664 0.257223 0.229244 0.291676 0.341884 0.947898 0.206028 0.894857 0.86768 0.510908 0.574267 0.396694 0.565685 -0.609965 -0.035291 0.0491036 -0.290058 -0.231984 -0.412745 -0.261345 0.129683 -0.644045 -0.412457 -0.460581 -0.318371 -0.325292 0.0674191 0.450184 -0.636882 -0.154479 0.315149 0.881652 0.849307 0.778601 0.868438 0.844719 0.719826 0.244577 1.25447 0.796612 0.442762 -0.226515 -0.0314039 -0.338101 0.35935 0.297822 0.144495 -0.413868 -0.572136 -0.240973 -1.1089 -0.936989 -0.48248 -0.0805599 0.212576 0.354693 -0.443209 -0.155156 0.274663 0.370096 0.355747 0.616151 0.923214 0.450731 0.489411 0.918627 0.943968 0.690324 0.196552 -0.557897 0.306083 0.133482 -0.0622954 0.143868 -0.994608 -0.830931 -0.859417 -0.883995 -0.67313 -0.356023 0.149201 -0.234354 0.496032 -0.276457 -0.291354 0.23944 0.443597 0.335411 0.424285 0.965564 0.75378 0.781724 0.445815 0.128856 0.787338 0.562958 0.878248 0.273717 -0.273406 -0.227924 -0.61189 -0.554594 -0.288131 -0.651913 -0.214496 -0.540386 0.276645 0.287107 0.336306 0.325897 0.409156 -0.262038 -0.495594 0.302652 0.244483 0.422226 0.00249277 0.0219586 0.600826 0.0751415 0.896445 0.417161 0.294366 0.462959 0.208637 -0.349405 -0.61492 -0.229945 -0.760875 -0.287418 -1.12596 -0.556507 -0.438963 0.551504 0.5191 0.16201 -0.11473 0.104881 0.495457 0.265559 0.410336 0.740173 0.876763 0.57313 0.439012 0.271764 0.633826 0.71258 0.333012 0.441066 0.355368 0.198124 0.0637722 -0.673096 -0.181759 -0.0826662 -0.207941 -0.132726 0.507271 0.063557 0.746844 0.152856 0.00123137 0.334516 0.789561 0.438783 -0.195773 0.883153 0.191398 0.774007 0.487036 0.163878 0.716249 0.201429 0.753606 0.862035 0.218997 0.499336 0.593249 0.335028 0.572874 0.39182 0.722749 0.682376 0.664501 0.0371422 0.400013 0.156776 0.141795 0.597896 0.773453 0.135542 -0.0277538 0.54847 0.679101 0.615604 -0.00546026 0.405506 0.560814 0.133452 0.0183415 0.784251 0.900588 0.187073 0.142913 0.943463 0.15205 0.280883 0.507392 0.138333 0.850993 0.747178 0.283529 0.319498 0.633199 0.618178 0.879579 0.474095 0.25502 -0.0228523 0.140575 -0.0379654 0.71078 0.812751 0.856758 0.870046 0.235089 0.916338 0.247432 0.594799 0.790653 0.510708 0.471176 0.0630238 0.241412 0.373838 0.339208 0.209026 0.86158 0.112343 0.509901 0.234285 0.205327 0.206969 0.263783 0.527925 0.836913 0.663018 0.750037 0.0458061 0.80002 0.834421 -0.0303364 0.819893 0.535899 0.284057 0.153604 0.618373 
0.995854 0.323556 0.0104748 0.0496685 0.778515 0.494112 0.535142 0.131658 0.775959 0.544046 0.779876 0.374565 0.311081 0.335938 0.105838 0.824758 0.71278 0.686425 0.741763 0.812772 0.264665 0.216317 0.631851 0.523507 0.583467 0.330518 0.0174814 0.809861 0.340825 0.245814 0.39959 0.916733 0.536249 0.737066 0.876654 0.920567 0.897864 0.0100001 0.854076 0.186846 0.182877 0.136437 0.963273 0.437057 0.735599 0.459934 0.6057 0.0730061 0.0785349 0.166245 0.269987 0.626413 0.197559 0.527333 0.880284 0.927532 0.0262851 0.772866 0.565199 0.296848 0.115996 0.54269 0.664666 0.252641 0.956964 0.391137 0.30016 0.0262239 0.941204 0.358677 0.166564 0.835823 0.961474 0.735961 0.375088 0.480071 0.969946 0.456151 0.292103 0.0609184 0.367717 0.695883 0.641643 0.346458 0.913655 0.800348 0.450058 0.118546 0.568514 0.403773 0.100275 0.351406 0.224875 0.538851 0.156127 0.792607 0.231566 0.58126 0.9453 0.57224 0.107546 0.94878 0.635123 0.401172 0.604154 0.756738 0.872291 0.306774 0.687026 0.641613 0.165778 0.333442 0.153329 0.00750673 0.165659 0.226251 0.578123 0.926371 0.125716 0.478136 0.880226 0.153715 0.234846 0.321616 0.306307 0.423088 0.311041 0.61213 0.807853 0.547522 0.542752 0.389393 0.975202 -0.0968 0.423801 0.522162 0.598307 0.528772 0.127055 0.672119 0.930438 0.868769 0.408021 0.279922 0.227721 0.0750939 0.0441045 0.842724 0.417218 0.164439 0.537163 0.256312 0.386342 0.363862 0.437663 0.130325 -0.201952 0.0323741 -0.158349 -0.325823 0.688469 -0.113068 -0.317994 -0.0110606 0.693461 -0.0115148 0.196572 0.358558 0.995695 0.643917 0.313454 0.352206 0.336141 0.348767 0.796502 0.65176 -0.0423465 0.852244 -0.141048 -0.0190151 -0.363532 -0.282616 -0.993579 -1.01786 -0.660867 -0.863605 -0.312726 -0.493395 -0.303131 -0.110161 -0.591956 -0.396196 0.000684653 0.63988 0.984615 0.319111 0.642999 0.889074 0.555655 0.744515 0.448873 0.324876 0.486146 0.735008 -0.0554942 -0.305104 -0.565909 -0.419572 -0.880301 -0.677474 -1.00229 -0.826631 -1.16246 -0.806318 -0.651963 -1.12833 -0.0801965 -0.765636 -0.454078 0.326864 0.521346 0.891152 0.62683 0.625304 0.291964 0.0316672 0.619292 0.106087 0.600491 0.701722 -0.160653 0.0376901 0.191029 0.00267015 -0.969579 -0.507648 -0.910104 -1.26756 -0.953658 -0.515264 -1.0594 -0.547345 -1.01699 -0.485566 -0.580183 -0.621814 -0.0930141 0.158703 0.242989 0.852771 0.353652 0.475663 0.456901 0.139119 0.594094 0.108843 0.508423 0.829515 0.136086 0.450462 0.311937 -0.289463 -0.833867 -0.208704 -1.10952 -0.422905 -0.822666 -0.808407 -0.0617253 -0.51714 -0.585975 0.522553 0.0178403 -0.581113 0.134627 0.891911 0.731033 0.725893 0.686673 0.225497 0.225755 0.261951 0.119068 0.548149 -0.106562 0.679206 0.673647 0.364209 -0.434214 -0.437277 0.296242 -0.465852 -0.808822 -0.763865 -0.695953 0.324219 0.164496 -0.340318 0.270318 0.1518 -0.483574 -0.20969 0.0323121 0.0967988 1.14696 0.614209 1.08334 0.248958 0.662697 0.941872 0.797389 0.607587 0.145347 0.0763555 -0.256894 0.162589 0.251746 -0.049367 0.0646135 -0.07183 0.0452569 -0.649778 -0.0288802 0.69256 0.19195 0.335558 0.274712 0.0628734 -0.180267 0.023876 0.570155 0.690022 0.896263 1.01879 0.936368 0.629977 0.982593 0.435961 0.873935 0.233042 0.708152 0.294949 0.0674061 -0.0202912 -0.481267 0.0825587 -0.259912 0.0939504 -0.0690579 -0.33189 0.206862 -0.387598 0.639975 0.138194 0.605704 0.123591 -0.820808 -0.682303 0.163549 0.11019 0.632733 0.173745 0.398804 0.0776052 0.433509 0.994076 0.688484 0.250789 0.733277 -0.159118 0.618662 0.512388 0.146299 0.149502 0.354771 0.423842 0.105874 0.190378 0.108079 0.0953743 -0.217276 -0.266507 -0.0257964 -0.0928302 -0.229417 -0.290795 -0.371636 0.0208251 0.201677 0.212311 0.344731 0.417359 0.822804 0.217425 0.324008 0.196305 0.66527 -0.0982439 -0.0890927 0.347256 -0.264491 0.0777337 -0.0483857 0.209091 0.657308 -0.0888958 -0.312277 -0.782521 -0.495277 -1.22319 -0.60557 -0.549872 -0.439281 -0.551681 -0.271274 0.30013 -0.337121 0.213716 0.643737 0.735824 0.499698 0.233946 0.277445 0.197758 0.829572 0.132108 -0.148444 -0.137023 -0.622001 -0.395083 0.296523 0.580356 0.248889 0.246837 0.639253 -0.402234 -0.560727 -0.630361 -0.494993 -0.278333 -0.564894 -0.0343497 -0.523191 0.418434 0.507641 0.436055 0.125969 0.854869 0.000744623 0.514881 0.605603 0.769912 0.72475 0.63996 -0.378242 -0.655853 -0.764395 -0.0944416 0.155971 -0.162025 -0.295713 0.212288 -0.0665039 0.52209 0.301138 -0.372386 -0.208723 -0.345095 -1.35997 -0.429053 0.0400702 0.0575569 0.12211 0.676315 0.948753 0.942889 0.579367 0.427562 0.0378545 0.0767966 0.888372 0.429943 0.523943 -0.26857 -0.945236 0.19771 -0.228766 -0.44418 0.10993 -0.0144795 0.437899 0.400129 0.413375 -0.0129949 -0.49147 -0.562646 -1.31602 -0.877565 -0.0891738 0.178928 0.372095 0.113341 0.254186 0.449332 0.00293958 0.405772 0.645932 0.734162 0.32621 -0.116776 0.180407 0.399405 0.0624628 0.430585 0.0193966 0.373073 0.745938 0.45346 0.469545 0.498472 0.162315 -0.647182 -0.663544 -1.33986 -0.876478 -0.714333 0.00864315 0.207414 0.925931 0.77649 0.577926 0.497838 0.464427 0.468035 0.474709 0.553936 0.573107 0.0694596 0.421115 -0.489814 0.204047 0.0586263 0.235804 0.451966 0.386594 0.349441 -0.117329 -0.41319 -0.436849 -0.490262 -0.468301 -0.797912 -0.281911 -0.127877 0.29871 0.573167 0.430635 0.903768 0.657603 0.903695 0.33612 0.175947 0.0281137 0.207872 0.823525 0.78371 0.727006 0.0891525 0.231433 0.103252 0.2084 0.343263 0.226 0.574184 -0.304541 -0.136157 -0.757684 -0.420474 -0.12269 0.0479149 0.469653 0.267777 0.228227 0.269094 0.689877 1.09647 0.0499694 0.165181 0.287476 0.614688 0.778035 0.35717 0.0395361 0.686981 0.992881 -0.00629911 0.0100357 0.365211 -0.291106 -0.154323 -0.132691 -0.311057 -0.122406 -0.630922 0.164052 -0.212477 0.440904 0.516714 0.513084 0.156494 0.917049 0.267677 0.97202 0.936143 0.472406 0.511871 0.00374222 0.895497 0.63481 0.113995 0.151775 0.594344 0.180649 0.1343 -0.413241 -0.445144 -0.295763 -0.522464 -0.719095 -0.992661 -0.390133 -0.192124 0.353097 -0.255977 1.91756e-05 -0.30113 -0.0812632 0.444987 0.830901 0.721118 0.972126 0.272011 0.787224 0.69261 0.230103 0.343425 0.953654 0.184983 0.552455 0.727684 0.220197 -0.107323 -0.598854 -0.666886 -0.482 -1.00021 -0.253625 -0.321252 0.200447 0.339971 -0.0815045 0.472572 0.315293 -0.101023 0.268202 0.629361 0.888516 0.79221 0.104856 0.245329 0.513819 0.629659 0.305609 0.376592 0.383033 0.891991 0.543493 -0.135139 -0.581835 -0.276442 -0.389656 -0.754774 0.161889 -0.541213 0.442513 0.513711 0.463236 0.457522 0.0191979 0.00398788 0.0118194 0.0564963 0.368434 0.699783 0.622242 0.482639 0.728499 0.350329 0.914262 0.51145 0.57892 0.915015 0.653035 0.0272906 0.780508 0.295021 0.454175 0.162324 0.446721 0.682379 0.558192 0.623843 0.638542 0.0937534 0.718823 0.618745 0.337419 0.548379 -0.0211661 0.221407 0.0194212 0.491331 -0.0037702 0.784796 0.680271 0.720524 0.195351 0.130831 0.883191 0.790944 0.393525 0.976384 0.936444 0.829039 0.0550537 0.319654 -0.0326321 0.725697 0.2531 0.757882 0.463063 0.430855 0.539639 0.472552 0.781145 -0.0376621 -0.0417062 0.578166 0.25187 0.108407 0.376783 0.722991 0.228713 0.343136 0.883878 0.329438 0.869962 0.459 0.4103 0.914015 0.843047 0.787362 0.0508188 0.28998 0.447787 0.733782 0.25746 0.905109 0.587388 0.469924 0.110687 0.248707 0.545415 0.103004 0.526958 1.00112 0.338239 0.867175 0.0478186 0.675302 0.255747 0.0875311 0.135269 0.470799 
0.715596 0.0176138 0.0354539 0.873177 0.486892 0.196256 0.468803 0.179024 0.861624 0.315054 0.117775 0.449805 0.87986 0.807023 0.631255 0.49468 0.0886736 0.336578 0.858683 0.880333 0.755076 0.568928 0.968425 0.312848 0.038997 0.42244 0.94624 0.460563 0.675282 0.469512 0.0806388 0.296818 0.617754 0.583942 0.317109 0.636176 0.860786 0.944921 0.287907 0.100695 0.627505 0.969023 0.6975 0.806101 0.0519296 0.749683 0.872256 0.723913 0.281378 0.402801 0.292027 0.730988 0.371886 0.371227 0.210382 0.89833 0.237071 0.460509 0.781182 0.329518 0.217421 0.188415 0.222164 0.231754 0.757062 0.660788 0.510202 0.622096 0.162705 0.848062 0.412927 0.35872 0.125552 0.756087 0.578495 0.303372 0.694566 0.523828 0.847187 0.0957602 0.42463 0.816616 0.573378 0.973818 0.957333 0.888239 0.638546 0.0445038 0.908751 0.30091 0.0577637 0.640686 0.516094 -0.179996 0.646554 0.608987 0.331243 0.442437 -0.254797 0.245754 0.100305 0.26768 0.107615 -0.143811 0.267545 0.53372 0.732019 -0.00225648 0.942571 0.0828089 0.607751 0.913097 0.425469 0.858228 0.238462 0.838093 0.885596 0.0510459 0.510211 0.445403 0.528702 0.429163 0.377431 -0.172987 -0.3302 0.0579246 -0.211259 0.143349 -0.0569499 -0.107504 0.428247 -0.1254 0.757805 0.637738 0.813768 0.82857 0.814897 0.30409 0.440024 0.0856815 0.849908 0.402578 0.136669 0.559532 0.471097 0.312147 0.803834 0.604902 0.504608 0.38226 -0.400874 -0.079526 0.400517 0.280097 -0.0943702 0.219443 0.168944 -0.307873 -0.54795 -0.496697 -0.0177838 -0.275991 -0.772541 -0.340928 -0.0496312 0.710533 0.209206 0.939095 0.129389 0.643963 0.0816497 0.77407 0.109695 0.212134 0.233917 -0.0410472 0.660374 0.108275 0.45694 -0.391434 -0.369311 -0.166842 -0.810733 -1.00141 -0.561683 -0.815564 -0.503038 -0.778377 0.156596 -0.285393 -0.655257 -0.61784 0.161587 0.231215 0.0527233 0.301386 0.871166 0.692964 0.941696 0.832542 0.858381 0.531318 0.273536 0.77965 0.0544243 -1.23282 -0.801475 -0.570989 -0.838176 -0.228567 -0.834184 -1.26579 -0.666107 -0.909635 -1.28246 -0.666967 -0.301828 0.413031 -0.362212 0.232884 0.598983 0.541304 0.740302 0.301686 0.190726 0.538341 0.086194 0.730897 0.721467 0.346793 0.514004 0.470817 0.309753 -0.402513 -0.562375 -0.37016 -0.663932 -0.959563 -0.557124 -0.962873 -0.969322 -0.532374 -0.800931 -0.526265 -0.4931 -0.446461 0.135932 0.659543 0.134739 -0.0171766 0.383523 0.719417 0.712769 0.511601 0.072226 0.206651 0.109249 0.394806 -0.194856 -0.232632 -0.306409 -0.172295 -0.706435 -0.126421 -1.2775 -0.363307 -0.980882 0.610199 0.307704 0.139764 -0.497592 0.402011 0.119339 0.0577271 0.0657646 0.125208 0.195168 0.383503 0.0999506 0.418657 0.518465 0.845311 0.916252 0.664997 0.0488335 0.27578 0.0986864 0.0741674 0.515778 0.200689 0.139788 -0.0803726 -0.260864 -1.08429 -0.194433 0.0891542 -0.181564 0.0377335 0.639661 0.349218 -0.205996 0.0707629 0.411 0.116918 -0.316302 0.62976 0.917397 0.364556 0.150652 0.00870862 0.237736 0.636128 0.279701 -0.263878 0.117436 0.376617 -0.240275 -0.0173349 -0.0152091 -0.164439 -0.789274 -0.491325 -0.674266 0.358174 0.178757 -0.209512 -0.073669 -0.177602 -0.800876 -0.006063 0.212102 0.426851 0.212535 0.126811 0.262308 0.641436 0.308046 0.325215 0.915647 0.222046 0.668816 0.453703 -0.147747 0.59051 0.364665 -0.281668 0.0801188 -0.327996 0.354754 0.0440861 -0.947877 0.257365 0.3692 -0.156852 0.0339121 0.142322 -0.654108 -0.696614 0.416063 0.1595 0.0448515 0.450983 0.760573 0.0634087 0.535898 0.838176 0.808752 0.0656363 -0.0017168 0.445582 0.79632 0.480362 -0.042778 -0.301263 0.327674 0.199895 1.04838 0.0149172 -0.585983 0.0824221 0.217551 0.47029 0.158507 0.412943 -0.753251 0.17494 -0.0623489 0.231404 0.201321 0.00179459 0.126665 0.757324 0.504894 0.451376 0.541613 0.801839 0.417383 0.165122 0.307097 -0.00268065 0.239446 -0.320186 0.212585 0.261649 0.661296 -0.0537817 -0.43506 -0.829812 -0.427285 -0.883943 -0.0574167 -0.0113147 -0.279085 -0.203299 0.111019 0.382504 0.2076 0.533942 0.237197 0.185001 0.934531 0.555348 0.773832 0.665528 -0.163321 0.0163622 0.254415 -0.567482 -0.274329 -0.621859 0.0478226 -0.307321 -0.331729 -0.38231 -0.110957 0.747757 -0.404213 -0.251265 -0.784434 -0.34772 -0.312515 0.0344434 0.0904471 0.4072 -0.198101 0.415185 0.499222 0.772939 0.822221 0.069304 0.801187 0.0652703 0.46865 0.495109 -0.338788 -0.659322 -0.111901 -0.0461584 0.149217 -0.0372288 0.649721 -0.215944 0.225219 0.459586 0.640596 0.134942 -0.258548 -1.1309 -1.1509 -0.0385676 -0.389368 0.43818 0.0706885 0.1971 0.388275 0.594659 0.418657 0.371743 0.880815 0.760804 0.671616 0.464408 0.219801 0.00855905 -0.390755 0.0538691 0.290456 0.00955296 -0.447044 -0.0628425 0.643159 0.574578 0.50422 0.100676 -0.772025 -0.901106 -0.989074 -0.28919 -0.150573 0.0140606 0.396442 -0.0617196 0.534226 0.971656 0.439793 0.594583 0.0620225 0.457501 0.104128 0.768831 -0.0256974 -0.639773 -0.191989 -0.176517 0.0442353 -0.500201 0.154968 0.161067 0.699446 0.418168 0.397263 -0.403836 -0.840437 -1.04312 -1.26147 -0.0927949 -0.210833 -0.0430825 -0.0482926 0.404903 0.152899 0.685373 0.683148 0.92349 0.728277 1.00402 0.881544 0.370736 0.125676 -0.057839 -0.831138 0.0509104 -0.530867 -0.631509 -0.160199 0.457256 0.176975 -0.667489 -0.353704 -0.672058 -1.43238 -1.48789 -0.58109 0.303883 -0.658788 -0.162997 -0.0497026 0.420448 0.634072 0.791154 0.500286 0.308524 0.320698 0.0450731 0.753243 0.759612 0.127468 -0.777166 -0.309934 -0.258003 -0.331576 -0.476572 -0.517003 -0.870843 -0.788426 -0.756085 -1.53901 -1.68017 -0.729426 -0.908967 -0.0821157 0.0290694 -0.362475 0.464746 0.159792 0.336798 0.52389 0.544211 0.0571236 0.0768667 0.0777866 0.175196 0.729262 -0.00578812 0.0987545 -0.641949 -0.329845 -0.0168433 -0.0847105 -0.458944 -0.501853 -0.807198 -1.61891 -1.66794 -0.905943 -0.295455 -0.411289 -0.257325 -0.635346 -0.0858026 0.28334 -0.251116 0.0869658 0.744251 0.244178 0.0568774 0.447858 0.143582 0.159224 0.0658358 0.424819 0.594707 0.555483 -0.0536349 -1.09822 -0.99354 -1.17049 -0.89071 -1.37046 -1.49996 -0.911825 -0.275489 0.322606 0.456671 -0.336731 -0.536793 -0.279593 0.367513 0.000884042 0.0640743 0.0802232 0.764389 0.779305 0.893194 0.112336 0.0325062 0.316008 0.321211 0.0950434 0.702346 -0.43738 -1.00974 -0.876532 -1.10337 -1.38229 -1.12959 -0.788297 -0.206255 -0.110637 0.0357263 0.282292 0.312047 0.0768989 0.0292772 -0.0943955 -0.22448 0.472787 -0.0336276 0.211856 0.665884 0.50662 0.686292 0.457404 0.582798 0.0777011 0.466458 0.813774 0.346842 -0.639231 -0.657808 -0.515043 -0.725903 0.143323 -0.103929 0.696967 -0.0476755 0.665144 0.692703 0.0646984 -0.0790367 0.430008 0.185882 0.359991 -0.103674 -0.0617239 0.386607 0.297231 0.647097 0.563604 0.250037 0.711482 0.880063 0.211943 0.884396 0.0718648 0.888629 0.660286 0.677674 0.593502 0.530962 0.131614 0.154775 0.0357544 -0.0854568 0.0154798 0.125179 0.441856 0.24199 0.455801 0.0471161 0.416907 0.180226 -0.0581366 0.330364 0.762813 0.410033 0.171714 0.604942 0.260175 0.767041 0.6598 0.264982 0.0565728 0.778022 0.421763 0.275817 0.624117 0.789995 0.353335 -0.071584 0.378741 0.0677074 -0.0558135 0.466455 0.558486 0.0471309 0.224078 0.531103 0.66318 0.275373 0.118232 0.118836 0.289272 0.0956293 0.0760621 0.375277 0.283148 0.8743 0.367648 0.0594128 0.550816 0.51933 0.317955 0.287883 0.0665373 0.2976 0.165263 0.402444 0.727658 0.548862 0.678925 0.900067 0.584854 0.189849 0.761093 0.0801191 0.561788 0.123378 0.767836 1.02406 0.0264033 0.704015 0.374957 0.906714 
