0.709108 0.985184 0.994498 0.531048 0.324661 0.582394 0.300168 0.918846 0.0466151 0.46015 0.7481 0.320924 0.764904 0.395102 0.0734789 0.0564371 0.75094 0.0554055 0.201035 0.798509 0.537308 0.532133 0.554764 0.919996 0.378052 0.926838 0.36253 0.0341298 0.619452 0.12549 0.110572 0.382838 0.365917 0.961398 0.287785 0.492477 0.346075 0.990989 0.876022 0.0512526 0.526144 0.761967 0.989406 0.970198 0.25774 0.506895 0.384747 0.804959 0.582664 0.59034 0.156063 0.834514 0.985251 0.108159 0.83215 0.939588 0.661566 0.946983 0.935224 0.307141 0.19391 0.909285 0.3699 0.55362 0.233757 0.0898978 0.519436 0.12351 0.224249 0.0070139 0.152885 -0.0191895 0.879284 0.153385 0.935556 0.380006 0.295637 0.507639 0.881513 0.8516 0.175252 0.154015 0.999666 0.378812 0.693657 0.300203 0.505471 0.855922 0.403226 0.805094 0.200101 0.0832522 0.885237 0.513809 0.826063 0.793944 -0.111965 0.720753 0.55476 0.609544 0.940453 0.777863 0.479749 0.124064 0.422214 0.156305 0.0563004 0.605472 0.239815 0.4169 0.205398 0.869933 0.971018 0.897672 0.167461 0.54923 0.215127 0.74003 0.000897598 0.408631 -0.231696 0.0996321 0.149854 0.288659 -0.254125 0.32474 0.864683 0.100201 0.0648626 0.279986 0.421836 0.618853 0.275825 0.104215 0.286389 0.554544 0.745846 0.608578 0.370523 0.213509 0.0417148 0.1007 0.459167 0.681248 0.984701 -0.0145994 0.578238 -0.00369341 0.547318 -0.0546439 0.0296801 0.354586 0.365294 0.484087 0.675606 0.217915 -0.293787 0.035936 -0.0265231 -0.0407394 0.338933 -0.467271 -0.255211 0.518557 0.910996 0.237954 0.928318 0.783699 0.624163 0.313475 0.272446 0.420062 0.592842 0.664495 0.0789898 0.658865 0.452824 -0.0173705 0.244663 -0.42924 0.293977 -0.526244 -0.853485 -0.704631 -0.701732 -0.633179 -0.475795 -0.122014 -0.399888 -0.0801554 0.101015 0.124609 0.0730949 0.551384 0.536788 0.361706 0.383597 0.118817 1.00263 0.133879 0.964731 0.615582 0.0418791 0.0161172 -0.303356 -0.350359 -0.693104 -0.377811 -0.522099 -0.520983 -0.803159 -0.217634 -0.729665 -0.68273 -0.115825 0.262714 0.357076 0.180367 0.184317 0.490068 0.251544 0.774854 0.273063 0.163539 0.0302786 0.266185 0.0862651 0.960469 0.491127 0.447383 0.571326 0.139132 -0.069186 -0.96408 -0.0313558 -1.06853 -0.116425 -0.943681 -0.156982 -0.182347 -0.61992 -0.772666 -0.0606118 0.387064 -0.577094 -0.277295 0.040779 0.971261 0.697487 0.707688 0.235151 0.936857 0.996284 0.545251 0.588301 0.551586 0.843072 0.133039 0.711202 0.46051 -0.166316 -0.195322 -0.0784164 -0.357799 -0.73838 -0.781762 0.607357 0.425765 -0.0485271 -0.563842 0.0331843 -0.0316278 -0.404422 0.319659 0.642662 0.069073 0.164412 0.289199 0.548896 0.701872 0.654353 0.711486 0.827547 0.410685 0.0588186 0.24517 0.710407 0.303604 0.152952 0.792521 0.62754 0.100071 -0.618454 0.310406 0.0496673 0.851165 -0.188245 0.00846067 -0.216035 -0.433107 -0.85802 -0.530582 0.0765144 0.896828 0.706753 0.551658 0.342785 0.694176 0.932063 0.192662 0.067904 0.347477 0.452879 -0.364761 0.496921 0.0365013 -0.240016 0.394983 -0.237385 0.23198 -0.547401 -0.420352 0.370383 -0.111983 0.32248 -0.101186 -0.219402 0.345464 -0.470987 -0.105404 0.312479 1.15331 0.492741 0.691196 0.671999 0.970394 0.0987592 0.848091 0.366041 0.298682 -0.00332944 -0.0818897 0.217913 0.765599 -0.307581 -0.0960202 -0.479652 0.198184 -0.600537 -0.637775 0.353396 -0.127756 0.323347 0.317539 -0.390734 0.163646 -0.659653 0.111938 0.119051 0.205407 0.103532 0.7894 0.201686 0.38409 0.267211 0.0227677 0.671521 0.104833 0.111896 -0.255989 0.451911 0.0802255 0.211146 0.244829 0.345471 -0.17195 0.501 -0.647509 -0.530527 -0.627322 -0.288107 0.382713 0.502387 0.189596 -0.303867 -0.0746746 -0.352257 0.116929 0.79037 0.729539 0.923808 0.00334398 0.44777 0.492073 0.795603 0.257723 0.359345 0.150395 0.978538 0.223531 0.193536 -0.108747 -0.273251 0.00293368 0.382212 -0.384836 -0.288344 -0.801867 -1.11399 0.145047 -0.324629 -0.166435 -0.44816 -0.131479 0.10766 0.141824 0.484381 0.826709 0.27084 0.397968 0.468001 0.608805 0.619505 0.633699 0.412901 0.510897 0.171623 0.246455 -0.424603 -0.642905 -0.515189 0.0136129 -0.441979 -0.36946 -0.543657 -0.187405 -0.79985 -0.660724 -0.231104 -0.00661336 -0.156238 -0.0413491 -0.406794 0.0044886 1.05677 0.515463 0.776622 0.486201 0.807845 0.447362 0.853896 0.0893351 0.504046 0.377734 -0.0122859 -0.0405136 -0.209374 -0.425536 -0.201154 0.355753 -0.52211 0.0839473 0.5484 -0.08815 -0.071806 -0.707688 -0.194963 -0.0666282 -0.0513499 -0.361309 0.292067 -0.0117287 0.709637 0.217422 0.408319 0.931564 0.163455 0.195307 0.608776 -0.0143982 0.681441 0.520617 0.6462 -0.431876 0.250858 0.111072 -0.129588 0.103785 -0.238844 -0.0348407 0.328511 0.129192 -0.217453 -0.906268 -0.332388 -1.08449 -0.87311 0.23268 0.257069 0.181773 0.375221 0.148261 0.726138 0.344624 0.260633 0.411188 0.0336603 0.605184 0.597497 0.481006 0.410696 0.051668 0.379487 0.0734369 0.654862 -0.0933036 -0.182279 -0.134316 0.199076 0.152608 -0.0895432 -0.948997 -1.49399 -0.87193 0.0172194 -0.0408108 -0.0253455 0.335173 -0.0285701 0.958128 0.353842 0.878096 0.329027 0.965033 0.402682 0.868511 0.304248 0.0729494 0.124736 0.46626 -0.0316978 0.167625 -0.253457 0.390419 0.262377 -0.699736 -0.36677 -0.620101 -0.379214 -1.09908 -0.531083 -0.506481 0.0558912 0.380749 0.0493876 0.33237 0.649767 0.942772 0.488383 0.749903 0.479945 0.42719 0.512388 -0.0132538 0.644224 0.661309 0.157681 -0.200356 0.269781 0.274429 -0.450567 -0.500395 -0.365338 -0.65035 -0.447921 -1.08978 -0.687423 -0.479677 -0.449157 0.0896551 -0.246936 -0.102169 0.472871 0.343813 0.427008 0.439874 0.117976 0.908889 0.704041 0.811506 0.101433 0.146827 0.708689 0.790681 -0.0766813 0.326137 -0.179599 -0.129487 -0.558955 -0.824029 -1.32123 -0.985997 -0.54518 -0.816938 -0.163797 -0.260488 0.057982 -0.0243835 -0.373277 0.382954 0.36721 0.478513 0.0440357 0.269072 0.0196148 0.520048 0.445596 0.1328 0.0964807 0.628241 0.177621 0.636815 0.158999 -0.193029 -0.368636 0.0336284 -0.969333 -0.834607 -0.969988 -0.453953 -0.195388 0.315922 0.641077 0.149617 -0.393411 0.0414719 0.452279 0.396131 -0.0711755 0.570676 0.117381 0.818403 0.757508 0.766741 0.614758 0.244125 -0.00358586 0.262065 0.279959 0.0016351 0.0615448 -0.257225 0.00529065 -0.436977 -0.760446 -0.189416 0.177939 0.971787 0.467618 0.184089 0.117189 -0.0469182 0.473997 -0.103582 0.575034 -0.140591 0.460517 0.0115813 0.0576447 0.0240909 0.787233 0.978904 0.446235 0.877231 0.622504 0.65759 0.194581 -0.0743575 -0.448941 -0.0210515 -0.47448 -0.0355271 -0.127128 0.552503 0.385901 0.476696 0.428985 0.131104 -0.0308252 0.0407281 0.256421 0.096473 0.0442812 -0.065237 0.356838 0.702293 0.955298 0.181231 0.398075 0.675053 0.608231 0.545178 0.80994 0.31898 0.262418 0.85523 0.340584 0.782918 0.934864 0.847055 0.517691 0.228451 0.288143 0.850126 0.433854 0.822827 0.123381 0.846229 0.775805 0.566756 0.207403 0.565001 0.486694 0.723831 0.682053 0.412411 0.363113 0.54648 0.689819 0.779982 0.162021 0.0950149 0.280195 0.748298 0.000638895 0.596737 0.202743 1.03378 0.692482 0.868853 0.931419 0.665415 0.882641 0.509478 0.481208 0.764099 1.0282 0.595734 0.17387 0.414146 0.132576 0.86929 0.523654 0.337248 0.129508 0.632878 0.780017 0.751762 0.861927 0.407712 0.414209 0.610881 0.814455 0.116095 0.473612 0.664951 0.761267 0.907315 0.20643 0.598713 0.57229 0.870726 0.233895 0.110006 0.639038 0.695853 0.191359 0.929646 0.245432 0.678558 0.518435 0.343208 0.297055 0.610431 
0.507328 0.661464 0.222575 0.819749 0.519869 0.434385 0.705744 0.446843 0.0953155 0.968269 0.703685 0.839648 0.964432 0.706254 0.986008 0.842778 0.688313 0.482465 0.781744 0.765412 0.277847 0.767572 0.589171 0.199433 0.864896 0.313956 0.665568 0.201314 0.478537 0.766937 0.91391 0.0779519 0.138159 0.0302035 0.75565 0.235822 0.0518198 0.141252 0.460782 0.749987 0.687868 0.858874 0.0702601 0.469623 0.725291 0.723483 0.6521 0.333241 0.152547 0.250802 0.177064 0.249047 0.537168 0.182594 0.858461 0.157431 0.939248 0.940029 0.0631204 0.863692 0.000530492 0.909978 0.821248 0.975072 0.367611 0.435752 0.382506 0.77591 -0.0165882 0.44819 0.721607 0.538393 0.887059 0.0707476 0.270017 0.439411 0.753349 0.420568 0.143009 0.208605 0.872892 0.252648 0.129841 0.238593 0.0361528 0.619837 0.606215 0.266546 0.118795 0.788461 0.437975 0.891279 0.512586 0.719772 0.786636 -0.0902264 0.60783 -0.159819 0.430335 0.0966998 -0.16008 0.19809 -0.047563 0.119612 -0.0420644 0.246581 0.61569 0.141786 0.495898 0.100971 0.282848 0.309769 0.282505 0.0595104 0.193372 0.401764 0.459069 0.462775 0.710651 0.0292143 0.562325 0.0947929 -0.0720128 0.585773 0.261958 0.481295 0.622728 0.390956 0.27388 -0.255117 -0.0279623 0.0567388 0.325781 0.182749 0.602348 0.39801 0.553415 0.412346 0.116689 0.140784 0.770343 0.161821 0.718842 0.907664 0.725574 0.345534 0.206138 0.330021 0.333038 0.159585 0.148764 -0.0890704 -0.0873733 0.194334 0.617417 -0.127619 -0.176422 -0.321353 -0.422286 0.214452 -0.416424 -0.514407 0.00517113 0.0837628 0.621223 0.548962 0.835384 0.842167 0.707747 0.110749 0.671929 0.621049 0.716042 0.025322 0.799117 -0.153319 0.160511 -0.303715 -0.610089 0.00331118 -0.248618 -0.248714 -0.806272 -0.116082 -0.490426 -0.200778 -0.906152 -0.00249536 -0.73535 -0.255986 -0.519085 -0.125669 0.127 0.89828 0.187989 0.457742 0.664555 0.17574 0.904415 0.41286 0.415226 0.799453 0.131606 0.123281 -1.28157 -0.998447 -0.568531 -0.549116 -0.673525 -0.727023 -0.994597 -0.460836 -0.17996 -0.718459 0.0733251 -0.591985 -0.751831 0.420596 0.433351 0.446537 0.351694 0.294319 0.291105 0.499572 0.406968 0.290773 0.243027 0.538403 0.485893 0.101754 -0.0813641 -0.130767 -1.00644 -0.26203 -0.943217 -0.527634 -0.459428 -0.751656 -0.0206871 -0.634793 -0.428973 -0.287292 0.155509 -0.349225 -0.341073 -0.121025 0.423776 0.121871 0.0651295 0.333652 0.0966484 0.025844 0.585188 0.264904 0.244074 0.232309 -0.121168 0.0237119 -0.180452 0.0425921 -0.520672 -0.785661 -0.500143 -0.786608 -0.498762 0.127738 0.578827 0.00390404 0.0172935 -0.117761 -0.222263 0.0994944 -0.152386 0.0275447 0.362321 0.300947 0.0886732 -0.110589 0.427825 0.287361 0.128985 0.852565 0.441085 0.0628276 0.131314 0.578615 -0.284606 0.0743938 -0.106777 -0.47602 -0.256611 -0.479452 -0.432604 0.573653 0.51561 0.0202973 0.24475 0.59256 0.128975 0.572255 -0.599477 0.269083 0.0112132 0.702206 0.505015 0.39846 0.973178 0.341605 0.0918653 0.981381 0.412753 0.364693 0.586552 -0.210412 -0.219258 -0.177552 0.476873 -0.352607 0.0420003 -0.237185 -0.00450099 0.48709 0.206071 0.534774 0.0722839 -0.129837 0.13541 -0.380382 -0.135086 -0.314979 0.235828 0.186608 0.556395 0.608396 0.91968 0.623532 0.368503 0.435347 0.0168035 0.713992 -0.188625 -0.175617 -0.131801 0.328269 -0.155479 -0.0346205 0.0781053 0.484039 0.0885564 0.28231 0.788858 0.697416 -0.272628 0.090834 0.324278 0.0219405 -0.652885 -0.142832 0.349319 0.492164 0.550729 0.539566 0.0681303 0.169151 0.945796 0.00199949 0.699701 0.371789 -0.297288 0.0833096 0.124746 0.50039 -0.0504529 -0.0601119 0.229718 -0.294485 -0.0510678 -0.362139 -0.0731875 -0.309421 -0.373674 0.00704072 0.175469 -0.443174 0.00279803 0.0723879 -0.182765 0.632531 0.857387 0.542972 0.260619 0.705818 0.508105 0.755869 0.477982 0.479519 -0.163989 0.33947 0.0255004 -0.484222 -0.0345165 -0.751156 -0.206696 -0.705801 -0.0336592 -0.322648 -0.188625 -0.777524 -0.610179 -0.301255 -0.270827 -0.206789 -0.431703 0.0471254 0.0366035 0.410829 0.818015 0.856253 0.957323 0.774227 0.897407 0.398471 0.792848 0.451545 -0.127683 -0.462433 -0.738344 -0.773356 -0.634893 -0.667984 -0.144038 -0.573391 -0.0657871 -0.191488 0.15309 -0.0335143 -0.823266 -1.22268 -0.272305 0.389069 -0.0794664 -0.0467429 0.220604 0.405781 -0.0711903 -0.0370759 0.936525 0.419414 0.975718 0.894138 0.321825 0.891789 0.678166 -0.0158615 -0.15971 -0.273005 -0.812178 -0.0376423 -0.00553412 0.00939706 -0.175631 0.280502 0.231335 -0.106009 -0.354881 -0.696517 -0.912685 -0.833114 -0.421347 -0.530619 -0.595309 0.419265 -0.231068 0.274359 0.444576 0.419681 0.24482 0.682652 0.0642826 0.268852 0.687525 0.20828 0.129291 -0.743899 -0.721307 0.421803 -0.384768 0.132562 -0.458139 -0.268418 0.0335623 -0.352693 0.145033 -0.776038 -0.994973 -1.0163 0.0719857 -0.00316798 -0.0975698 0.360446 0.391605 0.486024 0.314893 0.326373 0.62885 0.531056 0.439287 0.211073 0.174316 0.518871 -0.229196 -0.597679 -0.287609 0.355882 0.0551685 -0.54986 -0.493887 -0.761468 0.183396 -0.233814 -0.531303 -0.758836 -1.0395 -0.895445 0.387192 -0.338919 -0.436439 0.105548 0.29114 0.48386 0.381444 0.330577 0.442267 0.183757 0.405521 0.585147 0.42415 -0.0389283 0.0301033 -0.780356 -0.910499 -0.181355 -0.383162 -0.0120882 -0.360852 -0.610855 -0.840012 -0.528161 -0.891207 -0.692648 -0.956376 -0.764566 -0.227807 0.299252 -0.612034 -0.355663 0.146744 0.056207 0.572205 0.548739 0.477329 0.474875 0.590581 0.406634 0.643272 -0.148094 0.0266285 -0.422371 -0.35428 -0.497906 0.189808 -0.887687 -0.390671 -0.663152 -0.509566 -1.20388 -0.94824 -0.232466 -0.581607 -0.0125114 -0.0725227 -0.0592896 -0.576447 -0.172787 -0.0281412 0.467007 0.340556 0.507378 0.502039 0.775655 0.092326 0.910975 0.178838 0.398611 -0.113813 -0.251932 -0.124342 -0.303421 -1.06561 -0.427915 -0.532502 -1.22803 -0.519365 -0.909916 0.10414 -0.0230778 -0.0228077 -0.432139 -0.454203 -0.423926 -0.410765 0.288051 0.116384 0.398777 0.506347 0.336845 0.345861 0.887326 0.253974 0.489396 0.255848 0.561478 0.476326 -0.324896 -0.49629 -0.849462 -0.934836 -0.961516 -0.730033 -0.212015 -0.222189 0.228124 0.403375 -0.216025 -0.0104573 -0.26964 -0.404729 -0.244942 -0.129137 0.31224 0.851827 0.683493 0.303793 0.312094 0.366516 0.0412651 0.54324 0.815975 0.269512 -0.348991 -0.279434 -0.135043 -0.0130714 -0.878996 -0.259501 -0.770897 -0.224913 0.658611 -0.119206 0.74161 0.0957167 -0.387517 0.360904 0.122633 0.107132 0.0243124 -0.102721 0.0975746 0.314313 0.754847 0.487481 0.200867 0.966529 0.45713 0.991886 0.574848 0.193388 0.133866 0.218503 -0.162132 0.356459 -0.379455 0.0079465 0.536617 0.61694 0.219491 0.428018 0.375486 0.0268705 0.425337 0.219186 0.675752 0.145821 -0.0230113 0.790882 0.541791 0.600103 0.538247 0.917657 0.158091 0.0285636 0.0681912 0.0894896 0.0365874 0.970504 0.915573 0.144391 0.958462 0.114183 0.828714 0.0190352 0.624429 -0.0648735 0.24781 0.324718 0.511266 0.723656 0.629692 0.451875 0.447346 0.750411 0.36466 0.124649 0.491194 0.131548 0.596589 0.742771 0.132897 0.596864 0.493346 0.665593 0.628902 0.224199 0.0404624 0.329391 0.568747 0.916685 0.723804 0.586929 0.63166 0.369949 0.186302 0.38067 -0.057173 0.855949 0.235057 1.04652 0.814499 0.419576 0.112712 0.183663 0.436854 0.161927 0.291304 0.949675 0.19266 0.0332904 0.512085 0.606237 0.0262866 0.798091 0.511744 0.612869 0.343426 0.649849 0.369587 0.864682 0.892795 0.702993 0.758806 0.00687164 0.0619617 0.592008 0.642339 0.204416 0.200143 0.81208 0.199868 0.269367 0.431028 0.0439567 0.779933 0.328623 0.162069 
0.891529 0.93287 0.749301 0.494471 0.566275 0.387344 0.082533 0.132758 0.270069 0.0458554 0.692094 0.0274567 0.464386 0.0606172 0.933332 0.772823 0.763888 0.668871 0.709478 0.190204 0.756761 0.876671 0.202005 0.0950679 0.80666 0.537143 0.754413 0.426072 0.990253 0.19053 0.24447 0.806036 0.0530322 0.311883 0.602242 0.774647 0.587687 0.141737 0.400019 0.0213919 0.97667 0.202585 0.99282 0.638188 0.912186 0.00826563 0.457923 0.972105 0.55324 0.592272 0.640925 0.879998 0.816742 0.97572 0.932528 0.992419 0.585957 0.181402 0.816554 0.821902 0.229258 0.426633 0.133922 0.235266 0.27818 0.884737 0.338525 0.550308 0.323707 0.685307 0.437889 -0.0175512 0.56533 0.761105 0.372974 0.952622 0.256615 0.310173 0.705361 0.541123 0.790385 0.915739 0.749837 0.517554 0.534528 0.808145 0.489205 0.743179 0.0680814 0.161825 0.257784 0.247439 0.319908 0.614721 0.168985 0.284383 0.158232 -0.0644878 0.268767 0.661344 0.0130291 0.831439 0.122667 0.0292124 0.58974 0.430292 0.437808 -0.00117238 0.39544 0.256899 0.649736 0.792545 0.298892 0.479908 0.822582 0.933426 0.812228 0.830242 0.221409 -0.0186328 0.422336 -0.115746 0.765019 0.618217 -0.216803 0.638016 0.0301798 0.524989 0.194791 -0.28969 0.202008 0.248068 -0.0866807 0.903441 0.672493 0.0105044 0.87997 0.64523 0.284563 0.601725 0.343293 0.720547 0.229576 0.0277838 0.79054 0.0484056 0.913372 -0.125002 -0.301637 0.480965 0.0083654 0.919347 0.298485 -0.237816 0.628296 0.0947149 -0.512703 -0.872379 -1.26531 -0.015854 -0.928143 -0.578808 -0.317593 0.149329 0.226743 0.770562 0.117944 0.809079 0.710495 0.292547 0.552612 0.289149 0.329246 0.743679 -0.0925649 0.223073 0.179528 0.153686 -0.312173 0.173862 -0.276806 0.0480312 -0.159557 -1.26657 -1.09562 -0.447212 -0.383602 -0.413594 -0.467235 -0.851218 -0.314575 -0.151934 -0.0753975 0.515361 0.435908 0.0909771 0.178234 0.58552 0.476282 0.356338 0.399586 0.579724 0.253216 -0.357423 -0.293135 -0.924229 -0.512876 0.000949942 -0.465864 -0.44161 -0.356829 -0.422687 -0.271507 -0.726461 -0.162172 -0.317308 -0.521708 -0.158281 0.622745 -0.271988 0.0297767 0.772062 0.187162 0.963753 0.258211 0.3907 0.118317 0.452759 0.00603361 -0.449683 0.0888704 0.268479 0.00232949 -0.552619 -0.611964 -0.386315 -0.848304 -0.438587 -0.437281 -0.580249 -0.557384 -0.699091 -0.113413 -0.0688487 -0.656724 -0.367106 -0.1428 0.461722 -0.0777416 0.362798 0.716441 0.353917 0.57638 0.225544 0.209152 0.241488 0.126693 -0.101436 0.312835 0.365527 -0.573686 -0.279758 -0.219349 -1.10349 -0.662248 -0.498014 0.588544 0.960059 -0.223526 -0.780971 0.332201 -0.59324 -0.979529 -0.271038 0.686619 0.446278 0.0969414 0.53123 0.348842 0.46026 0.13128 0.429523 0.729377 0.678894 0.0974794 -0.136778 -0.250424 -0.186501 -0.113793 -0.250123 -0.17477 -0.760059 -0.977557 -0.0596753 -0.17385 0.368895 -0.165444 0.00946473 0.113033 0.0791445 -0.542716 -0.835298 0.462195 -0.0549545 0.293422 0.830922 0.631899 0.790649 0.935714 0.536648 0.235527 0.536078 -0.10058 0.332136 0.638038 -0.557528 -0.0426772 0.374964 -0.308545 -0.140907 -0.87507 -1.28951 -0.445297 0.577975 0.4436 0.317564 -0.121037 -0.293649 -0.797198 -0.626934 -0.212752 -0.108753 0.589135 0.174042 0.573281 0.100551 0.921089 0.743664 0.519946 0.464302 -0.0661076 0.266218 0.388135 0.0695266 0.0928839 -0.15148 0.0469751 0.142696 -0.012453 -0.824352 0.202234 0.861724 0.5549 0.0928349 0.0806497 -0.563839 -0.768022 -0.161989 -0.348875 -0.190291 0.294126 0.591494 0.464934 0.507271 0.128959 0.420367 0.444223 0.271314 -0.368919 -0.175538 0.570619 0.591641 -0.265716 -0.207476 0.349283 -0.0261876 -0.0549039 -0.912366 -0.24626 -0.365498 -0.0994589 0.293764 0.302664 -0.380413 -0.494321 -0.397301 -0.888445 0.316495 0.43986 0.445037 0.774106 0.523944 0.361014 0.456857 0.622703 0.644553 0.136374 -0.208898 0.440207 0.381121 0.103246 -0.0650571 -0.0410733 -0.240128 0.588753 -0.112073 -0.624821 -0.94652 -0.549718 -0.152094 0.501892 -0.41882 -0.122018 -0.752873 -0.35473 0.026291 0.111372 0.257132 0.219344 0.0101713 0.711692 0.023362 0.541049 0.605556 0.360343 0.528592 -0.524736 -0.577999 0.0695689 -0.401216 -0.141888 0.197239 0.0922462 -0.574337 -0.195943 -0.163992 -0.637156 -0.215991 0.175852 -0.231753 -0.247869 -0.141607 0.0988812 0.268704 0.575335 -0.0909642 0.936089 0.80346 0.0928586 0.675899 0.238642 0.480365 0.198119 -0.439721 -0.431382 0.000629933 -0.111272 0.120801 -0.00796761 0.268879 0.0127364 0.021358 -0.0594561 0.600946 0.357186 0.028155 -0.594506 -0.808247 -0.724791 0.066958 0.275522 0.752406 0.343739 0.175551 0.973259 0.534823 0.90509 0.844206 0.440953 0.50833 0.749018 0.573091 0.0380273 0.0615975 -0.378314 -0.268457 -0.462202 0.259144 -0.399651 0.0807836 0.534175 0.171917 0.898808 0.00552727 -1.11407 -1.43853 -0.238412 0.375572 0.302729 0.349844 0.643935 -0.0034152 0.707382 0.950408 0.125983 0.581329 0.978123 0.650437 0.146408 0.271324 -0.479997 -0.0464077 -0.26181 -0.292779 0.130191 -0.0551985 0.0209474 0.0110106 0.93111 -0.171044 -0.065014 -0.780837 -1.76234 -0.680452 -0.251599 -0.0203438 -0.161061 -0.134085 0.0979561 0.140077 0.913544 0.695393 0.61136 0.131104 0.157434 0.964237 0.625124 0.170585 0.0293664 -0.902673 -0.9745 -0.138924 -0.418634 -0.217746 -0.524683 -0.216292 -0.287924 -0.471935 -0.505793 -0.975518 -0.860998 -0.560717 -0.039629 0.156458 0.245304 0.229211 -0.081612 0.976374 0.960014 0.973458 0.495495 0.777902 0.728112 0.354658 0.987327 -0.0620561 0.342796 -0.472632 -0.500963 -0.476654 -0.234117 -0.321238 -0.604447 -0.679576 -0.758867 -1.16692 -0.534861 -0.981048 -0.869713 -0.00563348 0.146799 -0.23486 0.389601 -0.134695 0.873134 0.675168 0.78124 0.938504 0.429953 0.222717 0.0199447 0.794151 0.110662 0.0116419 0.0172175 -0.132865 -0.0419548 -0.116607 -1.02897 -0.479427 -1.26081 -0.642599 -0.656572 -0.488803 -0.540625 -0.188707 0.390964 0.0601197 -0.292643 0.462983 -0.0746306 0.700465 0.0039313 0.771883 0.773072 0.963028 0.61588 0.0973476 0.10536 0.153219 0.329962 0.786581 0.213473 -0.304547 -0.892023 -1.15178 -0.875229 -1.03213 -1.38094 -1.30652 -0.352584 0.628502 0.0371358 -0.197318 -0.216435 -0.460452 0.305931 -0.319221 -0.255721 0.000961396 -0.0217584 0.905864 0.491262 0.514986 0.3756 0.703926 0.885541 0.290766 0.740138 -0.381152 -0.415889 -0.0595567 -0.935874 -1.21141 -0.647174 -1.27698 -0.182677 -0.23363 -0.0593602 0.420437 -0.113353 0.428791 -0.24408 0.690247 -0.0453693 0.866819 0.297315 0.344486 0.0635784 0.577992 0.394221 0.0172427 0.797571 0.783742 0.350985 0.45382 0.393198 -0.548891 0.0189699 -0.631688 0.113196 -0.0278945 0.242562 0.258427 0.863618 0.158655 0.192163 0.0217847 0.772276 0.000724049 0.0303957 -0.180696 0.467303 0.0985698 0.499558 0.848592 0.133367 0.308059 0.530189 0.823315 0.44925 0.552565 0.965188 0.832342 0.374727 0.852258 0.681779 0.267001 1.04566 0.423753 0.27315 0.659574 0.317373 0.723205 0.00152483 0.318615 0.318623 0.482781 0.945445 0.873738 0.378632 -0.0511253 0.831334 0.85031 0.869895 0.799375 0.833076 0.560533 0.88533 0.748822 0.447335 0.360389 0.952104 0.33703 0.603781 0.717358 0.429322 0.622705 0.0934016 0.777463 0.223001 0.965075 0.676797 0.497072 1.06335 0.804496 0.0862972 0.473187 0.902203 0.536381 0.701116 0.61243 0.0411756 0.507042 0.859916 0.605709 0.154134 0.536083 0.939327 0.274299 0.151394 0.481737 0.508955 0.195977 0.857903 0.342253 0.9938 0.688976 0.650396 0.849322 0.308657 0.88625 0.814619 0.966725 0.373291 0.354644 0.729104 0.704144 0.311179 0.11848 0.91315 0.309896 0.417515 0.173502 
0.0555591 0.781029 0.756521 0.854191 0.382722 0.405646 0.691606 0.823966 0.396212 0.139899 0.286048 0.613305 0.809671 0.159805 0.217586 0.207765 0.748936 0.368075 0.232632 0.852788 0.804415 0.799752 0.427562 0.0377735 0.859242 0.273228 0.146894 0.852413 0.510754 0.240501 0.0960605 0.489036 0.224837 0.834979 0.701011 0.322051 0.830969 0.665723 0.680629 0.0906149 0.28552 0.269258 0.925973 0.0971683 0.696928 0.0866926 0.7652 0.16954 0.356185 0.45814 0.897061 0.343989 0.261053 0.512774 0.190281 0.0526509 0.903631 0.331254 0.383912 0.405539 0.799157 0.401832 0.842699 0.88192 0.629284 0.527885 0.759516 0.259151 0.658288 0.663123 0.457444 0.415717 0.75076 0.288317 0.674737 0.264463 0.00412409 0.713947 0.316737 0.251962 0.884566 0.00708743 0.877356 0.729026 0.737108 0.571823 0.632552 0.780551 0.14784 0.365664 0.0105739 0.868596 0.661951 0.811779 0.631685 0.934161 0.10736 0.284362 1.00999 0.863263 0.292442 0.580921 0.519205 0.812454 0.853916 0.700648 0.863565 0.215463 0.831858 0.536484 0.226917 0.805453 0.240518 0.390003 0.787047 0.250078 0.822633 0.358471 0.987154 0.773519 0.550797 0.78737 0.429489 0.862932 0.412599 0.095117 0.34434 0.549285 0.305008 0.249577 0.0636502 0.533565 0.583248 0.692289 0.0292499 -0.00909196 1.03838 0.653208 0.46495 0.91742 0.21964 0.487756 0.721181 0.630586 0.0268746 -0.0065341 0.393879 0.218889 0.220413 0.299842 0.510108 -0.143468 -0.306841 0.151036 -0.518308 -0.229453 0.0565488 -0.523642 -0.613228 0.14202 -0.155266 -0.150085 0.406831 0.589877 0.822112 0.396058 0.719652 0.0138626 0.249256 0.251985 0.959291 0.204605 0.0193742 0.914639 0.591607 0.213772 -0.380412 0.391218 0.412 0.478375 0.317351 -0.678667 -0.179893 -0.161076 -0.812429 -0.854935 0.297397 -0.00907303 -0.474859 -0.38 0.0234693 0.676583 1.06359 0.664934 0.410874 0.215186 0.394205 0.325724 0.272658 0.544638 -0.0388842 0.333273 0.303948 0.275039 -0.416995 -0.194097 -0.187878 -0.0759416 -0.0887848 -0.37131 -0.507845 -0.120691 -0.220375 -0.0201925 0.817944 -0.285904 0.235619 0.3258 0.193211 0.591288 0.993045 0.57085 0.923993 0.668929 0.862029 0.49419 0.589077 -0.254397 -0.093359 -0.605786 0.155014 -0.229358 -0.0181817 0.205863 -0.340519 0.0701057 -0.275042 -0.57525 0.312297 -0.127311 -0.461604 -0.121506 0.553308 0.243972 0.569216 0.0214929 0.768516 -0.0800872 0.377483 1.09283 0.094605 0.805245 0.382535 0.147487 0.203439 0.523096 0.0552996 0.16819 0.282973 -0.154446 -0.160636 -0.448082 0.151949 -0.707733 -0.285794 -0.731797 0.107217 0.173154 -0.490902 -0.0132487 0.297874 0.2974 0.189281 0.202593 0.155787 0.122079 0.100647 1.2296 0.307842 0.801261 0.436982 0.354005 0.501948 0.68206 1.02192 0.482708 0.116069 0.282308 -0.0746989 0.531343 -0.484851 -0.662425 -0.24427 0.0404909 -0.123387 0.00423371 -0.636252 -0.610974 -0.673669 -0.633714 -0.481243 -0.476558 -0.149228 -0.105436 0.0171031 0.610326 0.687628 0.839299 0.779283 0.409021 0.585078 0.910745 0.27897 0.543232 0.231777 -0.317913 0.242425 -0.503842 0.0280219 -0.56782 -0.792777 -0.431032 0.0350872 -0.067929 -0.204882 -0.412753 -0.924543 -0.921474 -1.36296 -0.9204 -0.950102 -0.0557366 -0.293928 0.651205 0.306194 0.86865 0.808898 0.155247 0.543918 1.07626 0.236621 0.556457 -0.235555 -0.460376 -0.418151 -0.889139 0.0311877 0.110977 -0.705381 -1.41782 -0.606227 -0.0221828 -0.0593276 0.0471023 0.0317788 -0.706982 -0.618901 -1.37483 -0.674801 -0.262026 -0.421649 0.0869413 0.671176 0.791229 0.363184 0.0294775 0.851006 0.505936 0.459423 0.42567 -0.506368 -0.239602 -0.0764273 -0.362445 0.00211229 -0.171707 -0.782227 -0.891552 0.0756401 -0.89433 -0.170004 0.208754 -0.494934 -0.46965 -0.663307 -0.421485 -0.849897 -0.654837 -0.233606 0.120735 0.248234 0.52329 0.616966 0.561746 0.779746 0.520183 -0.0236593 -0.402611 -0.442433 -0.141795 -0.33455 -0.233125 -0.174202 -1.32989 -0.287544 -0.371265 -0.65816 -0.213787 -0.881544 -0.20583 -0.117644 -0.497883 -0.401393 0.1059 -0.318389 0.00416746 0.702694 0.0667083 0.697363 0.764548 0.807707 0.901481 0.668608 0.725832 0.943589 -0.454546 -0.203694 -0.122444 -0.961588 -0.311836 -0.115874 -0.752019 -0.557218 0.0613932 -0.474103 -0.3808 -0.353214 -0.0966863 -0.130527 0.00248683 0.266481 -0.380435 0.076476 0.00915689 -0.128845 0.618159 0.197699 0.0718382 0.193878 0.51869 0.941901 0.329601 0.712292 0.342478 -0.558181 -1.02328 -0.686409 -0.342215 0.342683 -0.53559 -0.429218 -0.17134 -0.504782 -0.152199 -0.589907 -0.414175 -0.404608 -0.433168 -0.249472 -0.363062 0.0309627 0.276983 0.561438 0.768951 0.0498647 0.382982 0.557063 0.562534 0.167533 0.674293 0.841417 -0.160901 -0.0752163 -0.619646 -0.851188 -1.05039 -0.764546 -0.887758 -0.980138 -0.325223 -0.717954 0.432549 0.00679306 -0.251855 -0.455669 -0.579155 -0.350839 0.22872 -0.0737485 -0.0521211 0.514019 0.672025 0.966409 0.424705 0.667402 0.915013 0.96734 0.632115 0.546552 0.469285 -0.132299 -0.300765 -0.814741 -1.31224 -1.62638 -1.09062 -1.07135 -1.05033 0.0253326 -0.272335 0.0261841 -0.490449 -0.274491 0.00181997 0.218451 0.275363 -0.406561 0.491642 0.795552 0.0918944 0.651101 0.311295 0.0681517 0.440376 0.601245 0.82058 1.01947 0.887329 0.586103 -0.592457 -0.725879 -0.222491 -0.642864 -0.627565 -0.718427 0.00415859 0.0936495 -0.562409 -0.774623 -0.472539 -0.514078 -0.520394 0.181371 -0.143842 0.00519956 0.16918 0.912176 0.65065 0.508888 0.846818 0.823048 0.969457 0.822793 0.42209 0.395669 0.434443 0.02497 -0.376573 0.0728682 -0.12564 -0.380472 0.200693 -0.160672 -0.3291 -0.0659922 -0.223195 -0.434234 -0.349811 -0.318024 -0.28294 0.285733 0.357469 0.519883 0.105049 0.948746 0.281654 0.666984 0.404089 0.526371 0.718285 0.363205 0.27331 1.20195 1.04284 0.440344 -0.0345481 -0.232124 0.0788662 -0.225 -0.392446 -0.683912 -0.399135 -0.76453 -0.483267 0.181041 -0.152187 -0.0407226 -0.185901 0.349378 -0.149838 0.808545 1.0599 0.230605 0.303627 0.825242 0.151449 0.41146 0.409648 0.585645 0.822733 1.12038 0.212074 0.148957 -0.0367072 -0.633499 -0.52519 -0.312818 -0.523205 -0.351629 -0.77274 -0.29824 0.506076 -0.0397519 0.419512 -0.142415 -0.133281 -0.265181 0.740393 0.085613 0.372386 0.335958 0.741981 0.739362 0.0319292 0.633244 0.927083 0.493632 1.02701 1.05959 0.82543 0.6979 -0.220415 -0.0470619 -0.647954 -0.184057 -0.240897 -0.62715 -0.289937 -0.0667551 0.441855 -0.212653 -0.398004 -0.342175 -0.0309236 -0.00262291 0.141359 0.853499 0.150976 0.430945 0.385563 0.0244314 0.281203 0.180989 0.882179 0.799284 0.583375 -0.0868502 0.755898 0.502397 0.617991 0.41906 0.349422 0.234316 0.048654 0.746706 0.82292 0.277088 0.0947145 -0.138973 0.741476 -0.432381 -0.142067 -0.177869 0.768771 0.324605 0.551412 0.0619859 0.036378 0.394486 0.158265 0.951736 0.826676 0.94397 0.24509 0.187356 0.896964 0.616796 1.27873 0.694181 0.860178 0.616223 0.787604 0.634871 0.553199 0.822809 0.624129 0.428494 0.00587025 0.187955 0.120155 0.129803 0.0875585 0.694097 0.336751 0.0139385 0.0800728 0.910467 0.827072 0.604646 0.283943 0.226744 0.883307 0.20586 0.170426 0.165221 0.0993106 0.370998 0.396265 0.148689 0.792847 0.201771 0.937883 0.544594 0.954681 0.349086 0.578101 0.349391 0.683591 0.507908 0.133606 0.278325 0.681977 0.626209 0.820878 0.497241 0.131537 0.735398 0.828081 0.559825 0.984319 0.442038 0.326441 0.210503 0.10663 0.444122 0.150285 0.67271 0.925208 0.538173 0.346464 0.700555 0.344227 0.496224 0.213834 0.463894 0.133286 0.661342 0.719989 0.130194 0.140365 0.289054 0.123815 0.962651 0.28243 
0.799981 0.288083 0.814069 0.052126 0.0824522 0.77486 0.0692126 0.255639 0.518255 0.313464 0.388509 0.678102 0.868188 0.808385 0.742388 0.907921 0.410675 0.209757 0.391868 0.122605 0.629361 0.663482 0.148258 0.77149 0.425677 0.357046 0.864341 0.976065 0.721325 0.312032 0.329335 0.127429 0.702008 0.640922 0.917284 0.74498 0.750921 0.640166 0.759235 0.794778 0.353838 0.9512 0.43933 0.0412077 0.0887861 0.978546 0.131448 0.846727 0.144847 0.416306 0.553942 0.453645 0.591598 0.995056 0.897842 0.0379557 0.92213 0.244307 0.0677619 0.87467 0.632936 0.0128541 0.240166 0.579401 0.264566 0.580021 0.126312 0.466126 0.202422 0.569022 0.0721156 0.801844 0.869364 -0.038786 0.541514 0.0918174 0.875566 0.0026808 0.664941 0.132751 0.00975136 0.675209 0.813102 0.799113 0.689353 0.957863 0.798562 0.0654076 0.170314 0.770632 0.619373 0.399255 0.0270489 0.432043 0.265365 0.00649604 0.466115 0.331575 0.355555 0.583783 0.554766 0.600552 0.773205 -0.111617 0.0729098 0.0540633 0.286453 0.0385816 0.259572 0.914607 0.473184 0.679056 0.895715 0.282562 0.0129263 0.881184 0.21193 0.0359 -0.0592516 0.747905 0.457289 0.478869 0.730142 0.445802 0.645491 0.526328 0.463598 0.471079 0.0313495 -0.151858 -0.160746 0.670111 0.274762 -0.0664808 0.742011 0.0835 0.161777 0.00918674 0.722345 0.711543 0.720322 0.457391 0.363597 0.420543 0.0180663 0.465062 0.595323 0.616833 0.242642 0.328623 -0.00956606 0.651927 0.0821819 -0.167852 0.747371 0.258717 -0.501351 -0.457174 -0.329457 -0.520325 -0.152765 -0.279422 -0.0769438 0.0022479 0.550742 0.492823 0.358344 0.116359 0.00857341 0.0934193 0.33514 0.323023 -0.0913585 0.643659 -0.188135 0.721918 0.261413 0.236495 -0.000180416 -0.553524 -0.192737 0.131455 -0.500482 -0.373503 -0.113366 -0.405497 -0.535718 -0.014517 -0.802729 -0.211085 0.0253971 -0.0738758 0.690951 0.492943 0.40472 0.160644 0.611247 0.231615 0.252864 0.863773 0.431089 -0.189489 0.580393 -0.361383 -0.0356925 -0.346698 -0.598938 -0.110202 -0.153798 -0.0759744 -0.19352 -0.202826 -0.494984 -0.637674 -0.35609 -0.352304 -0.822255 -0.629737 0.593638 -0.181281 0.0111145 0.525936 0.232276 0.459728 0.524432 0.437731 0.559861 0.0993927 -0.245464 0.351439 0.500291 -0.215615 -0.188464 -0.537104 -0.291379 -0.624448 -0.722079 -0.383343 0.177561 -0.758941 -0.581236 -1.35422 0.411645 0.123232 -0.560699 -0.268018 0.331395 0.183977 0.434974 0.253805 0.392288 0.482931 0.367809 0.758915 0.928657 0.0526166 0.701905 0.61945 -0.0123075 -0.273326 -0.398486 -0.0675589 -0.342592 -0.351971 -0.90195 -0.885433 -0.378215 -0.122131 -0.548631 -0.22736 0.243723 0.0701233 0.329513 0.0402719 0.165771 -0.0890016 0.34791 0.625094 0.531011 0.0131204 0.790046 0.299078 0.546426 0.0212264 -0.255853 0.112234 0.502066 -0.4801 -0.158218 0.0446816 0.0107594 -0.547915 -0.340173 -0.358977 -0.543781 -0.317435 0.0734792 0.460235 0.0304053 0.501832 -0.280515 0.346062 -0.258973 0.290883 0.563578 0.505953 0.495884 0.696224 0.235091 0.175485 0.960424 -0.165053 0.513609 0.19041 0.266885 0.141207 0.0741186 -0.0655246 0.086445 0.0993529 -0.975546 -0.454177 -0.838699 0.0606125 -0.196686 -0.11755 0.0548778 -0.487322 -0.569169 0.0692054 -0.477939 -0.193838 0.0373205 0.0160451 0.524479 0.742698 0.14191 0.0822908 0.828089 -0.191112 0.132911 -0.13232 0.37264 -0.370989 -0.368666 -0.0316972 0.0727403 -0.0977582 0.125048 -1.04241 -0.764592 0.109993 -0.460129 -0.0336134 0.0345905 0.0542017 -0.233293 -0.558407 -0.298609 0.30225 0.605607 0.394229 0.754794 0.0769122 0.733691 0.143676 0.126727 0.555877 0.312493 0.0781181 -0.463157 -0.380667 -0.118648 -0.486187 0.690153 0.747451 0.617439 -0.240107 -0.144942 -0.82105 -0.196137 0.0648797 0.0788589 0.294739 -0.510207 0.200849 -0.220439 0.207903 0.206317 0.464219 0.31649 0.574113 0.801227 0.829242 0.0436657 0.33938 0.0637551 0.303823 -0.017364 -0.675605 -0.16314 -0.0788414 0.147619 0.69786 -0.0278664 0.395566 -0.855283 -0.352678 -0.356666 0.174754 0.0990262 -0.149199 -0.684632 -0.149809 0.323137 0.217786 -0.15307 0.858768 0.182108 0.487061 0.502603 0.454328 0.688493 0.669377 0.570461 0.220925 -0.0416157 -0.48798 0.0346746 0.184296 0.12798 -0.152897 0.384436 -0.326701 -0.523949 -0.244747 -0.796727 -0.0154979 -0.584656 0.359352 -0.566708 -0.380422 -0.315908 0.5178 0.625211 0.048776 0.584505 0.501003 0.343424 0.932658 0.0687792 0.889824 0.714583 0.74815 0.500269 -0.472729 0.124649 0.126014 0.371751 0.393666 0.299122 0.186152 0.184049 -0.162081 0.481188 0.0442635 -0.836847 -0.866937 -0.436352 -0.293854 0.484195 0.0283645 -0.0603227 0.166539 0.247495 0.776104 0.668158 0.734817 0.772212 0.155088 0.124112 0.621239 0.565582 0.285835 0.216342 0.228396 0.242416 -0.108761 0.40467 -0.369764 -0.315641 0.677408 0.471329 -0.0910712 -0.726662 -1.12494 -0.556788 -0.287897 0.239344 -0.116931 0.70033 0.0940798 0.189724 0.438275 0.118542 0.883982 0.813295 0.803648 0.84639 0.281594 0.291631 0.158256 -0.315346 0.505355 0.111442 0.300131 -0.233811 0.0931653 0.0324005 0.00721334 0.0202288 -0.186605 -0.865319 -0.90611 -0.291113 0.155 0.408396 0.296185 0.394023 0.253234 0.91689 0.609412 0.945069 0.763953 0.399687 0.0538118 0.713349 0.749656 0.630663 -0.548691 -0.360332 0.127959 0.119341 -0.465121 -0.468251 -0.932893 -0.787649 -0.498452 -1.10198 -1.00567 -0.614053 -0.560321 -0.0913028 0.641168 -0.251266 0.409785 0.0811743 0.8685 0.278131 0.922312 0.140992 0.652343 0.544852 0.315557 0.705014 0.877106 0.228855 -0.364018 -0.459771 -0.610904 -0.607004 -0.145999 -1.36205 -0.449956 -1.08557 -0.498166 -0.921788 -0.966938 -0.706497 0.190357 0.141217 0.66207 0.529291 -0.0708796 0.5425 0.460991 0.924704 0.291091 0.371921 0.876778 0.871697 0.764762 0.89073 0.81868 0.563658 0.127248 -0.182988 0.220373 -0.895908 -0.443794 -0.884096 -0.655983 -1.05841 -1.2102 -0.676374 0.395921 0.0263542 -0.102174 -0.166231 -0.0569725 0.222719 0.405046 0.65539 0.685435 0.118965 0.611588 0.966633 0.192539 0.931503 0.985369 0.732808 0.533046 0.263535 -0.779852 -0.916965 -0.203746 -0.559643 -0.242574 -0.852652 -0.767293 0.231427 -0.122879 -0.205024 -0.422931 0.0736394 0.341875 0.513795 0.487701 0.471463 0.148464 0.751115 0.906614 0.0488577 0.269037 0.711426 0.933581 0.70038 0.779324 0.0565763 0.171732 0.10662 -0.526787 -0.841781 -0.412823 -1.12995 -0.566016 -0.010266 0.190516 0.179202 -0.137695 0.317296 -0.143805 0.473804 0.721562 0.947952 0.457383 0.127362 0.590362 0.436676 0.224795 0.0326713 0.830878 0.57047 0.88482 0.181516 0.619478 0.248224 -0.737486 -0.534077 -0.633069 0.0220091 0.267406 -0.340882 0.0939805 0.378539 0.514152 0.36872 0.76155 0.771953 0.649491 -0.132837 0.785646 0.774203 0.117645 0.629475 0.095925 0.777932 0.848547 0.218456 0.665005 0.734866 0.894586 0.305778 0.977143 0.205606 0.334341 0.856403 0.511772 0.806833 0.704152 0.237043 0.256688 0.828184 0.538163 0.768561 0.778758 0.160132 0.157123 0.112308 -0.0644457 0.783674 0.638588 0.713915 0.25036 0.303692 0.619884 0.314545 0.946261 0.807357 0.246213 0.0969433 0.32677 0.75233 0.946882 0.203226 0.496338 0.950633 0.0484241 0.345041 0.235045 0.0708758 0.496939 0.843722 0.152319 -0.0548823 0.0637983 0.179027 0.605078 0.913685 0.831431 0.502518 0.87509 0.247517 0.114204 0.427501 0.0135209 0.245832 0.693502 0.686829 0.538519 0.884121 0.417342 0.713111 0.612752 0.0958801 0.145747 0.618382 0.219286 0.300058 -0.0183209 0.716119 0.423124 0.808415 0.902439 0.150261 0.84447 0.36341 0.535526 0.670666 0.624752 0.139456 0.83169 0.210845 0.675793 
0.0455765 0.00504602 0.808431 0.304464 0.127793 0.822854 0.71427 0.731174 0.846097 0.357247 0.243376 0.416096 0.318951 0.505795 0.583878 0.756118 0.215058 0.482427 0.144012 0.408745 0.778168 0.661573 0.0508306 0.310135 0.434344 0.0225024 0.197938 0.750688 0.811752 0.123859 0.702682 0.969526 0.816827 0.409949 0.15065 0.955957 0.461162 0.53483 0.651402 0.0957504 0.955966 0.269462 0.135311 0.665673 0.994088 0.13847 0.944734 0.818663 0.657635 0.540278 0.194494 0.603133 0.904803 0.0166779 0.304757 0.048983 0.257888 0.318445 0.0995272 0.753667 0.0177245 0.709548 0.82389 0.220858 0.681079 0.12484 0.666618 0.891389 0.174197 0.370945 0.502489 0.613815 0.126613 0.228342 0.346053 0.831817 0.952117 0.347041 0.484207 0.160936 0.806104 0.842546 0.597343 0.548417 0.250982 0.249898 0.0356739 0.82356 0.00247556 0.919506 0.338612 0.442083 -0.0249994 0.156527 -0.2987 -0.312984 0.467281 0.42062 0.302383 0.339739 -0.22546 0.274081 0.544358 0.439564 0.50625 0.0956806 0.828793 0.786316 0.53629 0.467447 0.814649 0.202142 0.392233 0.252085 0.789316 0.909459 0.152862 -0.0365064 0.326936 0.63305 -0.134289 -0.17351 -0.314221 0.184405 0.00103823 -0.314581 0.478711 0.116009 -0.848818 -0.546521 -0.160657 -0.493849 -0.168349 0.401977 -0.132921 0.292997 0.409874 0.450817 0.699226 0.305442 0.34786 0.475261 0.704379 0.242321 0.105695 -0.0158714 0.596582 0.517773 0.0447343 0.0949865 -0.0955584 0.239081 -0.704937 -0.222755 -0.370675 -0.450713 -0.298743 -0.339456 -0.88658 -1.1711 -0.513404 -0.925492 -0.851879 -0.527869 -0.179187 0.280218 0.245518 0.211553 0.18012 0.273089 0.0598739 0.345796 0.659949 -0.117586 0.363535 0.462663 0.305005 -0.756781 -0.0263156 -0.371773 -1.17359 -0.698735 -1.10667 -1.48599 -1.53729 -1.7189 -1.65185 -1.34358 -2.03143 -1.5705 -1.33667 -1.23556 -0.90598 -0.856703 0.595986 0.0954464 0.428599 0.458896 0.937973 0.733976 0.650436 0.225965 0.468569 -0.332186 -0.682324 -0.740001 -1.27565 -1.04229 -0.858148 -0.935886 -1.22357 -1.153 -2.23983 -2.24808 -2.31167 -2.9349 -2.93945 -2.50459 -1.90778 -0.834731 0.357989 0.506213 0.29848 0.585386 0.272651 0.585854 0.970578 0.495874 0.908101 0.0955097 -0.112509 -0.0412159 -1.22926 -0.656635 -0.963365 -0.850857 -0.316279 -0.347282 -0.418849 -1.00487 -1.65147 -1.67952 -0.371223 -1.09323 -0.539041 0.126196 -0.0130279 1.53753 2.81626 1.50052 0.696541 0.7768 0.0243384 0.0561167 0.644718 1.04658 0.635973 0.132777 0.0796911 -0.627217 -0.677068 -0.810283 -0.673218 -0.435999 -0.0590017 0.523282 1.14656 1.68126 1.95972 1.75783 1.64008 2.01911 2.08171 2.55679 3.11131 2.97868 4.08387 2.68066 0.436834 0.0384393 0.819745 0.457771 0.529758 0.436059 0.564276 -0.174973 0.27006 -0.61137 -0.137806 -0.152925 0.276471 0.678168 0.178565 1.05645 2.57326 3.61339 3.41108 3.57476 3.90364 3.98301 3.37085 2.84906 4.05079 4.18513 4.03798 3.48883 1.28134 0.280008 0.607738 0.258234 0.370867 0.0821356 0.858516 -0.227448 -0.324106 -0.836862 -0.352808 -0.990824 -0.434663 0.672251 0.0991437 1.16337 0.460324 0.83763 0.268443 0.69764 -0.00125003 0.250071 -0.246272 0.310955 0.236258 1.74142 2.176 1.94538 1.59036 0.541082 0.646572 0.948493 0.0577028 0.112288 0.838371 -0.282497 -0.0134309 0.451002 0.0281477 -0.64915 0.840981 0.63015 0.814769 -1.34165 -0.565887 -2.14486 -2.44624 -3.6016 -2.79826 -2.63942 -1.7692 -1.4938 -1.44681 -1.13415 -0.190619 1.04797 0.536676 0.979153 0.0231933 0.809411 0.409145 0.0633788 0.424661 0.52409 -0.581642 0.422937 0.0338178 0.507092 1.10108 1.34511 0.483098 0.303501 -1.32244 -1.55294 -2.65027 -2.53558 -1.65379 -1.71158 -1.21016 -1.48865 -1.21179 -0.558561 -0.225953 0.654306 0.734583 0.190236 0.883335 0.934518 0.293861 0.174789 0.620671 0.301819 -0.490835 0.17955 0.234394 0.820023 1.1712 0.653889 0.735089 0.632273 -0.648948 -1.0256 -1.83056 -1.94576 -2.00481 -1.42397 -1.67672 -0.734663 -0.685871 -0.694246 0.235978 0.263885 0.558038 0.976868 0.936884 0.463231 0.995556 0.196889 0.845472 -0.305055 -0.00449172 -1.00042 -0.224531 -0.485771 -0.461501 -0.516119 -0.0108377 -0.371534 0.0189866 -0.518416 -1.49471 -1.79166 -1.69532 -1.85268 -0.973402 -0.956014 -0.281534 -0.0243074 -0.325206 0.400488 0.9726 0.335324 0.289231 0.0980606 0.937303 0.659414 0.649615 0.326005 1.65868 -0.0416342 -1.1432 -1.24779 -1.13311 -0.996269 -0.0624498 -1.07041 -0.696461 0.587892 -0.588896 -1.24439 -1.20757 -1.67497 -0.784672 -0.702017 -0.713434 0.130878 -0.273581 0.687971 0.549066 0.630591 0.518514 0.672827 0.831267 0.60984 0.40678 0.621683 1.29586 0.210049 -0.627475 -0.475252 -0.677204 -0.595427 -0.0141171 -0.234331 0.231885 0.948097 0.738248 -0.305871 -0.690314 -1.54411 -0.727454 -0.739891 -0.124481 0.158826 0.674515 0.043841 0.892801 0.724386 0.150429 0.628725 0.727464 0.773318 0.175577 -0.533315 0.717865 1.71132 0.726006 0.620768 0.320323 0.564894 1.42485 1.36791 1.00872 1.08084 -0.196897 -0.921845 -0.525878 -1.26004 -0.507362 -0.542239 -0.222809 -0.0633798 0.490444 0.558074 1.04408 0.434327 0.116259 0.974882 0.390176 0.754497 0.0124468 0.24352 0.256644 0.757273 0.195461 1.58403 0.934406 0.292347 1.08662 1.34144 0.950341 0.22427 -1.49642 -0.540703 -1.39257 -1.08935 -0.71262 -0.10635 0.208568 0.0242818 0.727558 0.763001 0.293901 0.566196 0.653429 0.188533 0.893218 0.140764 -0.117001 0.107668 -0.212406 0.612609 -0.602775 0.246775 0.00106737 1.17503 0.436714 -0.0442328 -0.854977 -1.41531 -1.70166 -1.07987 -0.802172 -1.07365 -0.635244 -0.128802 -0.0581496 -0.432885 0.470811 0.0722976 0.525713 0.577647 0.507523 0.946625 0.524949 0.646344 0.0835959 0.336055 0.0684928 0.335423 -0.316883 -0.112071 -0.727005 -0.276417 -1.11939 -0.713955 -0.949231 -0.535873 -0.607244 -0.291048 -0.785646 -0.803873 0.107579 -0.0890305 -0.149365 -0.217767 0.756961 0.293704 0.290317 0.383858 0.502151 0.656963 0.678445 0.320196 0.123205 -0.0398959 0.0908647 -0.532326 -0.970454 0.317578 -0.322175 -0.070826 -0.554635 -0.668974 -0.7976 -0.272641 0.308634 0.156991 -0.152123 -0.412833 0.329166 0.758096 0.165001 0.0204532 0.157011 0.362094 0.75523 0.225144 0.00169434 0.476722 0.265476 0.0497921 0.294832 -0.467564 -0.5267 -0.330473 -0.523258 -0.532264 -0.824464 -0.486782 -0.664249 -0.489711 0.301343 -0.238174 0.618758 0.887427 -0.139376 -0.421357 0.226874 0.0643812 0.408069 0.488436 0.983084 0.849827 0.50051 0.86488 0.0333811 0.0358631 0.750322 0.877842 -0.198569 -0.252505 -0.102308 -0.211171 -0.463663 -0.358075 0.118465 0.478608 -0.64219 -0.640028 -0.516559 0.316459 -0.141403 -0.00946924 -0.266602 0.040821 0.590587 0.673371 0.474042 -0.0404337 0.165511 0.780973 0.307727 0.54237 0.605651 0.17565 0.15533 0.141819 0.0234468 0.499371 0.25493 0.410623 0.202772 -0.122679 -0.341276 -0.279942 -0.0455439 -0.0794175 -0.036021 -0.33148 0.340484 -0.0352593 0.457066 0.279162 0.340898 0.87882 0.589076 0.0936785 0.23278 0.743803 0.566373 0.599013 0.60916 0.151968 0.128149 0.804884 0.804368 0.503689 0.0898409 0.392027 0.0521766 -0.349724 -0.0129598 0.632228 0.164824 -0.258919 0.303596 -0.0814383 0.428773 0.158414 0.959045 0.812901 0.145083 0.506572 0.890785 0.181122 0.101191 0.348445 0.320426 0.402122 0.456189 0.16146 0.660931 0.262361 0.494548 0.876811 0.364532 0.812429 0.509908 0.756792 0.606678 0.22719 0.332658 -0.0619335 0.782013 0.485462 0.122723 0.810304 0.99408 0.647469 0.268583 0.29828 0.760818 0.328861 0.290369 0.230906 0.832055 0.346797 
0.617075 0.174231 0.294975 0.650235 0.496137 0.577352 0.549526 0.88941 0.308521 0.30987 0.987112 0.384381 0.296577 0.776062 0.755239 0.412705 0.211098 0.919407 0.465064 0.322847 0.0829628 0.355934 0.177804 0.354658 0.74105 0.828347 0.0281343 0.853703 0.188638 0.446065 0.00895307 0.474244 0.622918 0.37516 0.323245 0.112159 0.304845 0.623519 0.662759 0.577033 0.315155 0.907317 0.750787 0.21533 0.117006 0.91593 0.372547 0.279208 0.722831 0.230203 0.0220878 0.729135 0.315062 0.241228 0.326876 0.798212 0.554204 0.501657 0.356885 0.170602 0.748609 0.0801691 0.724583 0.0962059 0.779092 0.543474 0.572124 0.287776 0.843208 0.586418 0.847541 0.646747 0.809669 0.488463 0.44558 0.145219 0.295658 0.755702 0.418986 0.536474 0.873465 0.266442 0.698818 0.0311111 0.883479 0.632445 0.510674 0.00824847 0.328374 0.120448 0.347488 0.878962 0.217177 0.0468489 0.415518 0.477929 0.695158 0.194909 0.380663 0.584236 0.773803 0.486823 0.313524 0.92654 0.933545 0.895798 0.64328 0.904544 0.27046 0.0267202 0.401032 0.0983694 0.294906 0.485139 0.728229 0.123669 0.220274 0.918986 0.253632 0.731244 0.571314 0.751029 0.31358 0.384127 0.0314042 0.08212 0.327545 -0.0130442 -0.331731 0.16159 -0.225461 -0.0398217 0.565279 0.101895 0.345046 0.126577 0.812006 0.676678 0.35918 0.817707 0.400874 0.481989 0.781377 0.729561 0.408888 0.280313 0.318886 0.393246 -0.206282 0.559989 -0.44269 -0.237202 0.168909 -0.215975 0.491324 0.28946 -0.226307 -0.877631 -0.862284 -0.394368 -0.0592204 0.00687601 -0.0807098 0.352888 0.300933 0.796532 0.71988 0.442992 0.762974 0.300612 0.447911 0.0552492 0.488828 0.0282751 0.278372 -0.148703 0.305916 0.304676 -0.24583 -0.6109 -0.0686214 -0.127166 -0.333857 -0.892068 -0.128013 -0.52332 -0.901536 -0.400359 -0.629437 -0.155658 0.35549 0.00756743 0.812524 0.499576 0.969501 0.43487 0.547022 0.791943 0.447104 0.753479 0.400878 0.148168 -0.20104 0.114573 -0.156125 -0.504295 -0.179279 -0.528414 0.0625985 -1.0105 -0.316953 -0.226431 -0.776665 -0.677202 -0.528151 -0.496947 -0.466904 0.269102 -0.11297 0.45934 0.626935 0.470486 0.548904 0.835468 0.896466 0.335993 0.836358 0.684439 0.0740928 0.19142 0.515738 0.0503457 0.0455022 -0.89172 0.0945845 -0.203251 -0.471843 -0.787012 -0.244792 -0.114819 -1.19499 -0.995755 -0.343768 -0.030997 -0.424945 0.335361 0.00686771 0.038442 0.35616 0.370427 0.464395 0.187106 0.624231 0.448024 0.587845 0.777745 -0.0486533 0.523486 0.516224 0.114834 0.0942734 -0.0408348 -0.00628878 -0.304862 -0.507665 -0.0512592 -0.0347827 0.604382 -0.731375 -0.527683 0.198332 -0.0844278 -0.276851 0.219783 0.670113 0.122947 0.126792 0.213953 0.426348 0.473016 0.0655457 0.6289 0.1539 0.387942 0.536821 0.254389 0.526505 0.492002 -0.075904 -0.0499192 -0.083688 -0.359733 -0.780215 -0.37139 0.73306 -0.028242 0.0098824 -0.37889 0.288678 -0.327942 -0.51984 -0.41601 -0.00745504 0.382487 0.111122 0.00259908 0.802851 0.879003 0.971897 0.678618 0.16681 0.351398 0.0810705 0.426478 0.763399 -0.0575777 0.50706 0.107739 0.541125 -0.277142 -0.245752 -0.0967791 0.40629 0.276978 -0.144509 -0.141033 -0.271553 -0.401505 -0.135253 0.15919 -0.259126 0.566067 0.00705676 0.149257 0.081199 0.405272 0.632836 0.0785306 0.548185 0.443641 0.465963 -0.0744393 0.149472 0.216917 -0.157727 -0.375112 0.277291 0.6117 -0.655513 -0.0997621 -0.142375 0.490543 0.370912 0.374743 -0.0407521 -0.222997 -0.0250849 0.373308 -0.29994 0.581677 0.391938 0.633756 0.777812 0.852486 0.771674 0.533263 0.460734 0.43716 0.0210431 0.805195 0.371088 0.111879 -0.460384 -0.385746 0.0427692 0.267071 -0.246267 -0.687072 0.33233 0.284209 -0.254671 -0.462867 -0.240197 0.151944 0.0379341 0.148072 0.406742 0.027096 0.461246 -0.0190774 0.586597 0.852741 0.172518 0.895968 0.201568 -0.0582346 0.198939 0.699699 0.00977101 -0.467432 -0.420268 -0.365053 0.0501338 0.21562 0.344122 0.0421414 -0.488346 -0.373837 -0.992203 0.221017 -0.259765 -0.470142 -0.261407 -0.40728 0.012656 0.309395 0.162011 0.64722 0.641836 0.491054 0.340035 0.434251 0.628251 0.066726 0.785189 0.18917 -0.488201 -0.198358 -0.678068 -0.152001 0.124773 -0.277433 0.278891 0.315368 -0.181014 -0.32877 -0.0170564 -0.125336 0.19235 0.0344385 -0.915973 -0.226625 0.127604 0.261432 -0.0013691 0.604357 0.581557 0.358954 0.891221 0.754979 0.674358 0.320729 0.492392 0.216216 -0.161972 -0.30482 -0.396545 -0.0178748 0.177757 0.369769 0.0805231 0.482381 0.237085 0.133571 0.508159 -0.527856 -0.581882 -0.961035 -0.586884 -0.225589 -0.392594 -0.167794 0.184266 0.681486 0.0874287 0.47832 0.481963 0.359622 0.965471 0.716294 0.829522 -0.185987 -0.270239 -0.556234 -0.0058896 0.202178 0.199585 0.232924 0.508024 -0.09148 0.627232 0.158566 0.766221 -0.528843 -0.701515 -1.17741 -0.253238 -0.231402 -0.178558 0.0574274 0.351541 0.26418 0.502918 0.440825 0.571568 0.31113 0.255588 0.803061 0.399698 0.354987 0.202804 -0.254858 0.161219 -0.215776 -0.0770428 0.20889 0.260789 0.187145 -0.000896851 0.264518 -0.727154 -0.452404 -1.03522 -0.416093 0.101623 -0.0418981 0.0020711 0.279158 0.249817 0.164232 0.671125 0.174198 0.548887 0.141448 0.183007 0.825599 0.531678 0.653147 0.188577 -0.0436737 -0.768512 -0.380503 -0.326652 -0.324819 -0.266952 -0.374597 -0.251337 -0.529324 -0.94199 -1.10023 -1.24059 -0.202973 0.0376928 -0.519638 0.421203 0.464706 0.414796 0.394671 0.487375 0.247112 0.444949 0.254085 0.990768 0.718915 0.0734671 -0.140311 -0.361651 0.0489773 -0.673569 0.0694897 -0.309822 -0.21466 -0.289885 -0.770942 -1.26243 -1.13025 -0.380577 -0.783847 -0.747152 -0.317111 -0.306962 0.258251 -0.00958779 -0.182851 -0.0649369 0.409108 0.526386 0.938338 0.654738 0.185676 0.879333 0.323747 0.74886 0.41215 0.165354 -0.0464406 -0.125722 -0.419214 -1.06101 -0.38389 -0.736331 -0.629893 -1.17041 -0.253964 0.0257934 -0.117256 -0.110176 0.14171 0.143593 0.346643 0.0321723 0.663314 -0.0949503 0.870428 0.205154 0.606835 0.0759395 0.314931 0.157501 0.215105 0.924112 0.683374 -0.0525736 -0.29803 -1.20123 -1.01059 -0.717413 -1.17521 -0.61812 -0.3814 -0.261125 0.0846733 -0.42604 0.18554 -0.697573 0.226707 -0.211092 0.0821604 0.23505 0.32891 0.689184 0.490972 0.840368 0.394733 0.284618 0.580027 0.506488 0.270246 0.539847 -0.331264 -0.744157 -0.590266 -0.986908 -1.31775 -0.901526 -0.65264 -0.274712 -0.19732 0.424492 0.525283 0.188416 0.366577 0.319971 -0.0245983 0.218451 0.0797351 -0.118016 0.494419 0.793725 0.267607 0.724429 0.144351 0.101145 0.946844 0.608347 0.785877 -0.352541 -0.486752 -0.583508 0.0853337 -0.152964 0.157876 0.539979 0.882156 0.918697 0.210649 0.875025 0.141704 -0.0490879 0.308958 0.193319 0.242271 0.664114 0.470011 0.115965 0.0675497 0.293072 0.249545 0.513873 0.745887 0.12583 0.823148 0.656009 0.26702 0.102448 0.544885 0.86399 0.872675 0.85267 0.785295 0.489291 0.0685691 0.0247748 0.148885 0.645696 0.701281 0.114353 0.625526 0.843012 0.113355 0.72473 0.0225871 0.830434 0.24555 0.712411 0.890204 0.629362 0.122839 0.55243 0.68978 0.138877 0.112704 0.929245 0.492412 0.580287 0.743397 0.866664 0.301348 0.775738 0.392609 0.969307 0.457184 0.388264 0.925564 0.140181 0.493409 0.780929 0.353422 0.673188 0.750444 0.665581 0.451269 0.258662 0.88765 0.730245 0.231763 0.236887 0.354302 0.748446 0.133193 0.566562 0.199807 0.512228 0.712644 0.228845 0.832478 0.437757 0.633739 0.0853554 0.106715 0.176124 1.01107 0.42892 0.31955 0.279475 0.473713 0.684517 0.540109 0.647941 0.177603 0.494297 0.643173 0.812699 0.0283251 
0.0603858 0.903499 0.103517 0.810206 0.128895 0.332413 0.871673 0.208299 0.87435 0.192907 0.193021 0.109558 0.346135 0.488479 0.650205 0.756937 0.920408 0.300116 0.0497122 0.512166 0.97791 0.73365 0.453675 0.909561 0.997132 0.789244 0.831989 0.23546 0.382696 0.974084 0.434892 0.23529 0.510638 0.288888 0.4413 0.484338 0.844949 0.375324 0.356049 0.131293 0.110672 0.292432 0.8551 0.875381 0.0920622 0.312161 0.942201 0.736322 0.0483598 0.28924 0.159918 0.505136 0.381562 0.905824 0.189407 0.36103 0.825418 0.798456 0.649516 0.411662 0.709421 0.483647 0.4088 0.0964147 0.818646 0.295938 0.824036 0.221049 0.185945 0.888842 0.993984 0.351655 0.928919 0.484771 0.843813 0.723113 0.733784 0.751058 0.651849 1.01946 0.821325 0.975066 0.470924 0.816342 0.259169 0.860432 0.283267 0.337625 -0.00230378 0.126321 0.335195 0.84065 0.564151 0.265463 0.535754 0.617236 0.521877 0.633574 -0.0381996 0.314481 0.570355 0.69434 0.353083 0.714839 0.248525 0.443169 0.146271 0.2861 0.116167 0.0568296 0.730707 0.806649 0.347682 0.487638 0.733514 0.988378 0.948834 0.59207 0.821612 -0.0713812 0.722804 0.295226 0.556843 0.0969706 -0.214791 0.123701 0.659853 0.0309796 0.0486857 0.518648 0.687035 0.63772 0.527503 0.114051 0.0196509 0.457041 0.452602 0.695906 0.581236 0.7449 0.46329 0.510617 0.946465 0.288672 0.687828 0.650066 0.667894 0.191504 0.369572 0.767492 -0.193617 -0.267609 0.0424157 0.196987 0.132948 -0.0422832 0.256011 0.227448 -0.431915 0.293995 -0.230524 0.398077 0.115539 -0.124966 0.123428 0.642414 0.444552 0.980088 0.302927 0.28651 0.403235 0.362624 0.898882 0.977477 0.360037 0.738353 0.191059 -0.292865 -0.157367 0.0845514 -0.738107 -0.30486 -0.926692 -0.48204 -1.21152 -0.873655 -0.655346 -0.39213 -0.149521 0.146286 -0.291098 0.0800298 0.424296 0.419296 0.814021 0.258332 0.722238 0.661283 0.270246 0.495097 0.612323 0.370896 0.676149 0.00818717 -0.385153 0.0752996 -0.782837 -0.918529 -0.597435 -0.829147 -1.42961 -1.50963 -0.926368 -1.21317 -0.717024 -0.389446 -0.918138 0.399574 0.412561 0.594162 0.753855 0.333966 0.618497 0.206859 0.285678 0.327775 0.244652 0.209635 0.0848502 1.05382 0.0851116 -0.0275795 -0.601306 -0.287223 -0.53046 -0.268974 -0.861941 -0.484833 -0.86542 -0.59392 -0.749106 -0.399318 -0.426649 -0.148157 -0.748204 0.330966 -0.304823 0.717583 -0.259932 0.0898188 0.05967 0.580472 0.458653 0.573536 0.610227 0.196413 0.373802 0.142598 -0.192513 -0.0428626 -0.359995 -0.709277 -0.374016 -0.59743 -0.213734 -0.609669 -0.199084 -0.290494 -0.263628 -0.560641 -0.0535102 -0.0817471 -0.46224 -0.0791837 0.271142 0.521352 0.0860393 0.689682 0.61508 0.991374 0.78298 0.545119 0.262917 0.31433 0.0736954 0.645951 -0.447538 -0.0874133 0.359635 0.138509 -0.0476378 -0.186887 -0.0918911 -0.58809 0.545741 0.569072 0.489471 0.624108 -0.130353 0.358065 -0.0385597 -0.110659 -0.23064 0.139928 -0.00400072 0.231231 0.520427 0.299613 0.172656 0.832082 0.645978 0.861883 0.269472 -0.358291 -0.00415245 0.380125 -0.148075 -0.0757352 -0.153602 -0.726634 -0.521998 -0.444409 0.291626 0.249237 -0.145596 -0.0557271 -0.493761 -0.281884 0.0747805 -0.573095 0.586104 0.0741445 0.193774 0.0740198 0.610974 0.0890764 0.044529 0.397796 0.186587 0.41148 0.0740737 -0.0561873 -0.633294 -0.61641 -0.337884 -0.00479404 -0.264439 -0.401287 0.0646387 -0.917816 0.440606 0.255318 -0.555004 -0.0104869 0.00851359 -0.755961 0.369954 -0.0829083 0.0966683 0.766856 0.926559 0.390317 0.425217 0.0846285 0.33552 0.081625 0.839031 0.848233 0.257493 0.244798 0.0796745 -0.367631 -0.237848 -0.159939 -0.179509 -0.0160984 -0.41449 -0.103136 -0.296667 -0.650676 -0.34617 -0.235981 -0.0108812 -0.460097 -0.430825 0.265451 0.590872 0.711937 0.612134 0.20507 0.453109 0.0289761 0.313537 0.705179 0.123017 0.772353 0.192678 -0.0741962 -0.166696 -0.731312 -0.475222 0.352184 -0.231069 -0.2562 -0.4679 -0.0407193 -0.0253344 -0.819432 -0.557915 -0.296446 -0.137982 -0.03982 -0.0328578 -0.526757 0.435844 0.0514505 0.650757 0.942231 0.936079 0.870869 0.658792 0.694666 0.788219 0.546523 0.505686 0.212151 -0.13654 -0.286219 -0.237142 -0.275164 0.314859 0.127335 -0.454775 0.412168 0.363591 0.114078 -0.76964 -0.887195 -0.845133 -0.400571 -0.503322 -0.101703 -0.0385562 0.810771 0.601738 0.970866 0.815158 0.976088 0.604742 0.900285 0.782581 0.179234 0.775774 -0.00403936 -0.10057 0.124315 -0.358652 0.364944 -0.214485 0.569004 -0.48327 0.00501677 -0.104147 -0.582851 -0.611558 -0.701279 -0.551654 -0.497377 -0.183697 -0.0643271 0.378321 0.333315 0.341768 0.0868179 0.649098 0.45038 0.681534 0.534585 0.344088 0.491313 0.454996 0.556301 0.604487 -0.00893028 -0.131467 0.529728 0.305036 0.403816 -0.164185 0.6353 0.515022 -0.349389 -0.45508 -0.853067 -0.872567 -1.32396 -0.406621 0.210009 0.0105054 -0.302392 0.0874428 0.293035 0.568583 0.63627 0.311998 0.706636 0.469392 0.372116 0.64284 0.71665 -0.212266 0.463751 -0.179266 -0.284552 0.288002 -0.101966 0.0511468 -0.0575796 0.333299 -0.0966885 -0.0794147 -0.437535 -0.911711 -0.778207 -0.434562 0.102835 0.339005 0.0952365 0.624881 0.779038 0.546975 0.45512 0.0272062 0.255671 0.821922 0.208515 0.0105648 0.244711 0.0504679 0.142755 -0.485684 0.111241 -0.475329 -0.0246908 0.109874 -0.27015 -0.396811 -0.515892 -0.380363 -0.828305 -0.149961 -0.743852 0.339613 0.425183 0.638002 -0.124544 0.269591 1.00431 0.960008 0.744563 0.481361 0.232426 0.473407 0.286872 0.0962331 0.0802257 -0.194997 -0.225316 -0.102279 -0.261907 0.09146 -0.597904 -0.642431 -0.775954 -0.296024 -1.07675 -0.884585 -0.733991 0.152354 -0.0608484 -0.683005 -0.406476 0.0405637 0.564158 0.844303 0.630902 0.236617 0.159915 0.698148 0.775427 0.430577 0.193219 0.486059 0.162581 -0.0583827 -0.116428 0.455774 -0.10179 -0.322183 -0.508173 -0.773601 -0.465552 -0.983302 -0.493307 -0.0523269 -0.2809 0.26379 -0.377351 0.192755 0.411573 0.196591 0.494112 0.741875 0.764973 0.165924 0.0664055 0.0765238 0.135323 0.405864 0.160991 0.846156 0.691973 0.312684 0.178649 -0.216071 -0.546196 -0.891722 -0.746541 -1.38869 -1.01256 0.0664727 -0.208267 -0.126947 -0.325308 0.237153 0.257178 0.157574 0.103021 0.647931 0.954726 0.850065 0.480052 0.58936 0.284288 0.0279696 0.0850154 0.851584 0.450683 -0.0390126 0.233028 0.352388 0.218912 -0.0516479 -0.167434 -0.422047 -0.651314 -0.0104105 0.296232 0.422911 -0.215463 0.568475 0.474083 0.5072 0.0602642 0.782486 0.675018 0.430654 0.74742 0.256072 0.357166 0.889626 0.373615 0.339097 0.201735 0.562352 0.752445 -0.159576 0.218576 -0.0789664 0.0966591 -0.37291 0.0208248 -0.462731 -0.0941339 0.478231 0.25986 0.493754 -0.0585168 0.331521 0.573715 0.0784765 0.809746 0.810914 0.0733405 0.683092 0.555745 0.168168 0.522669 0.734539 0.251826 0.44557 0.695627 0.404371 0.539789 0.0502991 0.293194 0.207622 0.434982 0.759274 0.230632 -0.219084 0.40825 0.0110614 0.445117 -0.145979 -0.19465 0.329716 -0.157764 -0.0958214 0.697807 -0.0849345 0.0356404 0.0657958 0.59802 1.01974 0.934142 0.51412 0.607943 0.701524 0.520051 0.497219 0.755832 0.0745923 0.90949 0.365195 0.908904 0.586104 0.196355 0.862297 0.0281527 0.37276 0.0497744 -0.0415399 0.322754 0.693527 0.267391 0.644625 0.159756 0.0635502 0.371386 0.586828 0.787596 0.0323905 0.939875 0.487204 0.43716 0.35402 0.0162163 0.546516 0.297286 0.480022 0.735628 0.598537 0.597851 0.917322 0.508443 0.699886 0.782616 0.957917 0.304727 0.887528 0.733268 0.0316541 0.446719 0.724303 0.6344 0.24665 0.897672 0.664903 0.587602 0.355763 0.310019 0.4891 0.305259 
0.495107 0.260398 0.514894 0.818097 0.763321 0.144148 0.695156 0.490671 0.711609 0.017671 0.996407 0.608956 0.73073 0.0937359 0.761033 0.863748 0.187781 0.0404503 0.84767 0.782341 0.798943 0.826851 0.880312 0.396699 0.322071 0.045116 0.264657 0.0944287 0.0623387 0.726219 0.566312 0.0135626 0.947114 0.137004 0.703178 0.883725 0.485544 0.257405 0.147555 0.28454 0.453153 0.318239 0.356436 0.531738 0.960057 0.870862 0.189414 0.225942 0.165628 0.717051 0.123519 0.260073 0.18622 0.803173 0.935943 0.388108 0.92368 0.284805 0.724882 0.0843808 0.667951 0.185077 0.0479303 -0.00808738 0.201706 0.878722 0.376254 0.179549 0.421939 0.497334 0.117013 0.558145 0.218492 0.916184 0.565548 0.208737 0.532896 0.497178 0.773585 0.589954 0.950631 0.3033 0.815402 0.464938 0.212474 0.0499278 0.136404 0.62804 0.201725 0.593788 0.262416 0.805757 0.215611 0.167622 0.475712 0.893572 0.513964 0.223302 0.437604 0.156357 0.339285 0.562408 0.0900118 0.777451 0.912574 0.736506 0.950178 0.477078 0.160579 0.318805 0.680055 0.781607 0.473992 0.381158 0.130169 0.086492 0.545345 0.543349 0.502642 0.259528 0.334309 0.132406 0.22654 0.1232 0.401649 0.0198309 0.431309 0.0447856 0.582986 -0.133072 0.861041 0.25908 0.388465 0.00935855 0.0864224 0.980469 0.0616398 0.503111 0.0744805 0.950833 0.209506 0.169197 0.697785 0.310952 0.718905 0.775826 0.571212 0.480099 0.471305 0.286922 -0.116855 0.294822 0.0888596 0.689881 0.54365 0.0816764 -0.81518 -0.521529 -0.620657 -0.257997 -0.245077 -0.197773 0.015688 0.144518 0.497413 0.230076 0.802269 0.99922 0.935216 0.176259 0.682063 0.00746808 -0.015611 0.560244 0.0172189 -0.389806 -0.218062 0.209888 -0.190146 -0.101113 0.094307 -0.298904 -0.453617 -0.693563 -0.687829 -0.747233 -0.597103 -0.170245 -0.700912 -0.746705 -0.360028 0.31139 0.315107 0.455408 0.58274 0.704632 0.0547413 0.0371616 0.0634364 0.0564173 0.738236 0.392954 0.438898 0.212146 -0.52284 0.00833572 -0.416233 -1.09552 -0.342876 -0.717838 -0.838834 -0.341147 -0.919807 -0.191642 0.215811 -0.633669 -0.269526 -0.394277 0.221731 0.0367963 0.23823 0.724342 0.726885 0.49136 0.838539 0.406534 0.607582 0.543643 0.169898 0.575885 -0.0948244 -0.0721909 -0.130665 -0.922916 -0.223874 -0.939785 -0.87018 -0.486777 -0.080892 -0.166442 -0.487706 -0.194113 0.546387 0.291061 0.350172 -0.222285 0.566825 0.648906 0.913662 0.686709 0.919915 0.290345 0.45587 0.797823 0.81022 0.652245 0.360756 -0.0497798 -0.0410086 0.286096 0.0708675 -0.541679 -0.23342 -0.773906 -1.03284 -0.404435 0.0914641 -0.227527 -0.440523 -0.311593 -0.131845 0.279115 -0.51915 0.35966 0.37513 0.186384 0.14195 0.59498 0.102104 0.110241 0.863984 0.981238 0.906612 0.281481 0.247275 0.165788 0.43967 0.0367953 0.278911 -0.468869 -0.420349 -0.621297 -0.0365908 -0.368669 0.339471 0.31426 -0.203598 -0.257187 0.389177 0.0257741 -0.749146 0.177851 -0.00323731 0.403911 0.433712 0.61959 0.928485 0.560371 0.911379 0.553707 0.968432 0.149974 0.239732 -0.126814 0.713907 0.376301 -0.393825 0.322194 0.29442 -0.55939 -0.0544745 0.0281278 0.015874 0.000823591 0.0884256 -0.663198 -0.563374 0.332108 -0.766052 -0.0402568 -0.157112 0.182831 0.516159 0.752397 0.227941 0.581526 0.930124 0.596521 0.0734472 -0.0516294 0.139269 0.202103 0.321046 0.157445 0.120529 0.260699 0.365226 0.49932 -0.28083 -0.246439 0.318107 -0.469498 0.225709 -0.02167 -0.422426 0.0657686 -0.012812 0.223006 0.199222 0.309329 0.633636 0.0670981 0.219682 0.646838 0.0429691 0.180332 0.356211 0.676288 0.263786 -0.236055 -0.389274 0.234199 -0.483648 -0.185315 0.242324 -0.252986 -0.210227 0.196081 0.19731 -0.142234 -0.204772 -0.615515 0.17945 -0.619418 -0.442328 -0.302946 -0.359069 0.922004 0.851943 0.851815 0.0557964 0.110831 0.695208 0.167343 0.425651 0.45126 -0.177612 0.277263 0.426747 -0.211963 -0.370209 0.00862602 0.0723112 -0.00935501 -0.228968 -0.0481607 -0.352753 -0.471819 -0.385568 -0.644287 -0.0125099 -0.710688 -0.756588 -0.0279467 -0.225484 0.176313 0.272935 0.701356 0.817824 0.220886 0.361413 0.208555 0.308926 0.0499795 0.642095 -0.429443 -0.61469 -0.850829 -0.374896 -0.469853 0.51335 0.0763374 0.180334 0.389603 -0.134842 0.115103 -0.107836 -0.817501 0.00710883 0.251175 -0.404945 -0.641866 0.0385938 0.315266 0.521872 0.927242 0.762966 0.799031 0.696022 0.0502302 0.647847 0.917486 0.00846066 0.18837 -0.60762 -0.436831 -0.519827 0.0986908 0.0305651 0.770008 0.431505 -0.0988857 0.157705 0.0422555 0.0106681 -0.725628 -0.739538 -0.90889 -0.0398262 -0.0488671 0.292305 0.754334 0.949025 0.913013 0.920131 0.187653 0.503218 0.584216 0.100158 0.470095 0.844263 -0.159202 0.354538 -0.440029 -0.591483 0.572129 0.150963 0.0149138 0.324593 -0.318603 -0.216189 -0.225287 0.0316914 -0.29715 -1.04114 -1.18016 -0.642182 -0.262283 -0.328827 0.272707 0.902074 0.211421 0.534189 0.277999 0.84744 0.659579 0.551607 0.528922 0.27323 0.642369 0.193065 -0.789123 -0.333664 -0.295493 -0.066358 0.0846504 -0.452608 0.0583292 0.276411 -0.00101973 -0.520858 -0.264168 -0.687671 -0.325233 -0.0302041 0.27147 0.309903 0.763397 0.17723 0.994778 0.00476327 0.0433002 0.440048 0.884878 0.834248 0.615401 0.597917 0.553399 -0.0531674 -0.0125381 -0.563508 0.182527 -0.231999 -0.244708 -0.244196 -0.44739 -0.356307 -0.38057 0.0157109 -0.576238 -0.775637 -0.515469 0.0247207 0.10138 0.358546 0.551207 -0.0155651 0.511909 0.691286 0.763124 0.488316 0.123289 0.422557 0.205345 0.773696 0.634308 0.0234046 -0.141346 0.117071 0.079068 0.614522 -0.455917 -0.437132 -0.493201 -1.11058 -0.260175 -0.322509 -0.527118 -0.0254631 0.248191 0.535474 -0.271881 -0.00388923 0.0761854 0.277551 0.623694 0.245157 0.705474 0.898752 0.329964 0.59108 0.143054 0.0410243 0.379078 0.805507 0.0809951 -0.178102 -0.717442 -0.870676 -0.566607 -0.138509 -0.36269 -0.131226 -0.741197 -0.389061 -0.190572 -0.340286 -0.41441 -0.228711 0.110997 0.044221 0.722867 0.135161 0.167404 0.0241388 0.757484 0.0334012 0.374492 0.873826 0.921523 0.0832783 0.855081 -0.134331 -0.373983 -0.940513 -0.770023 -1.03681 -0.291536 -0.626516 0.00975457 0.602533 0.0221537 -0.0151245 -0.411901 -0.459295 -0.125289 0.601945 0.443931 0.153013 0.546647 0.410708 0.0369036 0.407897 0.495333 0.0634738 0.803824 0.879565 0.124957 0.204846 0.370587 0.38839 -0.452169 -0.474342 -0.685568 -0.774707 -0.581054 0.452511 0.383454 0.344664 0.69757 -0.170955 0.0142665 -0.234308 0.111263 -0.0998267 -0.291867 0.153064 0.220057 0.740294 0.295075 0.682307 0.557608 0.709693 0.813062 0.131736 0.62972 -0.114077 -0.409135 0.316602 0.187411 0.611893 0.233219 -0.194432 0.767314 0.159776 1.01579 0.479639 0.622865 0.584129 0.144804 -0.219906 0.516675 0.747083 0.778448 0.732388 0.865393 0.771158 0.684315 0.377012 0.934085 0.16325 0.741863 0.487045 0.755548 0.182279 0.44054 0.360549 0.273455 0.90924 0.93778 0.0993248 0.440668 0.658826 0.233077 0.698826 0.710102 0.365998 0.720106 0.935392 0.210585 0.816067 0.125517 0.96281 0.24707 0.407901 0.736208 0.071063 0.985437 0.246909 0.799009 0.942844 0.379622 0.182072 0.0858306 0.485466 0.553499 0.368127 0.0628848 0.290841 0.195852 0.134958 0.57526 0.706041 0.384385 0.111034 0.530693 0.0865749 0.862827 0.0639455 0.733971 0.281882 0.0134133 0.0654852 0.623859 0.191056 0.0701413 0.865121 0.0851864 0.727238 0.693077 0.548406 0.0533024 0.0256667 0.0944247 0.251533 0.154475 0.742284 0.32191 0.0752594 0.749964 0.424838 0.85838 0.090719 0.244079 0.516941 0.902082 0.488386 0.349142 0.315973 0.795671 0.144042 0.921826 0.132483 0.635285 
0.236179 0.464685 0.960681 0.173452 0.211047 0.0644617 0.408625 0.753055 0.601202 0.395686 0.295249 0.247828 0.238276 0.168589 0.111153 0.470272 0.66357 0.622621 0.386171 0.378694 0.703498 0.687593 0.383422 0.174306 0.562855 0.903452 0.313938 0.357373 0.374754 0.496554 0.583392 0.0728675 0.684154 0.568219 0.0199795 0.752189 0.959553 0.114604 0.0359631 0.877344 0.341075 0.427554 0.787064 0.868021 0.329337 0.223197 0.545386 0.470176 0.911207 0.843598 0.593554 0.971926 0.320762 0.0517349 0.507778 0.219788 0.973012 0.415264 0.343424 0.926925 0.758896 0.832022 0.380467 0.167134 0.30242 0.327807 0.748501 0.262471 0.0493528 0.486662 0.191927 0.688577 0.35839 0.845862 0.216718 0.232482 0.0318508 0.983159 0.807406 0.825753 0.660906 0.387195 0.370296 0.561815 0.431685 0.330318 0.657211 0.273515 0.656706 0.0558287 0.608725 0.579085 0.72396 0.0722387 0.826774 0.863612 0.947185 0.49719 0.979464 0.568589 0.180365 0.216543 0.951391 0.160799 0.912527 0.322471 0.438232 0.0685335 0.42234 0.675603 0.436402 0.58919 0.519516 0.497356 0.0605702 0.535883 0.291747 0.44808 0.90617 0.344477 1.1178 0.252367 0.344424 0.639528 -0.214286 0.655583 0.418413 0.101885 0.300562 0.265362 0.625404 0.729671 0.83874 0.395598 0.664708 0.648175 0.847101 0.482604 0.430387 0.155248 0.790791 0.8301 0.484151 0.234632 0.94746 0.161153 0.40661 0.316109 0.494824 0.618104 0.104047 0.129347 0.0271624 0.416488 0.612476 -0.316226 -0.160785 0.0885368 -0.63119 0.212404 0.371231 -0.789957 -0.600935 0.135262 0.91763 0.914079 0.661618 0.966705 0.803845 0.22899 0.0438724 0.0659474 0.609674 -0.121667 0.92409 0.152091 0.47391 0.324483 -0.173666 -0.551417 -0.273112 -0.341607 -0.333565 -0.616883 -1.07916 -1.1965 -0.493623 -0.516519 -0.605023 -0.80883 -0.0862559 0.53485 0.205787 0.20881 0.314393 0.140806 0.748711 0.591577 0.223708 0.15048 -0.0737253 -0.170966 0.0388956 -0.550062 -0.980618 -0.922643 -0.445043 -0.416099 -0.681472 -0.605366 -0.349163 -0.251245 -0.649091 -1.0131 0.0375917 -0.204497 -0.754339 -0.698398 0.521432 0.721645 0.812172 0.146697 0.668998 0.413473 0.887607 0.0164717 0.526774 0.773127 -0.0320916 0.583554 0.0590585 0.304839 -1.03675 -0.404012 -0.198491 -0.997637 -0.496663 -0.106898 -0.14368 -0.332951 -0.603455 -0.542137 -0.390854 -0.143735 -0.489004 -0.402985 0.30542 0.48085 -0.147337 0.101117 0.219223 0.24005 0.930508 0.0432422 0.811617 0.82924 -0.332024 0.174821 -0.0973457 0.357344 -0.681369 -0.825052 0.428519 -0.452471 -0.662974 -0.576792 -0.278742 -0.148726 -0.540415 -0.807857 -0.112221 -0.323245 -0.62689 -0.139916 -0.287199 0.644623 0.236993 0.813815 0.459953 0.614888 0.573466 0.228775 0.2575 0.302004 -0.315459 -0.10951 0.0595454 0.0273531 0.511007 -0.226234 -0.22259 -0.367134 -0.665147 -0.465225 0.246151 -0.2184 0.0217674 -0.0871825 -0.080813 -0.208384 -0.445558 -0.339261 0.527164 -0.0502715 0.04928 0.628995 0.494244 0.738015 0.715432 0.25731 0.104424 0.528144 -0.0649018 -0.092841 0.0193165 0.298966 0.272498 -0.483901 0.235127 -0.435046 -0.77025 -0.930208 0.0861777 0.492654 0.0856006 0.302557 0.0543518 0.0347257 -0.735213 -0.127226 -0.0588545 -0.262097 -0.0204812 0.235773 0.46521 0.128896 0.0687866 0.0884201 0.203195 0.252845 -0.0955112 -0.193798 -0.352492 -0.385322 -0.17219 0.086913 -0.0681936 0.604856 -0.374042 -0.223937 0.41779 0.294539 0.05564 0.389093 -0.27349 -0.26159 -0.445255 -0.391839 -0.270858 -0.190256 0.215074 0.235324 0.157468 0.791453 0.238405 0.872425 0.775724 0.239257 0.471743 0.419864 0.0610222 -0.457211 -0.282658 0.188284 0.358942 -0.247603 0.647768 -0.100776 -0.616253 0.356275 0.190232 0.629744 -0.0817054 -0.282037 -0.185328 0.399455 -0.481556 0.466381 -0.0203787 0.807095 0.768438 0.968139 0.789006 0.541015 0.69629 0.13636 0.257041 -0.266574 0.00464176 -0.169641 0.0311624 0.222732 -0.208621 0.638774 0.386457 -0.0484718 -0.133528 -0.77845 0.0565904 0.0209109 -0.433976 -0.0205047 0.203253 -0.169202 0.0081614 0.322453 0.340366 0.400159 0.456701 0.968929 0.0465467 0.562972 0.223626 0.136118 0.150518 0.34753 -0.749546 -0.0422826 -0.56687 0.0382236 0.287172 0.239635 0.158147 0.352862 0.369655 -0.112118 -0.213767 -0.961333 -0.604732 0.16278 -0.214558 -0.802452 0.147748 0.00334605 0.0866421 -0.0455196 0.643218 0.285228 0.963253 0.398156 0.266058 1.04742 0.746465 0.316083 0.301859 -0.648383 -0.433925 -0.0240134 -0.223064 0.0221572 -0.209717 0.101092 0.421354 0.483352 -0.013449 -0.551396 -0.754562 -0.902937 0.228745 0.0643839 0.259792 0.455779 0.490578 0.256658 0.306121 0.897441 0.771352 0.113028 0.579567 0.965878 0.800317 0.334859 0.512098 -0.0214841 -0.377646 0.0650305 -0.183518 -0.0875016 0.607285 0.22039 0.711892 0.715148 0.75991 -0.610459 -1.49567 -1.20399 0.341382 0.183548 0.0419709 0.690394 -0.011784 0.557571 0.517089 0.318084 0.632943 0.29328 0.545094 0.765007 1.0148 0.412944 0.365045 -0.173589 0.23731 0.30341 -0.37567 0.389163 0.179105 0.636599 -0.0403671 -0.491988 -0.287767 -0.464597 -0.788311 -0.284928 -0.0790048 0.0144848 0.195232 0.261417 0.691066 0.281662 0.0834388 0.458006 0.278834 0.355164 0.0847107 0.546614 1.1919 0.536408 0.0856044 -0.522358 -0.72942 0.334608 0.379647 -0.00909815 -0.012094 0.186554 -0.520129 -0.483144 -0.84947 -0.378897 -0.245205 -0.0697122 0.569244 -0.0847464 -0.346389 0.59384 0.686143 0.315569 0.399797 0.136398 0.107015 0.599549 0.534996 1.00151 0.576014 0.181805 0.0542851 0.197769 -0.423169 0.20631 -0.239223 -0.34654 -0.924799 -0.887838 -1.05511 -0.242948 -0.896576 0.0112367 0.41464 0.29095 0.586887 0.132586 0.859913 0.979576 1.03969 0.930644 0.208564 0.518127 0.161698 0.652471 0.104503 0.639391 1.01514 0.594429 0.446863 0.249171 0.202086 -0.237702 -0.575582 -1.0462 -0.691567 -0.242458 -0.965496 -0.266538 0.398569 0.240458 0.152972 0.00467945 0.21757 0.271081 0.153065 0.552747 0.264909 0.161254 0.106394 0.584555 0.611758 0.823007 0.0373869 0.243399 0.808507 0.732265 0.128848 -0.834763 -0.620362 -1.28124 -1.46969 -0.74129 -1.30648 -0.847422 0.0553593 0.134376 0.451706 0.401718 0.185851 0.0303921 0.758032 0.870387 0.402692 0.144377 0.811765 0.884717 0.980796 0.113075 0.457032 0.332698 0.675596 0.884312 0.0266585 0.178312 -0.0674134 -0.176855 -0.367662 -0.708454 -0.532216 -0.392316 -0.240405 -0.046416 0.248251 0.188926 -0.153915 0.261274 -0.170981 0.726448 0.721522 0.722085 0.876566 0.809374 0.408466 -0.0198925 0.870121 0.542351 0.297785 0.873678 0.917916 0.233663 0.122077 -0.556976 -0.0982978 -0.488536 -0.323522 0.104046 0.08575 0.687566 0.457367 0.124577 0.384534 0.189543 0.521802 0.1833 -0.075354 0.628715 0.781131 0.318034 0.0344703 0.559263 0.577816 0.950431 0.944333 0.388793 0.44246 0.417554 0.838535 0.221171 0.697669 0.368762 0.959007 0.0292224 0.517295 0.431642 0.305095 0.577742 0.786257 0.510395 0.475008 0.408674 0.659177 0.00584181 0.24969 -0.0556853 0.632202 0.380647 0.286343 0.675102 0.781872 0.33879 0.914798 0.508379 0.321893 0.056116 0.141836 0.84338 0.16146 0.496015 1.03935 0.0357916 0.0111812 0.311616 0.411691 0.168773 0.167555 0.925435 0.527138 0.497217 0.412165 0.924982 0.250849 0.647214 0.986818 0.10425 0.0394564 0.794835 0.441108 0.733126 0.64429 0.580614 0.379653 0.824801 0.431256 0.118452 0.821551 0.81218 0.363782 0.114 0.426348 0.659798 0.333016 0.00696287 0.278096 0.24323 0.599142 0.026104 0.271203 0.435335 0.374789 0.430372 0.219993 0.156026 0.9183 0.117758 0.087649 0.115904 0.00191978 0.265694 
0.5238 0.50576 0.312379 0.162007 0.847883 0.368821 0.779586 0.499379 0.0551663 0.179847 0.682961 0.522764 0.0945633 0.7486 0.690007 0.854239 0.235311 0.869211 0.824195 0.252037 0.993521 0.115739 0.232449 0.777831 0.00206673 0.735477 0.16668 0.388496 0.451811 0.584651 0.236231 0.332449 0.476017 0.424772 0.966987 0.706775 0.95393 0.921036 0.0877237 0.751266 0.259816 0.813685 0.568696 0.12726 0.374628 0.14086 0.233696 0.656088 0.942722 0.363522 0.97705 0.280505 0.68145 0.137536 0.570081 0.349771 0.596011 0.148566 0.947537 0.257559 0.492943 0.715676 0.920212 0.587036 0.765115 0.324184 0.637679 0.265766 0.653644 0.225907 1.11481 0.491534 0.131257 0.339557 0.19595 0.679285 0.76995 0.254308 0.599696 0.111981 0.581783 0.613532 0.785671 0.767618 0.35351 0.442898 0.791986 0.00549657 0.782038 0.193968 0.951876 0.0406207 0.335459 0.036216 0.677316 0.195655 0.483447 0.678961 0.272808 0.797528 0.296964 0.554601 0.867215 0.888174 0.641137 0.129826 0.420181 0.0360639 0.0123786 0.253717 0.63094 0.285328 0.507046 0.92493 0.290447 0.96726 0.5402 0.56197 0.0744647 0.886579 0.59849 0.269877 0.517649 0.333859 -0.170588 0.537984 0.677992 0.508249 -0.212916 0.0651343 0.589947 0.779473 0.257435 0.509892 0.429207 0.395733 0.837714 0.4309 0.324051 0.866694 0.414716 0.124172 0.963845 0.0884169 0.363585 0.859125 0.0514056 -0.130159 -0.161189 -0.173873 0.0746988 0.542191 -0.284134 0.183454 0.310394 0.159311 -0.767121 -0.558705 -0.900087 0.394683 0.224972 -0.2344 -0.576496 -0.310459 0.27554 0.635181 0.690641 0.273758 0.448542 0.646741 0.682086 0.28395 0.267107 -0.0846971 0.482441 -0.135927 -0.288317 0.365956 0.144361 -0.0106124 -0.24078 -0.173849 -0.446003 -0.615797 -0.878995 -0.486039 -0.843274 -0.520544 -0.707885 -0.581406 -0.597241 -0.0778858 0.474178 0.585462 0.753389 0.0716974 0.510961 0.717873 0.666232 0.632035 0.199218 0.624532 0.539003 0.502641 -0.921869 -0.249029 -0.18312 -0.725465 -0.525184 -0.0454241 -0.380891 -0.0727693 -0.60492 -0.328574 -0.2223 -0.14407 -0.0839529 0.0603634 -0.434949 0.353169 0.19406 -0.0312729 0.124391 0.0639976 0.0728873 0.807148 0.0438266 0.223668 0.144591 0.476474 -0.183274 -0.203075 -0.114392 -0.0440898 0.0840458 -0.2586 -0.600702 -0.0690206 -0.461297 -0.634219 -0.834984 -0.643544 -0.0655328 -0.210474 -0.899215 -0.396319 0.35679 0.314078 0.316163 0.127411 0.839626 0.625686 0.690085 0.25301 0.359309 0.0328202 -0.137532 -0.22459 0.623975 0.517341 0.306455 -0.265266 0.474799 -0.770332 -0.385742 -0.559233 0.114171 0.372058 0.073389 -1.03568 -0.221324 -0.390231 -0.156558 -0.602667 0.13517 0.64095 0.00337044 0.775269 0.224433 0.753539 0.295069 0.218648 0.395533 -0.0856135 0.407179 0.214399 -0.0911462 0.0494277 0.594339 0.51927 0.507715 0.243556 -0.195309 -0.227348 0.513475 -0.187513 -0.127826 -0.215419 -0.257938 -0.540916 -0.187595 -0.810208 -0.332927 0.1151 0.57857 0.436061 0.375151 0.419196 0.0785797 0.690783 0.183207 0.701865 -0.14561 0.207873 0.246579 -0.133276 -0.0405699 -0.110839 0.462348 -0.315106 -0.727785 0.38794 0.19869 0.359824 0.173092 -0.484128 0.317096 -0.721361 -0.0824097 -0.271426 -0.353449 0.526398 0.669836 0.588376 0.896997 0.657863 0.946253 0.677792 0.85607 0.719902 0.0437798 0.177729 -0.0465087 -0.335763 -0.618844 -0.250832 -0.537391 0.14538 -0.611835 -0.204742 0.222541 0.137338 0.451348 0.474154 0.0250965 0.428189 -0.582136 -0.491694 -0.366402 -0.0618456 0.445978 0.719455 0.621248 0.899841 0.612666 0.0727535 0.630245 0.141775 0.559124 0.162787 -0.0310881 -0.152182 -0.42549 0.239072 -0.104695 -0.251585 0.293326 -0.254259 0.0533265 -0.284812 0.0503263 -0.157163 -0.138346 0.27966 0.0332343 0.161645 -0.0193289 0.298293 0.536513 0.252278 0.603374 0.759166 0.822803 0.342856 0.807753 0.693262 0.640762 0.368549 -0.301422 -0.13061 -0.647676 -0.0709493 0.362551 -0.192127 -0.384885 -0.22917 -0.46882 -0.514227 -0.60586 -0.00768926 -0.641991 0.378067 -0.582026 -0.207733 -0.445423 0.121311 0.471034 0.402717 0.0324189 0.808791 0.0811533 0.77601 0.322673 -0.0344652 0.50613 0.280756 0.159567 -0.625594 -0.614114 0.127778 -0.0490194 0.0081718 -0.0383428 0.310339 -0.383655 -0.018891 -0.310358 -0.781084 -0.683419 -0.201545 -0.0668431 -0.71473 -0.0969326 -0.349409 0.922837 0.554849 0.707718 0.271302 0.139271 0.719376 0.960386 0.205985 0.581128 -0.464659 -0.591323 -0.652461 -0.641757 -0.36344 -0.326464 0.429934 -0.333526 -0.215604 -0.00382022 0.115886 0.0216489 -0.608708 -0.65337 -0.826546 -0.477317 -0.307753 0.15379 0.174975 0.34063 0.554675 0.920617 0.885949 0.838046 0.0377618 0.406172 0.552102 0.563311 -0.14533 0.255568 -0.575738 -0.0191834 -0.316303 0.245958 0.236063 0.422587 0.499403 -0.17673 0.342551 0.29125 -0.355552 -0.835405 -1.08246 -0.426854 0.144023 0.482613 0.504236 0.0720172 0.594567 0.582946 0.385829 0.795151 0.0591155 0.461287 0.152218 -0.0691682 -0.0378772 0.216018 0.0939179 -0.058828 0.276981 0.289472 0.305144 0.62667 0.457176 -0.030482 -0.332435 -0.818377 -0.714868 -0.702105 -0.851767 -0.442979 0.135878 -0.0569616 0.513029 0.0222235 0.547786 0.859697 0.519508 0.522437 0.599665 0.650833 0.203258 -0.00402556 0.563044 -0.196414 -0.404932 -0.296458 -0.291066 0.0731935 -0.286312 0.541569 -0.139505 -0.615443 -0.625203 -0.87478 -0.604151 -0.363346 0.00488902 -0.159384 0.163745 0.236234 0.492276 0.366979 0.330259 0.548899 0.638589 0.0868735 0.0817143 0.307341 0.202166 -0.135185 0.0306427 0.479278 0.301713 -0.255615 0.510021 0.240748 0.0176687 -0.168897 -0.0400316 -0.485013 -0.571366 -0.782151 -0.73883 -0.371204 0.502558 0.674007 -0.237936 0.313902 0.146628 0.843047 0.159697 0.506942 0.967602 0.488342 0.55827 0.421428 0.869521 0.771568 0.744233 0.467194 0.231138 -0.151411 -0.516331 -0.919751 -0.433075 -0.380057 -0.340382 -0.725586 -0.390193 -0.370426 0.168974 -0.321275 -0.021622 -0.133378 -0.22995 0.612608 0.863234 0.629416 0.753073 0.528501 0.195399 0.066437 0.605917 0.741067 0.81693 0.638611 0.729689 0.451239 -0.38427 -0.226029 -0.24103 -0.437595 -0.54867 -0.641055 -0.992828 0.123757 -0.205401 0.193322 0.146939 0.106482 0.384375 -0.102135 0.271631 0.369297 0.572711 0.251599 0.980818 0.515067 0.368437 0.324655 0.472465 0.715247 0.668928 0.687743 -0.296408 -0.459052 -0.296125 -0.451184 -0.222759 -0.890532 -0.80132 -0.680876 0.00265838 0.286636 0.498986 -0.0970629 0.0126204 0.0190044 0.157431 0.312427 0.845861 0.784137 0.118892 0.640423 0.862535 0.870255 0.643983 0.420172 0.834436 0.363683 0.112964 0.105443 -0.170373 -0.558198 -0.664288 -0.398336 0.265382 -0.108198 0.659742 0.606711 0.459026 0.354321 0.286101 0.852993 0.22799 0.10376 0.852386 0.396414 0.631359 0.95634 0.744449 0.439305 0.165951 0.593721 0.0714246 0.433765 0.286303 0.901173 0.839091 0.573571 0.36473 0.0117694 0.341184 0.223265 0.718889 0.785204 0.819824 0.604479 0.873131 0.126986 0.638111 0.806555 0.671048 0.561799 0.220908 0.689431 0.233 0.549371 0.131379 0.394674 0.778359 0.623079 0.979971 0.367729 0.416771 0.675503 0.177902 0.844064 0.245253 0.0917789 0.533772 0.495264 0.614403 0.385392 1.04354 0.412434 0.804081 0.786583 0.459258 0.906518 0.310401 0.801593 0.546851 0.525227 0.328203 0.770034 0.282196 0.698011 0.0152029 0.514818 0.551955 0.711493 0.0707286 0.735464 0.93977 0.713404 0.18699 0.944299 0.729733 0.0624907 0.515659 0.101986 0.130861 0.169349 0.0804459 0.510846 0.923371 0.40015 0.229971 0.224135 0.950592 0.911554 1.00393 0.191252 0.0614335 0.0516296 0.738157 0.210511 0.0536106 
0.0339349 0.343373 0.0650622 0.500728 0.730866 0.664172 0.740801 0.647892 0.118598 0.270853 0.220672 0.826201 0.959409 0.592292 0.034584 0.199991 0.115219 0.481888 0.0868992 0.51419 0.985425 0.0445034 0.968732 0.478001 0.769962 0.755718 0.356506 0.788703 0.731565 0.410785 0.070101 0.187185 0.0189018 0.683009 0.500592 0.182738 0.359821 0.911865 0.456761 0.231059 0.198784 0.0214698 0.423449 0.201998 0.0865053 0.503416 0.191523 0.795215 0.419092 0.294304 0.899941 0.0104228 0.727375 0.989083 0.526238 0.475653 0.297254 0.949715 0.866933 0.540136 0.933023 0.14963 0.053069 -0.016637 0.571627 0.498851 0.374411 0.119182 0.621354 0.670608 0.866626 0.206876 0.706039 0.790535 0.216714 0.764289 0.418194 0.925361 0.285842 0.0253916 0.861228 0.0740102 0.0933579 0.0658608 0.923131 0.0629006 0.170676 0.268092 0.740155 0.178729 0.850689 0.742339 0.66856 0.628438 0.343387 -0.030781 0.788896 0.0454212 0.3664 0.0549176 0.0470729 0.44498 0.594046 0.811923 0.492772 0.804899 0.281799 0.352041 0.472665 0.712081 0.316061 0.13058 0.65217 0.015758 0.844682 0.669839 0.130748 0.0573866 0.144524 0.607708 0.766084 0.411197 0.719538 0.315048 0.221806 0.0873068 0.590412 0.673579 -0.0533582 -0.0292887 0.072664 0.813647 0.881033 0.401032 0.225763 0.535508 0.137701 0.877812 0.663112 0.545922 0.0416559 0.110547 0.955807 0.249388 0.859371 0.802255 -0.11183 0.0702428 -0.129805 0.812923 0.235745 0.435575 0.315853 -0.280303 -0.245256 0.383779 -0.268982 -0.318112 0.0875677 0.248728 0.0219326 -0.60877 0.0294592 0.276799 0.783005 0.476331 0.542395 0.847014 0.0666481 0.15487 0.127891 0.0411265 -0.0691414 0.386697 0.177979 0.254793 0.00215924 -0.225317 -0.111194 -0.491019 -0.622099 -0.811779 -0.219129 -1.12529 -0.543056 -0.640369 -0.494335 -0.432299 -0.0503845 -0.075565 0.417981 0.0831047 0.943654 0.583712 0.705857 0.950874 0.725137 0.372363 0.00244942 0.415156 0.534474 0.445738 0.353024 0.356047 -0.663804 -0.428254 -0.0787069 -0.582935 -0.651871 -1.22354 -0.44959 -0.353641 -0.559079 -0.709323 -0.0276598 0.0396275 -0.0790368 0.069627 0.666313 0.383541 0.86003 0.547524 0.687945 0.658188 0.109827 0.980848 0.32802 0.257534 -0.0772826 0.125566 -0.169649 0.409532 -0.557909 -0.508859 -0.660268 -0.379521 -0.373778 -0.503561 -0.246005 -0.180765 -0.393543 -0.828738 -0.00222185 -0.454005 0.107235 -0.286857 -0.0759281 0.344266 0.878314 0.858212 0.0433379 0.475091 0.751554 0.365224 0.890613 0.50389 0.174357 0.268382 0.325717 -0.0815059 -0.101112 0.0819311 0.591142 -0.422957 -0.00107755 -0.254132 -0.34796 0.18048 -0.441983 -0.61815 -0.447352 0.0388066 -0.477057 -0.316856 0.00765704 0.503882 -0.0512947 0.463025 0.423686 0.774805 0.649796 0.115998 0.281664 0.419848 0.627466 0.455245 0.406753 -0.0171587 -0.0631691 -0.167705 0.25593 -0.608603 -0.577729 0.370519 0.532416 -0.366385 -0.36081 0.175781 0.21264 -0.606031 -0.657824 -0.308839 -0.128338 0.37246 0.24736 0.577781 0.1448 0.362409 0.141185 0.901601 0.338153 -0.082777 0.569851 0.457259 -0.229148 0.296797 -0.346317 -0.190828 0.43029 -0.477012 -0.81065 -0.492159 0.588543 -0.041863 -0.307246 0.00324815 -0.432629 -0.302392 -1.10147 -0.141197 0.20842 -0.00457388 0.191316 0.820074 0.902028 0.424957 0.1752 0.592548 0.427997 0.382615 0.350311 0.671944 0.214957 -0.205079 -0.192952 -0.418471 -0.352152 -0.391845 -0.365922 -0.492742 0.394812 0.312596 -0.131414 0.175922 -0.3358 0.301406 -0.445744 -0.360385 -0.503756 -0.2406 0.317483 0.507022 0.43824 0.107695 0.264378 0.397753 0.0224376 0.66778 0.620755 0.0512811 -0.0417252 -0.507437 -0.544861 -0.252664 -0.0803546 -0.0711641 0.248964 -0.51841 -0.191391 -0.320823 -0.0458862 0.129528 -0.395682 0.475445 -0.589344 -0.142182 0.215432 0.646335 0.174044 0.396071 0.380598 0.717357 0.24142 0.861244 0.00963873 0.505214 -0.029668 0.202784 0.0377326 -0.0385622 -0.506332 -0.237645 -0.255119 0.194246 0.511316 -0.250215 -0.262141 -0.082593 -0.479212 -0.229092 -0.497016 0.143519 -0.119482 -0.496211 -0.596849 0.00595102 0.396403 0.489688 0.583599 0.893813 0.516255 0.813204 0.949856 0.101587 0.290689 -0.145075 0.0224616 -0.834153 -0.485748 -0.353644 -0.576162 -0.0586148 0.252233 -0.188469 -0.211371 0.128106 -0.362029 -0.587978 -0.713205 -0.526878 -0.682697 -0.364949 0.226342 0.269827 0.435741 0.815151 0.406495 0.604451 0.624317 0.892986 0.323339 0.528852 0.1268 0.0845401 0.130684 -0.396136 -0.16628 0.0917275 -0.0279406 -0.41808 0.210752 -0.107272 0.422867 -0.318482 0.252757 -0.46712 -0.648064 -0.507702 -0.255069 -0.0481413 -0.553801 0.328518 0.399643 0.49104 0.176837 0.92042 0.696819 0.43536 0.140598 0.166855 0.856729 0.602685 0.162959 -0.714941 -1.01779 -0.0348393 0.330084 0.0107318 0.0531406 -0.279957 0.42768 0.400325 0.52361 -0.88636 -1.0014 -0.802705 -0.0983994 -0.592607 0.0346259 0.639789 0.240523 0.916194 0.262601 0.70177 0.78665 0.939161 0.522904 0.109875 0.290304 0.184373 -0.285933 -0.805695 -0.339059 0.221123 0.0990178 0.295608 -0.126614 0.101126 -0.18096 0.303592 -0.467788 -0.684837 -1.29901 -0.363678 0.112966 0.186351 -0.488981 0.00950924 0.282036 0.774999 0.209139 0.651656 0.216729 0.569881 0.0769756 0.615519 0.276322 0.800102 0.10607 -0.606992 -0.653631 0.328732 0.0725622 -0.0683483 -0.422036 -0.238589 -0.0402573 -0.00638881 -0.400231 -1.15388 -0.436688 0.0335073 0.326915 0.0144158 0.310585 0.474404 0.158479 0.613439 0.424245 0.785938 0.727699 0.439301 0.102343 0.249146 0.456726 0.169429 0.638508 -0.180389 -0.32369 -0.477302 0.153145 0.109176 -0.594559 -0.921572 -0.703849 -0.716502 -0.232197 -0.522731 -0.0139901 0.790142 -0.356121 0.337399 0.0833517 0.926088 0.784253 0.0967589 0.16613 0.819836 0.991594 0.720746 0.0258015 0.253568 0.41104 0.535035 0.161382 -0.00770824 0.144533 0.190805 -0.73436 -0.524227 -0.733738 -0.191351 -0.759045 -0.438831 0.349003 0.00388865 0.249273 0.179119 0.36704 0.576096 0.869027 1.0777 0.61072 0.114764 0.638256 0.577055 0.569216 0.817925 0.870307 0.313479 0.588521 0.629804 0.358228 -0.494508 -0.534213 -0.538774 -0.466276 -0.717693 -0.222093 -0.311626 0.391689 0.481927 -0.0424223 0.0801083 -0.358166 0.389986 0.58777 -0.0480164 0.916767 0.229617 0.726933 0.330766 0.763946 0.0435018 0.134853 0.481804 0.685823 0.927654 0.593898 0.049186 -0.0817758 -0.751021 -0.668416 -0.697153 -0.597669 -0.404671 -0.378447 0.225731 0.453632 0.0732345 -0.0483662 -0.183821 0.407481 0.757157 0.28854 0.439742 0.636213 0.981495 0.66168 0.200102 0.478746 0.223204 0.389394 0.538899 0.269911 0.50095 0.27672 -0.549876 -0.260345 -0.732831 -0.429945 0.198696 0.312491 0.497234 0.716437 0.916897 0.251357 0.870936 0.437659 0.832834 0.092709 0.0826917 0.0124914 -0.00210173 0.236218 0.98916 0.991919 0.754485 0.916636 0.589117 0.281368 0.956196 0.787157 0.171249 0.46875 0.673495 0.198676 0.272713 0.751394 0.818495 0.653103 0.167552 0.759919 0.650672 0.910169 0.624734 0.346524 0.777269 0.682019 0.158176 0.651695 0.594801 0.456435 0.755086 0.589004 0.301666 0.403487 0.867904 0.860539 0.0756773 0.907894 0.979447 0.370826 0.170686 0.55784 0.816327 0.76794 -0.00539523 0.245137 0.152302 0.339366 0.305654 0.494895 0.814367 0.159149 0.769355 0.243986 0.126534 0.64601 0.191885 0.226834 0.461285 0.575308 0.107111 0.220158 0.193418 0.780818 0.20911 0.510186 0.691962 0.81225 0.48253 0.508189 0.770002 0.208614 0.682729 0.973348 0.124907 0.41576 0.539342 0.912751 0.509548 0.338886 0.37686 0.538909 0.293026 0.6284 0.0869498 0.701532 0.949998 0.905882 0.157435 0.00696951 0.13651 
0.315973 0.563577 0.0354355 0.563926 0.902731 0.207554 0.367491 0.414405 0.908335 0.394089 0.457353 0.731625 0.425128 0.106827 0.412851 0.729999 0.00629818 0.85353 0.285243 0.0835705 0.568946 0.282904 0.764251 0.772053 0.902041 0.599374 0.678588 0.022051 0.611565 0.568818 0.126763 0.498231 0.772605 0.166658 0.823062 0.0790885 0.37253 0.416369 0.445828 0.0422813 0.828944 0.110747 0.695812 0.305087 0.552514 0.557194 0.776762 0.621906 0.1791 0.99081 0.983371 0.884446 0.0128575 0.0965739 0.11742 0.479358 0.568184 0.464117 0.415665 0.0821211 0.226892 0.739668 0.0873603 0.789068 0.133406 0.00221865 0.367091 0.543164 0.296711 0.584739 0.320613 0.469291 0.0424238 0.849138 0.602627 0.719401 0.161113 0.119615 0.750612 0.238712 0.419943 0.347206 0.712774 0.601016 0.269881 0.891891 0.0156716 0.131953 0.134111 0.134157 0.146611 0.16507 0.673737 0.5992 0.900758 0.924319 0.0677174 0.391001 0.788843 0.162058 0.446071 0.451596 0.401007 0.9482 0.0373277 0.64428 0.349369 0.967003 0.61454 0.824193 0.524613 0.662074 0.482045 0.733159 0.202528 0.0133862 0.296749 0.707499 0.125316 0.493613 0.0874108 0.507341 -0.0710297 0.599156 0.573259 0.452285 0.326252 0.107172 0.00847703 -0.346105 -0.0701733 0.181479 0.573124 0.0916062 0.355248 0.484911 0.106183 0.209444 0.862314 0.32549 0.230815 0.31035 0.0601795 0.0117432 0.470988 0.705907 0.615162 0.279017 0.605297 0.540628 0.426402 0.452982 -0.0365692 0.299262 0.00257605 0.145825 -0.0228667 -0.522031 -0.196724 0.131863 -0.0842016 -0.718848 -0.915646 0.0884963 0.774925 0.366189 0.0131605 0.734203 0.40275 0.0253425 0.263424 0.797358 0.918041 0.278254 0.578484 -0.314717 0.324776 -0.0814715 0.263129 0.043749 -0.217608 -0.871891 -0.807507 -0.798854 -0.407248 -0.990503 -0.411661 -0.618759 -0.570167 -0.670259 -0.423794 0.450673 0.371983 0.78919 0.770651 0.346963 0.74673 0.295825 0.803793 0.518549 0.602473 0.626905 0.0194909 0.12481 -0.511206 -0.350137 -0.56582 -0.606991 -1.00044 -1.23197 -1.00401 -0.328901 -0.637651 -1.07505 -0.372511 -0.627338 -0.287281 0.0313538 -0.274626 0.455591 0.478527 0.394583 0.380111 0.668132 0.838326 0.803327 0.0280263 0.533662 0.354763 0.697894 0.143576 0.444383 -0.750192 -0.904581 -0.598575 -0.957582 -0.824749 -0.875628 -0.984266 -0.528853 -0.784872 -0.568714 -0.560769 -0.606535 -0.237514 -0.58083 -0.0025517 0.296773 -0.0443761 0.948467 0.896662 0.607635 0.244422 -0.000923322 0.332185 0.947149 -0.0660988 0.491488 0.0768055 -0.0828587 0.0926231 -0.298774 -0.0692533 -0.892066 -0.938294 -0.676923 -0.397158 -0.200887 0.0132583 -0.794828 -0.519439 0.0193416 0.019402 0.236388 0.467422 -0.153373 0.208942 0.055109 0.727937 0.321638 0.86885 0.76671 0.793099 0.174056 0.622578 0.536271 0.594832 0.470101 -0.245245 -0.299998 -0.845619 -0.904859 -1.40665 -0.70354 0.046995 0.121577 -0.224016 0.447562 0.364419 0.0237336 -0.829441 -0.231621 0.455305 0.415822 0.122966 0.498139 0.60435 0.17808 0.218482 0.0244573 0.0305034 0.280526 -0.288499 0.373611 -0.298148 -0.266191 -0.601915 -0.389089 -0.650068 -1.09165 -1.40614 -0.8294 -0.525339 -0.303564 0.286559 0.040619 0.339545 0.251783 -0.801222 -0.393097 -0.04153 -0.144778 -0.0631101 0.571546 0.206847 0.961414 0.847192 0.762574 0.141942 0.0389696 -0.0157629 0.142252 -0.129407 -0.840077 -0.142543 -0.671895 -0.847686 0.219823 0.000771201 -0.180822 0.146546 -0.123039 0.558345 0.427279 0.160684 -0.0749751 -1.0782 -0.484697 -0.511376 -0.18799 0.439872 0.427142 0.609394 0.52881 0.779123 0.714823 0.148314 -0.207082 0.0679202 0.222196 0.198435 -0.48362 -0.243296 -0.152863 -0.192333 0.209411 0.353023 -0.229495 -0.674255 0.399221 0.248711 -0.0224099 0.13378 -0.413024 -1.07744 -0.558807 -0.35673 0.0638105 -0.0217171 0.396621 0.374442 0.766084 0.462207 0.309315 0.260792 0.750365 -0.154428 -0.344246 -0.423247 -0.119976 -0.319453 -0.263616 -0.0116928 -0.286986 0.0316895 0.396125 -0.616734 -0.000229043 -0.277502 0.032469 0.408111 0.146191 -0.454603 -0.728726 -0.441953 -0.0716969 -0.0380688 0.49248 0.104797 0.122101 0.870971 0.761636 0.254378 0.0614173 -0.133197 0.357659 -0.259358 -0.55542 -0.531946 -0.0337806 0.0094355 0.278926 0.494501 0.36598 0.225048 0.292241 -0.160597 -0.613956 -0.307314 0.485806 -0.304645 -0.726709 -0.0192878 0.355724 0.609227 0.352963 0.573609 0.559294 0.0848393 0.899482 0.291752 0.108583 0.866531 0.0560013 0.13916 -0.828042 -0.680415 -0.425981 0.381051 0.294854 0.21078 0.055475 -0.0447388 0.228596 0.0395291 -0.10828 -0.175437 -0.256205 -0.0504109 0.113057 0.000310483 0.0537571 0.49977 0.508452 0.332895 0.378323 0.971815 0.289222 0.484258 0.668497 0.164069 0.192424 0.16506 -0.465549 -0.0649464 -0.0862874 -0.00376394 0.131019 -0.00503094 0.715247 0.0888983 -0.191486 0.390169 -0.048508 -0.441347 -1.16335 -0.627694 -0.20969 0.729436 0.255546 0.650264 0.538928 0.955685 0.243884 0.342114 0.800382 0.982945 0.504526 0.605097 0.00979176 0.351151 -0.841937 0.247908 -0.250223 -0.0403658 -0.509274 0.206981 0.247035 0.345219 -0.176423 0.285878 -0.892943 -0.552598 -1.15405 0.117643 0.196228 0.376004 -0.124965 0.0791598 0.38884 0.903694 0.223869 0.956034 0.0623545 0.815588 0.444447 0.551387 0.048398 -0.375471 -0.0754799 -0.400363 -0.441395 0.17474 0.182054 -0.481921 0.28236 -0.505089 -0.399652 -0.285228 -0.633231 -0.604385 -0.245315 -0.20828 0.0663068 -0.00716149 -0.147007 0.26566 0.86494 0.292536 0.80993 0.769789 0.843178 0.555899 1.1826 0.564536 0.102841 0.405576 -0.199646 -0.28366 -0.27615 -0.635262 -0.361686 -0.890418 -0.457873 -0.330365 -0.679271 -0.783999 -0.90996 0.235554 0.149222 -0.40391 0.24242 0.250081 0.277363 0.816373 0.43414 0.374184 0.770491 0.634476 0.637187 0.124581 0.337098 0.345327 -0.134069 0.386404 0.0185255 -0.562599 -0.261652 -0.803438 -1.45991 -0.927276 -1.08556 -0.669403 -0.544084 0.0871025 0.209156 -0.0803079 -0.276402 -0.145393 -0.279259 -0.0320154 0.793404 0.682232 0.197607 0.142984 0.210777 0.531452 0.116374 0.445989 0.942096 0.365088 0.823135 -0.0807784 -0.262044 -0.519445 -0.406564 -0.863464 -0.829335 -0.141779 -0.760988 -0.247233 0.469685 0.468885 0.0344027 0.282236 0.350594 -0.040727 0.326945 0.57843 0.268178 0.164353 0.00899596 0.282521 0.782947 0.988727 0.527795 0.677405 0.234315 0.131811 0.440438 -0.0403778 -0.669886 -1.03931 -1.19911 -0.341081 -1.08477 -0.761125 0.150066 0.464425 0.344816 -0.0539647 -0.259877 -0.23917 0.390586 0.150806 0.133483 0.585784 0.139564 0.164146 0.11983 0.729884 0.287941 0.423309 0.546293 0.560337 0.668289 0.679144 0.0631044 -0.0227763 -0.43288 -0.175881 0.0573335 0.149153 0.0705225 0.527843 0.914723 0.124554 -0.0714065 0.0119291 0.371086 0.362317 -0.246655 0.53244 0.821413 0.700432 0.285944 0.039083 0.411746 0.747894 0.417024 0.925801 0.930591 0.447454 0.20063 0.123624 0.577767 0.206092 0.386056 0.572188 0.391681 0.353035 0.214859 0.216481 0.485873 0.286276 0.426502 0.223805 -0.226379 0.191699 0.322432 0.462497 0.623587 0.502459 0.892419 0.753667 0.872289 0.45422 0.45726 0.170186 0.320657 0.288102 0.124907 0.339201 0.46379 0.986712 0.987089 0.635118 0.950654 0.730738 -0.0627274 0.763198 0.290696 0.322485 0.0665998 -0.149297 0.601828 0.159627 0.314093 0.832747 0.713968 0.395527 0.43863 0.32331 0.811002 0.503307 0.0747311 0.0063242 0.290891 0.0114581 0.575791 0.314269 0.914419 0.858916 0.757633 0.888773 0.715063 0.111687 0.259231 0.130348 0.375381 0.092048 0.0893762 0.00470663 0.00311004 0.00920777 0.475718 0.708481 0.773134 0.357412 0.819996 0.409024 0.464691 0.0675662 0.585025 
