0.554064 0.505997 0.0984222 0.792383 0.349101 0.106632 0.0208747 0.806848 0.0948515 0.097293 0.577929 0.910062 0.380815 0.730802 0.545083 0.818305 0.485549 0.312937 0.787622 0.65273 0.211066 0.511826 0.87109 0.942076 0.983489 0.494064 0.364147 0.129856 0.460036 0.821223 0.481002 0.37672 0.249458 0.896623 0.83063 0.941539 0.938728 0.582066 0.697244 0.879887 0.964867 0.962179 0.779591 0.354011 0.694731 0.838414 0.973621 0.797796 0.363098 0.117736 0.440895 0.631663 0.508347 0.072512 0.40968 0.929716 0.413282 0.417096 0.78573 0.808369 0.0462327 0.836817 0.178175 0.73025 0.416407 0.372348 0.118934 0.400529 0.519966 0.259687 0.13344 0.101828 0.212033 0.634995 0.686761 0.697434 0.19679 0.400198 0.503116 0.247047 0.739185 0.770481 0.455916 0.574877 0.569353 0.343883 0.810403 0.345978 0.482354 0.52384 0.118975 -0.00124522 0.434204 0.541967 -0.399996 0.506684 0.727717 0.0470624 -0.0684299 -0.0827148 -0.383733 0.612205 0.498065 -0.0489796 0.259443 0.588163 0.438781 0.571701 0.0849395 0.759605 0.484796 0.236091 0.595447 0.562548 0.28487 0.469375 0.681525 0.603588 0.22285 0.183876 -0.310511 -0.160877 -0.157795 -0.0752583 0.499245 0.671985 0.140092 -0.201794 0.233791 0.00657875 -0.607725 0.345623 -0.189479 0.133459 0.413311 0.465274 0.248639 0.60686 0.72222 0.0918191 0.862972 0.741539 0.356362 0.770439 0.165566 0.817357 0.565104 0.170422 0.228883 0.456142 0.0191112 -0.281931 0.155739 -0.300565 0.379312 0.098896 -0.298882 -0.253134 -0.784284 -1.15119 -0.183383 -1.04583 -0.200023 -0.500088 0.457619 0.605102 0.967155 0.751416 0.0485855 0.82886 0.748363 0.884588 0.1006 -0.00586906 0.42817 0.328021 -0.415352 -0.0490717 0.304523 -0.654227 -0.629701 -0.252753 -1.30351 -1.66152 -0.905209 -1.32681 -1.12189 -1.13256 -1.19914 -0.465204 -0.400157 0.166954 -0.778308 -0.133404 0.533254 0.850829 0.237201 0.121622 0.42118 0.83077 0.224617 0.275758 0.153098 0.582586 -0.492306 0.149662 -0.302506 -0.112055 -1.03536 -0.858081 -1.58092 -1.71849 -1.64181 -1.47433 -1.2376 -1.19852 -1.35042 -0.847122 -0.504464 -0.906386 -0.723117 -0.712795 0.595085 0.26583 0.122635 0.0384993 0.146553 0.709652 0.01846 0.465694 0.351942 -0.102084 -0.434969 -0.757937 -0.231462 -0.496215 -0.567739 -1.64204 -1.33364 -1.8783 -0.992033 -1.74974 -0.726349 -0.956236 -0.681012 -0.132462 -1.14466 -0.386414 0.143054 1.03529 0.522718 0.892361 0.384449 0.326408 0.749376 0.65503 0.650064 -0.140625 -0.307972 -1.01561 -0.34694 -0.251468 -0.230302 -0.466793 -1.25286 -1.01785 -1.01262 -0.647177 0.358873 0.388059 0.280956 1.07418 0.272495 -0.473572 0.376144 1.38956 2.22121 1.01025 0.865047 0.824427 0.882015 0.940451 0.314675 0.734858 -0.163377 -0.43976 -1.10108 -0.68436 -0.334767 -0.676617 -0.779841 -1.10417 -0.734963 -0.421057 0.578591 1.45275 1.12063 1.14679 1.22702 1.15489 0.920302 1.57668 2.80422 3.89434 3.5928 1.53441 0.933768 0.851578 0.6798 0.26317 0.470675 0.21906 0.117389 -0.292468 -1.16173 -0.671711 -1.24932 -0.784754 -0.373963 -0.940331 -0.438861 -0.248632 0.355478 0.370013 0.150445 0.690604 -0.0150688 -0.286292 0.151067 1.09019 1.22497 1.88339 1.79268 1.13585 0.774194 0.131687 0.577868 0.906789 0.720602 0.802891 0.111585 -0.957783 -1.24525 -1.27034 -0.731498 -0.460495 -0.463185 0.911236 0.439533 0.580488 0.357993 -0.676426 -1.10627 -1.73262 -2.37315 -1.53732 -1.50501 -1.90505 -0.47831 -0.145877 0.18827 0.196973 0.66138 0.258659 0.192785 0.882567 0.0509514 0.234168 0.233394 -0.741248 -0.47756 -0.980766 -1.08137 -0.271104 0.957804 2.36653 1.95077 1.60346 0.711078 0.262969 -0.99187 -1.8707 -1.72844 -1.0191 -0.939022 -1.29081 -1.07424 -0.0343369 -0.542922 0.125414 0.783186 0.939718 0.199408 0.203217 0.954072 0.769023 -0.177768 -1.02856 -0.623174 -1.47471 -1.81862 -0.119298 1.67423 1.42609 1.32614 1.15742 0.19561 -0.268103 -0.196437 -0.739344 -0.725955 -0.712431 -0.826027 -0.663227 -0.185605 -0.402768 -0.225366 0.364287 0.757141 0.829575 0.824215 0.797611 0.127476 0.485178 0.716106 -0.609581 -1.18575 -0.585053 -1.91174 -1.69454 -0.738645 -1.21484 -1.52427 -1.63494 -0.0574862 0.499781 0.323251 0.160344 0.425861 -0.146637 -0.300933 -0.855069 -1.43978 0.13688 0.15998 0.419662 0.641591 0.820951 0.184583 0.872396 0.760982 0.562645 0.975643 1.19789 0.92378 -0.52217 -1.67849 -1.95668 -1.58176 -0.639241 -0.0584935 -0.263183 -0.0686317 0.705787 0.94285 0.0798522 -0.58549 -1.5043 -0.520708 -0.820363 -0.326015 0.180655 -0.296382 0.101709 0.0788065 0.431148 0.567644 0.439698 0.817434 0.0914096 0.844119 1.97889 1.86888 0.826743 0.462113 0.575499 0.191279 0.469735 -0.0925509 0.280857 0.888786 1.34185 1.30246 -0.479595 -0.848729 -1.06406 -0.599161 -0.888161 -0.449636 0.466176 -0.00610412 0.462909 0.319519 0.228903 0.241886 0.267208 0.810483 0.101756 0.845614 1.32185 1.86789 1.47525 2.53034 2.265 1.53733 1.78086 2.13233 1.82428 0.335548 0.459982 -0.3952 -0.705892 -1.49065 -1.16409 0.118939 -1.16512 -0.285601 0.478079 -0.12816 -0.0628962 0.665774 0.953005 0.896359 0.932168 0.457289 1.00943 0.528347 0.310554 0.881445 0.801411 0.794762 1.30472 1.02236 0.769065 0.99937 0.484953 -0.68251 -1.08378 -0.561825 -1.0801 -1.15466 -1.08546 -0.668334 -0.625117 -0.390537 0.0245456 0.145713 0.384645 0.140971 0.968032 0.299783 0.209166 0.680703 0.653051 0.62954 -0.17071 -0.945396 -1.31525 -1.17667 -1.12007 -1.06195 -0.968267 -1.54749 -1.67212 -1.33837 -1.45356 -1.27545 -0.618042 -1.09688 -1.3927 -0.758387 -1.43908 -0.51231 0.813118 0.101073 0.730988 0.882996 0.835535 0.274941 0.54233 0.955463 0.86876 0.693604 -0.458893 -0.947824 -1.31079 -1.75238 -0.88133 -1.83054 -0.877189 -0.812452 -1.30474 -0.914367 -1.00741 -0.665533 -0.755526 -0.73998 -0.516386 -0.366379 -0.0454266 0.358445 0.806959 0.756901 0.666737 0.597654 0.678671 0.580645 0.75811 1.00213 0.434856 0.689434 -0.269592 -0.0313301 -0.603068 -0.878662 -1.33933 -1.31057 -0.857831 -0.269009 -0.151778 -0.410437 0.170929 0.285376 -0.302628 0.273307 0.118708 0.0679272 0.478229 0.101994 0.4015 0.205486 0.965424 0.911939 0.175208 0.796045 0.791833 0.467244 0.415874 0.810273 -0.880704 -0.228936 -0.816638 -0.843063 -0.581175 -1.02519 -0.692355 -0.60351 -0.265323 0.329138 0.345424 0.0935773 -0.0446398 0.278692 0.337307 0.187925 0.262018 -0.214166 0.44893 -0.0262917 0.33016 0.880628 0.685568 0.800256 0.624531 0.0717313 0.307381 0.569628 0.285109 0.00773385 -0.810791 -0.54443 0.452433 0.270099 0.219701 0.25547 0.74965 0.49751 0.0695358 0.500441 0.225092 0.372561 -0.197065 -0.420338 -0.228606 0.124584 0.212673 0.556414 1.01057 0.684383 0.489151 0.942015 0.149205 0.816546 0.505858 0.324786 0.0740268 0.0914215 0.282978 0.346425 0.00326996 0.778753 0.681714 1.15237 0.52796 -0.0188113 0.631075 0.786149 0.373954 0.64022 0.129579 -0.0165553 -0.200781 0.559163 0.587252 0.132632 0.158864 0.433885 0.591998 0.491836 0.188391 0.841456 0.360033 0.732508 0.0737049 0.773357 -0.00301317 -0.0483147 0.257753 0.156898 -0.0359841 0.644096 0.250343 -0.0709436 0.475078 -0.0368782 0.54762 0.462253 0.29826 0.7956 0.445307 0.679567 0.00411438 0.258133 0.111332 0.579485 0.0750755 0.471755 0.380718 0.608448 0.807062 0.829157 0.619373 -0.0103948 0.599198 0.784598 0.907597 0.170826 0.865583 0.310026 0.576683 0.602727 0.00515336 0.700937 0.177033 0.299825 0.754892 0.421752 0.648224 0.875288 0.247456 0.38731 0.0166631 0.548845 0.452864 
0.455367 0.155309 0.87994 0.892178 0.818293 0.0885342 0.820948 0.42732 0.398175 0.0134587 0.39024 0.673544 0.831154 0.0114253 0.666648 0.673363 0.600146 0.494675 0.954863 0.146519 0.344432 0.46263 0.380078 0.0884426 0.250526 0.394391 0.0974151 0.00979644 0.432417 0.513077 0.242744 0.58742 0.106113 0.93046 0.675021 -0.0446536 0.593994 -0.00127368 -0.0131855 0.774848 0.250975 0.201428 0.459948 0.479837 0.44101 0.415283 0.479864 0.526925 0.395613 0.503184 0.619318 0.542273 0.653371 0.129948 0.174017 0.584552 0.331736 0.833033 0.563097 0.782865 0.0494207 0.480149 0.897113 0.256805 0.552417 0.203313 0.499832 0.521406 -0.0185149 0.404449 -0.131776 -0.0239227 -0.210304 0.166604 0.360728 -0.0660986 0.631532 0.838598 0.737776 0.383477 0.371803 0.202017 0.645253 0.770043 0.295969 0.423109 0.209424 0.990208 0.725679 0.064081 0.120614 -0.0918893 0.77725 0.777044 0.493522 0.129623 0.130734 -0.375827 0.20532 0.14069 0.285415 -0.158593 0.159057 -0.480584 -0.271606 0.159526 -0.0755266 0.464794 0.144187 0.778416 0.717963 0.998291 0.302042 0.0336924 0.387087 0.742323 0.710992 0.19012 -0.11801 0.764907 0.454289 0.165425 -0.146852 0.170059 0.263903 0.354526 -0.157122 -0.255758 0.0354148 -0.407894 -0.140094 -0.123983 0.263031 0.127548 0.281396 -0.0977075 0.704226 0.128533 0.452566 0.477407 0.221137 0.052797 0.429561 -0.0191648 0.265183 0.615798 0.586318 0.350814 -0.353033 -0.269286 -0.201092 0.149154 0.395014 0.58028 0.602359 0.179574 0.173992 0.592282 -0.297214 -0.509252 -0.457591 -1.16809 -0.0261245 -0.410465 0.112506 0.463516 0.047705 0.454084 0.911771 0.601367 0.371949 -0.111954 -0.2 0.186169 -0.114713 -0.281763 -0.524041 -0.128458 -0.036624 -0.09991 0.0521125 0.152968 -0.15186 0.0665524 0.0625424 0.0871586 -0.241693 -0.334085 -0.236283 -0.151839 -0.40128 0.0544917 -0.310594 0.320053 0.545692 0.771514 0.439882 0.242387 0.732333 -0.0268537 -0.139674 0.230456 -0.465325 -0.57588 -0.330663 -0.566186 -0.524371 -0.26239 -0.201429 0.00415645 -0.435005 -0.298089 0.0731577 -0.0635306 0.620663 -0.057108 -0.527638 -0.308955 0.152504 0.234993 0.431366 0.441258 0.577705 0.168029 0.0190795 0.556097 0.610278 0.592587 -0.0133667 0.0622855 0.105547 -0.122886 -0.305074 -0.449836 -0.261156 -0.153812 -0.559893 -0.0456546 -0.289476 -0.292122 -0.0652265 -0.194417 0.0236091 0.0464952 0.0732105 0.315491 0.0524728 0.288587 -0.0302076 0.251476 0.24697 0.327393 0.769435 0.208588 0.427367 -0.0538018 0.0436496 0.397455 0.0839827 -0.128391 -0.50094 0.0983461 0.134928 -0.513805 -0.481549 0.223787 -0.0209154 -0.466697 -0.0878688 0.075067 0.789233 0.0810925 0.111248 -0.691962 0.117931 -0.217324 0.218821 0.444871 0.696572 0.0754847 0.873348 0.896553 -0.031327 -0.386589 0.263479 0.0168529 0.365986 -0.173581 0.0411081 0.14529 -0.0851387 -0.313775 0.03252 -0.175906 -0.444206 -0.813294 -0.377122 0.208243 0.810375 0.209163 -0.509257 -0.155004 0.450044 0.551151 0.415231 0.169772 0.917494 0.889402 0.248634 0.650991 0.134814 0.217208 -0.181333 -0.128126 -0.292933 -0.52875 -0.611168 -0.333556 -0.374849 -0.306013 -1.22455 -1.01176 -0.833386 -0.647473 -0.599889 0.0847036 -0.180606 -0.011506 -0.111224 -0.0805463 0.16383 -0.0652418 0.11077 0.159579 0.638204 0.803532 0.305948 -0.00932533 0.763682 0.0682543 -0.205658 0.131423 -0.735994 -0.637235 -0.411506 -0.129771 -0.177915 -0.0845745 0.0388417 -0.930727 -0.826599 -0.602241 -0.716022 -0.186148 0.00466457 0.343036 -0.263535 0.680215 0.1136 0.406395 0.901939 0.483214 0.895228 0.15523 0.89996 0.408985 0.637189 0.303668 0.345354 0.205425 -1.03989 -0.447119 -0.154521 -0.549918 0.176785 1.00576 0.5054 -0.547744 -1.0305 -0.787114 -0.275757 -0.245906 0.240024 0.180079 0.284612 -0.31018 0.0627323 0.506457 0.743613 0.442838 0.477351 0.245798 0.0629597 0.558972 0.951223 0.0815694 0.249841 0.19462 -0.507459 -0.0316715 0.024516 -0.463944 0.65058 0.357835 -0.032042 0.317325 -0.816189 -1.13038 -0.569213 -0.175823 0.141104 0.0467936 -0.675451 -0.713986 -0.356456 -0.124358 0.0891821 0.123354 0.545915 0.0392983 0.616014 0.82043 0.62759 0.0331205 0.347721 0.0899066 0.122426 -0.056109 0.0830411 0.280923 0.0504084 0.444615 -0.172208 0.439205 -0.651055 -0.166827 -0.314485 0.387639 -0.578081 -0.376948 -0.236273 -0.671646 -0.608668 -0.848252 0.137023 0.566249 0.431398 0.638856 0.249962 0.406072 0.727152 0.521452 0.538423 0.076454 -0.26474 -0.171358 0.000141152 0.237019 0.525863 -0.346318 -0.0248435 -0.301703 -0.912469 0.304553 0.135731 -0.141996 -0.371645 -0.395703 -0.791429 -0.338852 -0.88062 0.0495736 -0.307938 0.740699 0.361356 0.748418 0.171545 0.778008 0.0753021 0.809115 0.598231 0.618635 0.0775335 0.194531 0.618309 0.434391 0.418386 0.254328 0.150843 -0.0944444 -0.429218 -0.179915 0.399615 -0.308728 -0.612239 -1.54336 -0.695557 -0.362243 -0.589672 -0.213536 0.291425 0.861611 0.458803 0.503374 0.905818 0.643406 0.118312 0.12648 0.580013 0.674061 0.350878 -0.55059 -0.102797 -0.117525 -0.179936 0.0830071 0.156699 -0.162588 -0.258547 -0.186958 -0.715387 -1.00157 -0.938323 -0.605862 0.0177644 -0.327829 -0.293227 -0.0614585 0.562183 0.274706 0.294408 0.204338 0.359813 0.151049 0.322828 0.142183 -0.0183536 0.372232 0.556372 -0.186258 -0.0770737 0.34301 0.0773085 -0.267101 -0.280262 -0.665084 -0.65568 -0.715018 -0.670783 -1.19181 -0.550918 -1.03496 -0.785529 -0.315535 -0.458109 -0.0548187 0.864998 0.400125 0.907041 0.0586624 0.70922 0.588026 0.0146553 0.0578871 0.141099 0.660524 0.454069 0.123169 -0.978243 -0.158173 -0.507227 -0.618697 -0.550231 -0.702309 -1.2435 -0.881103 -0.804041 -1.24969 -1.17106 -0.166063 -0.0593169 -0.392494 0.46086 0.394289 0.687524 0.934942 0.70935 0.663366 0.254524 0.159167 0.576788 0.748064 0.629035 -0.0546438 0.368466 -0.0358322 -0.600067 -0.598636 -0.797162 -0.784469 -0.869526 -1.20425 -0.800652 -0.84526 -0.287531 -0.208169 -0.981605 -0.792183 0.189206 -0.328821 0.604393 0.741183 0.152165 0.48323 0.482276 0.179752 0.788018 0.324381 0.73167 0.40324 0.0109582 0.375671 0.484924 -0.327745 -0.272443 -0.255018 -0.366679 -0.533472 0.185445 -0.230641 0.190679 -0.440103 0.0261053 -0.353588 -0.654995 -0.307136 -0.425133 0.709353 0.234207 1.12297 0.282751 0.060202 0.00440943 0.238803 0.596515 0.111789 0.219493 -0.0714886 -0.227916 -0.787035 -0.543821 0.298943 0.0316167 -0.698737 0.0153045 0.14857 0.67226 0.721547 0.957129 0.39552 0.0709846 0.0191953 -0.114346 0.673465 0.868502 0.619206 0.612928 0.588842 0.297247 0.83094 -0.0225165 0.190771 0.683493 0.848567 0.546236 0.818283 0.145879 -0.720834 -0.248854 -0.485434 -0.137783 0.284212 -0.0652757 0.525904 0.0869251 0.548416 0.419921 0.951406 0.880153 0.497784 0.788484 0.26719 0.472866 0.771759 0.377213 0.558559 0.833201 0.0366096 0.702206 0.543718 0.30546 0.922636 0.567828 0.0109791 0.256721 0.334225 0.502078 -0.261738 0.44607 0.248642 -0.0245712 0.109498 -0.215521 -0.378046 0.00286242 0.286618 0.181222 0.272322 0.378085 0.719704 0.159913 0.455444 0.39049 0.00700298 0.723099 0.170159 0.290721 0.106937 0.416852 0.823908 0.242378 0.618378 0.456546 0.0685192 0.624473 0.342694 0.390712 0.787977 -0.0597509 0.201341 0.194647 0.716089 0.23099 0.524549 -0.081589 -0.160498 0.246017 -0.0209464 -0.00456006 0.607367 0.0830227 0.926924 0.728276 0.815546 0.424421 0.80047 0.11652 0.179052 0.429365 0.454268 0.284219 0.884457 0.901501 0.64092 0.845113 0.053648 0.87923 0.102071 0.796926 0.704485 0.25754 0.339437 0.382152 0.840741 0.783885 0.934728 0.355594 0.0466109 0.381252 0.200041 0.836695 0.511368 0.7004 0.59917 
0.690237 0.999725 0.988952 0.771752 0.161596 0.30784 0.829188 0.161962 0.642689 0.754936 0.279855 0.045381 0.447177 0.439576 0.317953 0.0748827 0.377361 0.290628 0.973205 0.50557 0.126743 0.232673 0.633106 0.897885 0.343486 0.87228 0.4326 0.580645 0.342265 0.86169 0.126499 0.655232 0.221931 0.195625 0.351063 0.812287 0.517633 0.908518 0.696155 0.811604 0.035064 0.141022 0.506477 0.682566 0.948218 0.325402 0.673481 0.847171 0.206921 0.155424 0.620612 0.953516 0.643452 0.230781 0.572314 0.545061 0.210669 0.235206 0.278634 0.751647 0.142582 0.141864 0.293519 0.70105 0.640133 0.465335 -0.0393496 0.0995929 0.306356 0.59563 -0.0499251 0.509603 -0.0430487 0.771314 0.206293 0.753316 0.743569 0.403951 0.849242 0.0635905 0.859783 0.11607 0.112064 0.176244 0.759087 0.683981 0.390669 0.80614 0.369419 0.0600208 0.361384 0.570684 0.462928 -0.0916596 -0.464734 -0.246605 0.0810061 0.0651475 0.175131 0.321549 0.274245 0.0447493 0.974014 0.684547 0.317173 0.136735 0.800429 0.146742 0.431002 0.397019 0.823725 0.212439 0.139439 0.152013 0.930884 0.0560073 0.053945 -0.0104033 0.679386 0.20597 -0.0659238 -0.373646 -0.122425 -0.0800409 -0.116822 -0.487821 -0.185316 -0.0441295 -0.201976 0.155979 0.301207 0.0723241 0.462402 0.810494 0.9658 0.842069 0.868328 0.925119 0.67193 0.592664 0.61919 0.0574053 0.482656 0.666657 -0.0934797 0.0625982 -0.475014 -0.0741869 -0.271856 -0.674881 -0.162403 -0.195843 0.0188708 -0.0746434 -0.503396 -0.0728055 -0.929594 0.237925 -0.115418 -0.560019 0.0197322 -0.330809 0.667067 0.442712 0.348601 0.894531 0.694832 0.0631621 0.666372 0.411264 0.268909 0.704477 0.0714329 -0.0678045 0.256026 -0.246614 -0.0731048 -0.263325 0.256571 -0.224567 -0.126856 -0.111244 -0.0424716 0.00332779 -0.15663 -0.30144 0.0543356 0.167681 -0.229616 -0.257888 0.133949 0.808647 1.00372 1.13618 0.974514 0.174718 0.787211 0.677953 0.388526 0.65569 0.0481824 -0.0891617 -0.291501 -0.325529 -0.585111 -0.263311 0.0375764 0.0822563 0.137237 -0.471631 -0.104802 -0.598623 0.114213 0.316418 0.424238 -0.226312 0.0115478 0.194447 0.235637 0.99063 0.697959 0.943981 0.67053 0.208156 0.710574 0.617947 0.407499 0.594827 -0.751317 0.267693 -0.107069 0.055446 -0.221735 -0.205862 -0.496901 -0.140929 0.529666 -0.0988153 -0.115404 -0.375137 -0.179066 0.169656 0.31988 0.169663 -0.0333068 0.101372 0.604952 1.22435 1.65105 1.02544 1.17676 0.883573 0.0018012 0.772306 0.379205 0.4866 0.245314 -0.471231 -0.199148 0.0241215 0.407561 -0.155438 0.28643 0.0173885 -0.482453 -0.156185 0.253949 -0.699096 -0.304603 -0.64612 -0.0872447 -0.114254 -0.690676 -0.154134 0.195086 0.727852 1.6894 1.48205 1.05618 0.435892 0.735954 0.851137 0.727198 0.280777 0.155223 0.159396 0.211211 -0.0187268 -0.264865 0.263757 0.330106 0.0996044 -0.0777986 0.440034 0.162605 -0.307054 -0.15919 0.00407725 -0.443622 -1.26476 -0.602906 -0.482977 -0.0147635 0.153539 0.851384 0.891242 1.16573 0.0669162 0.262642 0.831135 0.0482233 0.440923 0.821961 0.0373084 0.0884265 -0.266486 -0.0292842 -0.235478 -0.0784956 0.0470558 -0.13152 0.323324 0.282585 -0.41723 -0.876125 -0.375836 -0.516493 -1.08627 -1.18407 -0.805757 -1.01118 -0.393626 0.351248 1.12997 0.748662 0.913043 0.718284 0.716909 0.0342774 0.267414 -0.22066 -0.0516482 0.000311797 -0.423906 -0.0956727 -0.169768 -0.116392 0.241029 -0.0248582 -0.898104 -0.244827 -0.120476 -0.384652 0.15214 -0.391052 -0.548761 -0.571737 -0.358132 -0.307648 -0.815551 -0.442082 -0.086569 0.291894 0.0376791 0.34196 0.1323 0.0404497 0.718456 0.065803 0.0931044 -0.0251474 -0.0455469 0.12021 -0.336795 0.287722 -0.280419 0.288261 -0.988795 -0.998062 -0.602319 -0.916432 -0.477288 0.0524338 -0.416263 -0.350146 -0.13701 -0.219228 -0.503037 -0.481622 0.0615688 0.657423 0.409465 0.201483 0.518048 0.5478 0.36138 0.500531 0.494104 -0.0768398 -0.577608 -0.156593 0.142828 0.295791 -0.51379 -0.530749 -1.11133 -0.796209 -1.00226 -1.08991 -0.463363 -0.317494 -0.416279 -0.156635 0.270615 0.209146 0.228736 -0.224881 0.131928 0.319701 0.246478 0.421228 0.266858 0.259801 0.220525 -0.0125352 0.00828508 -0.398017 -0.278609 -0.111049 0.0533711 0.405797 -0.319921 0.0660585 -0.357995 -1.09424 -0.58789 -0.559853 -0.277653 -0.353244 0.0503132 0.260822 -0.772973 0.284399 -0.207409 -0.068018 0.378872 0.387885 0.512443 0.505848 0.963407 0.433563 0.354182 -0.100492 -0.339164 -1.46157 -1.02991 -0.225786 -0.231696 -0.17611 -0.250589 -0.672748 -0.382419 -0.609686 -0.474259 -0.896537 -0.683206 -0.736726 -0.403786 -0.269678 -0.837081 0.0491895 0.139412 -0.274649 0.34866 0.442834 0.84068 0.852962 0.736061 0.312096 0.908651 0.670402 -0.574106 -0.0543597 -1.00676 -0.388913 -0.76945 -0.226162 -0.912473 -0.76918 -0.91217 -0.745479 -0.768738 -0.36582 -0.403945 -0.52494 -0.562015 -0.520514 -0.1338 -0.655707 -0.233747 0.00551121 -0.175891 0.444178 0.861387 0.0512968 0.830219 0.707276 0.59625 0.722881 0.0493639 -0.393374 -1.03455 -0.87649 -0.632647 -0.839137 -0.468125 -0.971207 -0.648991 -0.168016 -0.250022 -0.367111 -0.782603 -0.981547 -0.568829 -0.430398 0.0545819 -0.547648 -0.344218 0.202625 -0.16881 -0.0218662 0.419627 0.0473952 0.481349 0.18069 0.69041 0.673035 0.326359 0.460638 -0.469674 -0.786754 -0.773567 -1.01966 -0.635992 -0.518901 -0.592377 -0.242479 -0.381347 -0.888804 -0.798608 -0.734837 -0.322129 0.121692 -0.707563 0.0188518 0.177948 0.257663 0.569606 0.828704 0.336485 0.801538 0.334455 0.532223 -0.0102783 0.229034 0.131701 0.450509 -0.592723 -0.310399 0.176237 -0.0751384 -0.221515 -0.146172 -0.110184 -0.523873 -0.929643 -0.7737 -0.585327 -0.591963 -0.619625 -0.451636 -0.817705 -0.0170323 0.270219 0.200215 -0.177624 -0.0118305 0.442611 0.484298 0.213616 0.792462 0.619312 0.121807 0.194062 0.501003 0.375035 0.379554 0.256042 -0.486501 0.143511 -0.747018 -0.382727 -0.707881 -0.668353 -0.467969 -0.391029 -0.856595 -0.567325 -0.183296 0.349723 0.223093 0.343662 0.574532 -0.0623432 0.749889 0.220068 0.849147 0.415876 0.143314 0.384981 0.429863 0.473286 0.0675767 -0.417238 -0.0426819 -0.273096 -0.735967 -0.322507 -0.0628647 -0.0757766 -0.303324 0.0108871 0.556395 -0.300224 -0.395294 -0.748636 -0.331405 -0.24408 -0.0159446 0.737005 0.309584 0.981768 0.798108 0.306151 0.849544 0.184057 0.923899 0.916489 0.0407758 0.251386 0.260132 0.0849456 -0.256283 -0.0322656 0.207573 0.194742 0.404056 -0.133727 0.0412639 -0.188224 -0.283748 0.0655969 -0.470967 -0.253554 0.243173 0.23372 0.0678955 0.59506 0.0445676 0.396851 0.449414 0.210578 0.103458 0.720573 0.823581 0.566217 0.728946 0.10954 0.327997 0.0189957 0.347725 0.502329 0.112081 0.877594 0.554871 0.606799 0.403908 0.419669 0.301395 0.466026 0.277725 -0.0775857 -0.13872 0.0594076 0.489895 0.27149 0.949685 0.380906 0.7713 0.496536 0.296884 0.343822 0.281605 0.478497 0.7578 0.377037 -0.018212 0.856034 0.288877 0.935251 0.647646 0.514779 0.429109 0.477409 -0.0973883 0.662865 0.607541 0.449545 0.519335 0.803811 1.10123 0.297957 0.265567 0.519825 0.973087 0.078993 0.0227148 0.758934 0.120762 0.0528886 0.572253 0.46099 0.766895 0.44546 0.246172 0.15954 0.583529 0.478123 0.272539 0.587116 0.575025 0.380983 -0.0660018 0.229141 0.642624 0.171229 0.506841 0.536539 0.689933 0.25987 0.526345 0.272309 0.621156 0.537248 0.848201 0.395367 0.834803 0.210639 0.689779 0.865505 0.699637 0.0111698 0.439672 0.138579 0.32865 0.63201 0.444661 0.54953 0.410433 0.792232 0.763422 0.160241 0.233086 0.458276 0.872341 0.43984 0.953428 0.376937 0.229284 0.902503 0.630879 0.034608 0.0773034 0.63628 
0.0520341 0.565264 0.128178 0.478896 0.766717 0.00796533 0.0965606 0.514206 0.349315 0.665242 0.497452 0.429945 0.539199 0.421575 0.895229 0.397207 0.721854 0.893063 0.547349 0.771874 0.963225 0.0126041 0.839259 0.399152 0.207068 0.999756 0.434767 0.8034 0.837977 0.328257 0.529893 0.0435499 0.237983 0.674491 0.124862 0.509917 0.533201 0.428487 0.753633 0.511855 0.985866 0.550079 0.389754 0.556204 0.629656 1.91966e-06 0.459664 0.381686 0.772179 0.833843 0.905866 0.253039 0.793939 0.835292 0.00506607 0.265847 0.71746 0.527787 0.501267 0.168342 0.507192 0.674078 0.526413 0.848631 0.424299 0.381954 0.500883 0.726249 0.576648 0.862403 0.0834262 0.342046 0.605152 0.33756 0.315347 0.504146 0.0967441 0.371392 0.721664 0.716685 0.866488 0.658729 0.818903 0.0620746 0.684164 0.356273 0.445287 0.208517 0.345098 0.757529 0.401951 0.410856 0.594948 0.0158896 0.397731 -0.0112082 -0.00860485 0.167674 0.213187 0.441807 -0.0161532 0.418408 0.565914 -0.000336687 0.191234 1.01538 1.01542 1.04219 0.384456 0.818553 0.385055 0.656484 0.805353 0.730766 0.754937 0.0384309 0.390676 0.612528 0.163851 0.134667 -0.133886 0.0885138 0.316394 0.118226 -0.126675 0.37047 0.169317 0.135473 -0.0940224 -0.0591663 0.253466 0.476317 0.164441 0.349998 0.610756 0.828651 0.921677 0.19138 0.563397 0.800607 0.516007 0.784997 0.210123 0.281553 0.434437 0.377651 0.539483 -0.000561851 -0.394295 -0.339532 -0.378306 -0.286636 -0.0298591 -0.33461 0.931883 0.0506268 -0.209051 -0.419149 -0.437829 -0.0336153 -0.0819412 -0.012085 0.178413 0.76414 0.426335 0.11569 0.484792 0.962433 0.1966 0.511884 0.923647 0.741508 0.613753 0.645072 0.349977 -0.134016 -0.0153663 -0.864819 -0.829815 -0.233724 -0.327408 -0.389422 -0.736068 -0.291459 -0.325743 -0.193929 -0.84838 -0.412482 -0.246606 -0.656949 0.0514496 0.420892 0.914729 0.295714 0.0434984 0.29912 0.127412 0.273723 0.683526 0.905775 -0.297444 -0.507208 -0.312782 -0.494301 -0.840505 -0.391529 -0.746119 -0.669681 -0.190772 -0.440159 -0.750957 -0.648705 -0.842619 -0.504276 -0.205042 -0.988663 -1.02747 -0.697618 -0.194901 0.641979 0.841925 0.946822 0.790888 0.660326 0.41265 0.384649 0.0711717 0.0410639 0.155086 -0.157585 0.264506 -0.479974 -0.896015 -0.866716 -0.567077 -1.07818 -0.316737 -0.56781 -0.946737 -0.37185 -0.894216 -0.895959 -0.12212 -0.481989 -0.406936 -0.613208 -0.410481 0.0191786 0.835099 0.214777 0.211669 0.52065 0.975879 0.605123 0.0287328 0.453104 -0.153733 -0.184383 0.3129 -0.417238 -0.402222 -0.536253 -0.750409 -1.21159 -0.766046 -0.626221 -0.350355 -0.226973 -0.436492 -0.186305 -0.592506 -0.313148 -0.162609 0.0480167 0.0566333 -0.0770424 0.670969 0.34369 0.822138 0.363085 0.195837 0.429612 0.500662 0.199859 -0.761792 -0.369253 -0.699527 -0.319448 -0.136285 -0.174705 -0.295002 -0.646896 -0.71669 0.183889 -0.0752875 0.10335 -0.358096 -0.197776 0.430606 0.0853323 -0.447133 -0.182396 0.332746 0.446334 0.752246 0.12849 0.0950182 0.639878 0.31843 0.328345 0.755643 0.690949 -0.140549 -0.46338 -0.281636 -0.0904797 0.292048 -0.256786 0.0476803 -0.0492973 0.103091 0.544802 0.73368 0.12735 -0.551909 0.410525 -0.58682 -0.387551 -0.952514 -0.449054 0.0215002 0.0172358 0.6881 0.204966 0.938136 0.282717 0.196051 0.973965 0.919135 0.110197 0.0124459 0.13912 -0.0948185 -0.354038 -0.464773 -0.169381 0.149418 0.2826 0.607039 0.802872 0.475179 -0.354347 0.484506 -0.1706 0.0654542 -0.487449 -0.146289 -0.357046 0.361355 0.762895 0.441888 -0.157742 0.066374 0.404973 0.473861 0.912201 0.29506 -0.0244072 0.397218 0.505738 0.312661 -0.0586718 -0.08416 0.0472988 0.134569 0.444387 1.20541 -0.210428 0.125997 0.776771 0.186547 0.0800369 0.117714 -0.193724 -0.4373 -0.125557 0.25482 -0.165026 0.492828 0.0984103 0.0881574 0.15466 0.807733 0.369393 0.0803464 0.0160715 0.484133 0.00340191 0.108059 -0.922651 -0.286688 0.000472678 0.480693 0.0820488 0.598576 0.0948116 -0.0418199 0.0128979 0.073447 -0.497877 -0.3524 -0.138316 -0.634245 -0.289049 -0.238014 0.20664 0.34255 -0.22013 -0.261727 0.985356 0.209413 0.578375 0.27299 0.497853 -0.363263 -0.380999 -1.3689 -1.18535 -0.892842 -0.38591 -0.618303 0.181468 0.49282 -0.016307 0.403286 -0.210209 -0.169438 -0.141656 -0.709145 -0.191878 -0.153162 -1.0531 0.00547751 0.341279 -0.270084 -0.267649 -0.248067 0.229217 0.112462 0.937142 0.968854 0.150536 0.142543 0.114416 -0.676173 -0.774551 -0.471592 -0.0469231 0.0967782 0.0119592 -0.0859167 -0.196896 0.113975 0.297693 -0.293963 -0.811913 -0.646499 -0.566347 -0.456569 -1.15304 -0.628102 -0.271513 -0.00444437 -0.101212 0.178138 0.291129 0.252388 0.787505 0.106381 0.710703 -0.296735 -0.207266 -0.811855 -0.425591 -0.212529 0.260246 -0.174184 -0.0574065 -0.0327532 -0.162389 -0.274012 -0.121296 0.44903 -0.604054 -0.622173 -1.21404 -0.900151 -0.228491 0.0720851 -0.386716 -0.554612 -0.69141 0.318492 0.215348 0.954443 0.879778 0.81163 -0.0594486 0.0865524 -0.158339 -0.261694 -0.417619 -0.0684761 0.295263 -0.379609 -0.361384 0.184779 -0.165313 -0.169867 -0.209027 -0.31334 -1.18166 -0.972412 -0.777128 0.0878527 -0.191375 -0.597013 -0.432815 -0.43051 -0.446643 0.662291 0.540293 0.926878 0.390163 0.125429 0.30035 -0.166373 0.179436 -0.201894 -0.848425 -0.650535 0.132213 -0.374558 0.013164 -0.200097 -0.611763 -0.207026 -0.989934 -0.590833 -0.479663 -0.284792 -0.865727 0.00532276 -0.305087 -0.263984 0.319862 0.052515 0.157527 0.391715 0.366502 0.141636 0.648122 0.801206 0.39823 0.216555 -0.49997 -0.399149 -0.10541 -0.445802 -0.72752 0.0280006 -0.778999 -0.875808 -1.03102 -1.02849 -0.48855 -0.422664 -0.440892 -0.600986 -0.435967 -0.00299028 -1.05994 -0.461471 -0.219031 -0.501788 0.28943 0.144788 0.366352 0.915403 0.258331 0.8357 0.615633 -0.0667099 0.642618 0.191953 -0.383676 -0.260151 -0.380322 -0.47683 -0.940257 -0.50417 -0.912894 -0.472282 -0.332216 -0.2031 -0.029592 -0.648494 -0.155486 -0.17425 -0.111486 -0.899666 -0.148492 0.14967 0.270044 0.829834 0.142621 0.765374 0.934721 0.839242 0.501503 0.754522 0.501501 0.472715 -0.668288 -0.8937 -0.415439 -0.517349 -0.524886 -0.59043 -0.224061 0.239954 0.403915 -0.060982 -0.0637195 -0.508097 -0.524083 -0.252492 -0.592431 -0.834845 -0.275995 0.418001 0.380099 0.516449 0.690292 0.145817 0.64272 0.428031 0.0463132 -0.143684 -0.12829 0.0112668 -0.088021 -0.456212 -0.5045 -0.226929 -0.802751 0.811587 0.595152 0.613113 0.35708 0.174444 0.339836 -0.021133 -0.189908 -0.238323 -0.136766 0.0780814 0.330667 0.79649 0.306556 0.948019 0.224036 0.654408 0.36433 0.800433 0.570411 -0.142852 0.095235 0.0875818 -0.165328 0.406766 0.403892 0.544905 0.633214 0.0170556 0.0455339 0.274258 -0.436046 0.220731 -0.108751 0.242794 0.133757 0.279136 0.186171 0.289772 0.926042 0.106027 0.680682 0.5425 0.562517 0.802973 0.159185 0.49969 0.819587 0.568729 0.210443 0.533227 0.566899 0.864142 0.123014 0.46423 0.330625 0.637854 -0.0851836 -0.0318815 -0.340601 -0.255626 0.55949 0.690134 0.541641 0.0905385 0.0509311 -0.40985 0.434064 0.624236 0.509166 0.553948 0.443953 0.946745 0.752159 0.48204 0.0917221 0.655914 0.940948 0.199274 0.166121 0.504391 0.711349 0.3126 0.240105 0.803765 0.317094 -0.40674 -0.209512 0.145652 0.0790123 0.0826062 0.741813 0.215508 0.65296 0.561274 0.836692 0.58855 0.230354 0.270333 0.757347 0.465285 0.365337 0.501175 0.36256 0.141209 0.708304 0.822566 0.955262 0.836466 0.629847 0.386413 0.630896 -0.0455339 0.0860758 -0.284398 -0.156369 0.443571 0.726866 0.271508 0.0449333 0.233123 0.000210678 0.560537 0.420897 0.931913 0.506607 0.700247 0.158391 
0.7893 0.0129093 0.0962249 0.774499 0.882504 0.848445 0.425977 0.731681 0.806543 0.78518 0.201849 0.506912 0.602945 0.903775 0.399104 0.322811 0.618427 0.253792 0.102756 0.825312 0.745354 0.534227 0.584643 0.490249 0.178564 0.671102 0.702231 0.0393384 0.366649 0.977538 0.0399487 0.647511 0.500351 0.235539 0.730994 0.293274 0.634454 0.253971 -0.107464 0.550759 0.384824 0.434996 0.803643 0.500215 0.897671 0.968722 0.656813 0.3652 0.428152 0.520267 0.110297 0.947968 0.156468 0.194647 0.499863 0.320658 0.162023 0.687063 0.58327 0.126638 0.379353 0.788184 0.240383 0.139399 0.576429 0.512472 0.611857 0.0457965 1.14215 0.820071 0.627744 0.942547 0.382199 1.28446 0.597034 0.342761 0.658044 0.938738 0.583154 0.665973 0.606099 0.218446 0.949034 0.0339976 0.783074 0.710746 0.341978 0.900776 0.395194 0.600422 0.708247 0.147854 0.295346 0.043849 0.267456 -0.144218 0.199984 0.780365 0.724839 0.594838 0.646625 0.173556 0.5873 0.702594 0.785961 0.062574 0.810955 0.874054 0.916673 0.890012 0.391338 0.164892 0.827418 0.0928983 0.170862 0.897698 0.441687 0.575607 0.295172 -0.414644 -0.445587 -0.319026 0.189 -0.350381 -0.2321 -0.724554 -0.258306 -0.737942 -0.459999 0.273811 0.0135919 -0.616412 0.145737 0.656926 0.165958 0.673043 -0.330467 0.635413 0.363409 0.731794 0.544328 0.743553 0.868691 0.671741 0.735042 0.444762 0.291579 -0.450258 0.15217 0.0344885 -0.171906 -0.812089 -0.273559 -0.617984 0.0970529 -0.256823 -0.547593 -0.132237 0.12917 0.133023 -0.160403 0.316635 0.105528 -0.258599 -0.519093 -0.119063 0.308966 0.528108 0.404279 0.103947 0.0294115 0.0481663 0.298624 -0.373379 -0.439422 0.202593 -0.103762 -0.576863 -0.712108 -0.632923 -0.213887 -1.29918 -0.491437 -1.16977 -0.620988 -0.566145 -0.348601 -0.551703 -0.950013 -0.359892 0.205854 0.544907 0.0442123 0.0626431 0.852476 0.589476 0.670726 0.801153 0.018164 0.885591 0.559093 0.258667 -0.377171 -0.256759 -0.58116 -0.890109 -0.510809 0.0821233 -0.539985 -0.73987 -0.562317 -0.97083 -0.816267 -0.38833 -0.509087 -0.517306 -0.408973 -0.501772 0.241679 -0.169265 0.421972 0.159535 -0.0538218 0.729368 0.569713 0.568732 0.153988 0.605285 0.162095 -0.341857 -0.362 -0.364564 -0.228734 -0.50986 -0.518133 -0.559303 -0.404761 -0.738178 -0.234703 -0.916737 -0.508117 -0.458931 -0.471194 -0.833965 -0.722511 -0.7458 -0.685485 -0.233823 -0.083142 0.149844 0.279619 0.241006 0.135048 0.913787 0.129572 0.157159 -0.0671982 -0.105421 -0.859367 -0.763754 -0.47161 0.222119 -0.157956 -0.146992 -0.108631 0.33631 -0.48246 -0.579777 -0.139547 -1.18848 -0.614386 -0.614002 -1.16591 -0.830792 -0.220944 -0.453462 -0.319303 0.16128 0.604965 0.189824 0.371563 0.261281 0.112309 0.408158 -0.0664274 -0.2357 -0.133406 -0.243417 -0.230188 -0.269951 -0.083723 0.203021 -0.814926 -0.15191 0.0488991 0.0123954 -0.307748 -0.422869 -0.136699 -0.747096 -1.09532 -1.12166 0.122454 -0.162993 -0.353012 -0.02603 0.0679965 0.0396697 0.748863 0.643643 0.113989 0.421427 0.359163 0.183768 -0.421747 -0.252127 -0.616292 -0.153907 -0.457045 -0.948125 -0.860015 -0.912073 -0.768652 -1.0977 -0.355909 -0.369149 -0.711117 -0.628105 -0.881491 -0.334277 -0.0221396 0.438698 -0.255155 0.273535 0.273329 0.642148 0.700644 0.659471 0.190902 0.478508 -0.52022 -0.416989 -0.593879 -0.507932 -0.206963 -1.07015 -0.836118 -0.154194 -0.17779 -0.918129 -1.67625 -0.704495 -0.616285 -0.449492 -0.521299 -0.32312 -0.621398 -0.0296105 0.416521 0.337619 1.0219 0.485536 -0.18389 0.854825 0.174444 0.192286 0.0374411 0.817274 -0.0941746 -0.194565 0.205539 -0.552667 -0.169282 -0.111847 0.71784 -0.116638 -0.319576 -1.02168 -1.1964 -0.649664 -0.795961 -0.809554 -0.618119 -0.477721 -0.516483 0.135553 0.826866 1.14892 0.706844 -0.00352771 0.114083 0.862552 0.842067 0.12906 0.665989 0.482634 0.332263 0.514474 -0.304801 0.0762783 -0.090573 0.304039 0.298564 0.00948186 -0.52965 -0.907408 -0.924554 -0.768971 -0.779007 -0.57687 -0.174546 -0.0727663 -0.153043 0.32588 0.383015 1.05711 0.881602 0.537662 0.246815 0.741302 0.0616115 0.892273 0.925586 0.363807 0.345935 0.0919546 0.335378 0.0715032 0.0665227 0.14874 0.180108 0.053187 -0.3001 -0.760463 -0.277003 -0.913623 -0.604241 -0.525855 -0.231276 -0.239986 -0.17195 -0.111397 -0.193112 0.372564 0.793247 0.935329 0.0420428 0.0821293 0.185797 0.871598 0.861623 0.222492 -0.106712 -0.146393 -0.371347 0.0455932 0.173317 0.221649 0.45148 0.246561 -0.262477 -0.439127 0.0517622 -0.386983 -0.00992446 -0.39358 -0.528048 -0.266255 0.263699 -0.498788 -0.256557 -0.176317 0.783462 0.728061 0.383931 0.249614 0.309244 0.515938 0.379773 0.166416 0.404382 0.00613124 -0.0733072 -0.853499 0.145635 0.23238 0.885971 0.652678 -0.625906 -0.725092 -0.458241 -0.198445 -0.593689 -0.488177 -0.508409 -0.874201 -0.462908 -0.706267 0.0642586 -0.34423 0.579725 0.549283 0.616638 0.14482 0.0479669 0.416844 0.809687 0.0846575 -0.141149 -0.0188053 -0.291263 -0.334958 -0.200789 0.417119 0.0336938 -0.206285 0.800045 0.771489 0.0785352 0.134744 0.0432898 -0.539756 -0.254466 -0.6978 0.0378664 -0.461399 -0.399753 -0.157667 0.517568 -0.221949 0.305096 0.220248 0.452162 0.949623 0.96109 0.269484 -0.0396798 0.0717941 -0.0919826 -0.536674 -0.500207 -0.0533783 -0.132865 0.587064 0.603839 0.273109 0.403937 -0.231848 -0.67792 -0.633652 -1.21857 -0.623753 -0.412551 -0.253753 0.0406508 0.0505635 0.468357 0.687383 -0.063786 0.160055 0.62447 0.769034 0.521355 0.377859 0.175594 0.120914 -0.611928 0.317131 -0.310703 0.127186 0.382028 0.837016 0.250116 0.0260641 0.201098 -0.276014 0.154865 -0.687857 -0.152135 -0.537477 -0.208175 -0.214615 -0.700153 0.399405 0.663105 0.0848603 0.895127 0.403563 0.172643 0.824771 0.774845 0.744886 0.2927 0.0909551 -0.0488787 -0.207645 0.235527 0.515905 0.107992 0.128534 0.232892 -0.0475718 -0.0486167 -0.18911 0.210588 -0.036535 0.000658077 -0.588775 -0.436684 -0.28182 0.302951 0.748901 0.298582 0.045723 0.686406 0.785276 0.0556352 0.230232 0.0177491 0.22495 0.524 1.11121 0.599232 -0.161626 -0.430842 0.0656445 -0.366438 -0.689739 0.143057 -0.109849 0.00809861 0.083342 0.1612 -0.376316 -0.138361 -0.405651 -0.151636 -0.407748 0.375608 0.655626 0.934418 0.644745 0.547692 0.418289 0.937407 0.537767 0.348436 0.171786 0.169274 0.249813 0.15783 -0.292185 0.268906 -0.471262 -0.398992 -0.406093 0.10422 -0.230815 0.0587633 -0.0261579 -0.0999848 -0.438041 -0.355185 -0.517767 0.466798 0.414943 0.307973 0.49814 0.700577 0.508216 0.364804 0.141789 0.635456 0.788507 0.708489 0.327347 0.211426 0.358571 -0.349348 -0.805553 -0.406205 -0.315535 0.146139 -0.471948 -0.036462 -0.218994 -0.448866 -0.0580414 -0.435997 -0.148542 -0.243213 -0.26095 0.595383 0.321541 0.759946 0.227434 0.289555 0.564611 0.450556 0.606861 0.759087 0.968627 0.20148 0.838264 0.642821 -0.0672922 0.392626 0.518213 -0.0990484 0.0989941 -0.208003 -0.0183255 -0.149385 -0.536039 0.160357 0.492146 0.408024 0.229113 0.54541 -0.117245 0.208896 -0.243575 -0.0909343 0.690434 0.739756 0.125873 0.686091 0.427198 0.130497 0.12067 0.656026 0.613774 0.294731 0.268923 0.472405 0.785047 -0.00184504 0.495183 0.0985185 0.712765 0.463028 -0.0382969 0.0278063 -0.0639299 0.752754 -0.142396 0.692018 0.375063 0.755513 0.511876 0.117164 0.477445 0.110411 0.358531 0.581164 0.371715 0.0831019 0.824152 0.101962 0.886441 0.817408 0.256905 0.482843 0.919641 0.387924 0.495002 0.422128 0.317436 0.288516 0.926955 0.86013 0.181118 0.140108 0.774732 0.324476 0.170478 0.651434 0.854352 0.671023 0.171823 0.0755638 0.32606 0.154332 0.0664998 
0.230415 0.263375 0.412244 0.257118 0.244209 0.029603 0.997253 0.931059 0.695425 0.977844 0.0850856 0.356426 0.892478 0.336218 0.00743334 0.965436 0.75692 0.209601 0.410596 0.508713 0.475936 0.195196 0.457289 0.0632954 0.612903 0.727927 0.991455 0.175329 0.799402 0.602741 0.0582293 0.918729 0.685202 0.755454 0.680448 0.117023 0.286459 0.823652 0.391915 0.742509 0.407999 0.460264 0.133908 0.0398754 0.334019 0.121378 0.46055 0.649565 0.405453 0.144377 0.294669 0.713122 0.144108 0.47618 0.3361 0.527451 0.122013 0.886685 0.284982 0.501523 0.656738 0.167798 0.0256905 0.747765 0.469538 0.0163663 0.117376 0.15444 -0.044798 0.796807 0.161939 0.0895484 -0.152381 0.0641787 0.856652 0.824392 0.386085 1.01364 0.952468 0.038751 0.395972 0.503353 0.531358 0.161412 0.378918 0.18421 0.552723 0.124564 0.820001 0.790161 0.559964 0.481443 0.945361 0.298415 0.169189 0.289885 0.838547 0.0846139 0.67264 0.437186 -0.0893993 0.706395 0.800638 0.825714 0.568833 0.0621951 0.774496 0.460639 1.01261 0.528823 0.682633 0.753838 0.188482 0.196326 0.590209 0.602152 0.238493 0.596042 0.770251 0.43064 0.619785 0.735598 -0.119699 0.341793 0.167405 -0.593019 -0.162693 -0.849187 -0.0218745 -0.407759 0.300645 -0.0595702 -0.112483 0.165466 0.136826 0.555006 0.255545 0.876957 0.779956 0.406356 0.135655 0.0447096 0.903007 0.327501 0.623715 0.429925 0.666055 0.301005 0.279075 0.118298 0.15482 -0.204536 -0.143145 -0.390166 -0.105222 -0.0195228 0.0389674 -0.590656 -0.360109 0.0899269 0.00274284 -0.396193 -0.413376 0.45622 0.942578 0.31021 0.464456 0.233251 0.833735 0.461403 0.0993518 0.66339 0.654683 0.593475 0.679624 -0.134349 -0.0788991 -0.498719 0.244305 -0.317048 -0.177004 -0.236008 -0.460921 -0.265221 -0.502368 -0.25499 0.170902 -0.515915 -0.515097 -0.614143 -0.681968 0.58618 0.592875 0.896953 0.146153 0.771676 0.613179 0.101305 0.752876 0.470369 -0.0942249 -0.190272 -0.264309 -0.373733 -0.983994 -0.0178442 -0.878488 -0.232654 0.051799 -0.339332 -0.0835282 -0.225526 0.104069 0.0170428 -0.193247 -0.431884 -0.260416 -0.420148 -0.284533 -0.124321 0.653372 0.544533 0.98956 0.63141 0.429407 0.13449 0.469882 0.713243 0.402104 0.27032 -0.276542 -0.145696 -0.41891 -0.698248 -0.629562 -0.681552 -0.494909 -0.34076 -0.427744 -0.412863 -0.87163 -0.624584 0.0908657 -0.575642 -0.0932361 -0.13926 -0.0414533 -0.00433014 -0.29959 0.69715 0.756374 0.375735 0.0963578 0.11639 0.587432 0.491693 -0.0496264 -0.0156123 -0.294944 -0.339216 -0.200521 -0.00250382 -0.309159 -0.982394 -0.83773 -0.476047 0.00517321 0.0282113 0.00747399 -0.675039 -0.132235 -0.0669032 -0.473629 -0.303064 -0.633416 -0.706651 0.373381 0.246937 0.59458 0.220128 0.399274 0.754631 0.114591 0.194322 -0.739161 -0.44236 -0.626196 -0.146579 -0.6348 -0.610291 -0.666949 -0.540329 -0.383762 -0.0312785 -0.705001 -0.457146 -0.332246 0.281651 0.000441865 -0.647151 -0.622324 -0.749583 -0.645653 -0.342945 0.479747 0.252026 0.379273 0.913442 0.248207 -0.0124965 0.60588 -0.326072 -0.543047 -0.159123 -0.514531 -0.790546 -0.753297 -0.257007 0.205141 -0.0337371 -0.234204 -1.04118 -1.14916 -0.366217 -0.0480703 0.350885 -0.417912 -0.249451 -0.735924 -0.82834 -1.19908 -0.719243 -0.0385412 -0.2091 0.463472 0.626707 0.398419 0.0940679 0.761264 -0.269761 -0.557383 -0.893883 -0.0804075 -0.596101 -0.220013 -0.323124 0.590698 0.937419 0.49653 -0.663312 -0.739767 -0.261012 0.606691 -0.10728 -0.285666 0.109723 -0.760861 -0.624209 -0.779694 -0.231714 -0.159859 0.130081 0.0390991 0.0479149 0.871395 0.148259 0.754962 0.094493 -0.195851 -0.399921 -0.0453852 0.0589392 0.128423 0.0153817 1.17338 0.504452 0.0473908 -0.338605 -0.438471 -0.621091 -0.115059 0.462268 0.380854 -0.265699 -0.292164 -0.197487 -0.194349 -0.415662 -0.210385 0.428685 0.735968 0.596712 0.657399 0.692786 0.0448785 0.0652458 0.463256 0.586543 0.571009 0.436162 0.661976 0.311165 0.508793 0.216903 0.0424799 -0.369295 -0.789142 -0.356138 0.503098 -0.0249825 0.155281 0.368051 -0.00332665 0.196759 0.195592 -0.0139836 -0.0841528 -0.0402767 0.310734 0.0648193 0.795046 0.276425 0.174405 0.235797 1.07033 0.367209 -0.174148 0.0740396 0.0264279 0.358421 0.467874 0.46513 0.0155793 -0.493555 -0.859502 0.275353 0.0500023 0.171713 0.361511 0.592857 0.100032 -0.33639 0.377261 0.236655 0.299918 0.49672 -0.0857348 0.0448767 0.421335 0.651317 0.0323779 0.446075 0.196454 0.228672 -0.320591 -0.234646 -0.0584312 -0.20837 0.146859 -0.0928866 -0.418038 -0.784779 -0.53411 -0.0212782 -0.127134 0.207695 0.292534 0.130708 0.0562289 0.32397 0.0612846 -0.106881 -0.203999 0.447188 0.18635 0.738775 0.886715 0.759789 0.45037 0.956472 0.947928 0.339482 -0.27012 0.07634 -0.276705 -0.212642 -0.576416 -0.666891 -0.980866 -0.344073 -0.692164 0.33763 0.674774 0.450668 0.483065 -0.189853 -0.227212 0.241247 0.174947 -0.521516 0.0085469 0.58166 0.178955 0.866235 0.525292 0.764147 0.969187 0.84491 0.518827 0.313299 0.177936 -0.430739 -0.111792 -0.587612 -0.671563 -0.673484 -0.503385 -0.390317 0.329567 0.138329 0.638138 0.173314 -0.184929 -0.243579 -0.127506 0.223442 -0.187176 -0.273629 0.452133 0.746313 0.0471108 0.0869197 0.188635 0.854076 0.31666 0.457322 0.268576 0.685146 0.426151 -0.853764 -0.299208 -1.06634 -0.941828 -0.380298 -0.491939 -0.850409 0.269014 -0.424365 -0.549986 -0.450704 -0.562857 -0.0770293 -0.104864 -0.331184 -0.490428 0.152717 -0.286337 0.00884523 0.82411 0.430388 0.0999481 0.0400821 0.932752 0.446594 0.700457 0.213331 0.236762 -0.740371 -0.615748 -0.405898 -0.593534 -0.72837 -1.19334 -0.96731 -0.391057 -0.923408 -0.0967055 -0.256502 -0.660352 -0.787171 -0.118599 -0.0295524 0.100879 0.108545 0.560063 0.160435 0.896392 0.423327 0.179846 0.548637 0.598582 0.317574 0.276031 0.491525 0.0692055 -0.845621 -0.376688 -0.433467 -0.580844 -0.587766 -0.149001 -0.648735 -0.356592 -0.102995 -0.105623 0.0299897 0.0966623 0.0552635 0.278241 -0.237724 0.260151 -0.146795 0.0542802 0.220208 0.337033 0.604262 0.381542 0.224128 0.196717 0.214752 0.0138188 0.281716 -0.585069 -0.647823 -0.288979 -0.854161 -0.0206012 -0.39715 -0.0608326 -0.174523 -0.334176 0.177815 0.128554 -0.783387 -0.491561 0.0469987 -0.324863 -0.27952 0.281935 -0.0833581 0.595338 0.738209 0.0274408 0.35394 0.162664 0.460372 0.729987 0.190597 0.369898 -0.111986 0.181553 0.366165 -0.194212 -0.435781 -0.247883 -0.758413 -0.0715802 -0.366402 0.211701 -0.119411 -0.622921 0.0966133 -0.453667 0.0892347 -0.171499 0.377592 0.142278 0.704133 0.139337 0.69971 0.492256 0.431166 0.675985 0.0113529 0.816639 0.57477 0.234961 0.335849 0.477561 0.57144 0.0568003 0.562439 0.874164 -0.044601 0.260639 0.16171 -0.0794878 -0.177775 -0.0016238 0.25677 0.272265 0.0483962 0.739152 0.0574272 0.406356 0.910546 0.0746576 0.692575 0.320725 0.270241 0.77456 0.350444 0.437194 0.0017677 0.654938 0.699428 0.69899 1.24838 1.32507 0.685356 0.700922 0.620026 0.728096 -0.0591584 0.217085 0.374752 0.120819 0.178765 0.374832 0.0474254 0.96003 0.403359 0.572735 0.958402 0.82979 0.744872 0.704018 0.467971 0.425398 0.804743 0.436598 0.157231 0.891683 0.457647 0.290725 0.588591 0.257686 0.533005 0.514674 -0.116278 0.349769 0.475216 0.277629 0.264192 -0.112948 0.67905 0.113234 0.378112 0.905892 0.801639 0.906131 0.240648 0.127001 0.0201422 0.766655 0.436811 0.624744 0.183966 0.482559 0.122166 0.704093 0.635243 0.773073 0.174294 0.161858 0.0477388 0.61341 0.581579 0.869948 0.0210917 0.922259 0.17049 0.843242 0.224098 0.827319 0.170764 0.416299 0.838332 0.41225 0.955446 0.1966 0.495224 0.214118 0.693167 
0.40907 0.122074 0.941099 0.488357 0.698508 0.418073 0.992187 0.223212 0.714621 0.0534989 0.997467 0.583941 0.169851 0.0880329 0.719352 0.995612 0.157201 0.606983 0.212683 0.7528 0.894223 0.184301 0.672201 0.129582 0.507492 0.0840785 0.842158 0.748466 0.0559404 0.850673 0.425672 0.99057 0.42378 0.248111 0.394357 0.760224 0.236201 0.0771369 0.512685 0.158321 0.562764 0.0860735 0.314218 0.116676 0.237044 0.950398 0.248226 0.0305555 0.638467 0.141626 0.935512 0.627784 0.156133 0.88815 0.670156 0.0731834 0.0674459 0.622486 0.400037 0.070605 0.552516 0.609354 0.484124 0.598125 0.0946477 0.894997 0.786017 0.230523 0.319233 0.616104 0.462009 0.386703 0.633589 0.806776 0.328457 0.495962 0.0486969 0.621314 0.244259 0.191386 0.486903 0.795707 0.0656148 0.101566 0.0311899 0.504501 0.674697 0.761688 0.0767885 0.738926 0.60023 0.6956 0.724135 0.133833 0.179662 0.557908 0.347764 0.565215 0.469679 0.465669 0.27781 0.403243 0.690188 0.355112 0.249287 0.693816 0.442828 0.618205 0.838252 0.0583721 0.691113 0.746055 0.951506 0.758538 0.13953 0.874451 0.642991 0.90241 0.717385 0.509779 0.397461 0.255872 0.1301 0.500789 -0.20228 0.547283 -0.174077 0.445117 -0.141118 -0.102983 -0.182496 -0.0541463 -0.023461 0.00670958 0.222262 0.15447 0.670946 0.292048 0.664819 0.385427 0.145421 0.528611 0.576187 0.954771 0.852734 0.751317 0.356175 -0.0920777 -0.737663 -0.402359 -0.358946 -0.0300803 -0.108862 -0.344106 -0.216832 0.317687 -0.181984 0.110925 -0.0486572 -0.31972 -0.178011 -0.365186 -0.327795 -0.0953026 0.279303 0.346469 0.621269 0.822372 0.296823 0.0542193 0.902415 0.862948 0.427295 0.369249 0.819588 0.0537085 -0.0141083 0.10505 0.522602 -0.396801 -0.132728 -0.388709 0.0633313 -0.16047 -0.414028 -0.874178 -0.047849 -0.821889 -0.418195 -0.319931 0.579091 -0.0696039 0.0974259 0.534659 0.368189 0.119895 0.762223 0.140142 0.667836 0.686246 0.580642 1.25162 0.217375 -0.123964 -0.375418 -0.563792 -0.490358 -0.500593 -0.325485 -0.658273 -0.82254 -1.14888 -0.494127 -0.0436627 0.118288 -0.153025 -0.28906 -0.24035 0.121319 0.377219 0.544811 0.357614 0.39063 0.850253 0.72585 0.0246742 0.156368 0.811783 0.4688 0.46696 0.00669351 0.377727 -0.689469 -0.806466 -0.240373 -0.450891 -0.590847 -0.443324 -0.658546 -0.225194 -0.732523 -0.228761 0.432642 -0.24801 -0.251372 -0.222118 0.16942 -0.19127 0.358057 0.224134 0.344694 0.694367 0.275751 0.537445 0.979302 0.444815 0.372738 0.451447 -0.00194975 0.298091 -0.516491 -0.549113 -0.502297 -0.882967 -0.535055 -0.197364 -0.00574501 0.212229 0.181161 -0.292162 0.142344 -0.0569772 0.0403152 -0.309819 0.483757 -0.111804 0.21903 0.902747 0.484803 0.825222 0.0576495 0.614205 0.382346 0.131938 0.0553839 0.369976 -0.0285843 -0.428815 -0.305339 -0.885069 -0.88165 -0.622133 -0.843474 0.248898 -0.356081 0.474344 0.133185 0.426311 -0.132349 -0.0646943 -0.865875 -0.426807 -0.592755 0.291401 0.00526327 0.257447 0.209678 0.201949 0.497085 0.850492 0.434449 0.824359 0.261166 -0.273851 -1.00104 -1.09228 -0.886945 -0.757508 -0.752272 -1.21701 -1.05003 -0.79968 -0.0754264 -0.426459 -0.466014 -0.547048 0.0326359 -0.508742 -1.07621 -0.71439 -1.1421 -0.449961 0.50548 0.945541 0.940204 0.916773 0.285897 0.511222 0.857843 0.547268 -0.394611 -0.758541 -1.40229 -1.28365 -0.813542 -0.745418 -0.990724 0.0332237 0.155037 -0.570224 0.249002 -0.172781 -0.15704 -0.517795 -0.182643 -0.321325 -1.2238 -0.834036 -1.48197 -0.512849 -0.137558 0.428751 0.184569 0.997681 0.166082 0.536915 0.873225 0.165459 -0.0590903 -0.502717 -0.926041 -0.673917 -0.769552 -0.122112 -0.0678076 -0.347164 0.464544 -0.523152 -0.355812 -0.511332 -0.298588 -0.0408336 0.133445 -0.525989 -0.883197 -0.501106 -0.832522 -0.793538 0.141888 0.585082 0.885604 0.761967 0.624287 0.815761 0.208911 0.476212 -0.0479262 -0.968909 -1.0259 -0.735285 -0.112131 -0.0208633 -0.567373 -0.103826 0.0671037 -0.100669 -0.514398 -0.126519 -0.496093 -0.642152 -0.329781 -0.368781 -0.158397 -0.587615 -0.239218 0.0691033 0.368991 0.764738 0.429932 0.7622 0.588397 0.482453 0.203997 -0.0658043 0.0118087 -0.326301 -0.99885 -1.49085 -0.435615 -0.0487313 -0.379941 -0.126947 -0.140329 0.394408 0.618117 -0.211503 -0.544844 -0.872373 -0.548845 -0.00868593 -0.200407 -0.126203 0.215245 -0.0862734 0.654859 1.22394 0.437583 0.32232 0.720177 0.413408 0.107763 0.755602 0.924121 -0.207199 -0.902011 -1.00265 -0.667535 0.544422 -0.217039 -0.23128 -0.0459104 0.67155 0.21089 0.136885 -0.182761 -0.680961 -0.423815 0.126986 -0.423473 -0.148657 0.072978 0.289234 0.172656 1.23023 0.554957 0.376236 0.396771 0.666533 0.654357 0.913732 1.42427 0.305471 -0.236102 -0.717439 -1.08769 -0.988553 -0.467033 -1.06616 0.0872405 0.0350199 0.149533 -0.390949 -0.0278697 -0.234055 -0.434637 -0.992581 -0.335059 0.2816 0.42508 -0.0325298 0.258224 0.607582 0.4942 0.595257 0.974589 0.0652342 0.204119 1.19202 0.613163 0.529521 -0.297147 -1.05163 -0.744091 -0.919921 -0.715068 -1.16365 -0.837467 -0.514559 -0.0202821 -0.0481564 0.167017 -0.0652894 -0.516655 -0.0968825 0.279663 0.100095 0.368408 0.430941 0.156277 0.20678 0.453723 0.947481 0.437971 0.619563 0.403539 0.123122 0.901097 0.772944 0.241507 -0.137642 -0.794701 -0.595157 -0.360537 -0.581325 -0.688495 -0.111004 -0.417943 -0.00443522 -0.141039 -0.607513 -0.564908 -0.301306 0.0494465 0.618892 0.0587156 -0.190095 -0.0448126 0.511882 0.296337 0.746355 0.998291 0.0824196 0.388803 0.945822 0.382346 0.797714 0.710655 -0.207029 0.461571 0.48774 0.00163311 0.323808 -0.574586 -0.25169 -0.376082 -0.501011 0.0720136 -0.0369041 -0.00849506 -0.0694989 0.00788093 -0.159242 -0.162274 0.304035 0.275301 -0.155481 0.725086 0.320403 0.784539 0.29267 0.430724 0.163703 1.05085 0.674121 0.674097 0.475516 0.369769 -0.457107 -0.263654 -0.407466 -0.642267 -0.733676 -0.521974 -0.411341 -0.469086 0.0291881 -0.0226793 -0.169707 -0.112273 -0.498467 0.19442 0.0236199 0.241301 0.339053 0.664511 0.800455 0.172155 0.535356 0.817064 0.729319 0.820463 1.09878 1.06834 -0.0841026 -0.496444 0.343318 -0.25851 -0.332967 -0.617389 -0.349956 -0.15761 0.51816 -0.0376224 0.189902 -0.361658 -0.0323509 0.329798 -0.081641 -0.191231 0.119808 0.827727 0.692625 0.368322 0.32465 0.871364 0.667623 0.571391 0.391372 0.382558 0.33558 0.537574 0.693382 0.434586 -0.478401 0.323052 0.0755128 0.474648 0.282607 0.235883 0.238958 0.408943 0.546475 0.947567 0.525558 -0.0436149 -0.173663 0.533102 0.190698 0.953762 0.502726 0.502965 0.241127 0.360302 0.18601 0.926935 0.677681 0.698111 0.0386367 0.285432 0.190067 -0.138074 0.485252 0.488776 0.416334 0.672549 0.908385 0.941623 0.485914 0.106792 0.274834 -0.0672292 0.413177 -0.0262323 0.409253 0.580224 -0.0131859 0.759116 0.376168 0.0387268 0.0937529 0.7575 0.986663 0.939147 0.793733 0.9051 0.245519 0.284171 0.124231 0.645225 1.10654 0.192882 0.637226 0.544448 0.32168 0.0573685 -0.225655 0.134132 0.0250915 0.185006 -0.0695342 -0.0640512 -0.00148641 -0.0759453 0.618079 0.615344 0.496989 0.0485556 0.9447 0.727348 0.0228584 0.449446 0.998749 0.0391157 0.675411 0.00883452 0.267046 0.0815171 0.519569 0.409444 0.626326 -0.0717048 0.101427 0.264371 0.609858 0.570636 0.334289 0.267217 0.864455 0.621681 0.351447 0.801952 0.439821 0.647713 0.0734581 0.533494 0.9888 0.512864 0.582812 0.0102847 0.624042 0.169927 0.64391 0.566201 0.206016 0.149062 0.830207 0.535098 0.210999 0.351314 0.367099 0.136707 0.523727 0.348849 0.506736 0.545118 0.381026 0.375284 0.677979 0.658962 0.0952399 0.853511 0.744835 0.468642 0.927488 
0.688955 0.404279 0.518418 0.117679 0.828211 0.671285 0.219489 0.838221 0.205298 0.894833 0.572375 0.445357 0.171117 0.210189 0.96495 0.765238 0.794397 0.427076 0.846644 0.701102 0.10065 0.606342 0.696341 0.944517 0.127415 0.850703 0.202246 0.0711997 0.730033 0.346568 0.0477309 0.802942 0.927458 0.984455 0.186987 0.643182 0.85497 0.978224 0.203693 0.120045 0.178573 0.57836 0.189402 0.779657 -0.0276825 0.383533 0.0431809 0.169683 0.189837 0.133612 0.15795 0.177737 0.203192 0.804834 0.160405 0.639119 0.986114 0.837672 0.380261 0.63627 0.192411 0.128793 0.233104 0.130121 0.073246 0.580747 0.227935 0.649898 0.632177 0.366662 0.624974 0.19984 0.165229 0.759222 0.522611 0.789178 0.426054 0.572335 0.480257 0.545563 0.490018 0.952735 0.14716 0.224586 0.16071 0.815455 0.0574571 0.43021 0.387418 0.744593 0.195853 -0.0604701 0.614822 0.335829 0.51231 -0.173908 0.0369535 -0.040594 -0.110765 0.647168 0.372945 0.261656 0.612998 -0.0420485 0.772056 0.535376 0.597127 0.356234 0.789329 0.583065 0.0968652 0.896023 0.884426 0.381878 0.292449 0.481885 0.287719 0.0365829 0.474161 0.0285857 0.609341 0.21715 -0.42107 -0.0901071 -0.129423 -0.173512 -0.577954 -0.286484 -0.519034 -0.451553 -0.169312 0.478848 0.710182 0.588508 0.165269 0.563079 0.757261 0.390956 0.644223 0.899219 0.477828 0.888913 0.586925 0.116732 0.914203 0.276698 0.556618 -0.391571 -0.021438 -0.291648 -0.226516 -0.250547 -0.252636 -0.666258 -0.406672 -0.64875 -0.520485 -0.457446 -0.89976 0.158115 -0.735603 0.259729 0.363179 0.566883 0.709097 0.0609758 0.307703 0.438866 0.498123 0.674332 0.40429 0.0953967 0.428177 0.716725 0.650162 -0.295867 -0.0299413 -0.199287 0.39241 -0.414232 0.0548744 -0.427255 -0.466148 -0.673474 -0.211663 -0.793266 -0.145101 -0.437376 -0.421561 -0.459377 0.218222 -0.179708 -0.306162 0.158891 0.677174 0.481085 0.161989 0.16143 0.743115 0.179467 0.632074 0.63383 0.0830618 0.375536 -0.514977 -0.159498 -0.00485674 -0.130199 -0.434891 -0.0951204 -0.861668 -0.618401 -0.449063 -0.0971508 0.05299 -0.0428074 -0.263087 0.123433 0.571237 0.0293219 0.280067 0.0142692 0.518598 0.111865 0.234966 0.586127 0.820742 0.170398 0.615346 0.23107 0.496669 0.138236 0.158636 -0.252111 -0.294143 -0.0725873 -0.378124 -0.465755 -0.341199 -0.137401 -0.21831 -0.256709 0.729104 -0.0908453 -0.423481 -0.407478 0.499747 0.123213 -0.102753 0.140541 0.719618 0.299124 0.513074 0.939831 0.107627 0.763224 -0.0540463 -0.268863 0.448391 0.258334 -0.497617 -0.298305 0.122272 -0.129424 -0.313568 -0.109222 0.0292319 0.656901 -0.0469114 0.541919 -0.116527 0.255271 -0.425888 -0.337755 0.246785 -0.275447 0.0634939 0.228902 -0.14537 0.715632 0.393048 0.502725 0.671984 1.05766 -0.114341 0.647725 -0.466062 -0.331412 0.00170855 -0.389167 0.0421153 0.278491 -0.596124 -0.245841 -0.0459902 0.914906 0.510339 0.671502 0.34375 0.0148291 -0.30091 0.385503 0.549351 0.0137297 -0.109151 -0.46583 0.370415 0.252446 0.787317 0.713306 0.484551 1.10241 -0.0529874 -0.237935 -0.0380238 -0.291614 0.0211489 -0.191227 0.0114506 -0.326497 -0.352276 -0.739789 -0.0816225 0.646171 0.572479 0.251188 0.286558 0.217026 -0.278142 -0.264876 0.0882179 -0.422825 -0.653613 -0.542186 0.771742 0.312095 0.814661 0.219194 0.628242 0.542045 0.523641 0.237304 -0.302978 -0.260464 -0.0353795 0.212323 -0.618961 0.0830603 -0.444142 -1.02099 0.149505 0.756373 0.482801 -0.0209824 -0.0712349 -0.374951 -0.520223 0.0210547 0.337594 -0.152284 0.452357 0.645377 0.506202 0.0131317 0.458907 0.442029 0.232604 0.476663 0.904134 -0.271817 0.0154204 -0.227633 -0.366572 -0.143251 -0.167202 -0.144986 -0.472567 -1.3349 -0.833937 0.508681 0.269705 -0.348195 0.203012 -0.574232 -0.0593655 -0.0824339 -0.188287 -0.244813 0.408512 0.268164 0.940036 0.484918 0.755791 0.382088 0.775091 0.521352 0.0371949 0.329738 -0.12417 -0.372618 0.120525 0.117725 -0.213139 -0.627652 -0.545442 -0.784609 -0.273879 -0.394262 -0.0166127 -0.0192843 0.551543 0.813448 0.207855 0.213322 0.130448 0.15668 0.0670749 0.875558 0.782442 0.936176 0.606569 0.463246 1.01222 0.466087 0.309591 0.130484 -0.328798 -0.632101 -0.665104 -0.0269223 -0.279663 -0.438584 -0.649126 -0.474929 -0.16146 0.626411 -0.172279 0.791772 -0.124826 -0.225509 -0.197325 -0.1178 0.435707 -0.22012 -0.469355 0.64031 0.142832 0.83763 0.812908 0.88126 0.111982 0.123028 0.590286 -0.201084 -0.150683 -0.375071 0.2457 -0.204378 -0.529918 -0.815115 -0.842773 -0.0626382 0.539535 0.716751 0.386817 0.15893 -0.0880569 0.103165 0.225315 -0.163485 -0.238343 -0.369809 -0.257039 0.103404 0.319939 0.540941 0.425275 0.890942 0.599599 -0.111542 -0.00126435 -0.435968 -0.423299 -0.629073 -0.35014 -0.501628 -0.321194 -0.8278 0.125608 0.528506 1.00853 0.416556 0.100817 -0.452761 -0.636378 -0.926096 -0.278005 -0.453568 -0.113305 -0.404685 0.208564 0.342351 0.938213 0.385813 0.00513543 0.411711 0.392006 0.409758 0.295187 0.474545 -0.264816 -0.794864 -0.574344 -0.506029 -0.424112 -0.67624 0.194712 0.0454803 0.854389 0.0371849 -0.355967 -0.287332 -0.685646 -0.913011 0.131033 -0.583354 -0.527601 -0.653231 0.230717 0.759421 0.166417 0.671754 0.863186 0.662361 0.789746 -0.0609609 0.0263499 -0.607975 -0.025477 -0.903106 -1.18539 -0.3678 -0.441122 -0.893018 -0.300015 0.0986079 0.120323 -0.451335 -0.446848 -1.12236 -1.27746 -0.493031 -0.849934 -0.44974 -0.950077 -0.314431 -0.21133 0.713073 0.9003 0.519953 0.954558 0.89842 0.102059 0.702363 -0.206107 -0.606193 -0.674262 -0.47501 -0.6598 -0.843169 -0.917898 -0.232564 -0.77272 -0.394317 -0.729998 -0.647978 -0.662564 -0.484866 -0.906758 -0.798234 -0.619912 -1.10588 -0.749931 -0.548423 0.241247 0.510644 0.874844 0.139433 0.383129 0.274159 0.163894 0.349432 -0.0196363 0.452487 -0.789272 -0.488799 -0.41298 -0.949967 -1.14848 -0.808791 -0.699575 -0.705238 -1.18283 -0.420411 -0.668623 -0.306972 -0.373563 -0.803312 -0.86425 -0.567129 -0.642903 0.017134 0.836234 0.410395 0.787672 0.443591 0.249153 0.60506 0.58716 0.22538 0.268028 0.0373036 0.411616 -0.0901705 -0.149353 -0.331011 -0.284029 -0.54754 -0.64366 -0.947327 -0.348384 0.0311839 -0.290906 -0.131192 -0.479022 -0.252656 -0.529762 -0.0720842 -0.0395554 -0.0449842 0.678197 0.328849 0.996484 0.245285 0.849483 0.207617 0.326695 0.277416 0.247287 0.407053 0.0100873 -0.266516 -0.482801 -0.254971 -0.658846 -0.721007 -0.395281 -0.554938 -0.201524 -0.203857 0.0378779 0.187395 0.106178 -0.42553 0.0310549 0.152206 0.0521001 -0.0706951 0.193858 0.285853 0.594799 0.527268 0.852962 0.725394 -0.0201207 0.553854 0.0629779 0.293275 0.00351677 0.183872 -0.120356 -0.0452753 0.296658 0.313095 0.284628 0.350481 0.0557856 0.000929424 0.144321 -0.406017 -0.311738 -0.120619 0.177892 0.338196 0.259274 0.351923 0.397082 0.0243319 0.119496 0.643818 0.539842 0.787622 0.751798 0.655157 0.0861704 0.832104 0.819355 0.692156 0.304112 0.678353 0.492399 0.56198 0.313278 0.194668 0.336518 0.129164 0.461532 0.203526 0.604473 0.634521 0.118848 0.222777 0.259949 0.74674 0.704347 0.903306 0.881655 0.97998 0.699789 0.690878 0.228401 0.696623 0.699457 0.863337 0.422036 0.796243 0.184789 0.708913 0.244464 0.079188 0.161577 0.632349 0.53991 0.661276 0.746987 0.653083 0.504684 0.469338 0.571756 0.703091 0.843291 0.868066 0.401055 0.261391 0.934141 0.0266427 0.281625 0.824641 0.054445 0.940367 0.601032 0.0307321 0.907659 0.0840042 0.733405 0.966545 0.198153 0.085049 0.179241 0.558134 0.484366 0.630883 0.988375 0.690258 0.984552 0.286816 0.441659 0.307075 0.2304 0.568962 0.653584 0.659108 0.946379 0.340342 
0.388745 0.0598773 0.575549 0.00735496 0.577624 0.362743 0.739921 0.25013 0.776299 0.581652 0.851497 0.972015 0.355159 0.84771 0.24783 0.433226 0.223487 0.910947 0.870632 0.835108 0.182043 0.607044 0.873592 0.132572 0.630299 0.461135 0.0528275 0.356578 0.714072 0.819239 0.519272 0.227515 0.612598 0.622901 0.514199 0.347781 0.100641 0.314609 0.738905 0.676028 0.0718842 0.00715022 0.287126 0.999335 0.241259 0.225372 0.118902 0.751865 0.956252 0.380034 0.743461 0.474413 0.532304 0.891598 0.592212 0.525529 0.00820948 0.0475784 0.960692 0.146026 0.254855 0.103473 0.00398986 0.365969 0.751109 0.0969563 0.439444 -0.00100814 0.145953 0.234372 0.989058 0.17036 0.776193 0.150655 0.941898 0.841679 0.406181 0.226569 0.311134 0.889447 0.239999 0.68434 0.0920438 0.738548 0.674642 0.801843 0.428013 0.578246 0.328354 0.977628 0.43826 0.607698 0.389664 -0.075669 0.624278 0.304411 0.673905 0.879217 1.10508 0.86351 1.18709 0.572431 0.480964 0.790014 0.91029 -0.200755 0.008565 0.184331 0.296032 0.956293 0.332228 0.514756 0.0852382 0.678426 0.49471 0.23599 0.0348953 0.394398 0.913681 0.0805213 0.407005 -0.0591129 0.111851 0.347402 -0.0993162 -0.106231 0.640416 0.147324 -0.230232 0.147363 0.148387 0.00976238 0.075182 0.267303 0.0133419 0.135514 0.409567 0.704928 0.827127 0.911939 0.710898 0.797693 0.700787 0.271498 1.03077 0.694673 0.178677 0.568797 0.232366 0.186534 -0.429033 0.415186 0.0372757 0.0536936 0.118161 -0.525409 0.0768617 -0.293834 -0.432822 -0.111568 -0.129398 -0.802801 -0.673281 -0.64259 0.140208 0.573391 0.566329 0.651945 0.659658 0.563471 0.179777 1.02702 0.349332 0.212301 0.16166 -0.207802 -0.0818024 -0.194481 -0.0713196 0.260914 0.110347 0.167409 0.0691622 0.0552375 -0.263579 0.342816 -0.0652841 -0.350109 -0.596981 -0.610009 -0.230488 -0.751644 -0.312517 -0.116695 0.429804 0.384317 0.717349 0.920444 0.698764 0.751397 0.615609 -0.117455 -0.0392859 0.252519 -0.46326 -0.359918 0.0449966 -0.192977 0.411189 0.288298 0.0553593 0.0297779 0.386008 0.280908 0.243416 -0.474398 -0.146493 -0.379961 -0.472103 -0.385315 -0.830502 0.279618 -0.0397862 0.604871 0.4814 0.330272 0.638219 1.24505 0.561276 -0.2072 0.00899616 -0.172796 -0.20352 -0.0799039 -0.174521 0.0975275 0.279541 0.0466941 0.834115 0.012657 0.180479 -0.0570981 0.0829712 -0.139016 -0.0602494 -0.647589 -0.269808 -0.382981 -0.81964 0.390559 0.0915837 0.167412 0.696694 0.111323 0.778284 0.356703 0.513106 0.279645 -0.0209409 -0.055823 0.20256 -0.0695381 0.219966 -0.586058 -0.271931 -0.0857461 1.03411 0.497166 0.372986 0.0900887 0.243566 -0.235843 -0.297681 -0.591125 0.043206 -0.113071 -0.508529 0.302661 0.175524 0.895638 0.34431 0.54037 1.03201 1.00866 0.609841 0.371378 0.159642 -0.523545 -0.437283 -0.348225 -0.588769 -0.462489 -0.832203 0.293374 0.467713 0.0590716 0.219023 0.368421 0.194875 0.265957 -0.561091 0.308037 0.175099 0.390412 -0.082243 -0.226409 0.374525 0.144866 0.647176 0.362506 0.975906 0.495418 0.761453 -0.471389 -0.202452 -0.349209 -0.814724 -0.625307 -0.416551 -0.248405 -0.738227 -0.302428 0.391645 0.137639 -0.464117 0.649322 0.0699879 -0.15727 0.439645 0.0920831 0.0864025 0.4717 -0.290133 0.391345 0.857836 0.0531219 0.516312 0.526371 0.390085 0.567591 0.194705 -0.23307 -0.873404 -0.41896 -0.601001 -0.960213 -0.708693 -0.210958 -1.26066 -1.27962 -0.432675 -0.435809 0.299085 -0.0689987 0.111694 0.000674109 -0.126111 -0.267474 -0.0587526 0.130016 0.311014 0.269525 0.948343 0.0816818 0.573962 0.797817 0.825574 0.0946599 0.0294877 -0.425974 -0.797853 -0.891976 -0.481205 -0.617422 -0.172957 -0.410106 -0.594215 -0.853909 -0.246568 -0.376252 0.130381 -0.505352 -0.147472 -0.266695 -0.502465 -0.196785 0.201966 0.288237 0.528145 0.325405 1.09723 0.56501 0.332591 0.451568 0.81947 0.213732 0.451051 -0.631052 -0.70231 -0.376268 -0.665957 -0.435335 -0.00868685 -0.843842 -0.776983 -0.518088 -0.713482 -0.647188 -0.514787 -0.191451 0.113858 -0.0661607 0.152647 -0.189031 0.154426 -0.0120768 -0.0285923 1.05275 1.09334 0.187928 0.625866 0.32439 0.153375 0.66411 0.337722 0.333699 -0.349437 -0.825508 -0.411208 -0.510129 -0.171104 -0.490268 -0.85654 -0.758459 -0.754696 -0.322432 -0.347953 -0.165219 -0.0915036 -0.106305 -0.222022 0.0107319 -0.361115 0.221058 0.191735 0.954878 0.450308 0.0432376 0.885472 0.443218 0.486748 0.634868 0.524702 0.0689768 -0.342369 -0.771573 -0.439481 -0.463629 -0.177313 -0.715406 -0.527602 -0.340364 -0.775758 -0.841571 -0.373981 -0.0653044 -0.396516 -0.0303242 -0.449373 -0.448003 0.299564 0.00336445 0.331572 0.481165 1.14732 0.53603 0.356914 0.693868 0.639076 0.741462 0.486695 -0.0312402 -0.3026 -0.461736 -0.247619 0.300885 -0.422922 -0.120394 -0.521661 -0.574353 -0.692501 -0.33451 0.0635874 -0.421926 -0.459021 -0.647234 -0.393134 -0.503089 -0.00796621 -0.307541 0.975952 0.616071 0.798304 0.593444 0.855319 0.968077 0.48101 0.411982 0.718959 0.439407 -0.147024 -0.532929 -0.2794 -0.177599 -0.393007 -0.675215 -0.590437 -0.0710964 -0.0171224 -0.305519 -0.666481 -0.662544 -0.44072 -0.31983 -0.343448 0.104212 -0.355721 0.023047 0.127058 1.06302 1.00369 0.615855 0.113529 0.427754 0.876602 1.0922 1.04662 0.0203564 -0.000866692 -0.419266 -0.611223 -0.235608 -0.256992 -0.316339 -0.28526 -0.282688 -0.723507 -0.423822 -0.415098 -0.516668 -0.836678 -0.531535 -0.0118141 -0.773934 0.131716 0.587324 0.818806 0.701206 0.930251 0.314598 0.433973 -1.4789e-05 -0.0194601 0.600761 0.665353 0.249024 0.0597283 0.115686 -0.22855 -0.363713 -0.127367 -0.269506 -0.594562 -0.461103 -0.416593 -0.865611 -0.716518 -0.766353 -0.661871 -0.666907 -0.0243201 -0.427477 -0.311759 -0.315604 0.292901 -0.0590671 -0.142893 0.201062 0.545824 0.189041 0.920658 0.202705 0.897622 -0.0925105 -0.0664148 -0.402507 -0.315985 0.283772 -0.464376 -0.462615 -0.501742 -0.853212 -0.198296 -0.734086 -0.66373 -0.591102 -0.618193 -0.436927 -0.505957 -1.11986 -0.874483 0.281486 -0.262186 -0.152602 0.747989 0.597838 0.451796 0.821741 0.0595015 0.386051 0.975924 0.222095 0.103449 0.308666 -0.498582 0.0352277 -0.484612 -0.514287 -0.0923789 -0.474185 -0.399899 0.409471 0.35412 -0.341935 -0.668619 -0.987396 -0.708076 -0.0816642 -0.276365 0.313204 0.45403 0.857099 0.907617 0.244102 0.244423 0.0445265 0.210992 0.618501 0.511083 0.74749 0.568895 0.388318 -0.407854 -0.662544 0.13299 -0.681108 0.272928 -0.0151678 -0.156192 -0.380505 -0.522408 -0.374245 -0.679385 0.253013 -0.356164 0.0207561 0.153924 0.242315 0.663446 0.753174 0.683942 0.176794 0.523392 0.427076 0.0519803 0.200407 0.184677 0.338939 0.72815 0.0222189 0.682358 -0.303335 -0.230633 -0.00149544 -0.205412 0.00438212 0.446383 0.0549968 -0.111502 0.131954 0.0238011 -0.246114 -0.259634 -0.316626 0.532977 0.46489 0.0720577 0.952717 0.392128 0.637196 0.502335 0.0173345 0.876927 0.361208 -0.00178127 -0.152059 0.731501 0.815475 0.455496 1.11011 0.785327 1.06416 1.04317 0.927981 0.336275 0.639211 0.628529 0.884699 0.919137 0.459402 0.501276 0.184683 0.447501 0.660322 0.316343 0.0534902 0.775051 0.565538 0.398816 0.546831 0.84051 0.203284 0.484806 0.381512 -0.152913 -0.0137037 0.582373 0.598846 0.734885 0.994583 0.941225 1.25736 0.954344 0.889189 0.809804 1.00828 1.16676 1.31291 0.697411 0.164082 0.799234 0.856155 0.433913 0.336619 0.991607 0.63741 0.201453 0.504471 0.611316 0.73867 0.0260628 0.615833 0.614285 0.506742 0.399583 0.568861 0.307778 0.169857 0.249016 0.652432 0.518998 0.0682674 0.600426 0.814505 0.646223 0.506239 0.240738 0.598606 0.163252 0.120097 0.877987 0.800897 0.740226 0.309214 
0.407361 0.298685 0.764428 0.357707 0.877346 0.107028 0.491104 0.302347 0.928983 0.516129 0.909696 0.0954924 0.442498 0.160899 0.753418 0.0898379 0.204657 0.684317 0.688681 0.0991852 0.836604 0.498184 0.0498062 0.812494 0.691305 0.796045 0.0332041 0.84286 0.824458 0.225959 0.749657 0.192572 0.72573 0.328968 0.0381168 0.397315 0.935708 0.235328 0.507242 0.228403 0.27889 0.716375 0.486988 0.0544663 0.927736 0.0330113 0.744595 0.675777 0.298242 0.626647 0.370143 0.310182 0.251717 0.229713 0.502762 0.776879 0.0316477 0.46498 0.784509 0.831799 0.590303 0.381669 1.01564 0.0631006 0.950723 0.922572 0.581557 0.709671 0.794344 0.936621 0.726048 0.494008 0.803774 0.937628 0.609098 0.766919 0.890031 0.572874 0.475387 0.372158 0.100898 0.470381 0.56209 0.814356 0.591388 0.8146 0.514807 0.717074 0.55771 0.407723 0.465722 0.249158 0.0133203 0.953636 0.756593 0.288377 -0.163372 0.312042 0.202526 0.301006 0.225316 0.561958 0.2363 0.822716 0.207239 0.139292 0.227011 0.174483 0.95985 0.688367 0.268815 0.594989 0.607166 0.395062 0.786425 0.162648 0.421578 0.752162 0.736673 0.653875 0.272126 -0.137169 -0.00216419 0.134964 0.476574 -0.304784 -0.108184 -0.262353 0.260814 -0.280975 -0.15856 0.0339874 0.578678 0.884574 0.683273 0.118775 0.572197 0.848102 0.271118 0.319071 0.721458 0.0306101 0.372309 0.63204 0.0886701 0.772111 -0.251893 -0.310272 -0.567083 -0.222547 0.202493 0.108178 0.113284 0.508199 -0.0650153 0.175435 -0.328712 -0.315068 0.216972 0.23198 0.0986644 -0.268749 0.111197 0.123317 0.290782 1.02744 0.535338 0.702806 0.146062 0.532537 0.973787 -0.0989938 0.327903 0.480844 -0.703005 -0.00776227 -0.390476 -0.0616022 -0.403129 -0.209796 0.0423011 -0.529926 -0.172264 -0.305015 -0.523846 -0.389698 -0.645284 -0.604201 -0.216128 -0.678098 -0.559218 0.318215 1.13349 0.293674 0.553043 0.209845 0.819827 0.597857 0.484604 0.177181 0.190857 -0.43764 0.00852599 -0.45238 -0.216305 -0.504914 0.0259366 -0.520677 0.0645281 -0.428341 -0.230881 -0.0240263 -0.197526 -0.529711 0.141799 -0.172462 -0.650628 -0.0120998 -0.226302 0.227728 0.225616 0.413126 0.227591 0.0527083 0.284564 0.552025 0.467683 0.238899 -0.631973 0.0598798 0.175809 -0.263677 -0.572496 0.0665117 -0.343203 -0.278187 -0.713084 -0.129358 -0.463494 -0.713903 -0.828491 -0.947221 -0.31593 -0.2299 -0.532211 -0.50793 -0.169658 0.245594 0.605471 0.894283 0.5851 0.92604 0.389055 0.657649 0.370233 -0.0158291 -0.566037 -0.178976 -0.0403025 -0.217665 -0.455004 0.0472973 0.400639 0.0405657 -0.517306 -0.313339 -0.304434 0.0423708 -0.33524 -0.557423 -0.337498 -0.599402 -0.363395 -0.485205 -0.114542 0.0697638 0.648943 0.903933 0.590823 0.875337 0.36787 0.192915 -0.0460307 -0.225168 0.207594 -0.531154 -0.112788 0.028642 0.434242 -0.221417 0.338331 0.339652 -0.0873116 -0.550759 0.0354379 -0.527528 -0.595385 -0.51932 -0.617034 -0.137502 -1.0919 -0.644611 0.0158463 -0.211585 0.252535 0.739554 0.747533 0.547395 0.466201 0.927194 0.610313 0.367385 0.144649 0.433846 0.0750313 -0.0148932 0.0798501 -0.477913 0.299171 -0.323517 -0.410418 -0.362486 -0.421536 0.374302 0.387232 -0.280159 -0.505268 -0.952854 -1.22629 -0.825744 -0.222257 0.185986 0.0734719 0.377282 0.304314 0.696332 0.627613 0.584144 0.430528 0.213656 0.0939464 0.314828 -0.175935 -0.724616 -0.686151 -0.0629985 -0.608925 0.167823 -0.448789 -0.427313 0.251604 0.185905 0.108802 -0.505972 -0.708403 -0.319404 -0.589014 -0.349514 -0.790859 -0.62136 -0.207144 0.647943 0.780165 0.668463 0.384198 0.353634 0.816134 0.338518 0.470609 -0.194956 -1.03077 -0.616133 -0.271475 -0.149928 -0.142981 0.404827 0.711262 -0.26404 0.457983 0.539315 0.362682 -0.263893 -0.0508563 -0.000391969 0.0349438 -0.407838 -0.0456024 -0.764805 -0.0600098 0.442508 0.95388 0.781386 0.52794 0.349933 0.302236 0.688042 0.508086 -0.046313 -0.592327 -0.470212 -0.292434 -0.315429 0.401454 0.290733 0.358094 0.475975 0.160755 0.378304 0.0613411 -0.176043 -0.422853 -0.14412 -0.455943 -0.19969 -0.671232 -0.656443 -0.301205 0.317072 0.996066 0.676777 0.658801 0.371524 0.294731 0.120007 -0.184961 -0.318563 -0.565932 -0.780378 -0.472876 0.0597671 0.112589 -0.33396 -0.301349 -0.269104 0.53571 0.695188 0.765936 -0.425537 -0.466522 0.00274619 -1.13174 -0.724185 -0.543561 -0.424335 -0.234461 0.284184 0.752593 0.414927 0.203758 0.158965 0.978592 0.412994 0.604893 -0.506534 -0.423949 -0.787207 -0.369356 -0.745471 -0.43866 0.0206676 0.0788779 0.335155 0.307118 0.641556 0.346362 -0.243334 -0.546385 -0.7862 -0.799043 -1.17505 -0.322511 -0.845892 0.00276046 0.852765 0.0749944 0.766304 0.000183111 0.0419452 0.349713 0.893461 0.520256 -0.49699 -0.17029 -0.67763 -0.353171 0.112376 0.105456 -0.193948 0.338165 0.520849 0.495358 0.199623 0.103059 -0.281544 -0.559999 -1.03564 -0.907504 -0.32742 -0.706133 -0.294005 0.1718 0.862181 0.170459 0.638992 0.0351553 0.0946572 0.549523 0.777966 0.102811 0.188347 0.322294 -0.662062 0.115303 -0.259948 -0.568384 -0.170219 0.393576 0.742245 0.644972 0.0448458 -0.268582 -0.249493 -0.813575 -0.344553 0.196599 -0.424615 -0.400204 -0.210991 0.713298 0.830337 0.302101 0.503864 0.449721 0.508247 0.655096 0.324082 0.197109 -0.0923759 -0.308293 -0.17252 -0.718624 -0.175788 -0.342707 -0.0775993 -0.0997135 0.0344632 0.0161473 -0.803668 -0.439087 -0.441881 -0.813755 -0.376536 -0.166314 -0.384636 0.049004 0.464635 0.793036 0.324237 0.642603 0.806937 0.356944 0.515137 0.856154 0.823961 0.625565 0.374391 0.308096 -0.162534 -0.327884 -0.199222 -0.771958 -0.572696 -0.421133 -0.484982 -0.615535 -0.583506 -0.334914 -0.295178 -0.233267 0.0575951 -0.13351 0.27115 0.673837 0.452332 0.339124 0.46801 0.603571 0.225958 0.641682 0.335921 0.381274 0.63577 0.374344 0.201897 0.0374334 -0.30598 -0.0971304 -0.11976 -0.755048 -0.238937 -0.778543 -0.439124 -0.803628 -0.447867 0.00351291 -0.202591 0.0391787 -0.52318 0.0931353 -0.169403 -0.044701 0.707358 0.630361 0.0813886 0.0057291 0.445926 0.26194 0.646077 0.87388 0.960069 0.269761 -0.0803279 0.296438 -0.810382 -0.154318 -0.485496 -0.253176 -0.252745 -0.126525 -0.744209 -0.203895 -0.0393757 -0.117391 -0.156382 0.0512812 -0.107708 0.382613 0.418967 0.313752 0.689236 0.58039 0.589922 0.335628 0.786319 0.189886 0.183538 0.772728 0.168932 0.0962536 0.0646318 -0.341709 -0.20447 -0.360022 -0.280475 -0.502612 -0.550832 -0.310981 0.391344 -0.0135889 -0.188592 0.289356 -0.265202 0.116056 0.280596 0.543142 0.31057 0.728778 0.537548 0.971105 0.774277 0.036694 0.13361 0.571306 0.598468 0.376356 0.240499 0.402432 -0.249624 0.0744396 -0.0456412 0.05206 0.168596 0.373683 0.109966 0.229734 -0.171076 -0.142286 -0.0880773 0.162593 0.462847 1.00396 1.30965 0.800893 0.456732 0.97632 0.567825 0.855873 0.959256 0.566955 0.0661641 0.199591 0.418256 0.860134 0.87232 0.344518 0.851326 0.572131 0.435856 0.211604 0.905292 0.309491 0.814748 0.686019 0.501939 0.831716 0.776875 0.849397 0.734851 1.08242 0.426945 0.813603 0.892727 0.791905 0.929998 0.56157 0.679258 0.273844 0.687277 0.898099 0.27604 0.511002 1.00003 0.576918 0.605615 0.114086 0.682726 0.500222 0.37654 1.03502 0.724638 0.616114 0.827324 0.469389 0.639511 0.91569 0.300238 0.632626 0.617108 0.360762 0.340345 0.748534 0.405502 0.749633 0.186682 0.324747 0.120823 0.90405 0.133305 0.929044 0.930662 0.741417 0.416547 0.907442 0.890009 0.166135 0.553775 0.389679 0.810068 0.319682 0.467797 0.782475 0.668817 0.845412 0.838962 0.920722 0.0539137 0.103285 0.164224 0.619881 0.39809 0.106693 0.83639 0.632588 0.143223 
0.154547 1.96465 1.51258 0.332732 1.61324 -0.20835 -0.232055 -1.4486 -0.0787309 -4.34129 
-0.491753 -1.9141 -0.905712 3.16713 0.550927 -2.99149 1.9247 0.8161 -0.170146 1.09639 
0.135597 1.3886 -2.67512 -2.48512 1.50322 -0.489869 2.50582 -1.18434 0.883657 1.25413 
0.141806 -1.17108 -0.270089 -0.0401771 -1.79346 1.31128 2.65279 -1.30715 1.57778 -0.489036 
-0.148845 1.17717 -1.05393 0.920355 0.396692 2.02996 -0.892802 2.05017 -2.95336 0.181977 
0.389353 -1.34408 3.52576 -0.483259 -0.429376 0.561725 0.404073 -1.93401 -1.19644 0.569444 
-0.160751 -1.09093 -1.90969 1.36921 3.71954 1.10331 -0.600784 -0.913386 -1.48974 0.184876 
-0.153023 -0.641749 0.208324 -0.210528 -0.919416 0.0141738 -1.06833 3.3078 2.17493 -1.10261 
-0.161946 1.20777 0.256243 1.15383 -0.670784 -1.70728 -0.307802 -0.44214 -0.748359 0.91976 
-0.678605 0.920128 -0.42383 0.928131 -1.30227 1.03084 -2.23578 1.37941 1.05661 1.06649 
-2.441 -2.74088 -2.04375 -1.97921 -2.89681 -2.0769 -2.42951 -2.40482 -1.92221 -2.55494 0.479995 0.772912 0.0980865 0.588427 0.986877 0.882168 0.328196 0.882748 0.17542 0.0256355 0.998749 0.882687 0.197821 0.722098 0.128269 0.308298 0.0659505 0.918729 0.426252 0.877621 0.587603 0.807978 0.968413 0.904874 0.695181 0.466048 0.405286 0.300058 0.57329 0.0954314 0.360576 0.999634 0.49144 0.15186 0.174535 0.359966 0.747948 0.137425 0.649983 0.545457 0.631428 0.340922 0.956114 0.441572 0.806299 0.306803 0.346873 0.124729 0.0281075 0.313669 0.850215 0.420057 0.595508 0.644063 0.583789 0.578234 0.444319 0.926267 0.85464 0.602832 0.291025 0.329875 0.697439 0.259102 0.730827 0.895871 0.00927763 0.295938 0.697317 0.782922 0.93582 0.91171 0.189673 0.710807 0.665761 0.995575 0.673666 0.382427 0.290109 0.175481 0.0625629 0.165593 0.88171 0.20423 0.684896 0.815821 0.451949 0.714072 0.143986 0.521256 0.940641 0.872463 0.477248 0.0513932 0.895291 0.968932 0.519639 0.290323 0.996185 0.46498 0.879177 0.936094 0.083346 0.538377 0.429548 0.647206 0.841823 0.652272 0.72692 0.41792 0.800958 0.181585 0.256447 0.463027 0.805231 0.62685 0.915555 0.39378 0.611194 0.447371 0.63918 0.966124 0.76809 0.0447401 0.574602 0.182134 0.437727 0.928098 0.710715 0.0269173 0.310251 0.591968 0.368908 0.620594 0.271645 0.138615 0.461592 0.0683309 0.979614 0.175665 0.924345 0.788537 0.00369274 0.0202033 0.228187 0.600726 0.686422 0.740928 0.378552 0.354808 0.381085 0.0693991 0.30607 0.382153 0.222907 0.711783 0.0569475 0.550493 0.0896329 0.0919828 0.68804 0.203497 0.907804 0.0579241 0.273232 0.766411 0.960875 0.581805 0.927671 0.298685 0.355815 0.9859 0.255379 0.77575 0.303873 0.724784 0.127445 0.379742 0.372204 0.255623 0.196203 0.581927 0.362468 0.0276498 0.0521256 0.297006 0.972442 0.121799 0.429426 0.891079 0.897244 0.572161 0.366924 0.324259 0.526383 0.900266 0.730155 0.209662 0.892453 0.893612 0.000885037 0.0689718 0.0282296 0.159368 0.740867 0.567339 0.388195 0.485 0.635121 0.00732444 0.490799 0.536485 0.522111 0.864467 0.437422 0.925962 0.31608 0.64449 0.465041 0.179388 0.22837 0.844691 0.187841 0.636433 0.193884 0.2996 0.684805 0.812586 0.90875 0.692831 0.0890835 0.255837 0.385571 0.51616 0.836024 0.428755 0.432722 0.257302 0.224738 0.64684 0.963378 0.0970489 0.451552 0.605213 0.541063 0.897946 0.76928 0.524216 0.0679037 0.764672 0.93057 0.445296 0.021485 0.958525 0.570147 0.708884 0.146733 0.44612 0.683065 0.144688 0.00952177 0.864559 0.854823 0.00668355 0.317362 0.183447 0.399487 0.182958 0.414258 0.845851 0.0627461 0.712485 0.855586 0.66863 0.445173 0.139775 0.4691 0.284158 0.802606 0.738762 0.808863 0.403912 0.379925 0.13657 0.407575 0.685904 0.934019 0.369823 0.734519 0.48677 0.602527 0.902768 0.264168 0.279794 0.774743 0.640553 0.563066 0.0202643 0.120273 0.467147 0.799982 0.239479 0.432752 0.340342 0.586444 0.148137 0.443587 0.474441 0.553575 0.531205 0.263253 0.642079 0.571337 0.714774 0.605396 0.12656 0.0168157 0.386486 0.450575 0.355815 0.997467 0.550676 0.305704 0.749107 0.935606 0.399731 0.715354 0.808039 0.420759 0.382427 0.18128 0.982788 0.735588 0.250954 0.146489 0.345195 0.961852 0.367809 0.199988 0.599628 0.0730003 0.0533769 0.158269 0.462905 0.919126 0.256142 0.180395 0.944731 0.510575 0.326121 0.572253 0.559709 0.507126 0.173254 0.436415 0.00231941 0.318003 0.591784 0.824366 0.315989 0.71984 0.0317698 0.546556 0.0874355 0.398083 0.599261 0.297006 0.697928 0.318949 0.56621 0.248756 0.162084 0.33726 0.171239 0.776025 0.586322 0.947142 0.993072 0.459761 0.77691 0.581439 0.676931 0.0326548 0.030549 0.366283 0.296152 0.419691 0.637318 0.736869 0.129643 0.530747 0.127598 0.820887 0.136601 0.961516 0.795129 0.995819 0.909665 0.258583 0.525742 0.5262 0.388073 0.905637 0.464858 0.687368 0.111576 0.686087 0.553514 0.281625 0.296884 0.579424 0.465133 0.953337 0.517258 0.846736 0.973724 0.208991 0.267251 0.461837 0.285104 0.548814 0.193243 0.544664 0.362285 0.615711 0.27134 0.952696 0.775964 0.768151 0.713614 0.686697 0.112094 0.983215 0.884457 0.267434 0.467055 0.495651 0.00747703 0.73925 0.0620136 0.0800806 0.945219 0.456618 0.507675 0.381359 0.831782 0.310556 0.750725 0.200507 0.840724 0.550401 0.233131 0.14182 0.86877 0.857631 0.295572 0.527451 0.4167 0.828028 0.356365 0.985961 0.448897 0.518113 0.896695 0.620869 0.512619 0.212439 0.784265 0.165685 0.898251 0.067629 0.965636 0.0311899 0.12186 0.78988 0.0590838 0.651906 0.511307 0.00158696 0.879421 0.0373852 0.176946 0.454176 0.42494 0.935087 0.148625 0.742271 0.359447 0.510422 0.959655 0.676565 0.518998 0.95117 0.459456 0.970885 0.475478 0.901425 0.136052 0.400006 0.688162 0.132267 0.729392 0.0845363 0.27427 0.35493 0.416913 0.0588397 0.930204 0.582598 0.352977 0.778436 0.0338145 0.947417 0.842616 0.723228 0.460402 0.379009 0.931547 0.752617 0.142003 0.0502335 0.693411 0.368725 0.902799 0.99704 0.995636 0.544267 0.600635 0.818171 0.0246284 0.270852 0.106693 0.861476 0.352763 0.484603 0.154302 0.802545 0.826746 0.524583 0.588 0.0222785 0.0601825 0.780999 0.0443129 0.689596 0.810602 0.688833 0.595599 0.955321 0.0223701 0.723838 0.387616 0.163732 0.817469 0.556108 0.802942 0.488083 0.213782 0.0187384 0.180609 0.895871 0.854305 0.0468764 0.624165 0.850642 0.526414 0.243599 0.92819 0.656484 0.753929 0.229286 0.155766 0.851161 0.242531 0.430372 0.897488 0.554247 0.460005 0.463576 0.742943 0.176916 0.132389 0.772362 0.996948 0.39903 0.937468 0.67156 0.170782 0.820093 0.176733 0.45616 0.280129 0.190313 0.707358 0.731285 0.481002 0.628254 0.91464 0.618641 0.0746483 0.730461 0.00726341 0.996521 0.413129 0.980529 0.415876 0.429029 0.736106 0.362865 0.576342 0.941221 0.470962 0.588061 0.878994 0.295938 0.0268258 0.835475 0.0654012 0.929197 0.614032 0.419996 0.853511 0.199438 0.120121 0.288797 0.0722983 0.108432 0.573962 0.754234 0.0879543 0.148015 0.228767 0.369457 0.801904 0.430891 0.795801 0.353038 0.00234993 0.760552 0.859249 0.468276 0.351146 0.796838 0.00454726 0.764122 0.785821 0.97354 0.690481 0.0835902 0.619526 0.324351 0.396619 0.746117 0.119297 0.872951 0.0777612 0.309641 0.843989 0.744072 0.455977 0.819575 0.52327 0.651326 0.181768 0.44969 0.759117 0.918516 0.395825 0.942625 0.330332 0.689871 0.722282 0.754479 0.382397 0.486679 0.22483 0.311808 0.282815 0.765313 0.357219 0.285318 0.424268 0.633686 0.438673 0.287881 0.755608 0.382122 0.686544 0.902524 0.323344 0.985076 0.336314 0.446577 0.603565 0.229408 0.881161 0.378643 0.906552 0.626514 0.961547 0.754326 0.634419 0.763115 0.936735 0.636769 0.674184 0.24836 0.669149 0.869076 0.706229 0.912748 0.55269 0.113681 0.710349 0.415021 0.31666 0.566118 0.450179 0.913785 0.636158 0.24836 0.217689 0.959624 0.0804773 0.288858 0.618183 0.264382 0.430677 0.0950346 0.677999 0.503464 0.897427 0.824549 0.0554827 0.807672 0.270425 0.0616474 0.636982 0.10062 0.531053 0.105075 0.29841 0.938536 0.9588 0.773095 0.114689 0.00747703 0.263192 0.132756 0.797021 0.935881 0.772485 0.0592669 0.640553 0.577136 0.21015 0.0312204 0.762658 0.419507 0.0903958 0.0688192 0.913572 0.279061 0.264321 0.220954 0.640675 0.932157 0.647481 0.506973 0.087344 0.843593 0.660482 0.720298 0.208106 
0.0183854 0.0692194 0.149201 0.0173617 0.110469 0.191531 0.0555362 0.155597 -0.0610313 0.109905 
