0.548906 0.449202 0.749535 0.605945 0.980773 0.875271 0.081698 0.452193 0.892392 0.853786 0.812647 0.840144 0.247514 0.465209 0.321116 0.303964 0.927702 0.0736717 0.882412 0.321085 0.095645 0.944914 0.0438246 0.810511 0.809809 0.944731 0.549303 0.984405 0.602069 0.471877 0.718772 0.834529 0.142131 0.0825889 0.696214 0.0516144 0.663719 0.863717 0.420612 0.557536 0.293335 0.0896005 0.89348 0.709359 0.834767 0.124066 0.329279 0.932622 0.556901 0.308595 1.01561 0.426487 0.161779 0.521989 0.31431 0.00949126 0.134617 0.345592 0.798853 0.144747 0.596171 0.453149 0.708949 0.565636 0.348328 0.134918 0.848201 0.636265 0.871663 0.70594 0.167291 0.618322 0.625357 0.593984 0.312234 0.705141 0.821497 0.495425 0.596655 0.194901 0.0460064 0.738893 0.99237 0.208869 0.185492 0.196997 0.37899 0.562478 0.186588 0.145088 0.798276 0.513423 0.840016 0.345794 0.323899 0.722747 0.210971 0.176261 0.800916 0.638679 0.654811 0.751621 0.727021 0.424092 0.0973043 0.668944 0.408161 0.530596 0.49539 0.365629 0.324485 0.762505 0.526841 0.273751 0.524504 0.96359 0.514705 -0.0396284 0.0255389 0.640538 0.540596 0.552928 0.294072 0.024137 0.0606186 0.065589 0.268567 0.531112 0.120426 0.212684 0.0611769 0.110686 0.772239 0.234124 0.0135748 0.689523 0.892915 0.141859 0.954911 0.770099 0.272622 0.49324 0.202103 0.736742 0.747513 0.176829 -0.0450128 0.343873 0.372462 -0.0434316 -0.272878 0.307656 -0.293833 0.103057 -0.0483664 -0.550738 -0.38616 -0.280096 -0.0369066 0.00104246 0.0518088 -0.37692 0.428517 0.743763 0.230966 0.472073 0.180483 0.380887 0.36436 0.360342 0.412388 0.93769 0.650961 0.564952 0.212769 0.39235 0.406963 -0.137579 0.371507 -0.566589 -0.386585 -0.442741 -0.713384 -0.415789 -1.01565 -0.207148 -0.66471 -0.161904 -0.558039 -0.319601 0.22316 0.216054 0.70884 0.176739 0.518425 0.435563 0.527676 0.471806 0.531622 0.332746 0.333208 -0.212579 0.345111 0.217068 -0.0863775 -0.0101001 0.000617963 -0.248865 -0.075495 -0.40685 -1.06038 -0.705499 -0.315724 -0.456297 0.092952 -0.451261 -0.223524 0.653256 0.275176 0.638507 0.796255 0.58501 0.478039 0.583533 0.796457 0.364749 0.794266 0.806541 0.123189 0.433826 0.804384 0.447883 0.0576891 -0.0302794 -0.0922381 0.146773 -0.104332 -0.397394 -0.177738 -0.590863 -0.56003 0.0429474 0.192621 -0.242594 -0.137551 -0.322413 0.283163 0.349351 0.89946 0.178563 0.277377 0.333321 0.174532 0.739133 0.092733 0.789577 0.780005 -0.0144125 0.121738 0.177682 0.0816424 -0.399997 0.352418 -0.113726 0.201399 -0.351439 0.0152302 -0.273758 -0.0459093 -0.350674 0.128045 0.206122 -0.308856 -0.0320473 0.25527 0.972924 0.39005 -0.130874 0.0519271 -0.0961639 0.601856 0.161973 1.11014 0.232499 0.471234 0.944919 -0.582624 0.136366 0.179432 0.344035 0.194521 -0.0121566 -0.240536 0.0397292 0.792552 0.292286 0.12967 0.137769 0.249272 -0.200654 -0.374162 -0.262922 0.230168 1.09415 0.867071 0.54405 0.528491 0.343365 0.696036 0.127144 1.11219 1.2188 0.192461 -0.0270374 -0.370602 0.434958 0.0296017 0.150784 -0.130843 -0.630436 -0.40842 0.217865 0.818461 0.100324 -0.194293 -0.438793 0.300661 -0.250298 -0.287811 0.167325 0.384908 0.167766 0.333189 0.408701 0.714991 0.761043 0.486038 0.108875 0.962735 0.471846 0.928588 0.135381 -0.130145 -0.631117 0.202461 -0.672003 -0.227538 -0.104299 -0.687883 -1.02498 -0.41976 0.245473 -0.0462047 -0.139433 -0.570705 -0.21718 -0.960751 -0.689857 -0.332607 0.681265 0.185325 0.917656 0.682755 0.282776 0.658162 0.408823 0.439394 0.390611 0.213421 -0.194678 -0.0253786 -0.00853745 -0.372199 -0.571819 0.189302 -0.624838 -0.330814 -0.549134 -0.907567 -0.309485 -0.875305 0.072155 -0.237378 -0.534636 -0.166611 -0.179178 0.229903 0.834219 0.138844 0.061181 0.589288 0.742608 0.432356 0.744265 0.748264 0.19864 -0.262927 -0.324349 0.022263 -0.541875 -0.611653 -0.218712 -0.0166257 -0.206665 -0.963582 -0.521791 -0.729243 -0.891456 -1.08414 -0.0805786 -0.226817 0.366832 -0.436083 -0.0652286 -0.0655744 0.526729 0.948386 0.642055 0.752569 0.380446 0.659261 0.407198 1.01537 0.226664 0.1825 -0.397034 -0.681649 -0.631076 -0.628752 -0.516386 -0.332188 -0.703468 -0.560086 -0.194362 0.129531 -0.116541 -1.09829 -0.0521923 0.313412 0.00539865 0.11393 0.0710257 0.0755332 0.0980758 0.868923 0.780828 0.913358 0.664033 0.231605 0.414835 0.851906 0.791698 -0.142903 -0.376282 -0.103188 -0.568879 0.0583342 -0.546783 0.000261436 -0.603377 -0.521898 0.391451 -0.110228 0.200652 0.109977 -0.204156 -0.319953 -0.307529 0.00093741 -0.430972 0.338875 0.227525 0.763961 0.879676 0.704269 0.79232 0.404126 0.82329 0.949925 0.248234 0.0342726 0.298647 0.184928 -0.542824 -1.00986 0.35432 -0.0677383 -0.174093 -0.151234 0.532108 0.167551 0.349398 -0.0723453 -0.664119 -0.347063 -0.864619 -0.0123861 -0.26996 -0.182468 0.0971745 0.372224 0.44833 0.767694 0.927764 0.118103 0.238823 0.708867 0.233714 0.883817 0.476163 -0.422213 -0.652196 -0.390072 -0.422231 0.0864237 0.00790891 0.264982 0.54366 -0.462582 -0.524915 -0.681231 -0.392371 -0.585096 -0.439564 -0.0723195 -0.125218 0.05822 0.228581 0.252767 0.708075 0.418674 0.425011 0.9035 0.42986 0.242936 0.597152 0.301304 0.094709 0.336354 -0.322021 -0.0962527 0.258672 -0.121402 0.149425 -0.0608496 0.138734 0.202759 0.0443864 -0.67023 -0.933543 -0.948472 -0.537885 -0.518054 -0.394071 0.0432464 0.216181 0.765214 0.809302 0.181765 0.374716 0.516251 0.800209 0.587267 0.46065 0.274186 0.393905 0.0493116 -0.283684 0.0239552 0.272439 0.247665 0.232849 0.0753466 0.232732 -0.476356 -0.13855 -0.798504 -0.169887 -0.6751 0.0681356 -0.030887 -0.312443 -0.0223331 0.382445 0.13451 0.42898 0.494165 0.500177 0.797967 0.241376 0.559261 -0.108881 0.259966 0.588066 0.575137 -0.268562 -0.338349 -0.436354 -0.605462 0.413484 0.481866 -0.293797 -0.282169 -0.274794 -0.0723172 0.0740054 0.045654 -0.727434 -0.386832 -0.0917033 0.309931 0.0821244 0.782739 0.780031 0.127308 0.736719 0.957854 0.572741 0.877835 0.839931 0.71152 0.507367 0.575605 0.123822 -0.0868695 -0.0186606 -0.555075 -0.631483 -0.349074 0.0201551 0.0623637 0.0817717 0.284203 0.126849 -0.347223 -0.255475 -0.156229 -0.00753358 -0.405917 -0.142752 0.740079 0.749193 0.669067 0.769523 0.807489 0.25602 0.904032 0.236519 0.0687502 0.445892 0.354182 -0.177696 -0.170489 -0.0186376 -0.260999 -0.452069 0.0837021 -0.176716 -0.207543 0.661942 0.205828 -0.120623 -0.517935 -0.0169948 -0.767559 -0.0523941 0.331555 0.554063 0.777855 0.515121 0.919088 0.557451 0.0629902 0.863277 0.269553 0.768247 0.595449 -0.190475 0.0479935 -0.386498 -0.223606 0.0550374 -0.16143 0.243953 0.787672 0.538183 0.725209 0.250431 0.433767 0.23513 0.0699728 0.110145 -0.682661 0.197771 -0.0390121 0.459163 0.779748 0.919058 0.62027 0.305277 0.305338 0.567278 0.205765 0.903904 0.0422357 0.666985 0.517109 0.39504 0.419167 0.434482 0.280168 0.633799 0.585689 0.581222 0.427771 0.634258 0.558376 0.648186 0.51609 0.291057 -0.109281 -0.125862 0.0306735 0.229699 0.499057 0.0274037 0.137928 0.850795 0.692526 0.379833 0.713065 0.929302 0.873045 0.524868 -0.0115537 0.09967 0.471347 0.180934 0.241247 0.245763 0.115993 0.330835 0.124154 0.841384 0.199964 0.45833 0.706982 0.0378293 0.383115 0.808999 0.742607 0.00109242 0.702413 0.883816 0.832789 0.937223 0.0175481 0.352794 0.846156 0.684988 0.263985 0.583769 0.922799 0.0768827 0.274223 0.599281 0.386377 0.266574 0.588664 0.678485 0.530386 0.841398 0.665811 0.7077 0.793333 0.852591 0.455755 0.275281 0.667797 0.587213 0.258156 0.063509 0.475021 0.339183 
0.206153 0.460829 0.928465 0.93582 0.86813 0.152806 0.71926 0.261635 0.899197 0.723289 0.948363 0.958068 0.0413249 0.428389 0.847255 0.781976 0.176092 0.726493 0.394147 0.383404 0.0927152 0.471908 0.697195 0.780114 0.213569 0.490951 0.551836 0.310831 0.847041 0.384381 0.0781274 0.34843 0.175906 0.200052 0.842271 0.548031 0.574242 0.925037 0.349453 0.881815 0.705077 0.635464 0.512204 0.691223 0.382196 0.463768 0.326978 0.209462 0.700419 0.270302 0.394319 0.271819 0.503525 0.891018 0.813684 0.32487 0.849696 0.912107 0.878292 0.826771 0.0118284 0.134938 0.874552 0.0297352 0.657288 -0.0571193 0.731966 0.705443 -0.00354052 0.341829 0.827 0.469358 0.727233 0.820426 0.340184 -0.00976648 0.26822 0.921945 0.870694 0.281366 0.175501 0.555716 0.899442 0.57149 0.822687 0.180639 0.531547 0.421341 0.721586 0.854665 0.82439 0.525594 0.658504 0.648382 0.619709 0.715929 0.548539 0.645573 0.627066 0.0621461 0.377495 0.396202 -0.0237747 -0.0283859 0.338711 0.177856 0.0236275 -0.0696857 0.568803 0.554371 0.378702 0.185858 0.266366 0.471755 0.344765 0.27559 0.311555 0.761739 0.839013 0.524988 0.978604 0.221638 0.443772 0.61091 -0.198314 0.682823 0.325253 0.704187 0.178774 -0.239256 0.174982 0.568747 -0.298909 -0.251838 -0.188683 0.061929 0.407408 0.364501 0.10734 0.664977 0.173833 0.784143 0.887748 0.489507 0.661381 0.664509 0.332627 0.433591 0.282028 -0.289246 -0.389435 -0.154616 0.0149313 0.69301 -0.304887 -0.48168 0.15271 -0.569591 -0.0961642 -0.529814 -0.0403144 -0.163253 -0.224948 -0.365332 0.477934 0.684586 0.0516718 0.485813 0.133793 0.900024 0.676973 0.488632 0.145164 0.557778 0.451809 -0.314191 -0.319454 -0.505428 0.296033 -0.0612534 0.0220502 -0.0217165 -0.167235 0.224334 -0.245337 0.118026 -0.361849 -0.588068 -0.206342 0.175319 -0.219051 -0.356703 0.441812 0.835227 0.849044 0.290515 0.529247 0.165947 0.697311 0.724765 0.502751 0.307488 0.634853 -0.104527 -0.736443 -0.201615 -0.271089 -0.0151738 -0.0559285 0.24649 0.131336 -0.756479 0.0691068 -0.310547 0.313636 -0.273867 -0.304745 -0.0347681 0.334899 -0.0613761 -0.137292 0.283277 0.780391 0.777157 0.92752 0.710173 0.628755 0.34487 0.45617 0.123813 0.415327 -0.480317 0.116947 -0.448869 0.114504 -0.0250861 0.125071 -0.294802 0.391548 -0.0967287 -0.0703007 0.128839 0.675956 0.284596 -0.103354 -0.204591 0.356994 0.0553226 0.0264159 0.758174 0.837422 0.488958 0.241622 0.258752 0.215879 0.848732 0.69137 0.269437 -0.12503 -0.223785 -0.403598 -0.0103245 0.0448366 -0.416456 -0.112268 -0.387094 0.335893 0.217586 0.0974944 -0.107224 0.367453 0.0705637 -0.49318 -0.835721 0.147953 0.50677 0.698232 0.519214 0.186797 0.859543 0.798151 0.437509 0.363366 0.725175 0.37687 0.0246185 0.0344113 0.173883 -0.0675444 -0.0631727 -0.0982388 -0.56852 -0.748784 -0.127122 0.517841 0.454239 0.753487 0.282076 0.0312878 -0.384368 -0.550304 -1.21262 -0.241926 0.344953 0.820351 0.962714 0.189321 0.669741 0.836482 0.576371 0.607401 0.541607 0.355845 -0.574054 -0.654925 -0.878067 -0.91354 -1.62551 -1.10439 -0.846811 -1.06672 -0.651202 -0.100944 -0.469921 -0.603385 -0.101256 -0.231815 -0.239003 -0.75444 -0.439466 -0.610634 -0.349266 -0.303436 0.630859 0.877468 0.886515 0.602191 0.733672 0.506174 0.121488 0.463673 -0.71934 -1.18869 -1.60989 -1.36163 -0.871795 -0.986169 -0.626083 -0.955484 -1.30632 -0.195504 -0.614717 -0.87885 -0.673863 -0.49059 -1.41823e-05 -0.715906 -0.591361 -1.90492 -1.07146 -0.217019 0.25684 0.329394 0.642737 0.586474 0.508581 0.769213 0.777265 -0.162303 -0.647969 -1.34077 -0.647811 -0.680777 -0.344112 0.130565 -0.210721 -0.390298 -0.260124 -0.426094 -1.28414 -0.61032 -0.518515 -0.0912892 -0.0287105 -0.790454 -0.538161 -1.01008 -0.978906 0.232213 0.435904 0.992755 0.982231 0.0197455 0.817707 0.336385 0.208077 -0.466333 -0.876042 -0.415132 -0.561419 -0.318717 -0.0537031 -0.432794 0.161273 -0.540103 -0.292769 -0.668814 -0.89825 -1.12245 -0.362874 -0.521039 -0.556414 -0.371825 -0.561615 -0.916388 -0.0533497 0.0746431 0.992527 0.882352 0.87298 0.210822 0.282031 0.141832 0.713255 -0.39098 -0.0202074 -1.01435 -0.840651 -0.397585 -0.0881018 0.0418422 -0.413993 -0.444083 -0.305237 -0.129751 -0.418571 -0.620498 -0.825046 -0.202128 -0.731951 -0.564912 -0.283113 -0.463241 -0.556419 0.628258 0.590711 1.10386 0.26836 0.825739 0.794883 0.475141 0.711771 0.360374 0.088775 -0.232829 -0.733857 -0.925464 -0.444525 -0.0445281 -0.248325 -0.316566 0.101169 -0.908955 -0.310531 -0.219751 -0.307197 -0.64394 -0.553838 -0.656573 -0.787536 -0.215697 0.0381739 0.832395 0.847594 0.513213 0.741619 0.699362 0.414309 0.859235 1.13687 1.04114 -0.179839 -0.164813 -0.747112 -0.989707 -0.760613 -0.0849871 -0.609482 -0.109094 -0.294849 -0.442326 -0.324051 -0.271415 -0.0613268 -0.865013 -0.268991 -0.650049 0.190458 0.166797 -0.407369 0.683065 1.22146 1.10287 0.114907 0.275617 0.454506 0.916476 0.925734 0.451419 0.533376 0.665581 -0.127709 -0.730697 -0.099081 -0.372636 -0.440406 -1.16 -0.590712 0.21211 -0.0726033 -0.126736 -0.394716 -0.322377 -0.462854 -0.207655 0.250827 -0.283667 0.297404 0.984819 1.04106 0.791658 0.81774 0.261635 0.879431 0.0104382 0.730603 0.744083 0.25302 0.318269 0.451569 0.345099 -0.0180309 0.142099 -0.265952 0.251529 0.218017 -0.463308 -0.376289 -0.712214 -0.583035 -0.47858 -0.353066 0.0307764 0.135137 -0.659053 0.504676 0.48208 0.697133 0.192811 0.370921 0.612171 0.724391 0.83326 1.14944 0.982944 0.673864 0.459613 0.32566 0.0482471 0.409177 0.0475802 0.606503 -0.844976 -0.221121 -0.769836 -0.696865 -0.77736 -0.557544 0.0733292 -0.0417485 0.476483 -0.274844 0.113828 0.459321 0.482768 0.785805 0.783773 0.785002 0.40144 0.876929 0.891626 1.12843 0.793647 -0.0544199 0.495897 0.140599 0.150672 0.419066 -0.363677 -0.186539 -0.712647 -0.592881 -0.962633 -0.829706 -0.0768316 -0.366505 -0.438842 0.262051 -0.392474 -0.24796 0.742296 0.339018 0.945989 0.627922 1.00305 0.567475 0.712394 0.764397 0.395967 0.271327 0.512652 1.10416 0.839401 -0.279785 -0.308216 -0.122354 -0.220683 -0.287564 -0.238794 -0.57626 -0.239367 -0.273921 0.126337 0.0526754 0.0454356 -0.442157 -0.221269 0.168255 0.497438 0.435983 0.195911 0.546391 0.297965 0.845924 0.115665 0.290536 0.251692 0.375467 0.391914 0.302681 0.118277 0.709979 -0.285167 -0.285487 -0.0959228 0.0763136 0.138393 -0.230337 0.0347142 -0.507532 -0.345325 -0.155841 -0.47971 -0.371213 0.519385 0.688238 1.01154 1.03384 0.7831 0.176337 0.942896 0.606555 0.838862 0.711539 0.37761 0.133561 0.508705 0.345698 -0.0193067 0.464966 0.301073 -0.329332 0.0939536 -0.13102 0.513204 0.536722 0.459914 0.463181 0.229767 0.192982 -0.334593 0.239385 0.193831 0.478998 0.124801 0.333003 0.109673 0.465909 0.858783 0.500351 0.218909 0.650716 0.524282 0.102377 0.160168 0.0892364 0.668775 0.118755 0.968274 0.626676 0.167806 0.319122 0.845057 0.0771133 0.752316 0.279188 0.214368 0.0306298 0.778381 1.11544 0.977131 0.0869297 0.422762 0.916496 0.296728 0.858506 0.941304 0.190191 0.531755 0.984985 0.44322 0.360188 0.989309 0.622057 0.426543 0.243775 0.523754 0.394879 0.290345 1.07807 0.994172 1.06769 1.03406 0.698667 0.838951 0.540477 0.807237 0.886828 0.902363 0.599378 0.404431 0.388561 0.152224 0.164373 0.784448 0.710013 0.792352 0.819208 0.863918 0.0134892 0.234596 0.498631 0.613591 0.992213 0.949924 0.839201 0.804755 0.00461715 0.249928 0.755596 0.950687 0.792108 0.516194 0.908497 0.448678 0.765902 0.503635 0.115018 0.24749 0.408199 0.681906 0.931364 0.993439 0.801325 
0.619373 0.267586 0.032899 0.0558489 0.184179 0.246284 0.102908 0.751244 0.610157 0.746513 0.324625 0.749229 0.134467 0.0704599 0.198401 0.781487 0.370281 0.511124 0.102573 0.578722 0.0213324 0.712577 0.184668 0.821986 0.176397 0.532456 0.0514542 0.697317 0.75811 0.259957 0.164037 0.33552 0.331573 0.826856 0.332789 0.890263 0.886537 -0.004427 0.276274 0.696091 0.91258 0.144331 0.563181 0.914492 0.0155368 0.433612 0.800338 0.381465 0.773819 0.30065 0.773768 0.171393 0.0851772 0.860988 0.047853 0.322947 0.355052 0.0925626 0.661184 0.263139 0.0758436 0.646511 0.768163 0.414879 -0.0688465 0.768971 0.721002 0.00154271 0.521473 -0.0934544 0.428629 0.466985 0.106103 0.660021 0.263852 0.69428 0.278807 0.0880477 0.272494 0.00680526 0.0877606 0.485968 0.107334 0.379742 0.578539 0.941557 0.452451 0.181902 0.48254 0.697686 0.564156 0.725466 0.970431 0.25976 0.232548 0.2323 0.305394 0.202526 1.002 0.560662 0.714696 0.914193 0.780768 0.696528 0.46122 0.191086 0.586227 0.143411 0.883358 0.428411 0.872944 0.284188 0.678671 0.0581072 0.279704 0.898999 0.688193 0.765285 0.414046 0.793635 0.937825 0.745432 0.124112 0.510886 -0.269574 0.599707 0.333177 0.420577 -0.107092 0.458089 -0.132429 0.250928 0.788174 0.194879 -0.0650095 0.286965 0.0666303 0.32616 0.854468 0.428803 0.0803552 0.864254 0.290293 0.279843 0.873559 0.872165 0.597544 0.311012 0.676414 -0.300465 -0.100759 0.366366 -0.15906 0.162198 0.12374 0.271182 -0.226628 -0.337739 -0.377762 0.27112 -0.580135 -0.894638 -0.372044 0.204441 0.0116013 0.201475 0.071097 0.732363 0.603534 0.66734 0.777569 0.401503 0.514967 0.277103 0.819699 0.0306493 -0.00557435 0.0863608 -0.270574 -0.10266 0.381537 -0.181405 -0.332839 -0.30943 0.315915 -0.00602279 -0.56358 -0.377074 -0.432002 -0.152371 -0.44684 0.00523682 0.189811 0.549544 0.724653 0.946918 0.40387 0.214776 0.340341 1.25612 0.153447 -0.250474 0.335292 -0.152926 -1.07283 -0.208894 -0.332278 -0.235189 -0.150131 -0.0858822 -0.675933 0.0182711 -0.38762 -0.309151 0.369332 -0.625789 -0.112297 -0.454965 0.293677 -0.0241231 -0.0131047 0.0293658 0.348424 0.727062 0.727391 0.79667 0.512202 0.251715 0.203956 0.492237 0.0611834 0.4359 -0.239888 -0.837931 -0.442834 -0.464184 -0.229983 -0.576713 0.062331 -0.359153 -0.167938 -0.346095 -0.0351039 -0.0734351 -0.719051 -0.304508 0.166599 -0.429342 0.104691 -0.0888478 0.0129341 0.790608 0.0771627 0.147685 0.907758 0.912147 0.156423 -0.313414 0.344123 0.0902587 -0.572441 -0.173265 -0.045596 -1.06459 -1.13328 -0.532981 0.48 0.769372 0.0886364 -0.136525 0.447721 -0.149434 -0.229195 0.0168838 0.0769928 0.111204 -0.299372 -0.0199742 0.623726 0.468602 0.87228 0.771353 0.082911 -0.112035 -0.298828 0.193417 -0.209729 -0.0432082 -0.193803 -0.609245 -0.90865 -1.24317 -0.632316 -0.291584 0.577609 -0.519602 0.220393 0.464752 0.503197 0.0151402 -0.442945 0.232681 -0.0554868 0.359372 -0.442031 0.452544 0.121897 0.50814 0.2154 0.165876 0.982946 -0.0773606 0.422216 0.473006 0.32179 0.334823 0.0404061 -0.0700732 -0.0904445 0.236264 -0.85363 -0.318791 -0.221918 -0.139197 -0.325641 0.431629 -0.235132 0.448635 0.511554 0.282586 0.0836935 0.177792 0.590705 0.0983202 0.831082 -0.00324898 0.840022 0.126093 0.246074 0.387195 -0.0552536 -0.360923 -0.104869 -0.00131457 -0.102269 0.241977 0.218245 0.49417 -0.150332 -0.466252 0.0691947 -0.655127 0.160679 0.198607 0.520049 0.171291 -0.538326 -0.736257 0.58117 0.442173 0.734736 0.200924 0.292244 0.866876 0.844996 0.140023 0.741864 -0.175813 -0.384854 -0.0475525 0.161788 0.14607 -0.699599 -0.402444 0.355572 -0.126906 -0.499887 -0.695158 -0.955254 -0.731512 -0.0449406 0.921993 0.356509 0.0380724 -0.10925 0.0205203 0.291826 0.55325 0.189232 0.49327 0.00644697 0.68941 0.305155 0.833874 0.703737 -0.0270122 -0.0695897 0.17148 -0.362077 -0.0537902 -0.75916 0.20136 -0.0129734 -0.137799 -0.202475 -0.38113 -1.16523 -0.869394 -0.708029 0.187865 0.275828 -0.0430184 -0.173627 -0.481122 0.503154 0.413082 0.32591 0.476986 0.487149 0.0317623 0.352824 0.0553271 0.14671 0.390201 0.694495 0.431796 -0.0252736 -0.402945 -0.316948 -0.401531 -0.354457 0.0426588 -0.438625 -0.894036 -1.08008 -0.39572 -1.00829 0.227184 0.375359 0.263296 0.190138 0.0603983 0.109749 0.356644 0.332291 0.469863 0.901661 0.080422 0.823603 0.401921 0.577809 0.478435 0.450763 0.318654 0.178202 -0.446925 -0.264713 0.37772 -0.0291147 0.121404 -0.0196117 -0.462094 -0.765335 -0.0956396 -0.354198 -0.353049 0.0561333 0.0737858 0.323725 0.0795633 0.340814 0.266408 -0.0656964 0.424202 0.0117017 0.436988 0.0604572 0.143988 0.78079 0.0523888 1.06632 0.760354 -0.102408 0.174154 -0.213957 0.0432867 0.0524623 -0.276806 -0.529956 -1.49941 -1.14549 -0.20757 0.6452 -0.0841228 -0.239965 -0.488173 -0.0224911 -0.135098 0.792851 -0.179914 -0.227249 0.684011 0.449445 0.657443 0.971688 0.42252 0.261849 0.700298 0.366088 0.538436 -0.0592997 -0.951131 -0.737918 -0.768497 0.0550443 -0.564045 -0.99143 -0.673421 -0.541715 -0.142634 0.122215 -0.578644 -0.642921 -0.0399247 0.252653 0.423123 0.00480805 0.21469 -0.374392 0.535213 0.050553 0.197263 0.92346 0.939999 -0.0192695 0.358205 0.204446 0.856546 0.255516 -0.464811 -0.20585 -0.519592 -0.230956 -0.142669 -0.752229 -0.695767 -0.448068 -0.812505 -1.0941 -0.411395 -0.775017 -0.441418 -0.595216 -0.504017 -0.335913 -0.114365 -0.228836 0.789374 0.0213826 0.921434 0.599017 0.759782 0.86603 0.694668 1.06024 0.723822 0.230226 -0.313615 -0.331848 -0.594645 0.299473 -0.795356 -0.684506 -0.395733 -0.280314 -0.561029 -1.00441 -0.489713 -0.845159 -0.420668 -0.238295 -0.440012 -0.160173 -0.22215 0.588371 0.164317 0.355181 0.0995656 0.355296 0.641159 0.70953 0.762655 0.102345 0.0921101 0.0466985 -0.264735 -0.0925828 -0.93889 -0.693637 -0.378829 -0.437061 -0.447493 -0.847481 -0.37265 0.0343432 -0.440188 -0.577537 -0.505089 0.118223 -1.17963 -0.861466 0.0369225 0.321696 0.25557 0.804788 0.453528 0.233039 0.3614 0.00180181 0.164948 0.41108 0.485739 -0.0202838 -0.495011 -0.174938 -0.565931 -0.788126 -0.352527 -0.522509 -0.468996 -0.324795 0.320512 0.397213 0.165692 -0.743487 -0.550075 0.22034 -0.195929 -0.227461 -0.0921229 -0.11902 0.444563 0.733708 0.354257 0.177068 0.417554 0.711179 0.995187 0.194758 -0.0380996 0.584516 -0.0411936 -0.514737 -0.725145 -0.372387 -0.0678726 -0.204518 0.519016 0.371732 -0.0703277 -0.00478659 -0.51003 0.175276 0.0854036 -0.77588 -0.530294 -0.279988 0.690622 0.622553 0.426903 0.744169 0.266762 0.572863 0.810816 0.836567 0.52464 0.372118 -0.114759 0.887782 0.29401 0.372506 0.138184 0.495502 0.521298 0.547901 0.79062 0.619819 0.198322 0.525379 -0.13053 0.27361 -0.234451 -0.404516 0.0327887 -0.0306081 0.0395515 0.535421 0.865401 0.0670803 0.895383 0.691244 0.0817896 0.225775 0.403566 1.01716 0.40833 0.696309 1.2466 1.01277 0.730349 0.59591 0.868697 0.549729 0.539544 -0.148936 0.22809 0.192164 0.586714 0.282488 0.425711 0.062767 -0.014615 0.323396 0.962729 0.501691 0.695303 0.0722197 0.991913 0.134953 0.3455 0.265053 0.942456 0.836477 0.18934 0.134888 0.654224 0.258891 0.560545 0.541124 0.448982 0.21321 0.755593 0.658232 0.689782 1.13976 1.07619 0.890277 0.649458 0.125856 0.0584487 0.104353 0.67501 0.874748 0.277902 0.766961 0.300821 0.881161 0.539232 0.0333872 0.649098 0.497299 0.39752 0.270394 0.709909 0.400055 0.359041 0.0703625 0.302806 0.406558 0.134535 0.536063 0.441682 0.822136 0.590309 0.575016 0.850713 0.214728 0.179389 0.115797 0.360846 0.537004 0.560289 0.562914 0.606738 
0.0130314 0.602222 0.646107 0.87289 0.239875 0.129093 0.593677 0.994293 0.33665 0.395367 0.306864 0.773736 0.877723 0.244452 0.0959197 0.294687 0.0648518 0.17008 0.561602 0.90173 0.9288 0.431318 0.494278 0.128544 0.652272 0.613483 0.196753 0.354289 0.73513 0.805445 0.137303 0.469649 0.118998 0.840888 0.340066 0.335878 0.959384 0.676432 0.424411 0.306487 0.0392397 0.329818 0.623276 0.592975 0.0650859 0.74713 0.976979 0.922196 0.841442 0.520164 0.524257 0.672899 0.301767 0.153294 0.133763 0.809412 0.764885 0.950804 0.737541 0.340032 0.160745 0.776391 0.333316 0.239766 0.613012 0.204605 0.864453 0.3001 0.494996 0.386745 0.666447 0.284742 0.921799 0.92042 0.576208 0.662259 0.0934638 0.860243 0.830685 0.811515 0.951321 0.591279 0.302774 0.229835 0.6957 0.658193 0.887022 0.763737 0.242491 0.731539 0.552678 0.232684 0.61589 0.808311 0.332171 0.274511 0.443361 0.0100084 0.620289 0.970171 0.380367 0.361415 0.210869 1.08722 0.820614 0.340191 0.343945 0.192769 0.314738 0.850134 0.514371 0.0145878 0.423811 0.458937 0.830828 0.974606 0.173596 0.0573246 0.797001 0.319406 0.478979 0.124265 0.226212 0.261183 0.309602 -0.31279 -0.0717178 -0.717877 0.177442 -0.321857 -0.0594616 0.798323 0.649656 0.227157 0.928493 0.959942 0.522085 0.627072 0.32662 0.3041 0.233833 0.915006 0.140356 0.0288676 0.143163 0.973519 0.164344 -0.084072 -0.279052 0.208272 -0.0634491 -0.47302 -0.261152 -0.129533 -0.576472 -0.377005 -0.445956 -0.382655 -0.399575 -0.187209 -0.161565 -1.01016 -0.0203715 0.160503 0.0600796 0.589665 0.985528 0.982284 0.635792 0.481982 0.633647 -0.171134 0.614524 0.480366 0.239377 0.288287 0.217267 0.0220939 -0.211858 -0.341366 0.373385 -0.319492 -0.470885 -0.534714 -0.396358 -0.896438 -0.354583 -0.384099 -0.3103 -0.93267 -0.712407 -0.0768155 0.635631 0.656487 0.734994 0.586718 0.548258 0.335044 0.373849 0.242451 -0.0297915 -0.845775 -0.281045 0.052912 -0.64318 -0.269823 -0.593871 -0.0421407 -0.240896 -0.0890597 -0.0274461 0.05118 -0.0473566 -0.551449 -0.184546 -0.922514 -0.201829 -0.31906 0.453246 -0.276868 0.316559 0.129571 0.438106 0.0331782 0.914895 0.875518 0.375228 0.380981 0.271214 -0.189682 -0.390132 -0.61792 -0.685555 -0.276394 0.166572 -0.300387 -0.800701 -0.796905 -0.490182 -0.580671 -1.17012 -0.792959 -0.431328 -0.651861 -0.583043 -0.414649 -0.031441 -0.798379 -0.283951 0.437891 -0.0340572 0.713845 0.389432 0.146289 0.980354 0.881731 -0.123731 0.0502223 0.392475 0.678438 0.769297 0.0893446 0.154872 -0.194728 -0.0110446 -0.774145 0.248722 -0.071642 -0.476924 -0.83117 -0.507165 -0.60196 -0.507065 -0.565263 -0.19631 -0.0561743 -0.486047 -0.262371 0.105005 0.959321 0.0595721 0.836386 0.756441 -0.0121062 -0.253149 0.183675 -0.19918 0.185051 -0.108883 -0.079518 0.00870632 -0.436761 -0.342297 -0.457431 -0.149865 0.0505078 -1.05818 -0.57916 -0.404961 -0.514442 -1.32419 -0.268862 -0.0338806 -0.739506 -0.057539 0.794638 -0.0243861 0.855132 0.00897244 0.206591 0.118652 0.581139 -0.271229 -0.223242 -0.421807 -0.44347 -0.0143618 0.198815 -0.170735 -0.000813627 -0.368752 -0.730799 -0.431511 -0.0222493 0.200808 0.0477223 0.16135 -0.33357 -0.576629 0.114331 -0.699965 -0.60007 -0.470441 0.209131 0.257439 0.494623 0.605731 0.406539 0.133427 -0.063611 -0.316228 -0.297636 -0.150063 -0.465156 -0.579872 -0.568367 -0.0898971 -0.01288 -0.626785 -1.12695 0.0776835 0.0141191 0.182868 0.179066 -0.353676 -0.826121 -1.06396 -0.726174 -0.52862 -0.608962 0.472464 0.400154 -0.00289659 0.728828 0.233924 0.757064 0.927283 0.194679 0.234259 -0.311143 -0.0798713 -0.449258 -0.261772 -0.395496 0.608562 0.428851 -0.258559 -0.992484 -0.384943 0.158756 -0.0231875 0.563207 0.0214963 0.193772 -0.0248829 -0.58921 -0.428558 -0.197673 -0.175379 0.640677 0.156429 0.501288 0.521928 0.435182 0.364547 0.151213 0.0216436 0.0459787 0.198355 -0.0618418 0.090601 -0.222692 0.647087 -0.355957 -0.156946 -0.539718 -0.656666 -0.0624664 0.237446 0.108554 0.31209 0.784831 -0.172753 -0.269942 -0.040525 0.0442255 0.0419109 0.970311 0.309106 0.684689 0.6657 0.844466 0.734477 0.753803 0.485326 -0.190298 0.0682721 -0.551831 -0.0197787 -0.0750555 0.13919 -0.556111 -0.645734 -0.200959 -0.294163 -0.178962 0.282348 0.275357 -0.0642563 0.32704 0.211241 0.32894 -0.176475 -0.0376719 0.388797 0.415076 0.120603 0.565097 0.941984 0.470743 0.162067 0.636945 0.425199 0.267402 0.238194 0.212751 -0.323032 -0.640393 0.11946 0.0807845 0.136312 0.107505 0.0433898 0.191995 0.450862 0.261725 0.399802 0.0591485 -0.0139986 -0.064775 0.0356758 -0.221604 0.44175 0.283175 0.13636 0.298899 0.00448622 0.360501 0.977317 0.628604 0.571426 0.0825914 0.12937 -0.222078 -0.362034 -0.0474627 -0.435161 -0.471362 -0.383849 0.271605 0.0487561 0.393241 -0.0927848 0.0721179 0.517088 -0.348236 -0.308761 -0.113323 0.315555 0.190711 -0.133907 0.877432 0.708884 0.484725 0.0585579 0.980229 0.029429 0.148673 0.873766 0.377541 -0.143559 -0.159465 -0.756124 -0.320977 -0.71651 -0.473396 0.371107 0.574532 0.470656 -0.0472184 0.162227 -0.014066 -0.249962 0.0685654 0.0986011 0.546567 -0.400257 -0.391372 0.442912 0.125114 0.872926 0.421115 0.498611 0.661354 0.246991 0.925036 0.892719 0.399585 0.0264233 -0.187698 -0.492404 -0.203564 -0.359006 0.2341 -0.00430996 0.369021 0.0505387 -0.101059 -0.90792 -0.456934 -1.06706 -0.255952 -0.394415 -0.381877 -0.58378 0.243076 0.474167 0.723694 0.166918 0.334812 0.129032 0.338509 0.267587 0.203094 0.201386 0.504072 -0.332819 -0.341539 -0.228106 -0.863973 -0.4735 -0.198246 -0.551557 -0.374537 -0.241676 -0.715236 -0.538823 -0.824573 -0.305394 -0.255682 0.106215 -0.117827 -0.010175 0.333732 0.824241 0.731887 0.61295 0.168622 0.518418 0.864064 0.492362 0.685033 0.52955 0.221454 -0.551983 -0.460418 -0.219681 -0.698959 -0.924741 -0.204002 -0.146471 0.113982 -0.451134 -0.222026 -0.669468 0.424432 -0.333818 -0.373407 -0.287134 -0.110589 0.141599 0.2875 0.34595 0.981116 0.0912738 0.870372 0.624195 0.456832 0.34886 0.129847 0.677956 0.623998 -0.160002 -0.573755 -0.692081 -0.694518 -0.400817 -0.870911 -0.462175 -0.636752 -0.378118 0.196146 -0.0810287 -0.511957 -0.0905221 -0.267946 0.111469 -0.087311 0.159054 0.201995 0.443325 0.350909 0.861319 0.216717 0.255684 0.751183 0.276248 0.588214 0.722471 0.529833 -0.327782 -0.318136 -0.167852 -0.826463 -0.662418 -1.40948 -0.108325 -0.534984 0.00784133 -0.49477 -0.0915922 -0.713318 -0.216336 0.102842 0.213388 0.0235392 0.407294 0.23446 0.383907 0.848138 0.540013 0.977599 0.477828 0.929014 0.136985 0.0245251 0.384756 -0.109212 0.133454 -0.206006 -0.39124 0.351004 0.31573 -0.352755 0.23484 0.109832 0.22271 0.399775 0.115714 0.715623 -0.0755731 0.485464 -0.0594268 0.450527 0.136521 0.00711111 0.868791 0.755757 0.666487 0.89227 0.547929 0.289987 0.305014 0.929761 0.408469 0.781838 0.906148 0.56957 0.832893 1.05947 0.416271 0.300687 0.53201 0.417021 0.515066 0.329529 0.14346 0.710351 0.341279 -0.181928 0.449398 0.998596 0.268344 0.0554011 0.39668 0.859587 0.857866 0.440535 0.479629 0.935362 0.538102 0.253204 0.744157 0.29633 0.467007 0.783704 0.0815126 0.554441 0.446817 0.885561 0.965488 0.619518 0.651036 0.538781 0.843002 0.0150766 1.04825 0.328013 0.0950973 0.0756885 0.854709 0.554735 0.234508 0.541093 0.611591 0.872311 0.827387 0.789087 0.807367 0.38966 0.189734 0.273111 0.698191 0.51259 0.917988 0.210709 0.0515269 0.201853 0.984353 0.8595 0.378863 0.841264 0.167935 0.612862 0.525619 0.860776 0.105635 0.616932 0.160044 0.219403 0.518204 0.772393 0.998627 0.466353 
0.785546 0.675924 0.915647 0.600269 0.426283 0.53441 0.273232 0.901914 0.876522 0.682852 0.63744 0.46086 0.0121739 0.620613 0.794397 0.714194 0.613269 0.0493484 0.514512 0.77868 0.567431 0.277352 0.959624 0.855129 0.706503 0.944212 0.138279 0.486404 0.195441 0.674856 0.316935 0.950072 0.471635 0.847642 0.817439 0.629036 0.53507 0.680993 0.975639 0.348224 0.254107 0.79294 0.851367 0.74451 0.144156 0.15682 0.865049 0.964746 0.0583579 0.943513 0.473011 1.00248 0.50325 0.624256 0.783898 0.80285 0.554643 0.466536 0.949248 0.185741 0.90658 0.510325 0.802937 0.540542 0.451129 0.411579 1.20685 0.366889 0.732851 0.915516 1.04902 0.945714 0.265148 0.804522 1.133 0.206679 0.941211 0.758337 1.03736 0.0694529 0.159526 -0.0129488 0.861873 0.649648 0.621754 0.893826 0.427411 0.53182 0.369897 0.171001 0.634234 0.127122 0.516108 0.0304513 0.264635 0.157916 -0.355256 0.467829 0.811474 -0.0879082 -0.070936 0.511878 0.122034 0.181131 0.0057478 0.302493 0.570528 0.972391 0.990591 0.213552 0.32093 0.484512 0.710715 0.453749 0.443144 0.842726 0.848889 0.391657 0.363141 -0.382086 0.069066 0.214757 -0.632633 -0.36584 -1.04033 -0.260735 -0.559209 0.323254 -0.268969 0.0806928 0.0292063 0.33377 0.136326 0.326496 0.567126 0.220884 -0.0884397 0.271656 0.0566351 0.429311 0.26841 0.940031 0.713572 0.15528 -0.0222314 -0.313653 0.0579932 -0.274984 -0.109001 -0.622533 0.0322644 -0.281824 -0.0515133 -0.417744 0.00166691 0.0895611 -0.373364 0.0451802 -0.295884 0.486984 -0.00499526 -0.175615 0.472111 0.128502 -0.0428499 0.208483 0.519743 0.214885 0.829096 0.95462 0.305191 0.0834767 -0.0630665 -0.513973 -0.523561 -0.341498 -0.316739 -0.4274 -1.09536 -0.463307 0.243097 -1.03989 -0.658879 -0.499566 -0.448776 -0.571692 -0.743187 -0.222699 -0.542699 0.0395481 -0.288797 0.691413 1.04979 0.907044 0.275382 0.206434 0.939316 0.504552 0.742907 -0.119797 -0.332652 -0.140485 -0.0593315 -0.833756 -1.0097 -1.01228 -0.763568 -0.474595 -0.331323 -0.834995 -0.557378 -0.869299 -1.12218 -0.184596 -0.383396 -0.713503 -1.08137 0.139862 0.216696 0.532388 0.937719 0.504949 0.761036 0.320777 0.153251 0.413349 0.672788 0.054825 -0.687456 -0.564931 -0.521803 -0.612341 -1.0592 -0.567022 -0.785499 -0.785385 -0.538953 -0.708628 -0.609348 -0.684816 -0.289481 -0.955134 -0.424153 -0.454392 -0.654891 -0.8027 -0.234221 0.425663 0.130346 0.871482 0.0353643 0.468336 0.65439 0.749202 0.381279 -0.237889 -0.742753 -0.803905 -0.663687 -0.221195 -0.384871 -0.189741 -0.0252681 -0.521462 -0.813414 -0.578426 -0.490588 -0.421535 -1.02239 -0.761935 -0.193082 -0.652287 -1.34251 -0.591454 -0.493253 -0.0967198 0.692475 0.225457 0.747914 0.403345 0.706595 0.0226178 0.150825 -0.100433 -0.294283 -0.0116467 0.079313 -0.345011 -0.257603 0.208401 -0.228515 -0.217882 -0.340322 -0.301984 -0.0369226 0.0980677 -0.546981 -0.530085 -0.676906 -1.06004 -0.850789 -0.913152 -0.13308 0.0872112 0.451966 0.824171 0.691542 0.359819 0.348521 0.239358 0.789936 -0.248482 -0.430384 -0.0463951 0.543042 0.00284834 0.508623 -0.444779 0.0749077 -0.228316 -0.670307 -0.294302 -0.647277 -1.36403 -0.608067 -0.110255 -0.471176 -0.105114 -0.70309 -0.537903 -0.15147 0.523326 0.707484 0.0907881 0.35843 0.665152 0.604266 0.873542 0.106736 -0.109765 -0.193877 -0.397302 0.46126 -0.372197 0.00263197 -0.0534594 -0.104899 0.318522 0.120647 0.0225834 -0.768137 -0.74243 -0.883265 -0.597345 -0.139705 -0.804399 -0.624522 -0.290886 0.073565 0.367113 0.143178 -0.196643 0.442519 0.589664 0.696066 0.448086 0.377567 0.0850632 0.191738 0.0345082 0.452093 -0.0223439 0.0331252 -0.343576 0.713853 0.574598 -0.0960531 -0.335512 -1.05516 -0.97418 -0.859092 -0.118659 0.0524769 0.282591 -0.187152 0.0876737 0.33788 0.64167 0.957582 0.595957 0.725757 0.569459 0.38966 0.91015 0.360635 0.258503 -0.0770207 0.432567 0.536774 -0.00480486 -0.258312 0.396932 0.500477 0.465359 0.436726 -0.811291 -1.23893 -0.78607 -1.07031 -0.166537 -0.365578 -0.360024 -0.503086 -0.328901 0.00431303 0.386754 0.340088 -0.0302082 0.636972 0.199864 0.0599689 0.872544 0.673735 -0.00384598 0.242765 -0.0450065 -0.691148 0.0294544 0.365409 0.289176 0.145244 0.596411 -0.0222955 -1.09668 -0.627805 -1.0595 -0.682926 -0.724176 -0.0276314 -0.274967 -0.184512 -0.617484 -0.440714 0.0947465 0.219477 0.827868 0.569824 0.62376 0.571337 0.260839 0.340518 0.0109176 -0.172019 -0.146155 -0.129816 -0.112975 -0.139614 -0.393362 0.82527 0.932731 -0.0134626 -1.10064 -0.557195 -0.012122 0.0610784 -0.904504 -0.317675 -1.01612 -0.0570156 -0.890653 -0.399499 -0.129826 -0.0523306 0.244297 0.496191 0.777719 0.566027 0.874466 0.315876 -0.168224 0.156662 0.593835 0.133733 -0.416562 -0.231783 0.594752 0.464782 0.799458 -0.86701 -1.08935 -0.585626 -0.212678 -0.0469799 -0.0759015 -0.468337 -0.751897 -0.239539 -0.243741 -0.203944 0.268213 0.139738 -0.281593 -0.191671 0.224771 0.252812 0.380796 0.218885 0.394572 -0.33053 0.305333 -0.647134 0.253983 -0.227706 0.292924 0.0272897 0.102337 0.179532 -0.392119 -0.10504 -0.177478 -0.312582 -0.805856 -0.871852 -0.384939 -0.250589 0.0797414 -0.32482 0.408309 -0.233568 0.426398 0.966915 0.667697 0.302042 0.0219726 0.110163 0.164298 0.313102 -0.0403673 0.301654 -0.697131 0.415843 -0.180714 0.529489 0.675519 0.504611 0.0388377 -0.349227 -0.752795 -0.751705 -0.816685 -0.653889 -0.178435 0.186794 0.24797 -0.0413226 -0.571364 0.102147 -0.539493 0.506613 0.531951 0.903317 0.804833 0.772018 0.42789 -0.309724 0.423736 -0.0719506 0.209881 -0.0319572 0.0118692 0.387738 0.213658 -0.403769 -0.216802 -0.455537 -0.375945 -0.734561 -0.236173 -0.130336 -0.772835 -0.514964 -0.295986 -0.62787 0.191894 -0.267937 -0.483415 0.669593 0.0847382 0.642109 0.197814 0.386145 -0.102981 0.28709 0.384147 -0.290715 -0.0827108 0.0947399 -0.212621 0.121609 0.0650112 -0.130557 -0.00792855 -0.606476 -0.610206 0.165525 -0.0452341 -0.624069 -0.333535 -0.690355 -0.273827 0.319748 0.411801 0.159352 0.537703 0.934166 0.881884 0.226539 0.434675 0.947166 0.710579 0.635522 0.542799 0.398867 -0.57636 -0.299144 -0.519435 -0.730275 -0.186203 -0.556071 0.116282 -0.327558 0.452041 -0.132394 0.12456 -0.339727 -0.157874 0.529996 0.0542583 0.725652 -0.199018 0.485295 0.201376 0.185745 0.663058 0.69573 0.165166 0.616435 0.362987 0.260554 -0.375747 -0.252902 -0.801238 -0.486318 -0.366846 -0.378254 -0.660055 0.367601 0.185521 0.511367 0.315997 0.320881 -0.334544 -0.211351 -0.270176 0.651995 0.549325 0.430859 0.666343 0.424004 0.58364 0.742394 0.703879 0.190374 0.562395 0.588512 0.581972 0.411658 -0.71397 -0.411633 -0.299476 -0.0238778 0.178473 -0.611846 0.331477 -0.0716981 0.26511 -0.38274 -0.245669 -0.139727 0.0265884 0.415036 0.171603 0.024942 0.0804443 0.709654 0.961194 0.787605 0.381865 0.324436 0.137028 0.882138 0.902036 0.164235 0.651052 0.114922 0.735336 -0.0137153 -0.115219 0.0434282 -0.114381 -0.232244 -0.319441 -0.184751 0.0758177 -0.471156 0.299357 0.189243 0.424778 0.16875 0.190416 0.39393 0.597075 0.478545 0.716988 0.363016 0.0531412 0.46524 0.183508 0.154485 0.394421 0.123844 0.36446 0.535861 0.399014 0.269243 -0.0664975 0.0746502 -0.111808 0.164034 0.687091 -0.0489829 -0.0701556 0.369976 0.436304 -0.265885 -0.0380648 -0.231267 0.417587 0.109296 0.351763 0.486814 0.931246 0.143003 0.624104 0.0889615 0.768639 0.629505 0.479598 0.734336 0.745964 0.310831 0.534755 0.450592 0.403297 0.55062 0.207437 0.714042 0.196384 0.281683 0.611428 0.171608 0.305195 0.226018 0.647587 0.444778 0.380976 0.463057 0.694778 0.733619 0.62563 0.71279 0.211982 0.648824 0.491592 
0.134007 0.303385 0.178564 0.883114 0.839473 0.0802026 0.568957 0.348186 0.138768 0.287912 0.0606098 0.233924 0.285461 0.79199 0.706503 0.958037 0.792718 0.223395 0.519089 0.192511 0.0196234 0.909665 0.885006 0.244881 0.140782 0.525925 0.653523 0.417371 0.199042 0.594562 0.805109 0.626392 0.371555 0.305557 0.111755 0.0749406 0.140612 0.72728 0.671375 0.202637 0.349525 0.802092 0.760248 0.786801 0.256691 0.581006 0.865194 0.400472 0.202177 0.486707 0.441031 0.174938 0.619678 0.389813 0.931547 0.659749 0.186193 0.660573 0.0152593 0.301214 0.845774 0.154365 0.470308 0.228535 0.526211 0.896159 0.371339 0.370559 1.00951 0.537679 0.437291 1.06664 0.490486 0.92779 0.28145 0.749673 0.404715 0.299606 0.467022 0.121028 0.119196 0.0796602 0.475143 0.22367 0.63448 0.721519 0.137475 0.464066 0.492053 0.80953 0.234451 0.551337 0.0971657 0.46968 0.466269 0.447944 0.206121 0.221175 0.448051 0.499902 0.920058 0.26175 0.0867356 0.324004 0.590229 0.135614 0.599551 0.916961 0.738802 0.702721 0.203663 0.0767541 0.922086 0.300668 0.129363 0.15774 0.912309 0.731216 0.565957 0.693765 0.449543 -0.256713 0.2816 -0.1145 0.360696 0.443534 0.547139 0.202228 0.141467 -0.0822668 0.073156 0.761546 0.770401 0.639867 0.384039 0.909636 0.716284 0.282866 0.515009 0.914961 0.835902 0.890378 0.44876 0.68226 0.720483 0.165534 0.769577 0.19545 -0.148774 -0.634863 -0.128863 -0.39485 -0.595971 0.274427 0.12699 0.105384 -0.417075 -0.739624 -0.179815 -0.158754 0.0951072 -0.0633356 -0.17743 0.648726 0.401105 -0.0692225 0.913602 0.607967 0.143284 0.611902 0.960971 0.238149 0.207306 0.625227 0.57727 -0.0944675 -0.307449 0.131657 -0.506506 -0.258522 0.0557023 -0.830204 -0.387169 -0.739832 -0.433285 -0.798087 -0.85198 -0.712358 -0.534691 -0.167874 0.097532 0.183175 0.654746 0.544094 0.609028 0.741315 0.759332 0.0887228 0.210092 0.59039 -0.172258 -0.268475 0.450334 -0.271327 -1.16305 -0.82015 -0.485371 -0.286123 -0.045143 0.0312348 -0.641349 -0.360202 -0.262094 -0.247547 -0.0164924 -0.42165 -0.707547 0.0376491 0.130731 0.408463 0.513873 0.205695 0.442678 0.327139 0.599425 0.253319 0.823627 0.976141 0.565327 0.107387 -0.365018 -0.344145 -0.483023 -0.688686 -0.682949 -0.826835 -0.344281 -0.178201 0.123176 -0.64278 -0.360001 -0.635316 0.180882 -0.180842 -0.865919 -0.279402 0.251809 -0.133508 -0.346616 0.120109 0.926161 0.0526148 0.740746 0.308229 0.570282 0.532684 0.35131 0.137803 -0.106401 0.00148372 -0.0922027 -0.47304 -0.100723 -0.270036 -0.463829 -0.781496 0.1241 0.921944 -0.180723 -0.826497 -0.0197736 -0.548672 -0.855779 -0.678706 -0.0832954 -0.344547 0.243349 -0.166774 0.761596 0.969661 0.896268 0.510751 0.784335 0.373556 -0.212302 0.27785 -0.490503 -0.297159 -0.494346 -0.550727 -0.13394 -0.444866 -1.04384 0.428646 0.841024 0.806726 0.585762 0.0289653 -0.199325 -0.0549793 -0.347464 -0.966305 -0.754159 -0.259699 0.0291412 0.0283301 0.671518 0.437776 0.945341 0.116221 0.441912 0.729056 0.684635 -0.143532 -0.109673 -0.249173 0.278938 -0.723071 -0.123709 -0.333149 -0.337279 0.398372 0.793924 0.532566 0.0159983 0.154706 0.167729 -0.485314 -0.187959 -0.274038 -0.414345 0.294681 0.206636 -0.0786957 -0.00329012 0.782016 0.464461 0.157156 0.824795 0.0442953 0.742208 -0.134706 -0.226638 -0.285036 -0.118924 -0.386729 -0.279111 0.243802 -0.223285 0.308437 1.06053 0.836274 0.232608 0.438378 0.456956 -0.594271 -0.302391 -0.366193 0.332546 0.248826 0.425842 0.230949 0.584071 0.567207 0.941771 0.0636375 0.390745 0.332637 0.605078 -0.00189726 0.0282067 0.122673 -0.809875 -0.17397 -0.872886 -1.22559 -0.3453 -0.825832 0.343962 0.292529 0.299101 -0.0457174 0.120171 -0.178948 -0.532312 -0.181872 -0.484237 0.134617 0.0361866 -0.195511 0.0366912 0.227688 0.739341 0.245468 0.992938 0.42471 0.0213362 -0.331169 -0.201102 -0.696197 -0.732715 0.00419263 -0.390899 -0.89724 -0.125953 0.203326 0.243593 0.0613007 -0.119161 -0.167358 -0.0275606 -0.00476619 -0.742672 -0.197529 -0.756627 -0.437582 -0.0327337 0.164563 0.0476226 0.638814 0.401288 0.487923 0.426124 0.67855 -0.382104 -0.387385 -1.40121 -0.869385 -1.1831 -0.838985 -0.353961 -0.308884 -0.634118 0.059667 0.803613 0.074802 -0.459616 -0.620583 -0.577887 -0.643957 -0.26642 -0.753168 0.00446245 -0.168161 -0.209133 0.623417 0.0155144 0.307261 0.401074 0.128709 0.971983 0.505267 0.0182702 -0.926566 -1.3994 -1.35864 -1.03934 -0.371927 -0.10569 -0.0206724 0.097113 0.286459 0.75027 -0.0209001 -0.244819 -0.542705 -0.60012 -0.816926 -0.502337 -0.776069 -0.0726348 -0.458351 -0.15813 0.478278 -0.0607686 0.354565 0.922178 0.0680934 0.0622708 -0.0207428 0.388202 -0.130534 -0.95466 -1.36013 -0.979783 -0.0381919 -0.0553822 -0.698907 0.32115 0.164972 0.183337 -0.203435 0.15685 -1.08444 -0.989481 -0.855754 -0.758547 -0.674795 -0.342263 -0.0338699 -0.215947 0.176934 -0.0197945 0.284565 0.76725 0.418783 0.346831 0.235065 -0.198941 -0.817209 -0.849127 -0.663958 -0.665711 0.031319 -0.599557 -0.466777 -0.359355 -0.0432122 0.0483603 -0.160154 -0.610172 -0.362322 -0.47683 -0.221381 -0.0803597 0.199494 -0.554913 -0.664211 -0.451423 0.140069 0.0680812 0.806858 0.978668 0.0055865 0.930863 0.312617 0.137287 -0.118372 -0.759187 -0.964897 -0.488976 -0.365007 -0.370558 -0.589929 0.0682573 0.030409 -0.229092 -0.347211 -0.426686 -0.391397 -0.448879 -0.226252 0.145128 -0.794897 -0.043453 0.0586646 0.228253 0.230771 0.641496 0.264231 0.296731 0.389018 0.258961 -0.00715858 0.558026 0.101357 -0.448507 -0.100866 -0.0874632 0.0082461 0.352656 0.218611 -0.525731 -0.524536 -0.363706 -0.507358 -0.328104 -0.309309 -0.104523 0.361523 -0.395871 0.0564188 -0.678686 0.124411 0.0596462 0.164875 0.269112 0.435173 0.995331 0.742382 0.472386 0.891544 -0.165729 0.604093 -0.0612749 0.396341 0.0882809 -0.238344 -0.622244 -0.670571 -0.435587 -0.295979 -0.283989 -0.314897 -0.09417 0.135315 0.235223 -0.454899 -0.103296 -0.18308 -0.665774 -0.381343 0.751777 0.176946 0.399163 0.264164 0.242195 0.0950346 0.243754 0.733801 0.149667 0.798787 1.08035 -0.276275 -0.958787 -0.162396 -0.489064 -0.537196 -0.70765 -0.906058 -0.319768 0.21514 0.162698 -0.179211 0.0727985 -0.384601 0.0566905 -0.752258 -0.429794 0.348989 0.522776 0.692159 0.357343 0.353344 0.546342 0.418134 0.733225 0.565553 0.208074 0.347149 -0.00849014 0.18303 -0.185453 -0.588064 -0.535955 -0.811329 -0.107323 0.20321 -0.0510016 0.082461 -0.0325447 0.278272 -0.864491 -0.164043 0.429592 -0.303356 -0.0913898 0.733332 0.823006 0.978573 0.557843 0.0609149 0.395947 0.0609455 0.914772 0.732828 0.653078 0.105902 0.425641 -0.0885423 0.360028 0.00319781 0.0385463 0.481149 0.269707 0.16981 -0.245376 -0.0103741 -0.0602039 0.167915 -0.373613 0.247349 0.628606 0.827994 -0.036267 0.674751 0.558026 0.137339 0.589397 0.644887 0.679617 0.866939 0.236628 0.418789 0.291799 0.306869 0.124018 0.493386 0.49593 0.877183 0.0540011 0.589735 0.659623 0.712484 0.475893 7.30691e-06 0.182592 0.516309 0.551018 0.34669 1.06886 0.937452 0.429214 0.467299 0.583227 0.49022 0.535358 0.456313 0.98468 0.653706 0.010712 0.967774 0.153521 0.532251 0.893218 0.256871 0.46948 0.491328 0.910804 0.260117 0.67195 0.41338 0.518237 -0.0422252 0.927226 0.761508 0.332614 0.847735 0.934121 1.00063 0.212929 0.938372 0.690304 0.67571 0.534196 0.640797 0.365978 0.281503 0.0834376 0.0666524 0.345836 0.13398 0.4575 0.240415 0.744539 0.0141842 0.59151 0.189551 0.579868 1.00124 0.25645 0.0640094 0.657849 0.468063 0.155765 0.181325 0.256113 0.723272 0.267628 0.241499 0.225654 0.470687 0.0199896 0.319132 
0.679464 0.0278939 0.586413 0.923063 0.905606 0.394177 0.878994 0.295083 0.768883 0.680624 0.94763 0.635517 0.113848 0.481286 0.0282296 0.594562 0.429334 0.620289 0.572558 0.807886 0.322947 0.121891 0.170537 0.75396 0.118107 0.275887 0.771905 0.715171 0.0735191 0.488205 0.112217 0.123692 0.475105 0.652849 0.726454 0.014157 0.171627 -0.0159431 0.599741 0.20144 -0.011622 0.00514081 0.557487 0.222356 0.212503 0.306676 0.434816 0.0492348 0.401249 0.227772 -0.00966414 0.163201 0.786279 0.950804 0.355602 0.199438 0.732658 0.719657 0.156407 0.679606 0.0286258 0.466149 0.43094 0.583529 0.279039 0.82917 0.00718931 0.34324 0.315985 0.318587 0.300739 0.351904 0.715878 0.322862 0.187897 0.0244174 0.406025 0.0190698 0.522707 0.5507 0.698068 0.562166 0.772729 0.71807 0.466689 0.849025 0.170366 0.239643 0.0954113 0.254112 -0.0564849 0.435649 0.629241 0.585595 0.149118 0.126335 -0.210603 0.138026 -0.470901 -0.194 0.127341 -0.334807 -0.027196 -0.239096 0.435757 0.1975 0.28902 0.0532131 0.126265 0.239578 0.650445 0.574572 0.239448 0.861324 0.0696106 0.947046 0.09004 0.849108 0.530695 -0.0711667 -0.486999 0.299451 -0.610941 0.308099 -0.460787 0.113034 -0.321749 -0.634192 -0.504157 -0.092614 -0.681519 0.608271 0.496851 0.128249 0.653193 0.194161 0.516969 -0.0292329 0.857478 0.033663 0.230598 0.789178 0.54073 0.867899 0.737504 0.126101 0.0479883 -0.142806 -0.0451683 -0.500522 -0.229345 0.131816 -0.0833917 0.477502 0.189932 -0.0524743 -0.417084 -0.586053 -0.27219 -0.38979 -0.25145 -0.0134679 -0.608534 0.562451 0.519147 0.50975 0.781451 0.718624 0.524613 0.0213486 0.977455 0.581877 0.607697 0.522017 0.206948 0.0824572 -0.137491 -0.59202 -0.328906 -0.627731 -0.125445 -0.46481 -0.728733 -0.287631 -0.210865 -0.0115525 -0.320235 -0.80402 -0.162607 0.122452 0.264852 0.758084 0.0656799 -0.102606 0.309531 0.260802 0.0201524 0.945792 0.476483 0.683125 -0.0100048 0.00980092 0.468486 -0.335178 -0.845721 0.0824127 -0.38036 -0.259627 -0.123916 -0.00121775 -0.984098 -0.451649 -0.753399 -0.280746 -0.2577 -0.135143 -0.38525 -0.0506055 0.531324 0.423092 -0.056388 0.161975 0.605234 0.192668 0.64832 0.658587 0.480166 0.842246 -0.0754982 -0.176898 0.109619 0.457827 -0.285659 0.0021865 -0.0740134 -0.616221 -0.277583 -0.302066 -0.189755 -0.598638 -0.216557 -0.284479 0.604269 0.129667 -0.471909 -0.0733422 0.291448 0.779554 -0.347222 0.136437 0.621121 0.536297 0.534468 0.95293 0.857249 0.567897 -0.191696 0.475995 0.387625 -0.454904 -0.349523 -0.116744 -0.150825 -0.653223 -0.480495 -0.48906 -0.314401 -0.0270081 0.0266054 0.0816915 0.658566 -0.147573 -0.0638105 -0.743049 0.0827357 0.0682058 -0.207278 0.039026 0.116065 0.0227499 0.0727866 0.249246 0.8331 0.199221 0.400601 0.246123 -0.145582 -0.279401 0.189278 0.0297248 0.209829 0.174141 -0.0440405 -0.636961 -0.261222 0.218036 0.487318 0.223534 0.279581 0.311784 -1.03723 -0.153986 -0.534767 -0.225628 -0.731057 -0.603889 -0.0779827 0.457849 0.715812 0.855356 0.146844 0.0270162 0.13883 0.600009 0.0201913 0.0110165 0.158229 0.130482 0.238404 -0.192749 -0.540215 -0.840411 -0.716401 0.0867574 0.202853 0.346089 -0.0222771 -0.00715745 -0.253686 0.116519 0.00905728 -0.256256 -0.66201 -0.197781 0.313851 0.300245 0.363933 0.983388 0.782394 0.633785 0.463096 -0.218965 -0.236329 -0.187717 -0.447072 -0.44302 -0.419335 0.102781 -0.60709 -0.944629 -0.647798 0.181137 0.150716 0.202491 -0.0856966 0.203728 -0.360778 0.249386 0.269578 0.210637 -0.0179396 0.760527 0.481732 0.627303 0.0739158 0.0922911 0.944004 0.0969801 0.575573 -0.250832 -0.709329 0.035854 0.221667 0.0811138 0.253867 0.449895 -0.280817 -0.932315 -0.629186 -0.157773 -0.203295 -0.117019 0.448452 0.261695 0.439937 0.437776 0.266562 -0.0066302 0.144551 0.427702 0.918417 0.76241 0.138249 0.00866638 0.549408 0.0479815 0.942221 -0.135867 0.229831 0.195485 -0.378478 -0.0114512 0.409608 0.287237 -0.476278 0.0569184 -0.959294 -0.938994 -0.11984 0.362721 0.365857 0.0139514 -0.298175 -0.561547 -0.516666 -0.0846844 -0.235362 0.557305 0.76617 0.858817 0.13538 0.16228 0.383295 0.35102 0.0555015 0.357532 0.171739 0.171607 -0.194601 -0.16783 0.224221 0.188695 -0.697452 0.0250735 0.0568834 0.335166 0.26602 0.28133 0.0180111 -0.486768 -0.39716 -1.08828 -0.971647 -0.271208 -0.323331 0.598403 0.725802 0.572012 0.0443739 0.591552 0.934181 0.169108 0.300282 0.423666 -0.25581 -0.119211 0.377538 0.313482 -0.0418044 -0.534951 0.0462982 -0.542501 0.139174 0.54879 0.269822 0.00815628 -0.796714 -0.851359 -0.559288 0.0293673 -0.509903 -0.560526 -0.314881 0.923717 0.861934 0.992 0.0176702 0.995055 0.115475 0.159046 -0.420544 -0.245167 -0.00416249 -0.0144692 -0.233345 -0.198466 0.252497 0.318765 0.23939 0.599858 0.3797 0.547341 0.449373 0.127673 -0.894477 -1.22071 -0.739652 -0.832973 -0.398279 -0.446329 -0.0975502 0.215075 1.00795 0.096287 0.90718 0.553847 0.664275 0.18434 0.183563 -0.245626 -0.514807 -0.617883 -0.455672 0.0522628 -0.109125 -0.217839 0.131971 0.293289 0.265666 -0.026767 -0.599791 -0.95289 -0.67785 -0.515679 -0.238852 -0.647393 -0.740987 -0.632104 -0.0285734 0.573764 0.116658 0.23972 0.128391 0.691132 0.726929 -0.0774381 -0.38975 -0.374447 -0.0542449 -0.0845832 -0.551334 0.268906 -0.603825 -0.479605 -0.420061 -0.30966 -0.0879559 -0.524149 -1.06874 -1.45237 -0.986203 -1.28066 -0.521948 -0.881175 -0.698375 -0.245819 0.0278476 0.959958 0.0398896 0.11612 0.983093 0.517013 0.510351 0.58267 0.00487299 0.147451 -0.42729 -0.783942 -0.989537 -1.37686 -0.328285 -0.647984 -0.530412 -0.682399 -0.990681 -0.892662 -0.910293 -0.51265 -0.905087 -0.34443 -0.638913 -0.507575 -0.612991 -0.000369383 0.628964 0.624703 0.167598 0.4271 0.989624 0.168224 -0.0149355 0.526647 -0.0325157 -0.235872 0.193547 -0.482579 -0.365722 -0.147358 -0.64626 -0.675438 -0.765884 -0.940788 -1.29584 -0.784929 -0.396689 -0.398024 -0.540251 -0.355019 -0.43194 -0.167229 0.0948366 0.246483 0.619588 0.672492 0.366947 0.631802 0.359508 0.779077 -0.0175388 0.160629 -0.252182 0.283005 0.254837 -0.763822 -0.725615 -0.62355 -0.718777 -0.546949 -0.594202 -0.825758 -0.373503 -0.302253 0.0597907 -0.357212 -0.690031 -0.827041 -0.233388 -0.473353 0.408093 0.128181 0.405078 0.345041 0.833133 0.505453 0.186895 0.27839 0.562337 0.156418 -0.149695 -0.519726 0.0317155 -0.170538 0.0151184 -0.342791 -0.800491 -0.712331 0.257224 0.16425 0.100512 -0.456795 0.292538 -0.314848 -0.491257 -0.200603 0.0565397 0.795274 0.311197 0.733551 0.405257 0.662155 0.457973 0.439344 0.453841 0.753044 0.887815 0.457819 -0.424367 0.147918 -0.352428 -0.154665 0.337584 -0.671911 -0.273928 0.523007 0.34528 -0.44679 -0.0112298 0.568422 -0.0827409 -0.0578325 0.328586 0.175145 0.716327 1.06262 0.223683 0.932414 0.829245 0.705236 0.509003 0.925108 0.443678 0.58095 0.613955 0.0946823 0.579225 0.579136 0.829198 0.333418 -0.0323096 0.271222 0.184842 0.123445 -0.0859344 0.236711 0.426112 -0.1639 0.411385 0.356968 0.713937 0.26459 0.708479 0.420323 0.181536 0.232167 0.752075 0.019758 0.804826 0.207129 0.656575 0.0600909 0.939146 0.497948 0.359747 0.446107 0.321967 0.0549793 0.681784 0.928059 0.520474 0.634619 0.61739 0.790708 1.02401 0.235891 0.276815 0.0899314 0.472018 0.581548 0.950308 0.408157 0.447061 0.138427 0.756008 0.448073 0.471847 0.571337 0.82046 0.750267 0.46968 0.66335 0.891354 0.685961 0.646932 0.873219 0.878988 0.0744669 0.137547 0.409177 0.016368 0.650832 0.909585 0.158615 0.975038 0.425824 0.784996 0.739184 0.873019 0.582274 0.636324 0.807423 0.804285 0.212256 0.401898 0.236183 
0.0917081 0.246223 0.730186 0.603442 0.00592059 0.238838 0.197058 0.917417 0.773553 0.246925 0.92169 0.452193 0.16064 0.563288 0.363781 0.967589 0.0229804 0.146428 0.736595 0.0959197 0.0949431 0.967681 0.93701 0.176244 0.787805 0.152379 0.399854 0.316752 0.0389111 0.601642 0.781945 0.967376 0.73753 0.432087 0.896711 0.816067 0.265405 0.97338 0.698921 0.0695252 0.286042 0.0387891 0.0806478 0.552634 0.608452 0.1417 0.715691 0.768863 0.722265 0.553193 0.108654 0.0211924 0.968261 0.317637 0.305826 0.829249 0.503525 0.121647 0.720542 0.935391 0.648153 0.776138 0.126577 0.180422 0.670445 0.472517 0.907662 0.521947 0.854636 0.803329 0.459985 0.796236 0.36828 0.226728 0.614984 0.297515 0.646118 1.07112 0.498076 0.239258 0.945191 0.614669 0.949034 0.205573 0.931303 0.74395 0.408134 0.398181 0.161557 0.30756 0.527982 0.368704 0.972299 0.438799 0.702635 1.10706 0.767612 0.68734 0.840901 0.877778 0.163784 0.172033 0.566189 -0.0975521 -0.0994865 0.916759 0.411983 0.818108 0.390013 0.67056 0.272183 0.286599 0.268197 0.725791 0.28689 0.872198 0.619436 0.759141 0.436652 0.921984 0.727508 0.0758731 0.409508 0.0998294 0.717867 0.469248 -0.00317968 0.372014 0.519456 0.413523 0.149578 -0.200076 0.646727 0.0487552 -0.210208 0.54526 -0.162532 0.777613 0.477673 0.264528 0.0144353 0.85699 0.620418 0.112497 0.0561758 1.09127 0.215978 -0.0185381 0.481567 0.260989 0.230742 -0.150495 0.406968 0.34506 0.852348 0.285421 0.3779 0.27418 -0.27783 0.373653 0.0428843 -0.575905 -0.663489 -0.0289823 -0.127455 0.255026 0.554515 0.529585 0.530595 0.916888 0.977074 0.204715 0.676759 0.347943 0.136523 0.131724 0.122703 -0.345758 -0.271792 -0.923561 -0.0170434 -0.594265 -1.00492 -0.602515 -0.274986 -0.932004 -0.91539 -0.870151 -0.581569 -0.522681 0.117369 -0.0413067 0.62557 0.0187655 0.928134 0.929862 0.189153 0.595763 0.403817 0.555309 0.0561713 0.588681 0.0881583 -0.592018 -1.00387 -0.431065 -0.834337 -0.408449 -0.548435 -1.04664 -0.845219 -0.877324 -0.992361 -0.86638 -0.684453 -0.319199 -0.903419 -0.324761 0.587514 -0.204436 0.617124 -0.0255978 0.82091 0.324022 0.46947 0.588121 0.866351 0.0141991 0.629096 0.446698 0.261627 0.422928 -0.677158 -1.08274 -0.277242 -0.974056 -1.16853 -0.294848 -0.918586 -1.17925 -0.945343 -1.50225 -0.178079 -0.645621 -1.02786 -0.603145 0.00130284 0.23908 -0.0499263 0.436587 0.75803 0.0986987 0.564419 0.0915132 0.801421 0.563992 0.090837 0.351942 -0.257486 0.325845 -0.45024 -0.109914 -0.378493 -0.737631 -0.736424 -0.724612 -0.664594 -0.112689 -0.0966038 -1.0345 0.0230705 -0.632507 -0.620211 -0.352563 -0.39144 -0.233131 -0.394108 -0.29567 0.217735 0.228475 0.666799 0.491605 -0.0301849 0.130049 -0.291429 0.630758 -0.594101 -0.30118 -0.0468384 -0.691112 -0.320456 -1.03973 -1.18224 -0.646299 0.0645114 -0.452653 -0.368947 -0.0769976 0.349675 0.0835887 -0.567459 -0.811623 0.0748397 -0.631358 -0.42286 -0.0347288 0.234984 0.864117 0.406446 0.192726 0.583532 0.445107 -0.159165 -0.131737 -0.785766 -0.475274 -0.471535 -0.484028 -1.03885 -1.02101 -0.888409 -1.01394 -0.702001 -0.518528 -0.244275 -0.50104 -0.445 -0.138035 -0.689285 -0.203323 -0.450728 -0.302122 -0.0230391 0.33487 0.653727 0.967716 0.654225 0.754922 0.0667494 0.374508 -0.230123 -0.296873 -0.967338 -1.01398 -1.16489 -0.523934 -0.800744 -0.121389 -0.362064 -0.411425 0.0763917 -0.0982081 -0.173847 -0.368749 -0.189311 -0.108573 -0.745694 -0.14618 -0.0595156 0.820891 0.633594 0.502403 0.452363 0.742879 0.213111 0.118899 -0.00833123 -0.457737 -0.583318 -0.664877 -1.05861 -0.94779 -1.15336 -0.222333 0.106609 0.699548 0.401362 -0.306732 -0.443267 -0.252155 0.156535 1.00918 -0.109027 0.0567072 -0.475121 -0.254933 -0.317559 0.34125 0.807246 0.700985 0.832419 0.702896 0.51503 0.905583 0.178169 -0.197449 -0.295819 -0.547156 -0.494147 -0.312922 -0.51299 -0.0719919 -0.125012 0.628274 0.349462 0.486464 -0.130408 -0.101583 -0.363571 0.0799788 -0.172351 -0.164289 -0.781219 -1.0635 -0.868543 -0.0133212 0.0977634 1.01839 0.561603 0.65454 0.913053 0.932067 0.128152 0.256314 -0.0449174 0.0408501 -0.399999 -0.800323 -0.576409 -0.129249 -0.275881 -0.142842 0.364556 0.146756 1.03554 -0.41159 -0.221744 -0.404641 -0.663392 -0.289078 -0.327745 -0.663417 -0.295709 0.0475554 0.600055 0.770487 0.552256 0.526098 0.663259 0.615663 0.474665 0.799725 0.0824371 0.377121 -0.193075 -0.564713 -0.627258 0.294017 0.40394 0.556103 0.66964 0.695279 0.809389 -0.121361 0.547528 -0.55894 -0.387987 -0.859571 -0.523371 -0.476472 0.0057174 -0.168735 0.536311 1.07852 0.553706 0.566861 0.189856 0.566439 0.275659 1.00642 1.02185 0.591252 0.187882 -0.446436 0.178445 -0.0247699 0.474686 0.557611 0.557531 0.208323 -0.035351 0.357006 0.787518 -0.339913 -0.578415 -0.691852 -0.464577 0.351786 0.0869892 0.567611 -0.163811 1.14534 0.712994 0.13896 0.724414 0.03793 0.32827 1.05976 0.555061 0.442689 0.385296 -0.386356 -0.219296 0.137748 0.318885 -0.673335 0.576748 0.271112 0.093197 -0.264652 -0.138395 -0.757827 -0.229278 -0.708661 0.0300734 -0.0914608 -0.12598 0.472588 0.52335 1.10035 0.359434 0.304402 0.931455 0.453529 0.685185 0.396927 0.781207 0.725242 -0.41042 -0.250024 -0.202536 -0.0570333 -0.0594383 0.207146 -0.171274 0.0627124 -0.044492 -0.157601 -0.286964 -0.616741 -0.259271 -0.489973 -0.102199 0.203524 0.373518 0.531026 0.320797 0.0575745 0.927024 0.754825 0.559893 0.777596 0.271356 0.118269 0.660719 0.413525 0.0430529 0.975036 -0.267524 0.231505 0.142255 0.047094 -0.128052 -0.646399 -0.370085 -0.576308 -0.525777 -0.673913 0.16322 0.433715 0.179087 -0.211527 0.124703 0.8565 0.40603 1.0365 1.02568 0.0110779 0.804102 0.845662 -0.119103 0.00358669 0.317278 0.36185 0.601059 0.0717814 -0.507414 -0.0566958 -0.458545 -0.559554 -0.227865 -0.242183 -0.219395 -0.278512 0.00347378 0.533017 0.086549 0.0951611 0.386156 0.141912 0.14513 0.374858 0.837071 0.196837 0.0514301 0.561497 0.378185 0.49382 0.684393 0.700758 0.659509 0.365043 0.535388 0.0636157 -0.0586035 -0.496638 -0.410731 -0.345818 -0.416051 -0.334724 -0.285167 0.160647 0.421337 0.205338 -0.24237 0.452918 0.111599 0.901067 -0.162591 0.742897 0.740275 0.482519 0.566619 0.0175296 0.95175 0.649037 0.824242 0.0600933 -0.100317 0.188371 0.0471797 -0.492401 -0.464494 -0.697856 -0.571083 -0.530239 0.217531 0.610453 0.547746 0.439606 -0.00301555 0.0840422 0.53085 1.04168 0.898477 0.412723 0.879082 0.25319 0.78039 0.585362 0.190313 0.130192 0.0221564 0.0705588 0.0658048 0.312416 0.158201 -0.292697 -0.614878 -0.453406 0.314683 0.0666099 -0.0195744 0.0348398 0.633101 0.339953 0.473667 0.281698 0.909602 0.0983175 0.188977 0.617796 0.246492 0.244544 0.231639 0.928138 1.07051 0.949789 0.261576 0.106082 0.820276 0.0126347 0.675154 0.707313 0.494479 0.745467 0.133775 0.305643 -0.0407049 0.285449 0.26094 0.279826 0.390384 0.29217 0.582366 -0.158029 0.44562 0.382774 0.249925 0.271134 -0.317146 0.519882 0.016453 -0.0317112 0.701505 0.250493 0.730961 0.222144 0.342998 0.501602 0.0263375 0.258276 0.210466 0.636521 0.121638 0.734214 0.559197 -0.0506579 0.592899 0.619104 0.0185394 0.0263728 0.0105343 -0.209985 0.560318 0.152873 -0.217054 0.28834 -0.00920192 -0.120709 0.859395 0.591383 0.647916 0.421949 0.240974 0.199377 0.106601 0.451064 0.478591 0.935423 0.280282 0.599105 0.582114 0.300086 0.123923 0.119291 0.756256 0.883007 0.199303 0.546662 0.414931 0.795019 0.0233884 0.416594 0.577631 0.0331229 0.162263 0.0672876 0.0326637 0.335556 0.463698 0.297922 0.492386 0.305246 
0.714469 0.333628 0.265236 0.614277 0.10181 0.636402 0.737785 0.727897 0.145878 0.413862 0.482955 0.839808 0.0255519 0.331142 0.350444 0.321238 0.372448 0.812006 0.762291 0.459578 0.1583 0.885189 0.150792 0.76867 0.910489 0.279733 0.945738 0.653371 0.833033 0.62804 0.0159917 0.708213 0.0371352 0.41106 0.963165 0.408979 0.512196 0.650083 0.242567 0.642273 0.0254032 0.816292 0.308417 0.313752 0.606564 0.24425 0.035514 0.473958 0.712927 0.023984 0.482558 0.908437 0.585894 0.135685 0.127537 0.66924 0.669637 0.76043 0.807398 0.42275 0.664335 0.105205 0.49728 -0.000141041 0.121966 0.0404621 -0.00976843 0.6292 0.267346 0.268893 0.0520039 -0.130405 0.701773 0.291228 0.568734 0.259978 0.0426554 0.0298136 0.633323 0.306922 0.70803 0.0294611 0.388012 0.19068 0.546281 0.758599 0.0753073 0.393145 0.746975 0.945074 0.808256 0.520708 0.524776 0.683069 0.275586 0.747551 0.348064 0.231936 0.0789039 0.0321133 -0.206629 -0.00628326 0.548554 0.106275 0.566709 0.457498 0.325246 0.960099 0.536497 0.0196345 0.459943 0.17188 0.662557 0.337687 0.232535 0.17784 0.416019 0.354539 -0.132473 -0.204573 -0.0143008 0.305846 -0.299022 0.284984 0.0168788 -0.271544 -0.723506 -0.177412 -0.154752 0.326574 0.144182 0.18912 0.443442 0.434811 0.693366 0.884692 0.311343 0.575912 0.655336 0.458628 0.641957 0.636555 0.278504 0.649501 0.548467 0.191817 0.742436 0.557277 -0.100127 -0.292984 0.00618711 -0.277643 -0.370712 -0.234476 -0.101544 -0.0606329 -0.261021 -0.159128 -0.112615 0.131628 0.0557846 -0.106933 0.633598 0.759287 0.775161 0.26767 0.0515572 0.610694 0.955077 0.322979 0.642346 0.07467 0.249509 0.568638 0.191922 -0.274824 -0.162237 -0.366723 -0.323397 -0.144563 -0.803355 -0.231575 -0.900081 -0.825482 -0.555105 -0.495166 -1.04158 -0.0519557 -0.193088 0.174875 0.795718 0.923559 0.844756 1.17203 0.552106 0.222388 0.813485 0.288122 0.394308 0.03214 -0.185784 -0.16558 0.376553 0.36002 -0.0897494 -0.0359782 -0.354211 -0.424908 -0.594149 -0.845027 -0.87827 -0.941439 -1.18894 -0.0161255 -0.113778 -0.178889 -0.472984 -0.0876935 0.37167 1.23451 0.683485 0.880258 0.92765 0.72644 0.629022 0.623726 0.762352 0.346349 -0.21762 0.3981 0.122777 -0.015369 -0.44856 -0.663461 -0.537503 -0.20186 -0.644819 -0.702572 -0.975749 -0.889466 -0.960536 -0.518582 0.126934 -0.303686 -0.170522 -0.0657604 0.112013 0.678478 1.4177 1.28873 0.207272 0.134488 0.626738 0.224401 0.990127 0.917268 0.326664 0.293802 -0.115499 -0.145474 -0.112143 -0.488059 -0.827055 -0.739784 -0.299153 -0.807925 -0.685542 -0.714631 0.0938609 -0.380238 -0.0997982 0.0108998 -0.223309 -0.176475 -5.20489e-05 0.694291 1.1059 0.745648 1.08471 0.777388 0.720176 0.458459 0.0915251 0.785991 -0.188103 -0.563603 -0.961015 -0.490409 -0.148486 -0.344103 0.0195914 -0.419233 -0.275304 0.0834666 0.00927574 0.216352 -0.12927 -0.263404 -0.117782 -0.483835 -0.62144 -0.693383 -0.469193 0.0534544 0.8734 1.12427 0.896528 0.247193 0.218818 0.41236 0.0378774 0.448965 0.415564 -0.0211611 -0.528985 -0.194821 -0.0600006 0.0057203 -0.040399 0.240082 -0.103183 -0.000503779 -0.539884 -0.132988 0.187869 0.125963 -0.606455 -0.487562 -1.52601 -0.996146 -1.43095 -0.381605 -0.331889 0.640985 0.635914 0.887799 0.485549 0.434292 0.464035 -0.110027 -0.228514 -0.469793 0.22719 -0.253396 -0.142674 -0.17405 0.583837 0.712275 0.474824 -0.121495 0.0970597 0.289933 0.0499811 -0.150189 -0.563599 -0.455338 -1.21235 -1.53521 -1.33216 -1.25395 -0.280453 -0.0608504 0.124188 0.969858 0.122379 0.755854 0.813447 0.367143 0.164122 -0.0640091 0.384548 0.36224 0.0132861 0.410553 0.0885072 0.572807 0.612179 -0.273722 -0.781999 -0.14632 -0.482015 -0.0115271 0.436583 -0.206714 -0.349281 -0.665487 -0.588443 -0.767825 -0.538529 -0.262816 0.0897487 0.745569 0.7846 0.578389 0.574826 0.376732 0.402185 0.106897 -0.414971 -0.058834 -0.110794 0.464623 0.390506 0.25889 0.379566 -0.478413 -0.204775 -0.406808 -0.0562716 -0.133084 -0.0395436 0.138783 -0.228837 -0.146443 0.0171347 0.145195 -0.0308039 0.0540025 0.272914 0.866763 0.215094 0.242708 0.442776 0.321528 -0.163446 -0.196154 -0.482013 -0.340215 -0.0292988 0.323829 0.209995 0.00776252 0.0242856 -0.276361 0.303031 -0.199497 0.0986366 -0.368288 0.0665826 -0.263857 -0.236522 -0.131212 0.0765034 -0.0558404 0.0242454 0.440246 0.418377 0.430624 0.593585 0.585485 1.0081 0.799268 0.0290455 -0.375747 -0.238799 -0.483018 -0.86382 -0.304662 -0.045816 -0.293279 -0.230988 0.113761 0.22527 0.391535 -0.216482 -0.298807 -0.0789877 0.0957378 0.0801915 0.296265 -0.00078576 0.182301 0.0116321 0.192597 -0.192671 0.788337 0.793603 0.618379 0.0583738 0.95467 -0.00841789 0.42763 -0.0978355 -0.36353 -0.325203 -0.744073 -0.681007 -0.755866 -0.227665 -0.397994 0.221782 0.257405 0.268379 0.421479 0.0487871 -0.551789 -0.112511 -0.110547 -0.0772429 0.743455 -0.233149 0.0739945 0.768629 0.0808769 0.639744 0.0377714 0.49553 0.764441 0.665953 0.0203423 0.260876 -0.660897 -0.332024 -0.535792 -0.80899 -0.547197 -0.547748 0.102984 0.142633 0.282371 0.0486836 -0.214373 -0.805979 -0.473451 -0.20346 -0.487773 -0.404952 -0.0397564 -0.182405 0.413043 0.439265 0.159416 0.772912 0.0519357 0.869556 0.596115 0.608707 0.325413 -0.0506085 -0.0544966 -0.35777 -0.277943 -0.356597 -0.439115 -0.503882 -0.404439 0.421301 -0.212878 -0.404704 -0.421679 -0.423818 -0.179127 -0.0101505 0.0113749 -0.0236846 0.441313 0.556525 -0.0681106 0.535524 0.954804 0.173528 0.154947 0.840924 0.16791 0.169451 0.149906 0.115146 -0.937481 -0.155957 -0.312645 -0.455683 0.0593 -0.920572 -0.326852 -0.662235 -0.767293 -0.229413 -0.0937896 0.220047 0.0848498 -0.488553 -0.160943 -0.11891 -0.375446 0.562688 0.44125 0.655098 0.00741348 0.0104068 0.964973 0.647094 0.26278 0.670185 0.638859 0.182455 -0.209201 0.268316 -0.650419 -0.0115875 -0.480797 -0.0358819 -0.469521 -0.255172 -0.0618064 0.344899 0.356102 -0.346387 0.17634 0.0929015 0.293209 -0.0719696 0.00508799 0.236859 -0.119665 0.566741 0.718722 0.834284 0.0374157 0.410152 1.00953 0.698018 0.15732 -0.180082 -0.675393 -0.66153 -0.262546 -0.388907 -0.0883255 -0.365992 -0.683075 0.0179149 0.0593128 0.174429 0.114413 -0.137224 -0.0548226 0.041311 0.406974 -0.30173 0.68962 -0.0416317 0.133583 0.554073 0.595787 0.755364 0.692984 -0.105586 0.21766 0.406346 0.556908 0.223826 0.26843 -0.107652 0.16792 -0.435706 -0.249612 -0.0874328 -0.181846 -0.156469 -0.0278508 0.343121 -0.00911562 0.0776746 0.182387 0.188015 -0.0683903 0.0173602 0.257301 0.182237 0.92702 0.0256566 0.449965 0.682852 0.674001 0.159508 0.426214 0.385413 0.216031 -0.225216 0.330431 0.573698 0.525044 0.246027 0.673812 0.234718 0.255203 0.474317 -0.00997099 -0.166991 0.147453 0.388563 -0.237148 0.352345 0.444402 0.659025 0.325088 0.337224 0.95555 0.771167 0.0604877 0.222846 0.827815 0.700109 0.653013 0.873524 0.79294 0.446865 0.951638 0.747522 0.550131 0.614527 0.557779 0.559783 0.518178 0.216926 -0.0405392 0.0541699 -0.199879 0.149077 0.0109444 0.617557 0.0387012 0.193053 0.426708 0.90155 0.672404 0.112657 0.250435 0.328013 0.532212 0.391766 0.548548 0.909407 0.644737 0.196361 0.15364 0.265424 0.337612 0.025815 0.0923643 -0.177098 0.255222 0.0184857 -0.34568 0.441379 -0.234296 0.356514 0.259823 0.7907 0.402523 -0.000560987 0.0127844 0.728913 0.931669 0.620014 0.845851 0.293161 0.0838954 0.291482 0.495224 0.206885 0.196317 0.0703206 0.732002 0.782993 0.93355 0.308157 0.47281 0.379037 0.56009 0.153538 -0.0383544 0.0932814 0.359475 0.834157 0.273198 0.0188962 0.111758 0.608158 0.204597 0.111515 0.910978 0.0225837 0.489242 
0.190161 0.768883 0.536546 0.577136 0.359661 0.993927 0.561296 0.70217 0.49028 0.77456 0.633534 0.448256 0.743036 0.343846 0.283822 0.925169 0.200262 0.855464 0.715293 0.358257 0.165746 0.822443 0.249153 0.375988 0.483139 0.0731834 0.944823 0.775323 0.336009 0.832789 0.299478 0.0474563 0.801923 0.714278 0.420465 0.41193 0.729827 0.54156 0.652588 0.815257 0.373933 0.702417 0.920575 0.35013 0.867952 0.69937 0.740649 0.480174 0.135837 0.80633 0.558772 0.358904 0.139653 0.810022 0.886837 0.677511 0.888058 0.0707114 0.893643 0.369644 0.430357 0.302525 0.423149 0.322125 0.690447 0.215632 0.608459 -0.0511445 0.11417 -0.231058 0.656991 0.229447 -0.0537447 0.105228 0.748768 0.0494709 0.631637 -0.0361872 0.000186561 0.548257 0.345446 0.372289 0.288095 0.734428 0.159642 0.255013 0.365327 0.813466 0.685031 0.128641 0.865897 -0.0308805 0.284437 -0.0583555 -0.0184471 -0.082837 -0.548528 0.303395 -0.180265 0.22595 0.414438 -0.0861563 0.11063 0.018635 0.276916 0.964415 0.30303 0.170589 0.692103 0.377412 0.00553245 0.964782 0.750542 0.119205 0.41582 0.0813493 0.60514 0.16218 0.512201 0.363708 -0.426904 0.118292 -0.323607 0.313976 0.561838 0.241523 0.361933 0.344705 0.623373 0.00555463 0.0427767 0.878491 0.386398 0.362337 0.594013 0.263513 0.901154 0.56355 0.13623 0.974428 0.0851466 0.117862 0.99332 0.841302 0.88498 0.061644 -0.166915 0.225694 -0.496095 0.0583354 -0.180547 -0.0530911 0.481658 0.649662 0.61608 -0.0353449 0.0483717 -0.0171458 -0.585164 0.0144646 0.355858 -0.921742 -0.370898 -0.104863 0.996166 0.583137 0.199423 0.250824 0.4532 0.68034 0.421355 0.802042 -0.305977 0.195053 0.144042 -0.0632098 -0.193499 0.129122 -0.438871 -0.0781426 0.273849 -0.0976824 -0.496727 -0.0667323 0.0859243 -0.483281 -0.461278 -0.0815649 -0.115385 -0.843546 0.244112 0.435203 0.568771 0.647801 0.0524528 0.0119305 0.145635 0.176747 0.329746 0.217304 0.376529 -0.163189 -0.503358 -0.632454 -0.93685 -0.0948275 -0.518284 -0.126398 -0.180503 0.00358465 -0.650472 0.0421056 0.234678 -0.516328 -0.0127769 -0.764134 -0.377868 -0.0358047 -0.0796768 0.800637 1.18708 0.700603 0.9521 0.975847 0.77921 0.309631 0.431115 0.184337 -0.873823 0.505647 -0.126052 0.447888 -0.885799 -0.531724 -0.0957687 -0.187058 -0.760472 0.227701 -0.449986 -0.667673 -0.75941 -0.918337 0.699958 -0.302146 -0.305403 0.0943009 0.422735 0.975224 1.08573 0.78201 1.04261 0.471256 0.410505 0.19226 0.148122 0.796937 -0.255411 -0.141323 0.843056 0.0541753 0.267622 0.222785 0.427821 -0.380857 -0.746196 -1.00458 -0.331654 0.00739044 -0.994413 -0.832288 0.00102656 -0.306228 -0.739372 -0.426126 0.163024 0.831633 0.829954 0.938265 0.725888 0.409441 0.511093 0.733649 0.235947 0.462489 -0.306269 -0.309958 0.321515 0.704556 0.417716 0.269694 0.0778396 -0.273126 0.129409 0.178239 0.433989 -0.398223 -0.718919 -0.358444 -0.15749 0.0619058 -0.600824 0.200043 0.466532 0.203649 0.767312 1.33586 0.429625 0.561266 0.434584 0.614832 0.716061 0.191611 0.215225 0.286157 0.0965095 0.548528 0.701626 0.51798 0.553228 -0.0239002 -0.100104 0.156208 0.487546 0.0221802 -0.612328 -0.17753 -0.242165 -0.237746 -0.687594 -0.372139 0.386385 0.537616 0.447255 1.50688 1.17565 0.734905 0.432081 0.72701 -0.121702 -0.148047 0.182174 0.515052 0.149659 0.205861 -0.844195 -0.108894 0.00754896 -0.180177 -0.247055 0.115423 0.791311 -0.00768202 0.241908 0.312972 -0.526727 0.244736 -0.673353 -0.450936 -0.460741 0.137426 -0.170405 0.282842 1.07129 0.700983 0.832453 0.858231 0.399567 0.322442 -0.000601478 -0.0183258 0.119027 -0.253391 -0.418401 -0.0886389 0.136018 0.507371 0.521329 -0.149971 -0.159165 -0.0697979 -0.305229 0.49226 0.295598 0.0975275 0.0436082 -0.43285 -0.342739 -0.538443 -0.343124 0.610456 0.146519 0.532413 0.47322 0.851209 0.120913 0.221132 0.644747 -0.197724 -0.683839 -0.921393 -1.04536 -0.666073 0.0251633 0.49052 0.192932 0.25443 0.0328525 -0.419536 -0.361994 0.345309 0.0627782 -0.190677 -0.53112 -0.429957 -1.13867 -0.28679 -0.255738 -0.131712 0.00397019 0.544578 0.977538 0.146769 0.313669 0.544699 -0.074969 -0.140335 -0.519307 -0.873625 -0.898035 -0.333366 0.06423 -0.330582 -0.143024 0.133288 -0.209373 -0.108956 -0.288569 -0.41986 -0.00356982 -0.141339 -0.76243 -0.486134 -0.694608 -0.372465 -0.422239 0.394573 -0.00507175 0.312309 0.97 0.479944 0.330685 0.0299282 -0.0265141 -0.189599 -0.751746 -0.773803 -0.519484 -0.375234 -0.467273 0.236111 0.584005 0.325351 -0.353618 -0.0449177 0.00835205 -0.597994 -0.623906 -1.04413 -0.687988 -0.955694 -0.583021 -0.706122 -0.516506 0.291511 0.211533 -0.000150457 0.826411 0.0569635 0.108907 0.249283 0.434975 0.612133 -0.0805627 -0.546072 -0.243852 0.0814637 -0.068115 0.0510297 -0.180426 -0.0171065 -0.643606 0.243634 0.748273 -0.575018 -0.613378 -1.13445 -0.408587 -0.584438 -0.31195 -0.0649837 -0.13984 0.314847 0.232768 0.0372024 0.0485745 0.761644 0.364051 0.864103 0.483778 0.163417 0.206914 -0.950938 -0.44 -0.181023 -0.359632 -0.0789757 -0.123399 -0.243359 0.0717692 -0.948462 -0.665762 -0.88432 -1.16212 -0.169759 -0.0747925 -0.0712833 -0.195226 -0.394361 -0.434088 0.298399 0.645152 0.133033 0.868007 0.737201 0.643772 0.006512 0.237238 0.232313 0.284854 -0.0138842 -0.165732 -0.297095 -0.163612 -0.48414 0.261477 -0.573263 -0.837936 -0.913653 -1.2338 -0.717115 -0.999611 -0.191255 -0.222274 -0.390068 -0.23257 0.502377 0.492792 0.435937 0.495286 0.807312 0.144292 0.0806019 0.191907 0.468671 0.537192 0.355757 0.530423 -0.0774993 -0.453299 -0.312853 -0.260233 -0.699725 -0.894936 -0.798426 -0.985614 -1.06195 -1.02458 -0.907894 -0.231545 -0.374433 -0.253744 -0.306163 0.0836508 -0.337809 0.239336 0.204449 0.097377 0.228875 0.197851 0.664634 0.288746 0.261837 0.377479 0.662177 0.694847 0.585409 0.0447892 -0.793297 -0.708255 -1.05916 -0.538591 -0.603365 -0.975677 -0.360455 -0.926007 -0.190411 -1.0804 -0.301271 0.226283 0.359416 0.423858 -0.00336668 0.49875 0.278134 0.696423 0.98133 0.625172 0.124058 0.280869 0.241367 0.190186 -0.130411 -0.167473 -0.793415 -0.479861 -1.00497 -1.03568 -0.302558 -0.879846 -0.336438 -0.311627 0.343077 -0.0446052 0.215232 -0.629544 -0.247589 0.157803 -0.166695 0.0586129 0.845955 0.227993 0.960432 0.419598 0.877344 0.717246 0.957823 0.111805 0.962616 0.571859 0.108543 -0.69314 -0.836063 -0.11682 -1.22185 -0.457606 -0.520493 0.376045 0.985172 0.646732 -0.167272 0.421497 -0.112637 -0.433848 0.152941 -0.217639 0.613986 0.416347 1.02469 0.945199 0.677692 0.449499 0.865444 0.566668 0.577227 0.939944 0.963006 -0.297226 -0.479606 0.165698 -0.273816 0.100554 0.284613 0.406287 0.692424 0.628121 0.658346 0.711112 0.837831 1.1558 0.340797 0.891642 0.834191 0.600645 0.441884 0.382764 0.527781 0.869217 0.761304 0.345621 0.530045 0.457442 0.514512 0.507367 0.497372 0.736401 0.366521 0.516992 0.612164 0.777277 0.346772 0.674103 0.369439 0.91942 0.247465 0.620889 0.738412 0.657581 1.03992 0.499789 1.14025 0.592225 0.194323 0.91175 0.497517 0.0809344 0.791096 0.726502 0.128941 0.632038 0.496872 0.781549 0.785634 0.229818 0.106089 0.235022 0.987011 0.539437 0.87105 0.306162 0.318696 0.873505 0.693575 0.249904 0.790186 0.781167 0.965123 0.860013 0.0524521 0.143867 0.969775 0.874868 0.96976 0.0291141 0.289895 0.451888 0.638142 0.0289926 0.608539 0.310404 0.292978 0.351726 0.842986 0.807627 0.801315 0.166354 0.690732 0.671197 0.853099 0.0614923 0.649249 0.0789975 0.510611 0.711082 0.664569 0.775786 0.204151 0.885146 0.875031 -0.000984213 0.28027 0.172979 0.682119 0.381848 0.776482 
0.27988 1.29172 1.88774 -2.69748 2.98256 -1.77693 0.363725 -1.05616 -0.773695 -1.20838 
-0.694018 0.0982951 -2.18697 -1.01894 0.447523 4.48937 -0.17497 0.414223 0.312281 -0.465676 
-0.0227007 2.48483 -1.22407 0.813113 -0.428705 -1.46465 0.225888 2.92524 -1.74411 -1.55371 
-1.72327 1.78965 2.03548 -0.0448775 -2.12656 0.611863 -2.02917 0.496313 1.55774 0.0632349 
-1.74491 -1.99284 -0.507566 0.857987 0.366499 -0.470437 2.48541 0.341914 1.97755 -0.554628 
0.210685 1.11798 -1.07536 -0.137252 0.986493 -0.846686 -2.14903 -1.50795 2.37793 1.79384 
-0.247803 -1.83961 -1.5108 1.37496 3.28452 0.767085 -0.933325 1.71636 -0.367591 -2.38317 
1.04685 0.307671 1.68563 1.63182 -1.62479 1.24124 1.888 -2.15384 -0.796536 -1.07392 
0.100208 -0.487143 -1.35339 -1.66476 0.0611231 -0.0337063 0.253104 0.491182 -0.386779 2.15829 
-2.6823 -0.129366 0.553907 1.10128 -0.299503 0.89653 2.49452 -2.012 -0.841859 0.811743 
-2.37255 -2.49642 -2.32641 -2.34693 -2.47275 -2.30338 -2.51379 -4.02173 -2.0629 -2.79664 0.502457 0.546617 0.56444 0.895444 0.742698 0.199194 0.777825 0.868923 0.600574 0.43318 0.225135 0.362285 0.764885 0.555803 0.364116 0.364147 0.684408 0.477035 0.195807 0.178533 0.0255745 0.96173 0.63332 0.943693 0.241493 0.547533 0.872463 0.144719 0.158391 0.410504 0.920835 0.652028 0.986114 0.958892 0.941099 0.315867 0.658437 0.436567 0.565111 0.649434 0.90997 0.318003 0.835017 0.630421 0.995453 0.774957 0.927305 0.153478 0.457991 0.99704 0.316691 0.164129 0.852321 0.646779 0.535539 0.00540178 0.829249 0.230995 0.184942 0.00903348 0.488113 0.669179 0.354656 0.861538 0.402478 0.840541 0.106784 0.777306 0.226508 0.390667 0.1807 0.00952177 0.287118 0.579485 0.574572 0.730125 0.0690939 0.451155 0.160344 0.810114 0.998932 0.107608 0.988037 0.531663 0.433576 0.367046 0.435591 0.763115 0.260781 0.588153 0.861202 0.627918 0.0169683 0.941679 0.913144 0.199164 0.928617 0.910611 0.154576 0.25071 0.784143 0.300058 0.158971 0.595996 0.0419019 0.538224 0.7322 0.0464492 0.0808435 0.549455 0.418043 0.519791 0.999817 0.980956 0.943388 0.33021 0.872158 0.0642109 0.758538 0.191595 0.861599 0.892697 0.330058 0.964537 0.105594 0.39613 0.341533 0.678884 0.772698 0.794275 0.458724 0.863277 0.199683 0.809503 0.815668 0.711783 0.515366 0.421033 0.877407 0.12064 0.65685 0.441237 0.83636 0.124546 0.184484 0.695364 0.197668 0.76513 0.802087 0.0861538 0.710654 0.921995 0.988311 0.324503 0.301798 0.138188 0.645863 0.607105 0.16654 0.970824 0.174261 0.023072 0.674734 0.898404 0.872829 0.97 0.247597 0.316111 0.0798059 0.360912 0.86108 0.650227 0.954649 0.90408 0.332499 0.122715 0.308115 0.235511 0.0470595 0.197943 0.388623 0.187048 0.279489 0.241646 0.0288705 0.969817 0.767907 0.424604 0.0608234 0.555284 0.695975 0.401379 0.404065 0.0347911 0.739402 0.795862 0.734428 0.238838 0.333048 0.0244758 0.138829 0.397229 0.815241 0.488937 0.662893 0.121769 0.604999 0.668844 0.157109 0.492264 0.0689413 0.146489 0.328349 0.527268 0.233863 0.0941496 0.402509 0.821039 0.00100711 0.255593 0.304849 0.627583 0.018952 0.953276 0.764122 0.173376 0.870693 0.151524 0.246681 0.479568 0.731376 0.108585 0.127201 0.475539 0.153264 0.646779 0.00158696 0.6845 0.133549 0.573687 0.549028 0.262703 0.121982 0.28489 0.849025 0.673452 0.123814 0.0793786 0.559648 0.776849 0.555101 0.219367 0.863552 0.617267 0.00585955 0.265328 0.587664 0.689077 0.567919 0.717704 0.403027 0.961943 0.883297 0.496475 0.511032 0.447584 0.56972 0.290048 0.721976 0.588519 0.179205 0.3043 0.332774 0.250252 0.346019 0.443403 0.709677 0.598498 0.280648 0.453413 0.981964 0.64217 0.265389 0.0602435 0.753746 0.723777 0.308267 0.632801 0.239174 0.738365 0.61156 0.402722 0.72808 0.36198 0.0106815 0.772301 0.787591 0.0714743 0.040437 0.741234 0.106449 0.236457 0.784143 0.984008 0.388501 0.0644856 0.162236 0.608631 0.200598 0.6816 0.81695 0.128636 0.182379 0.128178 0.248329 0.678915 0.523515 0.552843 0.359081 0.00704978 0.114444 0.384014 0.0634175 0.27134 0.277749 0.761986 0.116764 0.17655 0.485427 0.011536 0.822535 0.47908 0.968871 0.437117 0.771844 0.392254 0.627583 0.22129 0.272988 0.923368 0.143315 0.708121 0.626423 0.673635 0.705161 0.852382 0.901639 0.132206 0.252205 0.116398 0.372387 0.995819 0.640461 0.595019 0.266488 0.544481 0.639241 0.650441 0.985961 0.605976 0.164434 0.838282 0.454268 0.138615 0.654042 0.405622 0.747093 0.964934 0.992615 0.142796 0.661977 0.686728 0.890652 0.869716 0.384198 0.313242 0.125645 0.338389 0.904202 0.63332 0.550462 0.832698 0.343547 0.862911 0.27546 0.24659 0.845088 0.599384 0.930906 0.922147 0.183874 0.613575 0.415632 0.0285043 0.755272 0.511124 0.0383007 0.763329 0.0957976 0.794031 0.457442 0.157353 0.594043 0.353984 0.326548 0.764306 0.546525 0.928617 0.0505997 0.0161138 0.216285 0.551592 0.560106 0.52617 0.0491653 0.528581 0.508957 0.120243 0.704672 0.969451 0.802393 0.87814 0.0574969 0.408521 0.861324 0.965331 0.82635 0.544053 0.529099 0.537736 0.985321 0.627857 0.027253 0.499588 0.615314 0.53679 0.86639 0.396008 0.350993 0.0570391 0.117924 0.221809 0.0793481 0.412641 0.954222 0.427503 0.0471206 0.569201 0.861721 0.903775 0.0319834 0.344371 0.434645 0.225654 0.735008 0.85638 0.155065 0.938017 0.0495621 0.341227 0.065096 0.162755 0.363994 0.870968 0.738456 0.310373 0.55324 0.00286874 0.456618 0.175237 0.81637 0.892178 0.996857 0.197851 0.0161138 0.898434 0.937162 0.173711 0.676534 0.217444 0.885708 0.191107 0.295145 0.570147 0.539842 0.07828 0.125767 0.478774 0.98175 0.142064 0.08829 0.162603 0.116337 0.4785 0.961699 0.584094 0.658589 0.63683 0.516434 0.676382 0.575091 0.918699 0.742729 0.283853 0.387738 0.0929289 0.8305 0.847011 0.244484 0.808039 0.057741 0.362255 0.16419 0.482498 0.243355 0.648946 0.361339 0.955748 0.92053 0.453719 0.0573138 0.679403 0.887112 0.424482 0.684042 0.731223 0.289315 0.484329 0.886593 0.432295 0.894803 0.637562 0.230811 0.849208 0.711356 0.738182 0.0223395 0.962035 0.607685 0.252754 0.143101 0.77987 0.092349 0.548784 0.311716 0.184454 0.907163 0.739189 0.673849 0.784082 0.591174 0.615497 0.129185 0.558031 0.671804 0.699362 0.300607 0.573565 0.639149 0.944975 0.552538 0.556413 0.359447 0.123051 0.96408 0.595935 0.0847804 0.417493 0.663594 0.766259 0.714164 0.266396 0.431104 0.944945 0.46324 0.978423 0.973998 0.609729 0.598285 0.155614 0.783258 0.895596 0.390851 0.454512 0.97589 0.692251 0.949522 0.715964 0.0298166 0.064333 0.0846278 0.995544 0.817866 0.775079 0.862819 0.525651 0.8464 0.194281 0.00683615 0.140416 0.105655 0.373089 0.797662 0.194769 0.437788 0.565203 0.634541 0.508835 0.827998 0.977325 0.909787 0.369152 0.526688 0.0287484 0.354015 0.117557 0.407208 0.902615 0.508499 0.359355 0.466628 0.668691 0.480514 0.321818 0.875179 0.760369 0.638508 0.394421 0.480544 0.0859401 0.402539 0.381787 0.174017 0.556169 0.787072 0.500992 0.0237434 0.308908 0.851558 0.653981 0.582049 0.412397 0.715903 0.00698874 0.272561 0.328379 0.296365 0.407575 0.264229 0.915922 0.418378 0.670766 0.737266 0.257881 0.462813 0.265847 0.948332 0.0906705 0.201453 0.434706 0.000579852 0.118778 0.97824 0.272744 0.725333 0.995483 0.892636 0.804468 0.58092 0.250496 0.140934 0.584002 0.975585 0.946562 0.172185 0.852626 0.920591 0.34547 0.814783 0.783776 0.419294 0.365246 0.0299997 0.847713 0.499191 0.109531 0.448775 0.825983 0.292428 0.250587 0.347758 0.508072 0.0717795 0.546983 0.221442 0.600604 0.647542 0.277169 0.605823 0.880825 0.0322581 0.870693 0.310526 0.125309 0.779412 0.517502 0.715384 0.845668 0.901639 0.0372936 0.287454 0.361675 0.775933 0.789911 0.975433 0.243934 0.94113 0.907498 0.63683 0.656667 0.193915 0.631031 0.15482 0.632313 0.890713 0.0308847 0.400952 0.808985 0.859828 0.893674 0.699332 0.661946 0.83227 0.0564287 0.949492 0.760582 0.795495 0.969237 0.0634785 0.0821253 0.177831 0.767449 0.873836 0.913022 0.26899 0.635426 0.167974 0.369457 0.783013 0.741844 0.00671407 0.0687277 0.970428 0.529099 0.981353 0.981567 0.185064 0.637196 0.56682 0.997742 0.312632 0.24366 0.227058 0.235939 0.966399 0.100955 0.428114 0.628742 0.857082 0.0519425 0.215827 0.814203 0.242653 0.305643 
-0.0398618 0.137251 0.15457 0.0252201 0.0398832 0.187552 -0.0166322 0.125213 -0.0565235 0.0501493 
